<?xml version="1.0" encoding="ISO-8859-1"?>
<smile version="1.0" id="Network2" numsamples="1234">
<nodes>
<cpt id="pai_1">
<state id="s50"/>
<state id="s60"/>
<state id="s70"/>
<state id="s80"/>
<state id="s90"/>
<parents></parents>
<probabilities>0.19895183760116758 0.20134005572508956 0.20014594666312857 0.20054398301711557 0.19901817699349875</probabilities>
</cpt>
<cpt id="h_1">
<state id="s3"/>
<state id="s4"/>
<state id="s5"/>
<state id="s10"/>
<state id="s11"/>
<state id="s12"/>
<state id="s15"/>
<state id="s16"/>
<state id="s17"/>
<parents>pai_1 </parents>
<probabilities>0.11402925531914894 0.10704787234042554 0.10871010638297872 0.1110372340425532 0.11303191489361702 0.10837765957446809 0.11203457446808511 0.11236702127659574 0.11336436170212766 0.10775295663600526 0.11300919842312747 0.1080814717477004 0.11235216819973719 0.1107095926412615 0.11530880420499343 0.10643889618922471 0.1116951379763469 0.11465177398160316 0.11500330469266358 0.11830799735624586 0.12062128222075347 0.10971579643093192 0.1047587574355585 0.10740251156642432 0.10541969596827495 0.11467283542630535 0.10409781890284203 0.11477572559366754 0.11873350923482849 0.10751978891820581 0.112467018469657 0.10356200527704486 0.11180738786279683 0.11114775725593667 0.10883905013192612 0.11114775725593667 0.11232967763376538 0.11133266866068461 0.11133266866068461 0.1100033233632436 0.11465603190428714 0.11232967763376538 0.11166500498504486 0.10800930541708209 0.10834164174144234</probabilities>
</cpt>
<cpt id="increm_cost_z">
<state id="s0"/>
<state id="s10"/>
<state id="s20"/>
<state id="s30"/>
<state id="s40"/>
<state id="s50"/>
<state id="s60"/>
<state id="s70"/>
<state id="s80"/>
<state id="s90"/>
<parents>h_1 </parents>
<probabilities>0.09590643274853801 0.09239766081871345 0.09298245614035087 0.11461988304093568 0.09590643274853801 0.1064327485380117 0.1111111111111111 0.10175438596491228 0.09883040935672514 0.09005847953216374 0.095707656612529 0.0951276102088167 0.10266821345707657 0.10730858468677494 0.08874709976798144 0.10150812064965198 0.10266821345707657 0.10266821345707657 0.10208816705336426 0.10150812064965198 0.10669828097213989 0.11381149970361588 0.1037344398340249 0.09247184350918791 0.0972139893301719 0.1019561351511559 0.0989922940130409 0.1049199762892709 0.09662122110254891 0.08358032009484291 0.08486646884272997 0.09851632047477744 0.10029673590504451 0.09198813056379822 0.10207715133531158 0.09792284866468842 0.11750741839762611 0.09792284866468842 0.11810089020771514 0.09080118694362017 0.09348612786489746 0.10615199034981906 0.10253317249698432 0.109167671893848 0.10253317249698432 0.11459589867310012 0.08202653799758745 0.09227985524728588 0.10796139927623644 0.08926417370325694 0.09560570071258907 0.10332541567695962 0.09501187648456057 0.11163895486935867 0.10807600950118765 0.09144893111638955 0.09026128266033254 0.10273159144893111 0.1003562945368171 0.10154394299287411 0.11218335343787696 0.10313630880579011 0.1037394451145959 0.10615199034981906 0.09469240048250904 0.09408926417370325 0.10494571773220748 0.08624849215922799 0.10193003618817853 0.09288299155609167 0.09970326409495549 0.09614243323442137 0.10741839762611276 0.10029673590504451 0.08605341246290801 0.09495548961424333 0.11394658753709198 0.10207715133531158 0.1026706231454006 0.09673590504451039 0.10699342498505679 0.10101613867304243 0.09384339509862523 0.10101613867304243 0.09563658099222953 0.09922295277943813 0.09563658099222953 0.09623430962343096 0.100418410041841 0.10998206814106395</probabilities>
</cpt>
<cpt id="c_z_ratio_quantiled">
<state id="s0_2"/>
<state id="s0_3"/>
<state id="s0_5"/>
<state id="s1_0"/>
<parents>increm_cost_z h_1 </parents>
<probabilities>0.1317365269461078 0.005988023952095809 0.005988023952095809 0.8562874251497006 0.13690476190476192 0.005952380952380952 0.005952380952380952 0.8511904761904762 0.10382513661202186 0.00546448087431694 0.00546448087431694 0.8852459016393442 0.07534246575342465 0.00684931506849315 0.00684931506849315 0.910958904109589 0.10126582278481013 0.006329113924050633 0.006329113924050633 0.8860759493670886 0.10365853658536585 0.006097560975609756 0.006097560975609756 0.8841463414634146 0.10052910052910052 0.005291005291005291 0.005291005291005291 0.8888888888888888 0.09941520467836257 0.005847953216374269 0.005847953216374269 0.8888888888888888 0.10989010989010989 0.005494505494505495 0.005494505494505495 0.8791208791208791 0.06832298136645963 0.09316770186335403 0.08695652173913043 0.7515527950310559 0.11976047904191617 0.08982035928143713 0.059880239520958084 0.7305389221556886 0.13846153846153847 0.08205128205128205 0.11282051282051282 0.6666666666666666 0.08875739644970414 0.11834319526627218 0.07692307692307693 0.7159763313609467 0.1005586592178771 0.09497206703910614 0.09497206703910614 0.7094972067039106 0.062146892655367235 0.11864406779661017 0.10734463276836158 0.711864406779661 0.09195402298850575 0.1781609195402299 0.08620689655172414 0.6436781609195402 0.06060606060606061 0.10909090909090909 0.07878787878787878 0.7515151515151515 0.12209302325581395 0.09302325581395349 0.16279069767441862 0.622093023255814 0.06790123456790123 0.18518518518518517 0.2222222222222222 0.5246913580246914 0.1 0.18333333333333332 0.25 0.4666666666666667 0.10112359550561797 0.23595505617977527 0.1404494382022472 0.5224719101123596 0.11627906976744186 0.22093023255813954 0.18023255813953487 0.48255813953488375 0.08092485549132948 0.17341040462427745 0.24855491329479767 0.49710982658959535 0.10429447852760736 0.24539877300613497 0.1901840490797546 0.4601226993865031 0.06857142857142857 0.17142857142857143 0.24571428571428572 0.5142857142857142 0.09782608695652174 0.1956521739130435 0.2391304347826087 0.4673913043478261 0.1 0.1875 0.2625 0.45 0.18090452261306533 0.15577889447236182 0.35175879396984927 0.31155778894472363 0.20212765957446807 0.21808510638297873 0.3191489361702128 0.26063829787234044 0.1509433962264151 0.22012578616352202 0.33962264150943394 0.2893081761006289 0.17721518987341772 0.1962025316455696 0.27848101265822783 0.34810126582278483 0.22282608695652173 0.15217391304347827 0.30978260869565216 0.31521739130434784 0.15706806282722513 0.24607329842931938 0.2879581151832461 0.3089005235602094 0.16201117318435754 0.16759776536312848 0.3128491620111732 0.3575418994413408 0.19767441860465115 0.20930232558139536 0.3546511627906977 0.23837209302325582 0.1744186046511628 0.2558139534883721 0.29651162790697677 0.27325581395348836 0.20359281437125748 0.32934131736526945 0.46107784431137727 0.005988023952095809 0.19230769230769232 0.26282051282051283 0.5384615384615384 0.00641025641025641 0.16167664670658682 0.31736526946107785 0.5149700598802395 0.005988023952095809 0.21714285714285714 0.2742857142857143 0.5028571428571429 0.005714285714285714 0.1907514450867052 0.28901734104046245 0.5144508670520231 0.005780346820809248 0.21621621621621623 0.2756756756756757 0.5027027027027027 0.005405405405405406 0.25 0.29375 0.45 0.00625 0.20270270270270271 0.34459459459459457 0.44594594594594594 0.006756756756756757 0.22699386503067484 0.27607361963190186 0.49079754601226994 0.006134969325153374 0.31891891891891894 0.2648648648648649 0.41081081081081083 0.005405405405405406 0.24719101123595505 0.3089887640449438 0.43820224719101125 0.0056179775280898875 0.22857142857142856 0.38857142857142857 0.37714285714285717 0.005714285714285714 0.31547619047619047 0.2976190476190476 0.38095238095238093 0.005952380952380952 0.32642487046632124 0.3160621761658031 0.35233160621761656 0.0051813471502590676 0.267515923566879 0.37579617834394907 0.3503184713375796 0.006369426751592357 0.2578616352201258 0.3018867924528302 0.4339622641509434 0.006289308176100629 0.2822085889570552 0.27607361963190186 0.43558282208588955 0.006134969325153374 0.28402366863905326 0.3431952662721893 0.3668639053254438 0.005917159763313609 0.2849740932642487 0.36787564766839376 0.34196891191709844 0.0051813471502590676 0.36666666666666664 0.37777777777777777 0.25 0.005555555555555556 0.25882352941176473 0.4294117647058823 0.3058823529411765 0.0058823529411764705 0.27860696517412936 0.39303482587064675 0.32338308457711445 0.004975124378109453 0.30935251798561153 0.4172661870503597 0.26618705035971224 0.007194244604316547 0.2967741935483871 0.432258064516129 0.2645161290322581 0.0064516129032258064 0.3559322033898305 0.3672316384180791 0.2711864406779661 0.005649717514124294 0.26153846153846155 0.46153846153846156 0.2717948717948718 0.005128205128205128 0.3006134969325153 0.3803680981595092 0.3128834355828221 0.006134969325153374 0.4689265536723164 0.2937853107344633 0.23163841807909605 0.005649717514124294 0.39444444444444443 0.3333333333333333 0.26666666666666666 0.005555555555555556 0.3888888888888889 0.35 0.25555555555555554 0.005555555555555556 0.36904761904761907 0.3869047619047619 0.23809523809523808 0.005952380952380952 0.44871794871794873 0.3782051282051282 0.16666666666666666 0.00641025641025641 0.42045454545454547 0.3806818181818182 0.19318181818181818 0.005681818181818182 0.3424657534246575 0.4178082191780822 0.2328767123287671 0.00684931506849315 0.37142857142857144 0.38285714285714284 0.24 0.005714285714285714 0.42073170731707316 0.42073170731707316 0.1524390243902439 0.006097560975609756 0.45348837209302323 0.45348837209302323 0.0872093023255814 0.005813953488372093 0.4301675977653631 0.4692737430167598 0.09497206703910614 0.00558659217877095 0.3253012048192771 0.5662650602409639 0.10240963855421686 0.006024096385542169 0.42574257425742573 0.4752475247524752 0.09405940594059406 0.0049504950495049506 0.32967032967032966 0.5769230769230769 0.08791208791208792 0.005494505494505495 0.4127906976744186 0.5232558139534884 0.05813953488372093 0.005813953488372093 0.4418604651162791 0.436046511627907 0.11627906976744186 0.005813953488372093 0.4375 0.44886363636363635 0.10795454545454546 0.005681818181818182 0.38596491228070173 0.4853801169590643 0.12280701754385964 0.005847953216374269 0.40764331210191085 0.5796178343949044 0.006369426751592357 0.006369426751592357 0.3651685393258427 0.6235955056179775 0.0056179775280898875 0.0056179775280898875 0.4236111111111111 0.5625 0.006944444444444444 0.006944444444444444 0.46153846153846156 0.5256410256410257 0.00641025641025641 0.00641025641025641 0.39072847682119205 0.5960264900662252 0.006622516556291391 0.006622516556291391 0.3735632183908046 0.6149425287356322 0.005747126436781609 0.005747126436781609 0.39490445859872614 0.5923566878980892 0.006369426751592357 0.006369426751592357 0.40963855421686746 0.5783132530120482 0.006024096385542169 0.006024096385542169 0.3582887700534759 0.6310160427807486 0.0053475935828877 0.0053475935828877</probabilities>
</cpt>
<cpt id="ship_cost_c">
<state id="s0"/>
<state id="s5"/>
<state id="s10"/>
<state id="s15"/>
<state id="s20"/>
<state id="s25"/>
<state id="s30"/>
<state id="s35"/>
<state id="s40"/>
<state id="s45"/>
<parents>c_z_ratio_quantiled increm_cost_z h_1 </parents>
<probabilities>0.7096774193548387 0.03225806451612903 0.03225806451612903 0.03225806451612903 0.03225806451612903 0.03225806451612903 0.03225806451612903 0.03225806451612903 0.03225806451612903 0.03225806451612903 0.71875 0.03125 0.03125 0.03125 0.03125 0.03125 0.03125 0.03125 0.03125 0.03125 0.6785714285714286 0.03571428571428571 0.03571428571428571 0.03571428571428571 0.03571428571428571 0.03571428571428571 0.03571428571428571 0.03571428571428571 0.03571428571428571 0.03571428571428571 0.55 0.05 0.05 0.05 0.05 0.05 0.05 0.05 0.05 0.05 0.64 0.04 0.04 0.04 0.04 0.04 0.04 0.04 0.04 0.04 0.6538461538461539 0.038461538461538464 0.038461538461538464 0.038461538461538464 0.038461538461538464 0.038461538461538464 0.038461538461538464 0.038461538461538464 0.038461538461538464 0.038461538461538464 0.6785714285714286 0.03571428571428571 0.03571428571428571 0.03571428571428571 0.03571428571428571 0.03571428571428571 0.03571428571428571 0.03571428571428571 0.03571428571428571 0.03571428571428571 0.6538461538461539 0.038461538461538464 0.038461538461538464 0.038461538461538464 0.038461538461538464 0.038461538461538464 0.038461538461538464 0.038461538461538464 0.038461538461538464 0.038461538461538464 0.6896551724137931 0.034482758620689655 0.034482758620689655 0.034482758620689655 0.034482758620689655 0.034482758620689655 0.034482758620689655 0.034482758620689655 0.034482758620689655 0.034482758620689655 0.55 0.05 0.05 0.05 0.05 0.05 0.05 0.05 0.05 0.05 0.6896551724137931 0.034482758620689655 0.034482758620689655 0.034482758620689655 0.034482758620689655 0.034482758620689655 0.034482758620689655 0.034482758620689655 0.034482758620689655 0.034482758620689655 0.75 0.027777777777777776 0.027777777777777776 0.027777777777777776 0.027777777777777776 0.027777777777777776 0.027777777777777776 0.027777777777777776 0.027777777777777776 0.027777777777777776 0.625 0.041666666666666664 0.041666666666666664 0.041666666666666664 0.041666666666666664 0.041666666666666664 0.041666666666666664 0.041666666666666664 0.041666666666666664 0.041666666666666664 0.6666666666666666 0.037037037037037035 0.037037037037037035 0.037037037037037035 0.037037037037037035 0.037037037037037035 0.037037037037037035 0.037037037037037035 0.037037037037037035 0.037037037037037035 0.55 0.05 0.05 0.05 0.05 0.05 0.05 0.05 0.05 0.05 0.64 0.04 0.04 0.04 0.04 0.04 0.04 0.04 0.04 0.04 0.5263157894736842 0.05263157894736842 0.05263157894736842 0.05263157894736842 0.05263157894736842 0.05263157894736842 0.05263157894736842 0.05263157894736842 0.05263157894736842 0.05263157894736842 0.7 0.03333333333333333 0.03333333333333333 0.03333333333333333 0.03333333333333333 0.03333333333333333 0.03333333333333333 0.03333333333333333 0.03333333333333333 0.03333333333333333 0.55 0.05 0.05 0.05 0.05 0.05 0.05 0.05 0.05 0.05 0.6666666666666666 0.037037037037037035 0.037037037037037035 0.037037037037037035 0.037037037037037035 0.037037037037037035 0.037037037037037035 0.037037037037037035 0.037037037037037035 0.037037037037037035 0.6666666666666666 0.037037037037037035 0.037037037037037035 0.037037037037037035 0.037037037037037035 0.037037037037037035 0.037037037037037035 0.037037037037037035 0.037037037037037035 0.037037037037037035 0.6896551724137931 0.034482758620689655 0.034482758620689655 0.034482758620689655 0.034482758620689655 0.034482758620689655 0.034482758620689655 0.034482758620689655 0.034482758620689655 0.034482758620689655 0.6086956521739131 0.043478260869565216 0.043478260869565216 0.043478260869565216 0.043478260869565216 0.043478260869565216 0.043478260869565216 0.043478260869565216 0.043478260869565216 0.043478260869565216 0.6538461538461539 0.038461538461538464 0.038461538461538464 0.038461538461538464 0.038461538461538464 0.038461538461538464 0.038461538461538464 0.038461538461538464 0.038461538461538464 0.038461538461538464 0.5714285714285714 0.047619047619047616 0.047619047619047616 0.047619047619047616 0.047619047619047616 0.047619047619047616 0.047619047619047616 0.047619047619047616 0.047619047619047616 0.047619047619047616 0.6666666666666666 0.037037037037037035 0.037037037037037035 0.037037037037037035 0.037037037037037035 0.037037037037037035 0.037037037037037035 0.037037037037037035 0.037037037037037035 0.037037037037037035 0.64 0.04 0.04 0.04 0.04 0.04 0.04 0.04 0.04 0.04 0.5111111111111111 0.3111111111111111 0.022222222222222223 0.022222222222222223 0.022222222222222223 0.022222222222222223 0.022222222222222223 0.022222222222222223 0.022222222222222223 0.022222222222222223 0.46808510638297873 0.3617021276595745 0.02127659574468085 0.02127659574468085 0.02127659574468085 0.02127659574468085 0.02127659574468085 0.02127659574468085 0.02127659574468085 0.02127659574468085 0.30303030303030304 0.45454545454545453 0.030303030303030304 0.030303030303030304 0.030303030303030304 0.030303030303030304 0.030303030303030304 0.030303030303030304 0.030303030303030304 0.030303030303030304 0.35135135135135137 0.43243243243243246 0.02702702702702703 0.02702702702702703 0.02702702702702703 0.02702702702702703 0.02702702702702703 0.02702702702702703 0.02702702702702703 0.02702702702702703 0.34 0.5 0.02 0.02 0.02 0.02 0.02 0.02 0.02 0.02 0.5128205128205128 0.28205128205128205 0.02564102564102564 0.02564102564102564 0.02564102564102564 0.02564102564102564 0.02564102564102564 0.02564102564102564 0.02564102564102564 0.02564102564102564 0.23684210526315788 0.5526315789473685 0.02631578947368421 0.02631578947368421 0.02631578947368421 0.02631578947368421 0.02631578947368421 0.02631578947368421 0.02631578947368421 0.02631578947368421 0.3953488372093023 0.4186046511627907 0.023255813953488372 0.023255813953488372 0.023255813953488372 0.023255813953488372 0.023255813953488372 0.023255813953488372 0.023255813953488372 0.023255813953488372 0.4358974358974359 0.358974358974359 0.02564102564102564 0.02564102564102564 0.02564102564102564 0.02564102564102564 0.02564102564102564 0.02564102564102564 0.02564102564102564 0.02564102564102564 0.4186046511627907 0.3953488372093023 0.023255813953488372 0.023255813953488372 0.023255813953488372 0.023255813953488372 0.023255813953488372 0.023255813953488372 0.023255813953488372 0.023255813953488372 0.41025641025641024 0.38461538461538464 0.02564102564102564 0.02564102564102564 0.02564102564102564 0.02564102564102564 0.02564102564102564 0.02564102564102564 0.02564102564102564 0.02564102564102564 0.4444444444444444 0.3333333333333333 0.027777777777777776 0.027777777777777776 0.027777777777777776 0.027777777777777776 0.027777777777777776 0.027777777777777776 0.027777777777777776 0.027777777777777776 0.3404255319148936 0.48936170212765956 0.02127659574468085 0.02127659574468085 0.02127659574468085 0.02127659574468085 0.02127659574468085 0.02127659574468085 0.02127659574468085 0.02127659574468085 0.5 0.30952380952380953 0.023809523809523808 0.023809523809523808 0.023809523809523808 0.023809523809523808 0.023809523809523808 0.023809523809523808 0.023809523809523808 0.023809523809523808 0.5102040816326531 0.32653061224489793 0.02040816326530612 0.02040816326530612 0.02040816326530612 0.02040816326530612 0.02040816326530612 0.02040816326530612 0.02040816326530612 0.02040816326530612 0.40816326530612246 0.42857142857142855 0.02040816326530612 0.02040816326530612 0.02040816326530612 0.02040816326530612 0.02040816326530612 0.02040816326530612 0.02040816326530612 0.02040816326530612 0.41025641025641024 0.38461538461538464 0.02564102564102564 0.02564102564102564 0.02564102564102564 0.02564102564102564 0.02564102564102564 0.02564102564102564 0.02564102564102564 0.02564102564102564 0.3695652173913043 0.45652173913043476 0.021739130434782608 0.021739130434782608 0.021739130434782608 0.021739130434782608 0.021739130434782608 0.021739130434782608 0.021739130434782608 0.021739130434782608 0.22058823529411764 0.3235294117647059 0.35294117647058826 0.014705882352941176 0.014705882352941176 0.014705882352941176 0.014705882352941176 0.014705882352941176 0.014705882352941176 0.014705882352941176 0.3018867924528302 0.2641509433962264 0.3018867924528302 0.018867924528301886 0.018867924528301886 0.018867924528301886 0.018867924528301886 0.018867924528301886 0.018867924528301886 0.018867924528301886 0.3673469387755102 0.24489795918367346 0.24489795918367346 0.02040816326530612 0.02040816326530612 0.02040816326530612 0.02040816326530612 0.02040816326530612 0.02040816326530612 0.02040816326530612 0.3064516129032258 0.1935483870967742 0.3870967741935484 0.016129032258064516 0.016129032258064516 0.016129032258064516 0.016129032258064516 0.016129032258064516 0.016129032258064516 0.016129032258064516 0.3194444444444444 0.3333333333333333 0.25 0.013888888888888888 0.013888888888888888 0.013888888888888888 0.013888888888888888 0.013888888888888888 0.013888888888888888 0.013888888888888888 0.13725490196078433 0.3137254901960784 0.4117647058823529 0.0196078431372549 0.0196078431372549 0.0196078431372549 0.0196078431372549 0.0196078431372549 0.0196078431372549 0.0196078431372549 0.28 0.36 0.22 0.02 0.02 0.02 0.02 0.02 0.02 0.02 0.2 0.45454545454545453 0.21818181818181817 0.01818181818181818 0.01818181818181818 0.01818181818181818 0.01818181818181818 0.01818181818181818 0.01818181818181818 0.01818181818181818 0.3157894736842105 0.22807017543859648 0.3333333333333333 0.017543859649122806 0.017543859649122806 0.017543859649122806 0.017543859649122806 0.017543859649122806 0.017543859649122806 0.017543859649122806 0.28125 0.40625 0.203125 0.015625 0.015625 0.015625 0.015625 0.015625 0.015625 0.015625 0.3466666666666667 0.28 0.28 0.013333333333333334 0.013333333333333334 0.013333333333333334 0.013333333333333334 0.013333333333333334 0.013333333333333334 0.013333333333333334 0.20754716981132076 0.3584905660377358 0.3018867924528302 0.018867924528301886 0.018867924528301886 0.018867924528301886 0.018867924528301886 0.018867924528301886 0.018867924528301886 0.018867924528301886 0.26153846153846155 0.3384615384615385 0.2923076923076923 0.015384615384615385 0.015384615384615385 0.015384615384615385 0.015384615384615385 0.015384615384615385 0.015384615384615385 0.015384615384615385 0.2692307692307692 0.3269230769230769 0.2692307692307692 0.019230769230769232 0.019230769230769232 0.019230769230769232 0.019230769230769232 0.019230769230769232 0.019230769230769232 0.019230769230769232 0.2727272727272727 0.21818181818181817 0.38181818181818183 0.01818181818181818 0.01818181818181818 0.01818181818181818 0.01818181818181818 0.01818181818181818 0.01818181818181818 0.01818181818181818 0.375 0.3194444444444444 0.20833333333333334 0.013888888888888888 0.013888888888888888 0.013888888888888888 0.013888888888888888 0.013888888888888888 0.013888888888888888 0.013888888888888888 0.31666666666666665 0.35 0.21666666666666667 0.016666666666666666 0.016666666666666666 0.016666666666666666 0.016666666666666666 0.016666666666666666 0.016666666666666666 0.016666666666666666 0.3793103448275862 0.3103448275862069 0.1896551724137931 0.017241379310344827 0.017241379310344827 0.017241379310344827 0.017241379310344827 0.017241379310344827 0.017241379310344827 0.017241379310344827 0.18478260869565216 0.2608695652173913 0.22826086956521738 0.2608695652173913 0.010869565217391304 0.010869565217391304 0.010869565217391304 0.010869565217391304 0.010869565217391304 0.010869565217391304 0.2375 0.2125 0.275 0.2 0.0125 0.0125 0.0125 0.0125 0.0125 0.0125 0.17721518987341772 0.24050632911392406 0.2911392405063291 0.21518987341772153 0.012658227848101266 0.012658227848101266 0.012658227848101266 0.012658227848101266 0.012658227848101266 0.012658227848101266 0.22535211267605634 0.22535211267605634 0.2112676056338028 0.2535211267605634 0.014084507042253521 0.014084507042253521 0.014084507042253521 0.014084507042253521 0.014084507042253521 0.014084507042253521 0.25316455696202533 0.189873417721519 0.17721518987341772 0.3037974683544304 0.012658227848101266 0.012658227848101266 0.012658227848101266 0.012658227848101266 0.012658227848101266 0.012658227848101266 0.2289156626506024 0.20481927710843373 0.24096385542168675 0.25301204819277107 0.012048192771084338 0.012048192771084338 0.012048192771084338 0.012048192771084338 0.012048192771084338 0.012048192771084338 0.2542372881355932 0.2711864406779661 0.1694915254237288 0.2033898305084746 0.01694915254237288 0.01694915254237288 0.01694915254237288 0.01694915254237288 0.01694915254237288 0.01694915254237288 0.14864864864864866 0.22972972972972974 0.2702702702702703 0.2702702702702703 0.013513513513513514 0.013513513513513514 0.013513513513513514 0.013513513513513514 0.013513513513513514 0.013513513513513514 0.21794871794871795 0.21794871794871795 0.20512820512820512 0.28205128205128205 0.01282051282051282 0.01282051282051282 0.01282051282051282 0.01282051282051282 0.01282051282051282 0.01282051282051282 0.2413793103448276 0.22988505747126436 0.20689655172413793 0.25287356321839083 0.011494252873563218 0.011494252873563218 0.011494252873563218 0.011494252873563218 0.011494252873563218 0.011494252873563218 0.26744186046511625 0.16279069767441862 0.2441860465116279 0.2558139534883721 0.011627906976744186 0.011627906976744186 0.011627906976744186 0.011627906976744186 0.011627906976744186 0.011627906976744186 0.25396825396825395 0.12698412698412698 0.3333333333333333 0.19047619047619047 0.015873015873015872 0.015873015873015872 0.015873015873015872 0.015873015873015872 0.015873015873015872 0.015873015873015872 0.2631578947368421 0.23157894736842105 0.2 0.24210526315789474 0.010526315789473684 0.010526315789473684 0.010526315789473684 0.010526315789473684 0.010526315789473684 0.010526315789473684 0.15942028985507245 0.17391304347826086 0.2028985507246377 0.37681159420289856 0.014492753623188406 0.014492753623188406 0.014492753623188406 0.014492753623188406 0.014492753623188406 0.014492753623188406 0.25 0.2 0.225 0.25 0.0125 0.0125 0.0125 0.0125 0.0125 0.0125 0.21176470588235294 0.27058823529411763 0.21176470588235294 0.23529411764705882 0.011764705882352941 0.011764705882352941 0.011764705882352941 0.011764705882352941 0.011764705882352941 0.011764705882352941 0.19767441860465115 0.22093023255813954 0.2441860465116279 0.26744186046511625 0.011627906976744186 0.011627906976744186 0.011627906976744186 0.011627906976744186 0.011627906976744186 0.011627906976744186 0.24 0.25333333333333335 0.24 0.18666666666666668 0.013333333333333334 0.013333333333333334 0.013333333333333334 0.013333333333333334 0.013333333333333334 0.013333333333333334 0.2054794520547945 0.2602739726027397 0.2328767123287671 0.2191780821917808 0.0136986301369863 0.0136986301369863 0.0136986301369863 0.0136986301369863 0.0136986301369863 0.0136986301369863 0.24324324324324326 0.2702702702702703 0.16216216216216217 0.24324324324324326 0.013513513513513514 0.013513513513513514 0.013513513513513514 0.013513513513513514 0.013513513513513514 0.013513513513513514 0.17142857142857143 0.24285714285714285 0.3 0.2 0.014285714285714285 0.014285714285714285 0.014285714285714285 0.014285714285714285 0.014285714285714285 0.014285714285714285 0.19753086419753085 0.2839506172839506 0.20987654320987653 0.2345679012345679 0.012345679012345678 0.012345679012345678 0.012345679012345678 0.012345679012345678 0.012345679012345678 0.012345679012345678 0.23529411764705882 0.19117647058823528 0.27941176470588236 0.20588235294117646 0.014705882352941176 0.014705882352941176 0.014705882352941176 0.014705882352941176 0.014705882352941176 0.014705882352941176 0.3783783783783784 0.22972972972972974 0.13513513513513514 0.17567567567567569 0.013513513513513514 0.013513513513513514 0.013513513513513514 0.013513513513513514 0.013513513513513514 0.013513513513513514 0.23943661971830985 0.22535211267605634 0.18309859154929578 0.2676056338028169 0.014084507042253521 0.014084507042253521 0.014084507042253521 0.014084507042253521 0.014084507042253521 0.014084507042253521 0.22077922077922077 0.36363636363636365 0.19480519480519481 0.14285714285714285 0.012987012987012988 0.012987012987012988 0.012987012987012988 0.012987012987012988 0.012987012987012988 0.012987012987012988 0.18421052631578946 0.3026315789473684 0.2236842105263158 0.21052631578947367 0.013157894736842105 0.013157894736842105 0.013157894736842105 0.013157894736842105 0.013157894736842105 0.013157894736842105 0.1 0.1 0.1 0.1 0.1 0.1 0.1 0.1 0.1 0.1 0.1 0.1 0.1 0.1 0.1 0.1 0.1 0.1 0.1 0.1 0.1 0.1 0.1 0.1 0.1 0.1 0.1 0.1 0.1 0.1 0.1 0.1 0.1 0.1 0.1 0.1 0.1 0.1 0.1 0.1 0.1 0.1 0.1 0.1 0.1 0.1 0.1 0.1 0.1 0.1 0.1 0.1 0.1 0.1 0.1 0.1 0.1 0.1 0.1 0.1 0.1 0.1 0.1 0.1 0.1 0.1 0.1 0.1 0.1 0.1 0.1 0.1 0.1 0.1 0.1 0.1 0.1 0.1 0.1 0.1 0.1 0.1 0.1 0.1 0.1 0.1 0.1 0.1 0.1 0.1 0.041666666666666664 0.625 0.041666666666666664 0.041666666666666664 0.041666666666666664 0.041666666666666664 0.041666666666666664 0.041666666666666664 0.041666666666666664 0.041666666666666664 0.041666666666666664 0.625 0.041666666666666664 0.041666666666666664 0.041666666666666664 0.041666666666666664 0.041666666666666664 0.041666666666666664 0.041666666666666664 0.041666666666666664 0.04 0.64 0.04 0.04 0.04 0.04 0.04 0.04 0.04 0.04 0.034482758620689655 0.6896551724137931 0.034482758620689655 0.034482758620689655 0.034482758620689655 0.034482758620689655 0.034482758620689655 0.034482758620689655 0.034482758620689655 0.034482758620689655 0.038461538461538464 0.6538461538461539 0.038461538461538464 0.038461538461538464 0.038461538461538464 0.038461538461538464 0.038461538461538464 0.038461538461538464 0.038461538461538464 0.038461538461538464 0.03333333333333333 0.7 0.03333333333333333 0.03333333333333333 0.03333333333333333 0.03333333333333333 0.03333333333333333 0.03333333333333333 0.03333333333333333 0.03333333333333333 0.025 0.775 0.025 0.025 0.025 0.025 0.025 0.025 0.025 0.025 0.037037037037037035 0.6666666666666666 0.037037037037037035 0.037037037037037035 0.037037037037037035 0.037037037037037035 0.037037037037037035 0.037037037037037035 0.037037037037037035 0.037037037037037035 0.04 0.64 0.04 0.04 0.04 0.04 0.04 0.04 0.04 0.04 0.02564102564102564 0.38461538461538464 0.41025641025641024 0.02564102564102564 0.02564102564102564 0.02564102564102564 0.02564102564102564 0.02564102564102564 0.02564102564102564 0.02564102564102564 0.023809523809523808 0.4523809523809524 0.35714285714285715 0.023809523809523808 0.023809523809523808 0.023809523809523808 0.023809523809523808 0.023809523809523808 0.023809523809523808 0.023809523809523808 0.0196078431372549 0.45098039215686275 0.39215686274509803 0.0196078431372549 0.0196078431372549 0.0196078431372549 0.0196078431372549 0.0196078431372549 0.0196078431372549 0.0196078431372549 0.02127659574468085 0.5106382978723404 0.3191489361702128 0.02127659574468085 0.02127659574468085 0.02127659574468085 0.02127659574468085 0.02127659574468085 0.02127659574468085 0.02127659574468085 0.02564102564102564 0.48717948717948717 0.3076923076923077 0.02564102564102564 0.02564102564102564 0.02564102564102564 0.02564102564102564 0.02564102564102564 0.02564102564102564 0.02564102564102564 0.02040816326530612 0.40816326530612246 0.42857142857142855 0.02040816326530612 0.02040816326530612 0.02040816326530612 0.02040816326530612 0.02040816326530612 0.02040816326530612 0.02040816326530612 0.02564102564102564 0.38461538461538464 0.41025641025641024 0.02564102564102564 0.02564102564102564 0.02564102564102564 0.02564102564102564 0.02564102564102564 0.02564102564102564 0.02564102564102564 0.022222222222222223 0.37777777777777777 0.4444444444444444 0.022222222222222223 0.022222222222222223 0.022222222222222223 0.022222222222222223 0.022222222222222223 0.022222222222222223 0.022222222222222223 0.02564102564102564 0.41025641025641024 0.38461538461538464 0.02564102564102564 0.02564102564102564 0.02564102564102564 0.02564102564102564 0.02564102564102564 0.02564102564102564 0.02564102564102564 0.025 0.025 0.425 0.375 0.025 0.025 0.025 0.025 0.025 0.025 0.02 0.02 0.46 0.38 0.02 0.02 0.02 0.02 0.02 0.02 0.022727272727272728 0.022727272727272728 0.45454545454545453 0.36363636363636365 0.022727272727272728 0.022727272727272728 0.022727272727272728 0.022727272727272728 0.022727272727272728 0.022727272727272728 0.025 0.025 0.425 0.375 0.025 0.025 0.025 0.025 0.025 0.025 0.02702702702702703 0.02702702702702703 0.32432432432432434 0.4594594594594595 0.02702702702702703 0.02702702702702703 0.02702702702702703 0.02702702702702703 0.02702702702702703 0.02702702702702703 0.017857142857142856 0.017857142857142856 0.3392857142857143 0.5178571428571429 0.017857142857142856 0.017857142857142856 0.017857142857142856 0.017857142857142856 0.017857142857142856 0.017857142857142856 0.02564102564102564 0.02564102564102564 0.46153846153846156 0.3333333333333333 0.02564102564102564 0.02564102564102564 0.02564102564102564 0.02564102564102564 0.02564102564102564 0.02564102564102564 0.022222222222222223 0.022222222222222223 0.37777777777777777 0.4444444444444444 0.022222222222222223 0.022222222222222223 0.022222222222222223 0.022222222222222223 0.022222222222222223 0.022222222222222223 0.018867924528301886 0.018867924528301886 0.5283018867924528 0.32075471698113206 0.018867924528301886 0.018867924528301886 0.018867924528301886 0.018867924528301886 0.018867924528301886 0.018867924528301886 0.015625 0.015625 0.28125 0.296875 0.3125 0.015625 0.015625 0.015625 0.015625 0.015625 0.02 0.02 0.3 0.22 0.34 0.02 0.02 0.02 0.02 0.02 0.016129032258064516 0.016129032258064516 0.2903225806451613 0.3709677419354839 0.22580645161290322 0.016129032258064516 0.016129032258064516 0.016129032258064516 0.016129032258064516 0.016129032258064516 0.017543859649122806 0.017543859649122806 0.3157894736842105 0.3508771929824561 0.21052631578947367 0.017543859649122806 0.017543859649122806 0.017543859649122806 0.017543859649122806 0.017543859649122806 0.01694915254237288 0.01694915254237288 0.3559322033898305 0.3050847457627119 0.22033898305084745 0.01694915254237288 0.01694915254237288 0.01694915254237288 0.01694915254237288 0.01694915254237288 0.016666666666666666 0.016666666666666666 0.23333333333333334 0.45 0.2 0.016666666666666666 0.016666666666666666 0.016666666666666666 0.016666666666666666 0.016666666666666666 0.017857142857142856 0.017857142857142856 0.21428571428571427 0.2857142857142857 0.375 0.017857142857142856 0.017857142857142856 0.017857142857142856 0.017857142857142856 0.017857142857142856 0.016666666666666666 0.016666666666666666 0.3333333333333333 0.26666666666666666 0.2833333333333333 0.016666666666666666 0.016666666666666666 0.016666666666666666 0.016666666666666666 0.016666666666666666 0.018518518518518517 0.018518518518518517 0.24074074074074073 0.3148148148148148 0.3148148148148148 0.018518518518518517 0.018518518518518517 0.018518518518518517 0.018518518518518517 0.018518518518518517 0.017241379310344827 0.017241379310344827 0.017241379310344827 0.3620689655172414 0.29310344827586204 0.22413793103448276 0.017241379310344827 0.017241379310344827 0.017241379310344827 0.017241379310344827 0.015625 0.015625 0.015625 0.28125 0.234375 0.375 0.015625 0.015625 0.015625 0.015625 0.012987012987012988 0.012987012987012988 0.012987012987012988 0.35064935064935066 0.2077922077922078 0.35064935064935066 0.012987012987012988 0.012987012987012988 0.012987012987012988 0.012987012987012988 0.01694915254237288 0.01694915254237288 0.01694915254237288 0.22033898305084745 0.3389830508474576 0.3220338983050847 0.01694915254237288 0.01694915254237288 0.01694915254237288 0.01694915254237288 0.014285714285714285 0.014285714285714285 0.014285714285714285 0.32857142857142857 0.3 0.2714285714285714 0.014285714285714285 0.014285714285714285 0.014285714285714285 0.014285714285714285 0.014705882352941176 0.014705882352941176 0.014705882352941176 0.22058823529411764 0.3235294117647059 0.35294117647058826 0.014705882352941176 0.014705882352941176 0.014705882352941176 0.014705882352941176 0.017543859649122806 0.017543859649122806 0.017543859649122806 0.22807017543859648 0.2982456140350877 0.3508771929824561 0.017543859649122806 0.017543859649122806 0.017543859649122806 0.017543859649122806 0.018518518518518517 0.018518518518518517 0.018518518518518517 0.3333333333333333 0.2962962962962963 0.24074074074074073 0.018518518518518517 0.018518518518518517 0.018518518518518517 0.018518518518518517 0.014925373134328358 0.014925373134328358 0.014925373134328358 0.29850746268656714 0.34328358208955223 0.2537313432835821 0.014925373134328358 0.014925373134328358 0.014925373134328358 0.014925373134328358 0.0125 0.0125 0.0125 0.225 0.175 0.3125 0.2125 0.0125 0.0125 0.0125 0.012987012987012988 0.012987012987012988 0.012987012987012988 0.18181818181818182 0.19480519480519481 0.2727272727272727 0.2727272727272727 0.012987012987012988 0.012987012987012988 0.012987012987012988 0.012195121951219513 0.012195121951219513 0.012195121951219513 0.18292682926829268 0.2926829268292683 0.21951219512195122 0.23170731707317074 0.012195121951219513 0.012195121951219513 0.012195121951219513 0.011363636363636364 0.011363636363636364 0.011363636363636364 0.17045454545454544 0.20454545454545456 0.3068181818181818 0.25 0.011363636363636364 0.011363636363636364 0.011363636363636364 0.014925373134328358 0.014925373134328358 0.014925373134328358 0.2835820895522388 0.208955223880597 0.16417910447761194 0.2537313432835821 0.014925373134328358 0.014925373134328358 0.014925373134328358 0.013157894736842105 0.013157894736842105 0.013157894736842105 0.18421052631578946 0.21052631578947367 0.17105263157894737 0.35526315789473684 0.013157894736842105 0.013157894736842105 0.013157894736842105 0.013513513513513514 0.013513513513513514 0.013513513513513514 0.20270270270270271 0.3783783783783784 0.17567567567567569 0.16216216216216217 0.013513513513513514 0.013513513513513514 0.013513513513513514 0.010101010101010102 0.010101010101010102 0.010101010101010102 0.20202020202020202 0.32323232323232326 0.2222222222222222 0.1919191919191919 0.010101010101010102 0.010101010101010102 0.010101010101010102 0.014084507042253521 0.014084507042253521 0.014084507042253521 0.22535211267605634 0.22535211267605634 0.28169014084507044 0.18309859154929578 0.014084507042253521 0.014084507042253521 0.014084507042253521 0.01639344262295082 0.01639344262295082 0.01639344262295082 0.01639344262295082 0.21311475409836064 0.18032786885245902 0.3114754098360656 0.19672131147540983 0.01639344262295082 0.01639344262295082 0.014492753623188406 0.014492753623188406 0.014492753623188406 0.014492753623188406 0.2318840579710145 0.2608695652173913 0.18840579710144928 0.2318840579710145 0.014492753623188406 0.014492753623188406 0.013888888888888888 0.013888888888888888 0.013888888888888888 0.013888888888888888 0.3055555555555556 0.1527777777777778 0.2222222222222222 0.2361111111111111 0.013888888888888888 0.013888888888888888 0.013513513513513514 0.013513513513513514 0.013513513513513514 0.013513513513513514 0.17567567567567569 0.25675675675675674 0.25675675675675674 0.22972972972972974 0.013513513513513514 0.013513513513513514 0.014705882352941176 0.014705882352941176 0.014705882352941176 0.014705882352941176 0.3382352941176471 0.16176470588235295 0.23529411764705882 0.17647058823529413 0.014705882352941176 0.014705882352941176 0.013157894736842105 0.013157894736842105 0.013157894736842105 0.013157894736842105 0.2631578947368421 0.25 0.2631578947368421 0.14473684210526316 0.013157894736842105 0.013157894736842105 0.014285714285714285 0.014285714285714285 0.014285714285714285 0.014285714285714285 0.24285714285714285 0.14285714285714285 0.2714285714285714 0.2571428571428571 0.014285714285714285 0.014285714285714285 0.013157894736842105 0.013157894736842105 0.013157894736842105 0.013157894736842105 0.2236842105263158 0.23684210526315788 0.23684210526315788 0.2236842105263158 0.013157894736842105 0.013157894736842105 0.01282051282051282 0.01282051282051282 0.01282051282051282 0.01282051282051282 0.23076923076923078 0.24358974358974358 0.21794871794871795 0.23076923076923078 0.01282051282051282 0.01282051282051282 0.011494252873563218 0.011494252873563218 0.011494252873563218 0.011494252873563218 0.21839080459770116 0.14942528735632185 0.16091954022988506 0.1839080459770115 0.22988505747126436 0.011494252873563218 0.010752688172043012 0.010752688172043012 0.010752688172043012 0.010752688172043012 0.15053763440860216 0.15053763440860216 0.1935483870967742 0.2903225806451613 0.16129032258064516 0.010752688172043012 0.009708737864077669 0.009708737864077669 0.009708737864077669 0.009708737864077669 0.22330097087378642 0.1553398058252427 0.1941747572815534 0.1650485436893204 0.21359223300970873 0.009708737864077669 0.009523809523809525 0.009523809523809525 0.009523809523809525 0.009523809523809525 0.1523809523809524 0.14285714285714285 0.20952380952380953 0.20952380952380953 0.23809523809523808 0.009523809523809525 0.008771929824561403 0.008771929824561403 0.008771929824561403 0.008771929824561403 0.19298245614035087 0.18421052631578946 0.17543859649122806 0.18421052631578946 0.21929824561403508 0.008771929824561403 0.010101010101010102 0.010101010101010102 0.010101010101010102 0.010101010101010102 0.15151515151515152 0.1414141414141414 0.1717171717171717 0.21212121212121213 0.2727272727272727 0.010101010101010102 0.011904761904761904 0.011904761904761904 0.011904761904761904 0.011904761904761904 0.14285714285714285 0.19047619047619047 0.15476190476190477 0.19047619047619047 0.2619047619047619 0.011904761904761904 0.011363636363636364 0.011363636363636364 0.011363636363636364 0.011363636363636364 0.17045454545454544 0.20454545454545456 0.25 0.20454545454545456 0.11363636363636363 0.011363636363636364 0.010869565217391304 0.010869565217391304 0.010869565217391304 0.010869565217391304 0.16304347826086957 0.2391304347826087 0.20652173913043478 0.1956521739130435 0.14130434782608695 0.010869565217391304 0.01 0.01 0.01 0.01 0.21 0.14 0.11 0.16 0.19 0.15 0.008333333333333333 0.008333333333333333 0.008333333333333333 0.008333333333333333 0.16666666666666666 0.225 0.15833333333333333 0.14166666666666666 0.13333333333333333 0.14166666666666666 0.011111111111111112 0.011111111111111112 0.011111111111111112 0.011111111111111112 0.15555555555555556 0.15555555555555556 0.17777777777777778 0.17777777777777778 0.13333333333333333 0.15555555555555556 0.01098901098901099 0.01098901098901099 0.01098901098901099 0.01098901098901099 0.17582417582417584 0.15384615384615385 0.13186813186813187 0.2087912087912088 0.12087912087912088 0.16483516483516483 0.010101010101010102 0.010101010101010102 0.010101010101010102 0.010101010101010102 0.18181818181818182 0.12121212121212122 0.13131313131313133 0.1717171717171717 0.20202020202020202 0.15151515151515152 0.008620689655172414 0.008620689655172414 0.008620689655172414 0.008620689655172414 0.16379310344827586 0.21551724137931033 0.12931034482758622 0.11206896551724138 0.21551724137931033 0.12931034482758622 0.00980392156862745 0.00980392156862745 0.00980392156862745 0.00980392156862745 0.19607843137254902 0.11764705882352941 0.11764705882352941 0.14705882352941177 0.18627450980392157 0.19607843137254902 0.009523809523809525 0.009523809523809525 0.009523809523809525 0.009523809523809525 0.06666666666666667 0.1619047619047619 0.0761904761904762 0.23809523809523808 0.21904761904761905 0.2 0.007874015748031496 0.007874015748031496 0.007874015748031496 0.007874015748031496 0.1889763779527559 0.1968503937007874 0.14960629921259844 0.15748031496062992 0.11811023622047244 0.15748031496062992 0.1 0.1 0.1 0.1 0.1 0.1 0.1 0.1 0.1 0.1 0.1 0.1 0.1 0.1 0.1 0.1 0.1 0.1 0.1 0.1 0.1 0.1 0.1 0.1 0.1 0.1 0.1 0.1 0.1 0.1 0.1 0.1 0.1 0.1 0.1 0.1 0.1 0.1 0.1 0.1 0.1 0.1 0.1 0.1 0.1 0.1 0.1 0.1 0.1 0.1 0.1 0.1 0.1 0.1 0.1 0.1 0.1 0.1 0.1 0.1 0.1 0.1 0.1 0.1 0.1 0.1 0.1 0.1 0.1 0.1 0.1 0.1 0.1 0.1 0.1 0.1 0.1 0.1 0.1 0.1 0.1 0.1 0.1 0.1 0.1 0.1 0.1 0.1 0.1 0.1 0.043478260869565216 0.043478260869565216 0.6086956521739131 0.043478260869565216 0.043478260869565216 0.043478260869565216 0.043478260869565216 0.043478260869565216 0.043478260869565216 0.043478260869565216 0.05263157894736842 0.05263157894736842 0.5263157894736842 0.05263157894736842 0.05263157894736842 0.05263157894736842 0.05263157894736842 0.05263157894736842 0.05263157894736842 0.05263157894736842 0.03225806451612903 0.03225806451612903 0.7096774193548387 0.03225806451612903 0.03225806451612903 0.03225806451612903 0.03225806451612903 0.03225806451612903 0.03225806451612903 0.03225806451612903 0.045454545454545456 0.045454545454545456 0.5909090909090909 0.045454545454545456 0.045454545454545456 0.045454545454545456 0.045454545454545456 0.045454545454545456 0.045454545454545456 0.045454545454545456 0.038461538461538464 0.038461538461538464 0.6538461538461539 0.038461538461538464 0.038461538461538464 0.038461538461538464 0.038461538461538464 0.038461538461538464 0.038461538461538464 0.038461538461538464 0.03571428571428571 0.03571428571428571 0.6785714285714286 0.03571428571428571 0.03571428571428571 0.03571428571428571 0.03571428571428571 0.03571428571428571 0.03571428571428571 0.03571428571428571 0.041666666666666664 0.041666666666666664 0.625 0.041666666666666664 0.041666666666666664 0.041666666666666664 0.041666666666666664 0.041666666666666664 0.041666666666666664 0.041666666666666664 0.045454545454545456 0.045454545454545456 0.5909090909090909 0.045454545454545456 0.045454545454545456 0.045454545454545456 0.045454545454545456 0.045454545454545456 0.045454545454545456 0.045454545454545456 0.02702702702702703 0.02702702702702703 0.7567567567567568 0.02702702702702703 0.02702702702702703 0.02702702702702703 0.02702702702702703 0.02702702702702703 0.02702702702702703 0.02702702702702703 0.022222222222222223 0.022222222222222223 0.022222222222222223 0.4222222222222222 0.4 0.022222222222222223 0.022222222222222223 0.022222222222222223 0.022222222222222223 0.022222222222222223 0.018518518518518517 0.018518518518518517 0.018518518518518517 0.4444444444444444 0.4074074074074074 0.018518518518518517 0.018518518518518517 0.018518518518518517 0.018518518518518517 0.018518518518518517 0.029411764705882353 0.029411764705882353 0.029411764705882353 0.4117647058823529 0.35294117647058826 0.029411764705882353 0.029411764705882353 0.029411764705882353 0.029411764705882353 0.029411764705882353 0.025 0.025 0.025 0.5 0.3 0.025 0.025 0.025 0.025 0.025 0.019230769230769232 0.019230769230769232 0.019230769230769232 0.46153846153846156 0.38461538461538464 0.019230769230769232 0.019230769230769232 0.019230769230769232 0.019230769230769232 0.019230769230769232 0.025 0.025 0.025 0.45 0.35 0.025 0.025 0.025 0.025 0.025 0.019230769230769232 0.019230769230769232 0.019230769230769232 0.4423076923076923 0.40384615384615385 0.019230769230769232 0.019230769230769232 0.019230769230769232 0.019230769230769232 0.019230769230769232 0.018867924528301886 0.018867924528301886 0.018867924528301886 0.4716981132075472 0.37735849056603776 0.018867924528301886 0.018867924528301886 0.018867924528301886 0.018867924528301886 0.018867924528301886 0.0196078431372549 0.0196078431372549 0.0196078431372549 0.45098039215686275 0.39215686274509803 0.0196078431372549 0.0196078431372549 0.0196078431372549 0.0196078431372549 0.0196078431372549 0.012658227848101266 0.012658227848101266 0.012658227848101266 0.012658227848101266 0.189873417721519 0.4177215189873418 0.3037974683544304 0.012658227848101266 0.012658227848101266 0.012658227848101266 0.014492753623188406 0.014492753623188406 0.014492753623188406 0.014492753623188406 0.2463768115942029 0.2608695652173913 0.391304347826087 0.014492753623188406 0.014492753623188406 0.014492753623188406 0.015873015873015872 0.015873015873015872 0.015873015873015872 0.015873015873015872 0.2857142857142857 0.2698412698412698 0.3333333333333333 0.015873015873015872 0.015873015873015872 0.015873015873015872 0.018867924528301886 0.018867924528301886 0.018867924528301886 0.018867924528301886 0.3018867924528302 0.3584905660377358 0.20754716981132076 0.018867924528301886 0.018867924528301886 0.018867924528301886 0.015151515151515152 0.015151515151515152 0.015151515151515152 0.015151515151515152 0.30303030303030304 0.3181818181818182 0.2727272727272727 0.015151515151515152 0.015151515151515152 0.015151515151515152 0.015625 0.015625 0.015625 0.015625 0.28125 0.375 0.234375 0.015625 0.015625 0.015625 0.015384615384615385 0.015384615384615385 0.015384615384615385 0.015384615384615385 0.27692307692307694 0.38461538461538464 0.23076923076923078 0.015384615384615385 0.015384615384615385 0.015384615384615385 0.014285714285714285 0.014285714285714285 0.014285714285714285 0.014285714285714285 0.2571428571428571 0.42857142857142855 0.21428571428571427 0.014285714285714285 0.014285714285714285 0.014285714285714285 0.016666666666666666 0.016666666666666666 0.016666666666666666 0.016666666666666666 0.35 0.26666666666666666 0.26666666666666666 0.016666666666666666 0.016666666666666666 0.016666666666666666 0.011627906976744186 0.011627906976744186 0.011627906976744186 0.011627906976744186 0.011627906976744186 0.1744186046511628 0.20930232558139536 0.11627906976744186 0.19767441860465115 0.2441860465116279 0.010752688172043012 0.010752688172043012 0.010752688172043012 0.010752688172043012 0.010752688172043012 0.16129032258064516 0.15053763440860216 0.22580645161290322 0.24731182795698925 0.16129032258064516 0.010526315789473684 0.010526315789473684 0.010526315789473684 0.010526315789473684 0.010526315789473684 0.15789473684210525 0.2 0.18947368421052632 0.18947368421052632 0.21052631578947367 0.010309278350515464 0.010309278350515464 0.010309278350515464 0.010309278350515464 0.010309278350515464 0.14432989690721648 0.18556701030927836 0.24742268041237114 0.17525773195876287 0.1958762886597938 0.01020408163265306 0.01020408163265306 0.01020408163265306 0.01020408163265306 0.01020408163265306 0.21428571428571427 0.15306122448979592 0.22448979591836735 0.21428571428571427 0.14285714285714285 0.00980392156862745 0.00980392156862745 0.00980392156862745 0.00980392156862745 0.00980392156862745 0.20588235294117646 0.21568627450980393 0.21568627450980393 0.17647058823529413 0.13725490196078433 0.012345679012345678 0.012345679012345678 0.012345679012345678 0.012345679012345678 0.012345679012345678 0.1728395061728395 0.18518518518518517 0.18518518518518517 0.18518518518518517 0.20987654320987653 0.013333333333333334 0.013333333333333334 0.013333333333333334 0.013333333333333334 0.013333333333333334 0.22666666666666666 0.16 0.18666666666666668 0.2 0.16 0.011235955056179775 0.011235955056179775 0.011235955056179775 0.011235955056179775 0.011235955056179775 0.11235955056179775 0.20224719101123595 0.21348314606741572 0.16853932584269662 0.24719101123595505 0.011764705882352941 0.011764705882352941 0.011764705882352941 0.011764705882352941 0.011764705882352941 0.011764705882352941 0.3176470588235294 0.23529411764705882 0.2235294117647059 0.15294117647058825 0.011494252873563218 0.011494252873563218 0.011494252873563218 0.011494252873563218 0.011494252873563218 0.011494252873563218 0.3103448275862069 0.25287356321839083 0.14942528735632185 0.21839080459770116 0.013333333333333334 0.013333333333333334 0.013333333333333334 0.013333333333333334 0.013333333333333334 0.013333333333333334 0.28 0.16 0.24 0.24 0.0136986301369863 0.0136986301369863 0.0136986301369863 0.0136986301369863 0.0136986301369863 0.0136986301369863 0.2465753424657534 0.2328767123287671 0.2602739726027397 0.1780821917808219 0.012987012987012988 0.012987012987012988 0.012987012987012988 0.012987012987012988 0.012987012987012988 0.012987012987012988 0.3116883116883117 0.2077922077922078 0.2077922077922078 0.19480519480519481 0.015625 0.015625 0.015625 0.015625 0.015625 0.015625 0.296875 0.25 0.203125 0.15625 0.01282051282051282 0.01282051282051282 0.01282051282051282 0.01282051282051282 0.01282051282051282 0.01282051282051282 0.3076923076923077 0.20512820512820512 0.19230769230769232 0.21794871794871795 0.0125 0.0125 0.0125 0.0125 0.0125 0.0125 0.2375 0.1625 0.3125 0.2125 0.014084507042253521 0.014084507042253521 0.014084507042253521 0.014084507042253521 0.014084507042253521 0.014084507042253521 0.29577464788732394 0.23943661971830985 0.16901408450704225 0.2112676056338028 0.013333333333333334 0.013333333333333334 0.013333333333333334 0.013333333333333334 0.013333333333333334 0.013333333333333334 0.013333333333333334 0.3466666666666667 0.25333333333333335 0.30666666666666664 0.018518518518518517 0.018518518518518517 0.018518518518518517 0.018518518518518517 0.018518518518518517 0.018518518518518517 0.018518518518518517 0.2777777777777778 0.2777777777777778 0.3148148148148148 0.01639344262295082 0.01639344262295082 0.01639344262295082 0.01639344262295082 0.01639344262295082 0.01639344262295082 0.01639344262295082 0.22950819672131148 0.2786885245901639 0.3770491803278688 0.013513513513513514 0.013513513513513514 0.013513513513513514 0.013513513513513514 0.013513513513513514 0.013513513513513514 0.013513513513513514 0.3108108108108108 0.3108108108108108 0.28378378378378377 0.021739130434782608 0.021739130434782608 0.021739130434782608 0.021739130434782608 0.021739130434782608 0.021739130434782608 0.021739130434782608 0.2391304347826087 0.2608695652173913 0.34782608695652173 0.02 0.02 0.02 0.02 0.02 0.02 0.02 0.34 0.3 0.22 0.017543859649122806 0.017543859649122806 0.017543859649122806 0.017543859649122806 0.017543859649122806 0.017543859649122806 0.017543859649122806 0.3333333333333333 0.21052631578947367 0.3333333333333333 0.016129032258064516 0.016129032258064516 0.016129032258064516 0.016129032258064516 0.016129032258064516 0.016129032258064516 0.016129032258064516 0.3870967741935484 0.24193548387096775 0.25806451612903225 0.016666666666666666 0.016666666666666666 0.016666666666666666 0.016666666666666666 0.016666666666666666 0.016666666666666666 0.016666666666666666 0.26666666666666666 0.35 0.26666666666666666 0.02 0.02 0.02 0.02 0.02 0.02 0.02 0.02 0.38 0.46 0.017543859649122806 0.017543859649122806 0.017543859649122806 0.017543859649122806 0.017543859649122806 0.017543859649122806 0.017543859649122806 0.017543859649122806 0.43859649122807015 0.42105263157894735 0.01818181818181818 0.01818181818181818 0.01818181818181818 0.01818181818181818 0.01818181818181818 0.01818181818181818 0.01818181818181818 0.01818181818181818 0.45454545454545453 0.4 0.02040816326530612 0.02040816326530612 0.02040816326530612 0.02040816326530612 0.02040816326530612 0.02040816326530612 0.02040816326530612 0.02040816326530612 0.3877551020408163 0.4489795918367347 0.02857142857142857 0.02857142857142857 0.02857142857142857 0.02857142857142857 0.02857142857142857 0.02857142857142857 0.02857142857142857 0.02857142857142857 0.34285714285714286 0.42857142857142855 0.023255813953488372 0.023255813953488372 0.023255813953488372 0.023255813953488372 0.023255813953488372 0.023255813953488372 0.023255813953488372 0.023255813953488372 0.5116279069767442 0.3023255813953488 0.023255813953488372 0.023255813953488372 0.023255813953488372 0.023255813953488372 0.023255813953488372 0.023255813953488372 0.023255813953488372 0.023255813953488372 0.3953488372093023 0.4186046511627907 0.0196078431372549 0.0196078431372549 0.0196078431372549 0.0196078431372549 0.0196078431372549 0.0196078431372549 0.0196078431372549 0.0196078431372549 0.45098039215686275 0.39215686274509803 0.029411764705882353 0.029411764705882353 0.029411764705882353 0.029411764705882353 0.029411764705882353 0.029411764705882353 0.029411764705882353 0.029411764705882353 0.29411764705882354 0.47058823529411764 0.041666666666666664 0.041666666666666664 0.041666666666666664 0.041666666666666664 0.041666666666666664 0.041666666666666664 0.041666666666666664 0.041666666666666664 0.041666666666666664 0.625 0.038461538461538464 0.038461538461538464 0.038461538461538464 0.038461538461538464 0.038461538461538464 0.038461538461538464 0.038461538461538464 0.038461538461538464 0.038461538461538464 0.6538461538461539 0.038461538461538464 0.038461538461538464 0.038461538461538464 0.038461538461538464 0.038461538461538464 0.038461538461538464 0.038461538461538464 0.038461538461538464 0.038461538461538464 0.6538461538461539 0.03571428571428571 0.03571428571428571 0.03571428571428571 0.03571428571428571 0.03571428571428571 0.03571428571428571 0.03571428571428571 0.03571428571428571 0.03571428571428571 0.6785714285714286 0.04 0.04 0.04 0.04 0.04 0.04 0.04 0.04 0.04 0.64 0.05263157894736842 0.05263157894736842 0.05263157894736842 0.05263157894736842 0.05263157894736842 0.05263157894736842 0.05263157894736842 0.05263157894736842 0.05263157894736842 0.5263157894736842 0.034482758620689655 0.034482758620689655 0.034482758620689655 0.034482758620689655 0.034482758620689655 0.034482758620689655 0.034482758620689655 0.034482758620689655 0.034482758620689655 0.6896551724137931 0.03571428571428571 0.03571428571428571 0.03571428571428571 0.03571428571428571 0.03571428571428571 0.03571428571428571 0.03571428571428571 0.03571428571428571 0.03571428571428571 0.6785714285714286 0.03333333333333333 0.03333333333333333 0.03333333333333333 0.03333333333333333 0.03333333333333333 0.03333333333333333 0.03333333333333333 0.03333333333333333 0.03333333333333333 0.7 0.1 0.1 0.1 0.1 0.1 0.1 0.1 0.1 0.1 0.1 0.1 0.1 0.1 0.1 0.1 0.1 0.1 0.1 0.1 0.1 0.1 0.1 0.1 0.1 0.1 0.1 0.1 0.1 0.1 0.1 0.1 0.1 0.1 0.1 0.1 0.1 0.1 0.1 0.1 0.1 0.1 0.1 0.1 0.1 0.1 0.1 0.1 0.1 0.1 0.1 0.1 0.1 0.1 0.1 0.1 0.1 0.1 0.1 0.1 0.1 0.1 0.1 0.1 0.1 0.1 0.1 0.1 0.1 0.1 0.1 0.1 0.1 0.1 0.1 0.1 0.1 0.1 0.1 0.1 0.1 0.1 0.1 0.1 0.1 0.1 0.1 0.1 0.1 0.1 0.1 0.006578947368421052 0.1118421052631579 0.1118421052631579 0.07236842105263158 0.09210526315789473 0.13815789473684212 0.14473684210526316 0.13157894736842105 0.10526315789473684 0.08552631578947369 0.006578947368421052 0.125 0.08552631578947369 0.13815789473684212 0.1118421052631579 0.1118421052631579 0.06578947368421052 0.16447368421052633 0.13815789473684212 0.05263157894736842 0.005847953216374269 0.12280701754385964 0.09941520467836257 0.07602339181286549 0.1286549707602339 0.15204678362573099 0.06432748538011696 0.10526315789473684 0.10526315789473684 0.14035087719298245 0.007042253521126761 0.13380281690140844 0.11971830985915492 0.1056338028169014 0.1267605633802817 0.1056338028169014 0.11971830985915492 0.08450704225352113 0.09154929577464789 0.1056338028169014 0.006711409395973154 0.11409395973154363 0.0738255033557047 0.12080536912751678 0.14093959731543623 0.10738255033557047 0.14093959731543623 0.10067114093959731 0.10067114093959731 0.09395973154362416 0.006493506493506494 0.11688311688311688 0.1038961038961039 0.13636363636363635 0.08441558441558442 0.12337662337662338 0.11038961038961038 0.12337662337662338 0.1038961038961039 0.09090909090909091 0.005649717514124294 0.10734463276836158 0.062146892655367235 0.1751412429378531 0.11864406779661017 0.07344632768361582 0.0847457627118644 0.0903954802259887 0.12429378531073447 0.15819209039548024 0.006211180124223602 0.08074534161490683 0.14285714285714285 0.09937888198757763 0.13043478260869565 0.13043478260869565 0.08074534161490683 0.16149068322981366 0.09316770186335403 0.07453416149068323 0.005917159763313609 0.07100591715976332 0.13609467455621302 0.11242603550295859 0.14792899408284024 0.10650887573964497 0.08284023668639054 0.11834319526627218 0.1301775147928994 0.08875739644970414 0.007692307692307693 0.007692307692307693 0.007692307692307693 0.13076923076923078 0.06923076923076923 0.13846153846153847 0.13076923076923078 0.17692307692307693 0.13846153846153847 0.19230769230769232 0.007633587786259542 0.007633587786259542 0.007633587786259542 0.13740458015267176 0.12213740458015267 0.16030534351145037 0.16793893129770993 0.13740458015267176 0.183206106870229 0.06870229007633588 0.007194244604316547 0.007194244604316547 0.007194244604316547 0.15827338129496402 0.14388489208633093 0.12949640287769784 0.08633093525179857 0.10071942446043165 0.16546762589928057 0.19424460431654678 0.007692307692307693 0.007692307692307693 0.007692307692307693 0.13846153846153847 0.1 0.15384615384615385 0.09230769230769231 0.17692307692307693 0.13846153846153847 0.17692307692307693 0.007352941176470588 0.007352941176470588 0.007352941176470588 0.10294117647058823 0.10294117647058823 0.14705882352941177 0.15441176470588236 0.15441176470588236 0.16911764705882354 0.14705882352941177 0.007407407407407408 0.007407407407407408 0.007407407407407408 0.13333333333333333 0.14074074074074075 0.16296296296296298 0.11851851851851852 0.18518518518518517 0.1111111111111111 0.1259259259259259 0.008264462809917356 0.008264462809917356 0.008264462809917356 0.11570247933884298 0.14049586776859505 0.14049586776859505 0.10743801652892562 0.19008264462809918 0.09917355371900827 0.18181818181818182 0.007518796992481203 0.007518796992481203 0.007518796992481203 0.15037593984962405 0.17293233082706766 0.11278195488721804 0.12781954887218044 0.12030075187969924 0.13533834586466165 0.15789473684210525 0.008620689655172414 0.008620689655172414 0.008620689655172414 0.15517241379310345 0.16379310344827586 0.1206896551724138 0.14655172413793102 0.1206896551724138 0.10344827586206896 0.16379310344827586 0.010638297872340425 0.010638297872340425 0.010638297872340425 0.010638297872340425 0.010638297872340425 0.18085106382978725 0.1702127659574468 0.19148936170212766 0.1702127659574468 0.23404255319148937 0.010752688172043012 0.010752688172043012 0.010752688172043012 0.010752688172043012 0.010752688172043012 0.22580645161290322 0.1827956989247312 0.1935483870967742 0.12903225806451613 0.21505376344086022 0.00980392156862745 0.00980392156862745 0.00980392156862745 0.00980392156862745 0.00980392156862745 0.12745098039215685 0.18627450980392157 0.2647058823529412 0.20588235294117646 0.16666666666666666 0.010869565217391304 0.010869565217391304 0.010869565217391304 0.010869565217391304 0.010869565217391304 0.25 0.2391304347826087 0.17391304347826086 0.10869565217391304 0.17391304347826086 0.010526315789473684 0.010526315789473684 0.010526315789473684 0.010526315789473684 0.010526315789473684 0.2 0.11578947368421053 0.28421052631578947 0.23157894736842105 0.11578947368421053 0.011904761904761904 0.011904761904761904 0.011904761904761904 0.011904761904761904 0.011904761904761904 0.19047619047619047 0.21428571428571427 0.2261904761904762 0.19047619047619047 0.11904761904761904 0.010101010101010102 0.010101010101010102 0.010101010101010102 0.010101010101010102 0.010101010101010102 0.2727272727272727 0.16161616161616163 0.1414141414141414 0.1919191919191919 0.18181818181818182 0.010526315789473684 0.010526315789473684 0.010526315789473684 0.010526315789473684 0.010526315789473684 0.2 0.21052631578947367 0.2 0.2 0.1368421052631579 0.012345679012345678 0.012345679012345678 0.012345679012345678 0.012345679012345678 0.012345679012345678 0.16049382716049382 0.2222222222222222 0.1728395061728395 0.2222222222222222 0.16049382716049382 0.014084507042253521 0.014084507042253521 0.014084507042253521 0.014084507042253521 0.014084507042253521 0.014084507042253521 0.014084507042253521 0.29577464788732394 0.29577464788732394 0.30985915492957744 0.017241379310344827 0.017241379310344827 0.017241379310344827 0.017241379310344827 0.017241379310344827 0.017241379310344827 0.017241379310344827 0.3103448275862069 0.27586206896551724 0.29310344827586204 0.01818181818181818 0.01818181818181818 0.01818181818181818 0.01818181818181818 0.01818181818181818 0.01818181818181818 0.01818181818181818 0.32727272727272727 0.23636363636363636 0.3090909090909091 0.015625 0.015625 0.015625 0.015625 0.015625 0.015625 0.015625 0.203125 0.34375 0.34375 0.014925373134328358 0.014925373134328358 0.014925373134328358 0.014925373134328358 0.014925373134328358 0.014925373134328358 0.014925373134328358 0.2835820895522388 0.29850746268656714 0.31343283582089554 0.014705882352941176 0.014705882352941176 0.014705882352941176 0.014705882352941176 0.014705882352941176 0.014705882352941176 0.014705882352941176 0.3088235294117647 0.27941176470588236 0.3088235294117647 0.0136986301369863 0.0136986301369863 0.0136986301369863 0.0136986301369863 0.0136986301369863 0.0136986301369863 0.0136986301369863 0.3561643835616438 0.3013698630136986 0.2465753424657534 0.02 0.02 0.02 0.02 0.02 0.02 0.02 0.32 0.26 0.28 0.017857142857142856 0.017857142857142856 0.017857142857142856 0.017857142857142856 0.017857142857142856 0.017857142857142856 0.017857142857142856 0.21428571428571427 0.375 0.2857142857142857 0.1 0.1 0.1 0.1 0.1 0.1 0.1 0.1 0.1 0.1 0.1 0.1 0.1 0.1 0.1 0.1 0.1 0.1 0.1 0.1 0.1 0.1 0.1 0.1 0.1 0.1 0.1 0.1 0.1 0.1 0.1 0.1 0.1 0.1 0.1 0.1 0.1 0.1 0.1 0.1 0.1 0.1 0.1 0.1 0.1 0.1 0.1 0.1 0.1 0.1 0.1 0.1 0.1 0.1 0.1 0.1 0.1 0.1 0.1 0.1 0.1 0.1 0.1 0.1 0.1 0.1 0.1 0.1 0.1 0.1 0.1 0.1 0.1 0.1 0.1 0.1 0.1 0.1 0.1 0.1 0.1 0.1 0.1 0.1 0.1 0.1 0.1 0.1 0.1 0.1 0.1 0.1 0.1 0.1 0.1 0.1 0.1 0.1 0.1 0.1 0.1 0.1 0.1 0.1 0.1 0.1 0.1 0.1 0.1 0.1 0.1 0.1 0.1 0.1 0.1 0.1 0.1 0.1 0.1 0.1 0.1 0.1 0.1 0.1 0.1 0.1 0.1 0.1 0.1 0.1 0.1 0.1 0.1 0.1 0.1 0.1 0.1 0.1 0.1 0.1 0.1 0.1 0.1 0.1 0.1 0.1 0.1 0.1 0.1 0.1 0.1 0.1 0.1 0.1 0.1 0.1 0.1 0.1 0.1 0.1 0.1 0.1 0.1 0.1 0.1 0.1 0.1 0.1 0.1 0.1 0.1 0.1 0.1 0.1 0.1 0.1 0.1 0.1 0.1 0.1 0.1 0.1 0.1 0.1 0.1 0.1 0.1 0.1 0.1 0.1 0.1 0.1 0.1 0.1 0.1 0.1 0.1 0.1 0.1 0.1 0.1 0.1 0.1 0.1 0.1 0.1 0.1 0.1 0.1 0.1 0.1 0.1 0.1 0.1 0.1 0.1 0.1 0.1 0.1 0.1 0.1 0.1 0.1 0.1 0.1 0.1 0.1 0.1 0.1 0.1 0.1 0.1 0.1 0.1 0.1 0.1 0.1 0.1 0.1 0.1 0.1 0.1 0.1 0.1 0.1 0.1 0.1 0.1 0.1 0.1 0.1 0.1 0.1 0.1 0.1 0.1 0.1 0.1 0.1 0.1 0.1 0.1 0.1 0.1 0.1 0.1 0.1 0.1 0.1 0.1 0.1 0.1 0.1 0.1 0.1 0.1 0.1 0.1 0.1 0.1 0.1 0.1 0.1 0.1 0.1 0.1 0.1 0.1 0.1 0.1 0.1 0.1 0.1 0.1 0.1 0.1 0.1 0.1 0.1 0.1 0.1 0.1 0.1 0.1 0.1 0.1 0.1 0.1 0.1 0.1 0.1 0.1 0.1 0.1 0.1 0.1 0.1 0.1 0.1 0.1 0.1 0.1 0.1 0.1 0.1 0.1 0.1 0.1 0.1 0.1 0.1 0.1 0.1 0.1 0.1 0.1 0.1 0.1 0.1 0.1 0.1 0.1 0.1 0.1 0.1 0.1 0.1 0.1 0.1 0.1 0.1 0.1 0.1 0.1 0.1 0.1 0.1 0.1 0.1 0.1 0.1 0.1 0.1 0.1 0.1 0.1 0.1 0.1 0.1 0.1 0.1 0.1 0.1 0.1 0.1 0.1 0.1 0.1 0.1 0.1 0.1 0.1 0.1 0.1 0.1 0.1 0.1 0.1 0.1 0.1 0.1 0.1 0.1 0.1 0.1 0.1 0.1 0.1 0.1 0.1 0.1 0.1 0.1 0.1 0.1 0.1 0.1 0.1 0.1 0.1 0.1 0.1 0.1 0.1 0.1 0.1 0.1 0.1 0.1 0.1 0.1 0.1 0.1 0.1 0.1 0.1 0.1 0.1 0.1 0.1 0.1 0.1 0.1 0.1 0.1 0.1 0.1 0.1 0.1 0.1 0.1 0.1 0.1 0.1 0.1 0.1 0.1 0.1 0.1 0.1 0.1 0.1 0.1 0.1 0.1 0.1 0.1 0.1 0.1 0.1 0.1 0.1 0.1 0.1 0.1 0.1 0.1 0.1 0.1 0.1 0.1 0.1 0.1 0.1 0.1 0.1 0.1 0.1 0.1 0.1 0.1 0.1 0.1 0.1 0.1 0.1 0.1 0.1 0.1 0.1 0.1 0.1 0.1 0.1 0.1 0.1 0.1 0.1 0.1 0.1 0.1 0.1 0.1 0.1 0.1 0.1 0.1 0.1 0.1 0.1 0.1 0.1 0.1 0.1 0.1 0.1 0.1 0.1 0.1 0.1 0.1 0.1 0.1 0.1 0.1 0.1 0.1 0.1 0.1 0.1 0.1 0.1 0.1 0.1 0.1 0.1 0.1 0.1 0.1 0.1</probabilities>
</cpt>
<cpt id="items_fsl_S0tilde_quantiled">
<state id="s5_0"/>
<state id="s15_0"/>
<state id="s25_0"/>
<state id="s100_0"/>
<parents>h_1 pai_1 </parents>
<probabilities>0.25722543352601157 0.24566473988439305 0.23410404624277456 0.2630057803468208 0.22356495468277945 0.2537764350453172 0.2628398791540785 0.2598187311178248 0.25071225071225073 0.28774928774928776 0.21652421652421652 0.245014245014245 0.23931623931623933 0.26495726495726496 0.25925925925925924 0.23646723646723647 0.2756598240469208 0.26099706744868034 0.2316715542521994 0.2316715542521994 0.24307692307692308 0.22153846153846155 0.24615384615384617 0.28923076923076924 0.22478386167146974 0.2420749279538905 0.2968299711815562 0.23631123919308358 0.26038781163434904 0.25761772853185594 0.26038781163434904 0.22160664819944598 0.2865013774104683 0.2369146005509642 0.22589531680440772 0.25068870523415976 0.3136094674556213 0.23372781065088757 0.23668639053254437 0.21597633136094674 0.27575757575757576 0.26666666666666666 0.24848484848484848 0.20909090909090908 0.2469879518072289 0.2891566265060241 0.22590361445783133 0.23795180722891565 0.2608695652173913 0.23369565217391305 0.2554347826086957 0.25 0.2613981762917933 0.24012158054711247 0.270516717325228 0.22796352583586627 0.2455621301775148 0.2988165680473373 0.23076923076923078 0.22485207100591717 0.27299703264094954 0.228486646884273 0.26112759643916916 0.23738872403560832 0.23478260869565218 0.2956521739130435 0.24057971014492754 0.2289855072463768 0.29850746268656714 0.25970149253731345 0.2208955223880597 0.2208955223880597 0.29941860465116277 0.22674418604651161 0.2558139534883721 0.2180232558139535 0.2874251497005988 0.19760479041916168 0.2964071856287425 0.218562874251497 0.2886297376093295 0.23323615160349853 0.27113702623906705 0.20699708454810495 0.26176470588235295 0.2676470588235294 0.24411764705882352 0.22647058823529412 0.240625 0.2625 0.23125 0.265625 0.28391167192429023 0.2302839116719243 0.25236593059936907 0.2334384858044164 0.29310344827586204 0.21839080459770116 0.22126436781609196 0.2672413793103448 0.24620060790273557 0.24620060790273557 0.21580547112462006 0.2917933130699088 0.3107344632768362 0.2344632768361582 0.2033898305084746 0.2514124293785311 0.25914634146341464 0.21341463414634146 0.2896341463414634 0.23780487804878048 0.2543859649122807 0.2309941520467836 0.22807017543859648 0.28654970760233917 0.25513196480938416 0.22580645161290322 0.2727272727272727 0.24633431085043989 0.23529411764705882 0.2735294117647059 0.27058823529411763 0.22058823529411764 0.25076452599388377 0.28134556574923547 0.27217125382262997 0.19571865443425077 0.2732919254658385 0.2484472049689441 0.2111801242236025 0.2670807453416149 0.27647058823529413 0.28823529411764703 0.19411764705882353 0.2411764705882353 0.25663716814159293 0.2536873156342183 0.24188790560471976 0.24778761061946902 0.31378299120234604 0.3020527859237537 0.20234604105571846 0.18181818181818182 0.27696793002915454 0.23615160349854228 0.239067055393586 0.2478134110787172 0.2742857142857143 0.26571428571428574 0.20857142857142857 0.25142857142857145 0.23423423423423423 0.2732732732732733 0.26126126126126126 0.23123123123123124 0.2621951219512195 0.2804878048780488 0.23170731707317074 0.22560975609756098 0.27906976744186046 0.22674418604651161 0.22965116279069767 0.26453488372093026 0.2727272727272727 0.21875 0.2784090909090909 0.23011363636363635 0.2389937106918239 0.2358490566037736 0.27044025157232704 0.25471698113207547 0.29411764705882354 0.22647058823529412 0.24705882352941178 0.2323529411764706 0.24924012158054712 0.23404255319148937 0.2613981762917933 0.2553191489361702</probabilities>
</cpt>
<cpt id="items_warehouse_Stilde_fsl2_quantiled">
<state id="s5_0"/>
<state id="s15_0"/>
<state id="s25_0"/>
<state id="s100_0"/>
<parents>items_fsl_S0tilde_quantiled h_1 pai_1 </parents>
<probabilities>0.9565217391304348 0.021739130434782608 0.010869565217391304 0.010869565217391304 0.8701298701298701 0.03896103896103896 0.06493506493506493 0.025974025974025976 0.9340659340659341 0.02197802197802198 0.02197802197802198 0.02197802197802198 0.9195402298850575 0.034482758620689655 0.022988505747126436 0.022988505747126436 0.9175257731958762 0.020618556701030927 0.041237113402061855 0.020618556701030927 0.9390243902439024 0.024390243902439025 0.024390243902439025 0.012195121951219513 0.9012345679012346 0.04938271604938271 0.012345679012345678 0.037037037037037035 0.9072164948453608 0.041237113402061855 0.020618556701030927 0.030927835051546393 0.9065420560747663 0.028037383177570093 0.018691588785046728 0.04672897196261682 0.944954128440367 0.01834862385321101 0.009174311926605505 0.027522935779816515 0.9148936170212766 0.02127659574468085 0.05319148936170213 0.010638297872340425 0.8823529411764706 0.047058823529411764 0.047058823529411764 0.023529411764705882 0.8787878787878788 0.04040404040404041 0.010101010101010102 0.0707070707070707 0.898876404494382 0.0449438202247191 0.02247191011235955 0.033707865168539325 0.9186046511627907 0.011627906976744186 0.023255813953488372 0.046511627906976744 0.8947368421052632 0.031578947368421054 0.042105263157894736 0.031578947368421054 0.9047619047619048 0.023809523809523808 0.023809523809523808 0.047619047619047616 0.9223300970873787 0.038834951456310676 0.009708737864077669 0.02912621359223301 0.9245283018867925 0.02830188679245283 0.03773584905660377 0.009433962264150943 0.9393939393939394 0.020202020202020204 0.010101010101010102 0.030303030303030304 0.9607843137254902 0.00980392156862745 0.00980392156862745 0.0196078431372549 0.9021739130434783 0.021739130434782608 0.021739130434782608 0.05434782608695652 0.9125 0.0125 0.0125 0.0625 0.9247311827956989 0.021505376344086023 0.010752688172043012 0.043010752688172046 0.9619047619047619 0.009523809523809525 0.009523809523809525 0.01904761904761905 0.9523809523809523 0.011904761904761904 0.011904761904761904 0.023809523809523808 0.911504424778761 0.017699115044247787 0.017699115044247787 0.05309734513274336 0.9204545454545454 0.022727272727272728 0.022727272727272728 0.03409090909090909 0.9444444444444444 0.03333333333333333 0.011111111111111112 0.011111111111111112 0.9111111111111111 0.022222222222222223 0.022222222222222223 0.044444444444444446 0.9156626506024096 0.024096385542168676 0.03614457831325301 0.024096385542168676 0.8941176470588236 0.03529411764705882 0.03529411764705882 0.03529411764705882 0.9230769230769231 0.01098901098901099 0.02197802197802198 0.04395604395604396 0.9381443298969072 0.020618556701030927 0.030927835051546393 0.010309278350515464 0.9222222222222223 0.05555555555555555 0.011111111111111112 0.011111111111111112 0.9090909090909091 0.02727272727272727 0.02727272727272727 0.03636363636363636 0.9081632653061225 0.01020408163265306 0.030612244897959183 0.05102040816326531 0.9393939393939394 0.030303030303030304 0.010101010101010102 0.020202020202020204 0.9135802469135802 0.024691358024691357 0.024691358024691357 0.037037037037037035 0.9438202247191011 0.02247191011235955 0.011235955056179775 0.02247191011235955 0.9191919191919192 0.030303030303030304 0.020202020202020204 0.030303030303030304 0.9393939393939394 0.030303030303030304 0.010101010101010102 0.020202020202020204 0.9367088607594937 0.02531645569620253 0.012658227848101266 0.02531645569620253 0.9514563106796117 0.009708737864077669 0.009708737864077669 0.02912621359223301 0.9058823529411765 0.011764705882352941 0.03529411764705882 0.047058823529411764 0.045454545454545456 0.9204545454545454 0.011363636363636364 0.022727272727272728 0.011494252873563218 0.9540229885057471 0.011494252873563218 0.022988505747126436 0.038461538461538464 0.9134615384615384 0.009615384615384616 0.038461538461538464 0.020833333333333332 0.9583333333333334 0.010416666666666666 0.010416666666666666 0.021739130434782608 0.9565217391304348 0.010869565217391304 0.010869565217391304 0.02666666666666667 0.9466666666666667 0.013333333333333334 0.013333333333333334 0.011494252873563218 0.9540229885057471 0.011494252873563218 0.022988505747126436 0.03125 0.9270833333333334 0.010416666666666666 0.03125 0.056179775280898875 0.898876404494382 0.011235955056179775 0.033707865168539325 0.06097560975609756 0.9146341463414634 0.012195121951219513 0.012195121951219513 0.02197802197802198 0.9340659340659341 0.01098901098901099 0.03296703296703297 0.04040404040404041 0.8787878787878788 0.010101010101010102 0.0707070707070707 0.033707865168539325 0.9213483146067416 0.011235955056179775 0.033707865168539325 0.024390243902439025 0.9512195121951219 0.012195121951219513 0.012195121951219513 0.019230769230769232 0.9519230769230769 0.009615384615384616 0.019230769230769232 0.025 0.95 0.0125 0.0125 0.009523809523809525 0.9523809523809523 0.009523809523809525 0.02857142857142857 0.05555555555555555 0.9 0.011111111111111112 0.03333333333333333 0.024691358024691357 0.9506172839506173 0.012345679012345678 0.012345679012345678 0.057971014492753624 0.8695652173913043 0.014492753623188406 0.057971014492753624 0.024096385542168676 0.9156626506024096 0.012048192771084338 0.04819277108433735 0.0425531914893617 0.9148936170212766 0.010638297872340425 0.031914893617021274 0.034482758620689655 0.9425287356321839 0.011494252873563218 0.011494252873563218 0.02631578947368421 0.9342105263157895 0.013157894736842105 0.02631578947368421 0.012658227848101266 0.9620253164556962 0.012658227848101266 0.012658227848101266 0.05952380952380952 0.8928571428571429 0.011904761904761904 0.03571428571428571 0.03488372093023256 0.9302325581395349 0.011627906976744186 0.023255813953488372 0.0136986301369863 0.9178082191780822 0.0136986301369863 0.0547945205479452 0.024390243902439025 0.9390243902439024 0.012195121951219513 0.024390243902439025 0.025 0.9375 0.0125 0.025 0.041666666666666664 0.8958333333333334 0.010416666666666666 0.052083333333333336 0.010526315789473684 0.9473684210526315 0.010526315789473684 0.031578947368421054 0.012048192771084338 0.9518072289156626 0.012048192771084338 0.024096385542168676 0.009900990099009901 0.9603960396039604 0.009900990099009901 0.019801980198019802 0.033707865168539325 0.9438202247191011 0.011235955056179775 0.011235955056179775 0.009433962264150943 0.9622641509433962 0.009433962264150943 0.018867924528301886 0.023809523809523808 0.9166666666666666 0.011904761904761904 0.047619047619047616 0.010416666666666666 0.9479166666666666 0.010416666666666666 0.03125 0.02127659574468085 0.9361702127659575 0.010638297872340425 0.031914893617021274 0.042105263157894736 0.9157894736842105 0.010526315789473684 0.031578947368421054 0.012345679012345678 0.9506172839506173 0.012345679012345678 0.024691358024691357 0.0125 0.9375 0.0125 0.0375 0.038461538461538464 0.9358974358974359 0.01282051282051282 0.01282051282051282 0.05 0.925 0.0125 0.0125 0.0375 0.9125 0.0125 0.0375 0.023809523809523808 0.011904761904761904 0.9285714285714286 0.03571428571428571 0.022222222222222223 0.011111111111111112 0.9444444444444444 0.022222222222222223 0.012658227848101266 0.012658227848101266 0.9620253164556962 0.012658227848101266 0.031914893617021274 0.010638297872340425 0.9361702127659575 0.02127659574468085 0.06097560975609756 0.012195121951219513 0.8658536585365854 0.06097560975609756 0.024096385542168676 0.012048192771084338 0.927710843373494 0.03614457831325301 0.02830188679245283 0.009433962264150943 0.9056603773584906 0.05660377358490566 0.061855670103092786 0.010309278350515464 0.8969072164948454 0.030927835051546393 0.047058823529411764 0.011764705882352941 0.9176470588235294 0.023529411764705882 0.03614457831325301 0.012048192771084338 0.927710843373494 0.024096385542168676 0.011764705882352941 0.011764705882352941 0.9529411764705882 0.023529411764705882 0.02564102564102564 0.01282051282051282 0.9358974358974359 0.02564102564102564 0.061855670103092786 0.010309278350515464 0.9072164948453608 0.020618556701030927 0.021739130434782608 0.010869565217391304 0.9456521739130435 0.021739130434782608 0.012345679012345678 0.012345679012345678 0.9506172839506173 0.024691358024691357 0.01098901098901099 0.01098901098901099 0.9560439560439561 0.02197802197802198 0.03488372093023256 0.011627906976744186 0.9418604651162791 0.011627906976744186 0.025974025974025976 0.012987012987012988 0.922077922077922 0.03896103896103896 0.03296703296703297 0.01098901098901099 0.9230769230769231 0.03296703296703297 0.029411764705882353 0.00980392156862745 0.9313725490196079 0.029411764705882353 0.010416666666666666 0.010416666666666666 0.9583333333333334 0.020833333333333332 0.023255813953488372 0.011627906976744186 0.9534883720930233 0.011627906976744186 0.025974025974025976 0.012987012987012988 0.935064935064935 0.025974025974025976 0.060240963855421686 0.012048192771084338 0.9036144578313253 0.024096385542168676 0.0375 0.0125 0.9125 0.0375 0.02702702702702703 0.013513513513513514 0.918918918918919 0.04054054054054054 0.04 0.013333333333333334 0.9333333333333333 0.013333333333333334 0.02040816326530612 0.01020408163265306 0.9489795918367347 0.02040816326530612 0.024691358024691357 0.012345679012345678 0.9259259259259259 0.037037037037037035 0.041666666666666664 0.010416666666666666 0.9270833333333334 0.020833333333333332 0.031578947368421054 0.010526315789473684 0.9052631578947369 0.05263157894736842 0.03260869565217391 0.010869565217391304 0.9130434782608695 0.043478260869565216 0.028169014084507043 0.014084507042253521 0.9436619718309859 0.014084507042253521 0.014492753623188406 0.014492753623188406 0.9420289855072463 0.028985507246376812 0.011764705882352941 0.011764705882352941 0.9647058823529412 0.011764705882352941 0.041666666666666664 0.013888888888888888 0.9166666666666666 0.027777777777777776 0.047058823529411764 0.011764705882352941 0.9176470588235294 0.023529411764705882 0.013157894736842105 0.013157894736842105 0.9473684210526315 0.02631578947368421 0.03333333333333333 0.011111111111111112 0.9333333333333333 0.022222222222222223 0.012658227848101266 0.012658227848101266 0.9367088607594937 0.0379746835443038 0.024390243902439025 0.012195121951219513 0.926829268292683 0.036585365853658534 0.0297029702970297 0.009900990099009901 0.9405940594059405 0.019801980198019802 0.02247191011235955 0.011235955056179775 0.9550561797752809 0.011235955056179775 0.011494252873563218 0.011494252873563218 0.9540229885057471 0.022988505747126436 0.02247191011235955 0.011235955056179775 0.9550561797752809 0.011235955056179775 0.02127659574468085 0.02127659574468085 0.02127659574468085 0.9361702127659575 0.056179775280898875 0.033707865168539325 0.033707865168539325 0.8764044943820225 0.02247191011235955 0.02247191011235955 0.011235955056179775 0.9438202247191011 0.03488372093023256 0.046511627906976744 0.011627906976744186 0.9069767441860465 0.036585365853658534 0.04878048780487805 0.024390243902439025 0.8902439024390244 0.041237113402061855 0.061855670103092786 0.030927835051546393 0.865979381443299 0.023529411764705882 0.011764705882352941 0.023529411764705882 0.9411764705882353 0.03614457831325301 0.012048192771084338 0.024096385542168676 0.927710843373494 0.031914893617021274 0.031914893617021274 0.0425531914893617 0.8936170212765957 0.02631578947368421 0.013157894736842105 0.02631578947368421 0.9342105263157895 0.06944444444444445 0.027777777777777776 0.027777777777777776 0.875 0.024390243902439025 0.024390243902439025 0.012195121951219513 0.9390243902439024 0.031578947368421054 0.010526315789473684 0.042105263157894736 0.9157894736842105 0.038461538461538464 0.02564102564102564 0.02564102564102564 0.9102564102564102 0.012658227848101266 0.012658227848101266 0.02531645569620253 0.9493670886075949 0.03614457831325301 0.012048192771084338 0.024096385542168676 0.927710843373494 0.036585365853658534 0.024390243902439025 0.012195121951219513 0.926829268292683 0.025974025974025976 0.025974025974025976 0.03896103896103896 0.9090909090909091 0.038461538461538464 0.02564102564102564 0.05128205128205128 0.8846153846153846 0.06578947368421052 0.02631578947368421 0.02631578947368421 0.881578947368421 0.013513513513513514 0.013513513513513514 0.02702702702702703 0.9459459459459459 0.0375 0.025 0.025 0.9125 0.022727272727272728 0.03409090909090909 0.056818181818181816 0.8863636363636364 0.025974025974025976 0.012987012987012988 0.05194805194805195 0.9090909090909091 0.052083333333333336 0.0625 0.03125 0.8541666666666666 0.04040404040404041 0.030303030303030304 0.030303030303030304 0.898989898989899 0.03260869565217391 0.021739130434782608 0.043478260869565216 0.9021739130434783 0.012345679012345678 0.037037037037037035 0.037037037037037035 0.9135802469135802 0.04950495049504951 0.04950495049504951 0.0297029702970297 0.8712871287128713 0.022988505747126436 0.022988505747126436 0.011494252873563218 0.9425287356321839 0.038461538461538464 0.05128205128205128 0.01282051282051282 0.8974358974358975 0.014925373134328358 0.014925373134328358 0.029850746268656716 0.9402985074626866 0.0449438202247191 0.02247191011235955 0.02247191011235955 0.9101123595505618 0.023529411764705882 0.023529411764705882 0.023529411764705882 0.9294117647058824 0.022988505747126436 0.034482758620689655 0.022988505747126436 0.9195402298850575 0.046153846153846156 0.03076923076923077 0.03076923076923077 0.8923076923076924 0.022727272727272728 0.022727272727272728 0.03409090909090909 0.9204545454545454 0.03296703296703297 0.02197802197802198 0.01098901098901099 0.9340659340659341 0.05 0.025 0.025 0.9 0.03896103896103896 0.05194805194805195 0.025974025974025976 0.8831168831168831 0.02127659574468085 0.0425531914893617 0.0425531914893617 0.8936170212765957 0.047619047619047616 0.023809523809523808 0.03571428571428571 0.8928571428571429 0.03571428571428571 0.05952380952380952 0.023809523809523808 0.8809523809523809 0.04878048780487805 0.024390243902439025 0.024390243902439025 0.9024390243902439 0.04597701149425287 0.022988505747126436 0.011494252873563218 0.9195402298850575</probabilities>
</cpt>
<cpt id="pai_h_ratio_fsl_1_quantiled">
<state id="s0_07"/>
<state id="s0_1"/>
<state id="s0_2"/>
<state id="s0_3"/>
<parents>increm_cost_z </parents>
<probabilities>0.2667112299465241 0.22727272727272727 0.2606951871657754 0.24532085561497327 0.2639161755075311 0.2409954158480681 0.24492468893254749 0.2501637197118533 0.26534653465346536 0.25544554455445545 0.24356435643564356 0.23564356435643563 0.2789808917197452 0.2356687898089172 0.24585987261146497 0.2394904458598726 0.2660738714090287 0.253077975376197 0.22845417236662108 0.25239398084815323 0.2851485148514851 0.23498349834983498 0.2462046204620462 0.23366336633663368 0.2855288773523686 0.23556132381570408 0.2336145360155743 0.24529526281635303 0.28926174496644297 0.23691275167785236 0.24563758389261744 0.22818791946308725 0.25961538461538464 0.2551282051282051 0.2532051282051282 0.23205128205128206 0.26912378303198886 0.22878998609179416 0.23087621696801114 0.2712100139082058</probabilities>
</cpt>
<cpt id="pai_h_ratio_fsl_2_quantiled">
<state id="s0_2"/>
<state id="s0_3"/>
<state id="s0_4"/>
<state id="s0_8"/>
<parents>increm_cost_z pai_h_ratio_fsl_1_quantiled </parents>
<probabilities>0.2885572139303483 0.23134328358208955 0.23134328358208955 0.24875621890547264 0.2886297376093295 0.24489795918367346 0.239067055393586 0.22740524781341107 0.26208651399491095 0.24681933842239187 0.24427480916030533 0.24681933842239187 0.27297297297297296 0.2756756756756757 0.20810810810810812 0.24324324324324326 0.27832512315270935 0.2684729064039409 0.25862068965517243 0.19458128078817735 0.25067385444743934 0.23450134770889489 0.25336927223719674 0.261455525606469 0.2519893899204244 0.22281167108753316 0.22811671087533156 0.29708222811671087 0.2805194805194805 0.23636363636363636 0.18961038961038962 0.2935064935064935 0.2814814814814815 0.21728395061728395 0.24938271604938272 0.2518518518518518 0.26666666666666666 0.22564102564102564 0.25384615384615383 0.25384615384615383 0.26344086021505375 0.25268817204301075 0.239247311827957 0.2446236559139785 0.25 0.275 0.2222222222222222 0.25277777777777777 0.2562358276643991 0.2471655328798186 0.23129251700680273 0.2653061224489796 0.29222520107238603 0.22788203753351208 0.24128686327077747 0.2386058981233244 0.2416452442159383 0.27249357326478146 0.2493573264781491 0.2365038560411311 0.3087071240105541 0.20844327176781002 0.27440633245382584 0.20844327176781002 0.288265306122449 0.23214285714285715 0.2372448979591837 0.2423469387755102 0.3163538873994638 0.20911528150134048 0.26005361930294907 0.21447721179624665 0.3353115727002967 0.1661721068249258 0.24925816023738873 0.24925816023738873 0.3333333333333333 0.20967741935483872 0.24731182795698925 0.20967741935483872 0.2160919540229885 0.2574712643678161 0.26436781609195403 0.2620689655172414 0.2924791086350975 0.2562674094707521 0.2116991643454039 0.2395543175487465 0.2526595744680851 0.2553191489361702 0.26861702127659576 0.22340425531914893 0.2689075630252101 0.19607843137254902 0.24369747899159663 0.2913165266106443 0.25733634311512416 0.23702031602708803 0.2528216704288939 0.2528216704288939 0.2540983606557377 0.2540983606557377 0.24863387978142076 0.24316939890710382 0.21212121212121213 0.2231404958677686 0.31129476584022037 0.2534435261707989 0.28083989501312334 0.27296587926509186 0.2230971128608924 0.2230971128608924 0.29723502304147464 0.2350230414746544 0.23963133640552994 0.22811059907834103 0.29213483146067415 0.22752808988764045 0.2752808988764045 0.2050561797752809 0.2926829268292683 0.22493224932249323 0.2222222222222222 0.2601626016260163 0.2915451895043732 0.21282798833819241 0.25072886297376096 0.24489795918367346 0.2916666666666667 0.21568627450980393 0.23774509803921567 0.2549019607843137 0.2892768079800499 0.26932668329177056 0.1970074812967581 0.24438902743142144 0.23869346733668342 0.23618090452261306 0.2663316582914573 0.25879396984924624 0.26301369863013696 0.20273972602739726 0.2684931506849315 0.26575342465753427 0.31025641025641026 0.23076923076923078 0.2205128205128205 0.23846153846153847 0.2740963855421687 0.25301204819277107 0.1927710843373494 0.28012048192771083 0.27761194029850744 0.23880597014925373 0.24776119402985075 0.23582089552238805 0.2875318066157761 0.24427480916030533 0.22900763358778625 0.23918575063613232</probabilities>
</cpt>
<cpt id="h_2">
<state id="s3"/>
<state id="s4"/>
<state id="s5"/>
<state id="s10"/>
<state id="s11"/>
<state id="s12"/>
<state id="s15"/>
<state id="s16"/>
<state id="s17"/>
<parents>ship_cost_c items_warehouse_Stilde_fsl2_quantiled pai_h_ratio_fsl_2_quantiled </parents>
