<?xml version="1.0" encoding="ISO-8859-1"?>
<smile version="1.0" id="Network2" numsamples="1234">
<nodes>
<cpt id="pai_h_ratio_fsl_2_quantiled">
<state id="s0_2"/>
<state id="s0_3"/>
<state id="s0_4"/>
<state id="s0_8"/>
<parents></parents>
<probabilities>0.2729967538014693 0.2340594566888775 0.24577994191013156 0.24716384759952162</probabilities>
</cpt>
<cpt id="ship_cost_c">
<state id="s0"/>
<state id="s5"/>
<state id="s10"/>
<state id="s15"/>
<state id="s20"/>
<state id="s25"/>
<state id="s30"/>
<state id="s35"/>
<state id="s40"/>
<state id="s45"/>
<parents>pai_h_ratio_fsl_2_quantiled </parents>
<probabilities>0.09997810241811869 0.10069759439421903 0.10101041699252354 0.10044733631557544 0.09950886852066193 0.10029092501642319 0.10188632026777615 0.09869552976507023 0.09669346513592142 0.10079144117371039 0.09960232040570616 0.10416286621182823 0.09931044547411434 0.095151227698931 0.1039074756466854 0.09978474223795104 0.09741325841876756 0.09927396110766537 0.10007661716954284 0.10131708562880806 0.09850248427782217 0.10256766616865293 0.09520169556304506 0.10041346721795628 0.0980507974010632 0.09780758139050068 0.09857197456655432 0.10201174385879573 0.10465237483061741 0.10222021472499218 0.09829665204021698 0.09954047610821269 0.09943682410254638 0.1013371108730954 0.09798569602321805 0.09950592543965726 0.10126800953598453 0.10005873613654424 0.10392841101475314 0.09864215872577134</probabilities>
</cpt>
<cpt id="items_warehouse_Stilde_fsl2_quantiled">
<state id="s5_0"/>
<state id="s15_0"/>
<state id="s25_0"/>
<state id="s100_0"/>
<parents>ship_cost_c pai_h_ratio_fsl_2_quantiled </parents>
<probabilities>0.2600812753985621 0.2400750234448265 0.24788996561425444 0.251953735542357 0.27588730332967437 0.23015001829491402 0.2414928649835346 0.2524698133918771 0.26955602536997886 0.2357293868921776 0.24770965468639888 0.2470049330514447 0.27071629213483145 0.2363061797752809 0.24297752808988765 0.25 0.2777777777777778 0.24022346368715083 0.23339540657976413 0.24860335195530725 0.27676696990902727 0.22428271518544438 0.24317704688593422 0.2557732680195941 0.26802030456852793 0.2287648054145516 0.24467005076142131 0.25854483925549915 0.268377253814147 0.23613037447988905 0.24895977808599168 0.24653259361997226 0.27413366336633666 0.24659653465346534 0.22679455445544555 0.2524752475247525 0.2653211009174312 0.25724770642201833 0.24660550458715597 0.23082568807339449 0.2810791104629967 0.23878964637258476 0.23842508202697776 0.24170616113744076 0.2672683096147171 0.2485248177716071 0.24227698715723708 0.24192988545643873 0.2750466708151836 0.23397635345364032 0.2373988799004356 0.25357809583074054 0.2868632707774799 0.22060513213328226 0.24052087322864804 0.2520107238605898 0.2716902868994124 0.2371240926374006 0.24161769789146215 0.24956792257172486 0.2670299727520436 0.24931880108991825 0.23467302452316077 0.24897820163487738 0.26853015075376885 0.2449748743718593 0.2390075376884422 0.24748743718592964 0.28691687127323745 0.24868467204489653 0.21851981760785688 0.24587863907400911 0.27539823008849557 0.2407079646017699 0.24176991150442478 0.24212389380530974 0.27580133849947164 0.22578372666431842 0.24973582247270165 0.2486791123635083 0.2832658148956061 0.22623870364599563 0.2374571517606731 0.25303832969772516 0.25639152666179693 0.25821767713659605 0.23192111029948867 0.2534696859021183 0.27572746628814765 0.23172462739531582 0.25159687721788504 0.24095102909865151 0.25979882067291016 0.24765868886576484 0.24349635796045785 0.24904613250086716 0.27791411042944786 0.24785276073619633 0.23803680981595093 0.2361963190184049 0.2723531612420501 0.24841002618780397 0.2364384586606809 0.24279835390946503 0.2721830985915493 0.24929577464788732 0.23274647887323943 0.24577464788732395 0.2723244717109748 0.2389229720518064 0.24505794137695977 0.24369461486025903 0.2799240025332489 0.24255858138062064 0.22640911969601013 0.25110829639012033 0.26505139500734215 0.24522760646108663 0.2448604992657856 0.2448604992657856 0.270840421912215 0.23273222184416467 0.25382783259612113 0.24259952364749915 0.27009313556398756 0.23732321490169023 0.23732321490169023 0.2552604346326319 0.2792501616031028 0.226890756302521 0.25210084033613445 0.24175824175824176 0.27239621267297887 0.23306627822286963 0.2498179169701384 0.24471959213401312 0.2650082918739635 0.2417910447761194 0.24046434494195687 0.2527363184079602 0.2769843905679176 0.23248090335436733 0.24842245101295252 0.24211225506476253 0.26759689922480623 0.2372093023255814 0.2607751937984496 0.2344186046511628 0.27014388489208635 0.24496402877697843 0.239568345323741 0.24532374100719426 0.26757215619694397 0.2397283531409168 0.24448217317487267 0.24821731748726655 0.2564730580825752 0.22813156053184044 0.25262421273617913 0.2627711686494052</probabilities>
</cpt>
<cpt id="h_2">
<state id="s3"/>
<state id="s4"/>
<state id="s5"/>
<state id="s10"/>
<state id="s11"/>
<state id="s12"/>
<state id="s15"/>
<state id="s16"/>
<state id="s17"/>
<parents>items_warehouse_Stilde_fsl2_quantiled pai_h_ratio_fsl_2_quantiled ship_cost_c </parents>
<probabilities>0.3416666666666667 0.27380952380952384 0.2511904761904762 0.0869047619047619 0.041666666666666664 0.0011904761904761906 0.0011904761904761906 0.0011904761904761906 0.0011904761904761906 0.3266888150609081 0.26578073089701 0.2691029900332226 0.09634551495016612 0.03765227021040975 0.0011074197120708748 0.0011074197120708748 0.0011074197120708748 0.0011074197120708748 0.3042505592841163 0.28747203579418346 0.25727069351230425 0.08389261744966443 0.06263982102908278 0.0011185682326621924 0.0011185682326621924 0.0011185682326621924 0.0011185682326621924 0.33183856502242154 0.24327354260089687 0.26681614349775784 0.1031390134529148 0.05044843049327354 0.0011210762331838565 0.0011210762331838565 0.0011210762331838565 0.0011210762331838565 0.320973348783314 0.27809965237543455 0.2688296639629201 0.08574739281575898 0.04171494785631518 0.0011587485515643105 0.0011587485515643105 0.0011587485515643105 0.0011587485515643105 0.31624863685932386 0.2791712104689204 0.2780806979280262 0.07960741548527808 0.04252998909487459 0.0010905125408942203 0.0010905125408942203 0.0010905125408942203 0.0010905125408942203 0.3293216630196937 0.2538293216630197 0.2811816192560175 0.07221006564551423 0.05908096280087528 0.0010940919037199124 0.0010940919037199124 0.0010940919037199124 0.0010940919037199124 0.32286995515695066 0.2701793721973094 0.2858744394618834 0.0773542600896861 0.03923766816143498 0.0011210762331838565 0.0011210762331838565 0.0011210762331838565 0.0011210762331838565 0.32454128440366975 0.2717889908256881 0.26376146788990823 0.0860091743119266 0.04931192660550459 0.0011467889908256881 0.0011467889908256881 0.0011467889908256881 0.0011467889908256881 0.3249138920780712 0.25832376578645233 0.25947187141216993 0.09988518943742825 0.05281285878300804 0.001148105625717566 0.001148105625717566 0.001148105625717566 0.001148105625717566 0.05380577427821522 0.09317585301837271 0.04068241469816273 0.16141732283464566 0.16272965879265092 0.22178477690288714 0.11548556430446194 0.09580052493438321 0.05511811023622047 0.06508135168961202 0.10763454317897372 0.057571964956195244 0.15894868585732166 0.1639549436795995 0.2127659574468085 0.09762202753441802 0.08760951188986232 0.04881101376720901 0.0506155950752394 0.10533515731874145 0.04514363885088919 0.17510259917920656 0.16826265389876882 0.20930232558139536 0.09712722298221614 0.1094391244870041 0.03967168262653899 0.05019815059445178 0.1083223249669749 0.052840158520475564 0.16512549537648613 0.166446499339498 0.21796565389696168 0.09379128137384413 0.09379128137384413 0.05151915455746367 0.04963680387409201 0.11864406779661017 0.05084745762711865 0.16464891041162227 0.14164648910411623 0.22276029055690072 0.10774818401937046 0.08837772397094432 0.05569007263922518 0.04366197183098591 0.10140845070422536 0.05352112676056338 0.16619718309859155 0.14225352112676057 0.23380281690140844 0.10140845070422536 0.10422535211267606 0.05352112676056338 0.04755434782608696 0.11277173913043478 0.042119565217391304 0.14402173913043478 0.16576086956521738 0.18614130434782608 0.1331521739130435 0.11277173913043478 0.05570652173913043 0.06438356164383562 0.11095890410958904 0.052054794520547946 0.14246575342465753 0.15342465753424658 0.1958904109589041 0.11643835616438356 0.11232876712328767 0.052054794520547946 0.047619047619047616 0.10185185185185185 0.05291005291005291 0.17328042328042328 0.1455026455026455 0.21031746031746032 0.1164021164021164 0.09523809523809523 0.056878306878306875 0.04743083003952569 0.11857707509881422 0.052700922266139656 0.16996047430830039 0.13306982872200263 0.21870882740447958 0.10013175230566534 0.10935441370223979 0.05006587615283267 0.050452781371280724 0.00129366106080207 0.04915912031047866 0.11384217335058215 0.1332470892626132 0.1034928848641656 0.16558861578266496 0.15653298835705046 0.22639068564036222 0.06 0.00125 0.05375 0.0975 0.15625 0.0875 0.18 0.165 0.19875 0.05391527599486521 0.0012836970474967907 0.051347881899871634 0.08600770218228498 0.1399229781771502 0.09499358151476252 0.21052631578947367 0.17073170731707318 0.19127086007702182 0.041561712846347604 0.0012594458438287153 0.0491183879093199 0.07556675062972293 0.14105793450881612 0.09193954659949623 0.2216624685138539 0.1473551637279597 0.2304785894206549 0.05979643765903308 0.001272264631043257 0.05343511450381679 0.10814249363867684 0.13231552162849872 0.10432569974554708 0.1806615776081425 0.14631043256997456 0.21374045801526717 0.061146496815286625 0.0012738853503184713 0.06369426751592357 0.10445859872611465 0.12356687898089172 0.11210191082802548 0.17197452229299362 0.1643312101910828 0.19745222929936307 0.04481434058898848 0.0012804097311139564 0.046094750320102434 0.10115236875800256 0.1523687580025608 0.10499359795134443 0.1997439180537772 0.14340588988476313 0.20614596670934698 0.0472636815920398 0.0012437810945273632 0.04228855721393035 0.10820895522388059 0.15547263681592038 0.08333333333333333 0.20024875621890548 0.17039800995024876 0.19154228855721392 0.05080545229244114 0.0012391573729863693 0.06319702602230483 0.08674101610904585 0.1251548946716233 0.1251548946716233 0.18711276332094176 0.14250309789343246 0.218091697645601 0.056532663316582916 0.001256281407035176 0.06658291457286432 0.10678391959798995 0.13316582914572864 0.11809045226130653 0.2022613065326633 0.12185929648241206 0.1934673366834171 0.0012836970474967907 0.051347881899871634 0.05006418485237484 0.10397946084724005 0.10526315789473684 0.14120667522464697 0.13478818998716302 0.20282413350449294 0.2092426187419769 0.0012787723785166241 0.04731457800511509 0.04859335038363171 0.10358056265984655 0.10613810741687979 0.15089514066496162 0.15217391304347827 0.20332480818414322 0.1867007672634271 0.0012853470437017994 0.04113110539845758 0.05784061696658098 0.10796915167095116 0.09254498714652956 0.14395886889460155 0.12596401028277635 0.2043701799485861 0.2249357326478149 0.0012626262626262627 0.04924242424242424 0.045454545454545456 0.09090909090909091 0.10227272727272728 0.1452020202020202 0.16540404040404041 0.2058080808080808 0.19444444444444445 0.0012642225031605564 0.045512010113780026 0.05562579013906448 0.11378002528445007 0.09102402022756005 0.16055625790139064 0.16055625790139064 0.179519595448799 0.19216182048040456 0.001321003963011889 0.03963011889035667 0.05548216644649934 0.09907529722589167 0.095112285336856 0.14134742404227213 0.14795244385733158 0.20607661822985468 0.21400264200792601 0.0012391573729863693 0.05204460966542751 0.055762081784386616 0.09913258983890955 0.10408921933085502 0.14993804213135067 0.16728624535315986 0.19330855018587362 0.1771995043370508 0.0012642225031605564 0.04804045512010114 0.05941845764854614 0.10998735777496839 0.10240202275600506 0.14412136536030343 0.1415929203539823 0.19848293299620734 0.19469026548672566 0.0011876484560570072 0.05819477434679335 0.052256532066508314 0.0997624703087886 0.09738717339667459 0.16033254156769597 0.13182897862232779 0.1828978622327791 0.2161520190023753 0.001349527665317139 0.04588394062078273 0.059379217273954114 0.11201079622132254 0.0796221322537112 0.15789473684210525 0.12955465587044535 0.20512820512820512 0.20917678812415655 0.31443298969072164 0.2912371134020619 0.25 0.09536082474226804 0.04381443298969072 0.001288659793814433 0.001288659793814433 0.001288659793814433 0.001288659793814433 0.30434782608695654 0.2710997442455243 0.2864450127877238 0.08695652173913043 0.04603580562659847 0.0012787723785166241 0.0012787723785166241 0.0012787723785166241 0.0012787723785166241 0.2956521739130435 0.2906832298136646 0.2645962732919255 0.10186335403726708 0.0422360248447205 0.0012422360248447205 0.0012422360248447205 0.0012422360248447205 0.0012422360248447205 0.3 0.2631578947368421 0.2776315789473684 0.09473684210526316 0.05921052631578947 0.0013157894736842105 0.0013157894736842105 0.0013157894736842105 0.0013157894736842105 0.2817258883248731 0.30076142131979694 0.2906091370558376 0.07868020304568528 0.04314720812182741 0.0012690355329949238 0.0012690355329949238 0.0012690355329949238 0.0012690355329949238 0.31471389645776565 0.2574931880108992 0.2779291553133515 0.08991825613079019 0.05449591280653951 0.0013623978201634877 0.0013623978201634877 0.0013623978201634877 0.0013623978201634877 0.3272058823529412 0.25980392156862747 0.27818627450980393 0.08333333333333333 0.04656862745098039 0.0012254901960784314 0.0012254901960784314 0.0012254901960784314 0.0012254901960784314 0.313953488372093 0.28294573643410853 0.2622739018087855 0.09043927648578812 0.04521963824289406 0.0012919896640826874 0.0012919896640826874 0.0012919896640826874 0.0012919896640826874 0.3211267605633803 0.2802816901408451 0.23661971830985915 0.09295774647887324 0.06338028169014084 0.0014084507042253522 0.0014084507042253522 0.0014084507042253522 0.0014084507042253522 0.3078913324708926 0.25614489003880986 0.26002587322121606 0.1073738680465718 0.06338939197930142 0.00129366106080207 0.00129366106080207 0.00129366106080207 0.00129366106080207 0.0565149136577708 0.11459968602825746 0.03924646781789639 0.14599686028257458 0.1664050235478807 0.19309262166405022 0.11616954474097331 0.11616954474097331 0.05180533751962323 0.05855161787365177 0.0970724191063174 0.05546995377503852 0.16024653312788906 0.18489984591679506 0.1802773497688752 0.09553158705701079 0.11248073959938366 0.05546995377503852 0.0535966149506347 0.11283497884344147 0.04372355430183357 0.1622002820874471 0.14809590973201692 0.19605077574047955 0.12834978843441466 0.10296191819464035 0.05218617771509168 0.04965753424657534 0.09931506849315068 0.04965753424657534 0.15924657534246575 0.13356164383561644 0.2226027397260274 0.1113013698630137 0.10616438356164383 0.0684931506849315 0.05439330543933055 0.1101813110181311 0.05439330543933055 0.14365411436541142 0.1603905160390516 0.19246861924686193 0.10599721059972106 0.1101813110181311 0.06834030683403068 0.07272727272727272 0.0993006993006993 0.06153846153846154 0.17062937062937064 0.14405594405594405 0.2055944055944056 0.09090909090909091 0.1034965034965035 0.05174825174825175 0.049107142857142856 0.12202380952380952 0.05357142857142857 0.16071428571428573 0.17113095238095238 0.19345238095238096 0.10267857142857142 0.09523809523809523 0.052083333333333336 0.0650887573964497 0.09763313609467456 0.05917159763313609 0.14644970414201183 0.14053254437869822 0.20710059171597633 0.1257396449704142 0.10798816568047337 0.05029585798816568 0.05864197530864197 0.08333333333333333 0.06018518518518518 0.16049382716049382 0.1882716049382716 0.2052469135802469 0.1111111111111111 0.07407407407407407 0.05864197530864197 0.04934687953555878 0.09433962264150944 0.059506531204644414 0.1567489114658926 0.14368650217706821 0.20609579100145137 0.10449927431059507 0.1262699564586357 0.059506531204644414 0.0413589364844904 0.0014771048744460858 0.060561299852289516 0.13146233382570163 0.14032496307237813 0.10487444608567208 0.19497784342688332 0.12850812407680945 0.1964549483013294 0.039473684210526314 0.0014619883040935672 0.05847953216374269 0.12426900584795321 0.15497076023391812 0.097953216374269 0.20029239766081872 0.13596491228070176 0.1871345029239766 0.048265460030165915 0.0015082956259426848 0.049773755656108594 0.12368024132730016 0.14479638009049775 0.10407239819004525 0.21116138763197587 0.13725490196078433 0.1794871794871795 0.056195965417867436 0.001440922190201729 0.03314121037463977 0.0936599423631124 0.15994236311239193 0.0893371757925072 0.20461095100864554 0.13256484149855907 0.22910662824207492 0.06686046511627906 0.0014534883720930232 0.046511627906976744 0.09302325581395349 0.1686046511627907 0.10174418604651163 0.20203488372093023 0.14098837209302326 0.17877906976744187 0.05597579425113464 0.0015128593040847202 0.057488653555219364 0.09833585476550681 0.14523449319213314 0.11649016641452345 0.1875945537065053 0.15582450832072617 0.1815431164901664 0.06843575418994413 0.0013966480446927375 0.03770949720670391 0.10474860335195531 0.1634078212290503 0.09217877094972067 0.19553072625698323 0.1494413407821229 0.1871508379888268 0.05491329479768786 0.001445086705202312 0.0476878612716763 0.10838150289017341 0.1546242774566474 0.09826589595375723 0.19653179190751446 0.1430635838150289 0.19508670520231214 0.052917232021709636 0.0013568521031207597 0.051560379918588875 0.0814111261872456 0.1614654002713704 0.11940298507462686 0.19810040705563092 0.14925373134328357 0.18453188602442333 0.046218487394957986 0.0014005602240896359 0.06022408963585434 0.09243697478991597 0.13585434173669467 0.10084033613445378 0.20728291316526612 0.15406162464985995 0.20168067226890757 0.0014684287812041115 0.039647577092511016 0.04405286343612335 0.1277533039647577 0.08370044052863436 0.1395007342143906 0.14096916299559473 0.19823788546255505 0.22466960352422907 0.001451378809869376 0.04354136429608128 0.055152394775036286 0.09724238026124818 0.09579100145137881 0.13933236574746008 0.14223512336719885 0.23947750362844702 0.18577648766328012 0.0013812154696132596 0.05110497237569061 0.04834254143646409 0.10359116022099447 0.0925414364640884 0.1574585635359116 0.15193370165745856 0.19613259668508287 0.19751381215469613 0.0013513513513513514 0.052702702702702706 0.06621621621621622 0.0945945945945946 0.08783783783783784 0.1527027027027027 0.14864864864864866 0.19864864864864865 0.1972972972972973 0.0015408320493066256 0.053929121725731895 0.06779661016949153 0.1140215716486903 0.08936825885978428 0.14637904468412943 0.14329738058551617 0.18335901386748846 0.20030816640986132 0.0013850415512465374 0.05678670360110803 0.05817174515235457 0.09556786703601108 0.09695290858725762 0.1523545706371191 0.1592797783933518 0.16620498614958448 0.21329639889196675 0.0014104372355430183 0.045133991537376586 0.0380818053596615 0.1227080394922426 0.09732016925246827 0.1607898448519041 0.153737658674189 0.17348377997179126 0.2073342736248237 0.0014367816091954023 0.05172413793103448 0.04310344827586207 0.10632183908045977 0.10919540229885058 0.15517241379310345 0.15517241379310345 0.1867816091954023 0.1910919540229885 0.0014124293785310734 0.04943502824858757 0.04519774011299435 0.10734463276836158 0.09180790960451977 0.15112994350282485 0.16101694915254236 0.20056497175141244 0.192090395480226 0.0015151515151515152 0.04696969696969697 0.04696969696969697 0.09090909090909091 0.11666666666666667 0.15757575757575756 0.15757575757575756 0.1984848484848485 0.18333333333333332 0.3333333333333333 0.25218476903870163 0.26217228464419473 0.08739076154806492 0.0599250936329588 0.0012484394506866417 0.0012484394506866417 0.0012484394506866417 0.0012484394506866417 0.32763157894736844 0.2894736842105263 0.2513157894736842 0.07763157894736843 0.04868421052631579 0.0013157894736842105 0.0013157894736842105 0.0013157894736842105 0.0013157894736842105 0.31983805668016196 0.22941970310391363 0.3049932523616734 0.09446693657219973 0.04588394062078273 0.001349527665317139 0.001349527665317139 0.001349527665317139 0.001349527665317139 0.30739299610894943 0.2801556420233463 0.26718547341115434 0.09857328145265888 0.041504539559014265 0.0012970168612191958 0.0012970168612191958 0.0012970168612191958 0.0012970168612191958 0.2847854356306892 0.2808842652795839 0.27308192457737324 0.10273081924577374 0.053315994798439535 0.0013003901170351106 0.0013003901170351106 0.0013003901170351106 0.0013003901170351106 0.3090909090909091 0.24155844155844156 0.2896103896103896 0.09480519480519481 0.05974025974025974 0.0012987012987012987 0.0012987012987012987 0.0012987012987012987 0.0012987012987012987 0.288265306122449 0.3022959183673469 0.274234693877551 0.08801020408163265 0.042091836734693876 0.0012755102040816326 0.0012755102040816326 0.0012755102040816326 0.0012755102040816326 0.28907330567081607 0.2766251728907331 0.2835408022130014 0.08990318118948824 0.05532503457814661 0.0013831258644536654 0.0013831258644536654 0.0013831258644536654 0.0013831258644536654 0.3248730964467005 0.2614213197969543 0.2753807106598985 0.08629441624365482 0.046954314720812185 0.0012690355329949238 0.0012690355329949238 0.0012690355329949238 0.0012690355329949238 0.3250883392226148 0.26383981154299174 0.254416961130742 0.0977620730270907 0.05418138987043581 0.001177856301531213 0.001177856301531213 0.001177856301531213 0.001177856301531213 0.0658682634730539 0.1092814371257485 0.061377245508982034 0.13622754491017963 0.14520958083832336 0.2155688622754491 0.1092814371257485 0.10329341317365269 0.05389221556886228 0.06543385490753911 0.08961593172119488 0.06116642958748222 0.155049786628734 0.13655761024182078 0.2119487908961593 0.08819345661450925 0.14082503556187767 0.051209103840682786 0.04411764705882353 0.08823529411764706 0.058823529411764705 0.16323529411764706 0.16323529411764706 0.21470588235294116 0.1 0.12941176470588237 0.03823529411764706 0.050314465408805034 0.09748427672955975 0.059748427672955975 0.16823899371069181 0.14465408805031446 0.22012578616352202 0.10534591194968554 0.10849056603773585 0.04559748427672956 0.06339144215530904 0.0919175911251981 0.05229793977812995 0.14580031695721077 0.15689381933438987 0.2076069730586371 0.11568938193343899 0.10142630744849446 0.06497622820919176 0.049766718506998445 0.104199066874028 0.05598755832037325 0.15085536547433903 0.15396578538102643 0.223950233281493 0.12286158631415241 0.08864696734059098 0.049766718506998445 0.0453125 0.109375 0.059375 0.178125 0.1734375 0.19375 0.10625 0.0765625 0.0578125 0.054814814814814816 0.10074074074074074 0.0637037037037037 0.17333333333333334 0.13925925925925925 0.18814814814814815 0.11259259259259259 0.1111111111111111 0.056296296296296296 0.059077809798270896 0.10086455331412104 0.06051873198847262 0.13976945244956773 0.16570605187319884 0.19596541786743515 0.0994236311239193 0.12680115273775217 0.05187319884726225 0.05489614243323442 0.09643916913946587 0.05489614243323442 0.18694362017804153 0.1513353115727003 0.23738872403560832 0.09495548961424333 0.08011869436201781 0.04302670623145401 0.06047819971870605 0.0014064697609001407 0.05063291139240506 0.09282700421940929 0.14345991561181434 0.11673699015471167 0.19127988748241911 0.15049226441631505 0.19268635724331926 0.04240766073871409 0.0013679890560875513 0.060191518467852256 0.09986320109439124 0.17236662106703146 0.09986320109439124 0.19288645690834474 0.13406292749658003 0.19699042407660738 0.05891238670694864 0.0015105740181268882 0.045317220543806644 0.1027190332326284 0.14501510574018128 0.0891238670694864 0.19184290030211482 0.16314199395770393 0.20241691842900303 0.04950495049504951 0.0014144271570014145 0.04809052333804809 0.06364922206506365 0.18811881188118812 0.09618104667609619 0.18104667609618105 0.15417256011315417 0.21782178217821782 0.04775687409551375 0.001447178002894356 0.05788712011577424 0.07380607814761216 0.1548480463096961 0.10564399421128799 0.18813314037626627 0.1649782923299566 0.20549927641099855 0.05160390516039052 0.001394700139470014 0.03207810320781032 0.12412831241283125 0.14225941422594143 0.07670850767085077 0.19386331938633194 0.1589958158995816 0.21896792189679218 0.053811659192825115 0.0014947683109118087 0.05530642750373692 0.08520179372197309 0.12406576980568013 0.11509715994020926 0.21674140508221226 0.16591928251121077 0.18236173393124067 0.03978779840848806 0.001326259946949602 0.05172413793103448 0.08753315649867374 0.15119363395225463 0.07957559681697612 0.21087533156498675 0.15915119363395225 0.21883289124668434 0.04638472032742155 0.001364256480218281 0.0572987721691678 0.0927694406548431 0.15961800818553887 0.10641200545702592 0.2019099590723056 0.13096862210095497 0.20327421555252387 0.046703296703296704 0.0013736263736263737 0.06043956043956044 0.08516483516483517 0.15247252747252749 0.1043956043956044 0.21016483516483517 0.1662087912087912 0.17307692307692307 0.0014285714285714286 0.045714285714285714 0.054285714285714284 0.11285714285714285 0.11142857142857143 0.13142857142857142 0.14285714285714285 0.18285714285714286 0.21714285714285714 0.0013774104683195593 0.05509641873278237 0.045454545454545456 0.1115702479338843 0.10330578512396695 0.1349862258953168 0.1418732782369146 0.21349862258953167 0.1928374655647383 0.00141643059490085 0.053824362606232294 0.053824362606232294 0.10339943342776203 0.11189801699716714 0.14730878186968838 0.14305949008498584 0.19121813031161472 0.19405099150141644 0.0014347202295552368 0.05738880918220947 0.05021520803443329 0.08321377331420372 0.11764705882352941 0.15925394548063126 0.15925394548063126 0.17216642754662842 0.1994261119081779 0.001394700139470014 0.06834030683403068 0.05160390516039052 0.09065550906555091 0.11297071129707113 0.14086471408647142 0.15341701534170155 0.20223152022315202 0.17852161785216178 0.0014084507042253522 0.04366197183098591 0.05211267605633803 0.10140845070422536 0.09577464788732394 0.16901408450704225 0.15774647887323945 0.18873239436619718 0.19014084507042253 0.001375515818431912 0.048143053645116916 0.039889958734525444 0.09903713892709766 0.08390646492434663 0.1609353507565337 0.15405777166437415 0.22558459422283356 0.18707015130674004 0.0014367816091954023 0.04885057471264368 0.06321839080459771 0.11206896551724138 0.10919540229885058 0.12931034482758622 0.13793103448275862 0.21264367816091953 0.1853448275862069 0.0013227513227513227 0.04497354497354497 0.047619047619047616 0.12169312169312169 0.09126984126984126 0.1283068783068783 0.164021164021164 0.1984126984126984 0.20238095238095238 0.0013698630136986301 0.056164383561643834 0.06027397260273973 0.12054794520547946 0.07671232876712329 0.1643835616438356 0.1273972602739726 0.20410958904109588 0.18904109589041096 0.29484029484029484 0.2727272727272727 0.28624078624078625 0.10319410319410319 0.038083538083538086 0.0012285012285012285 0.0012285012285012285 0.0012285012285012285 0.0012285012285012285 0.3226205191594561 0.2867737948084054 0.2595797280593325 0.09023485784919653 0.03584672435105068 0.0012360939431396785 0.0012360939431396785 0.0012360939431396785 0.0012360939431396785 0.35315533980582525 0.25728155339805825 0.25849514563106796 0.06796116504854369 0.05825242718446602 0.0012135922330097086 0.0012135922330097086 0.0012135922330097086 0.0012135922330097086 0.3402187120291616 0.27946537059538273 0.23572296476306198 0.0959902794653706 0.04374240583232078 0.001215066828675577 0.001215066828675577 0.001215066828675577 0.001215066828675577 0.31532663316582915 0.25879396984924624 0.26884422110552764 0.08793969849246232 0.06407035175879397 0.001256281407035176 0.001256281407035176 0.001256281407035176 0.001256281407035176 0.3280487804878049 0.2780487804878049 0.25609756097560976 0.09390243902439024 0.03902439024390244 0.0012195121951219512 0.0012195121951219512 0.0012195121951219512 0.0012195121951219512 0.2969151670951157 0.2570694087403599 0.29562982005141386 0.08868894601542417 0.056555269922879174 0.0012853470437017994 0.0012853470437017994 0.0012853470437017994 0.0012853470437017994 0.31086142322097376 0.27715355805243447 0.2759051186017478 0.08863920099875156 0.04244694132334582 0.0012484394506866417 0.0012484394506866417 0.0012484394506866417 0.0012484394506866417 0.30687830687830686 0.2619047619047619 0.2791005291005291 0.10714285714285714 0.03968253968253968 0.0013227513227513227 0.0013227513227513227 0.0013227513227513227 0.0013227513227513227 0.34293193717277487 0.2617801047120419 0.2617801047120419 0.08376963350785341 0.04450261780104712 0.0013089005235602095 0.0013089005235602095 0.0013089005235602095 0.0013089005235602095 0.05300859598853868 0.12893982808022922 0.055873925501432664 0.1518624641833811 0.15329512893982808 0.19627507163323782 0.11174785100286533 0.09169054441260745 0.05730659025787966 0.06901217861975643 0.07307171853856563 0.05548037889039242 0.16779431664411368 0.16914749661705006 0.17591339648173207 0.10284167794316644 0.12584573748308525 0.06089309878213803 0.059654631083202514 0.08791208791208792 0.06436420722135008 0.14913657770800628 0.12558869701726844 0.22448979591836735 0.13343799058084774 0.11459968602825746 0.04081632653061224 0.052552552552552555 0.12012012012012012 0.05555555555555555 0.16366366366366367 0.16966966966966968 0.1891891891891892 0.08258258258258258 0.12012012012012012 0.046546546546546545 0.06488011283497884 0.09026798307475317 0.05923836389280677 0.14245416078984485 0.1692524682651622 0.18194640338504936 0.12129760225669958 0.1156558533145275 0.05500705218617771 0.0584045584045584 0.11823361823361823 0.04843304843304843 0.15242165242165243 0.1581196581196581 0.20512820512820512 0.10541310541310542 0.10826210826210826 0.045584045584045586 0.0563165905631659 0.121765601217656 0.0471841704718417 0.1765601217656012 0.1491628614916286 0.2085235920852359 0.106544901065449 0.0943683409436834 0.0395738203957382 0.05037037037037037 0.1111111111111111 0.06518518518518518 0.1511111111111111 0.18518518518518517 0.18518518518518517 0.10222222222222223 0.09777777777777778 0.05185185185185185 0.054411764705882354 0.12058823529411765 0.058823529411764705 0.13529411764705881 0.17205882352941176 0.2073529411764706 0.09558823529411764 0.09411764705882353 0.061764705882352944 0.05652173913043478 0.11884057971014493 0.042028985507246375 0.1536231884057971 0.1289855072463768 0.22028985507246376 0.10144927536231885 0.12028985507246377 0.057971014492753624 0.0465444287729196 0.0014104372355430183 0.04231311706629055 0.11142454160789844 0.11706629055007052 0.1227080394922426 0.20310296191819463 0.14809590973201692 0.2073342736248237 0.042746113989637305 0.0012953367875647669 0.050518134715025906 0.08290155440414508 0.1645077720207254 0.12046632124352331 0.21761658031088082 0.12823834196891193 0.19170984455958548 0.06259314456035768 0.0014903129657228018 0.046199701937406856 0.12667660208643816 0.13710879284649777 0.09239940387481371 0.18181818181818182 0.14456035767511177 0.20715350223546944 0.06986301369863014 0.0013698630136986301 0.045205479452054796 0.10684931506849316 0.15205479452054796 0.08493150684931507 0.19041095890410958 0.14520547945205478 0.20410958904109588 0.05635838150289017 0.001445086705202312 0.05491329479768786 0.07947976878612717 0.1329479768786127 0.08526011560693642 0.20664739884393063 0.1676300578034682 0.2153179190751445 0.053857350800582245 0.001455604075691412 0.06259097525473072 0.10480349344978165 0.1339155749636099 0.09315866084425037 0.19941775836972345 0.1615720524017467 0.18922852983988356 0.059490084985835696 0.00141643059490085 0.05240793201133145 0.08640226628895184 0.14022662889518414 0.10056657223796034 0.20396600566572237 0.16005665722379603 0.1954674220963173 0.06241331484049931 0.0013869625520110957 0.05131761442441054 0.09986130374479889 0.15117891816920942 0.09986130374479889 0.20388349514563106 0.14840499306518723 0.18169209431345354 0.053246753246753244 0.0012987012987012987 0.05064935064935065 0.1 0.16883116883116883 0.0987012987012987 0.18181818181818182 0.13636363636363635 0.20909090909090908 0.04194857916102842 0.0013531799729364006 0.058186738836265225 0.10419485791610285 0.15561569688768606 0.10148849797023005 0.16508795669824086 0.15696887686062247 0.21515561569688768 0.001388888888888889 0.05138888888888889 0.044444444444444446 0.10694444444444444 0.09166666666666666 0.17083333333333334 0.15555555555555556 0.16527777777777777 0.2125 0.0013908205841446453 0.05006954102920723 0.04728789986091794 0.08205841446453407 0.11265646731571627 0.1571627260083449 0.16689847009735745 0.19471488178025034 0.18776077885952713 0.0014184397163120568 0.04113475177304964 0.04822695035460993 0.09787234042553192 0.09929078014184398 0.16312056737588654 0.12340425531914893 0.21134751773049645 0.21418439716312057 0.0013531799729364006 0.06224627875507442 0.04871447902571042 0.09607577807848444 0.09472259810554803 0.12990527740189445 0.14208389715832206 0.20162381596752368 0.2232746955345061 0.0014005602240896359 0.047619047619047616 0.05042016806722689 0.09663865546218488 0.0938375350140056 0.1484593837535014 0.14425770308123248 0.20448179271708683 0.21288515406162464 0.0013774104683195593 0.05371900826446281 0.03856749311294766 0.10743801652892562 0.0881542699724518 0.13774104683195593 0.1487603305785124 0.22451790633608815 0.19972451790633608 0.0013831258644536654 0.06224066390041494 0.035961272475795295 0.09820193637621023 0.10235131396957123 0.17012448132780084 0.13692946058091288 0.1991701244813278 0.19363762102351315 0.001336898395721925 0.053475935828877004 0.058823529411764705 0.09893048128342247 0.10026737967914438 0.15508021390374332 0.1443850267379679 0.196524064171123 0.19117647058823528 0.0013568521031207597 0.04206241519674356 0.0407055630936228 0.09905020352781546 0.11668928086838534 0.1546811397557666 0.14925373134328357 0.19674355495251017 0.1994572591587517 0.0013175230566534915 0.05138339920948617 0.04743083003952569 0.09749670619235837 0.077733860342556 0.14097496706192358 0.14492753623188406 0.2028985507246377 0.23583662714097497</probabilities>
</cpt>
<cpt id="increm_cost_z">
<state id="s0"/>
<state id="s10"/>
<state id="s20"/>
<state id="s30"/>
<state id="s40"/>
<state id="s50"/>
<state id="s60"/>
<state id="s70"/>
<state id="s80"/>
<state id="s90"/>
<parents></parents>
<probabilities>0.10029044934221766 0.10045275926875107 0.09982914744575432 0.0999487442337263 0.09963266700837177 0.0994618144541261 0.10149495984964975 0.09924824876131898 0.10125576627370579 0.09838544336237827</probabilities>
</cpt>
<cpt id="pai_2">
<state id="s5"/>
<state id="s10"/>
<state id="s15"/>
<state id="s20"/>
<state id="s25"/>
<state id="s30"/>
<state id="s35"/>
<state id="s40"/>
<state id="s45"/>
<parents>items_warehouse_Stilde_fsl2_quantiled increm_cost_z </parents>
<probabilities>0.10621680724773508 0.1162136832239925 0.11152764761012184 0.11527647610121837 0.1105904404873477 0.10621680724773508 0.11215245235863792 0.11152764761012184 0.11027803811308966 0.11457349700975764 0.10103871576959396 0.11299968523764557 0.12181303116147309 0.10544538873150772 0.11268492288322317 0.10103871576959396 0.11488825936418004 0.11551778407302486 0.10622250157133878 0.11879321181646763 0.10873664362036455 0.10967944688874921 0.10747957259585167 0.10873664362036455 0.1109365179132621 0.10936517913262099 0.12005028284098052 0.1140625 0.10625 0.1059375 0.115 0.1053125 0.1084375 0.11875 0.1175 0.10875 0.10358814352574103 0.11482059282371294 0.12262090483619345 0.11294851794071763 0.10920436817472699 0.11450858034321373 0.11045241809672388 0.10514820592823713 0.10670826833073323 0.1061836352279825 0.10399750156152404 0.11648969394128669 0.10212367270455965 0.12523422860712055 0.10961898813241724 0.11149281698938164 0.1155527795128045 0.10930668332292318 0.10909649661954518 0.10817455439459127 0.10264290104486785 0.11432083589428396 0.1066379840196681 0.12261831591886908 0.10725261216963737 0.11155500921942225 0.11770129071911493 0.110397946084724 0.11745827984595636 0.11392811296534018 0.11392811296534018 0.10815147625160462 0.10750962772785623 0.12130937098844673 0.10430038510911425 0.10301668806161746 0.10837438423645321 0.1102216748768473 0.11145320197044335 0.11268472906403941 0.10190886699507389 0.11268472906403941 0.1188423645320197 0.10929802955665024 0.1145320197044335 0.11072112316528399 0.10880663688576898 0.10976388002552648 0.10848755583918315 0.11295469049138482 0.11423101467772814 0.10625398851308232 0.11040204211869815 0.11837906828334396 0.11182795698924732 0.12222222222222222 0.11648745519713262 0.0953405017921147 0.11254480286738351 0.110752688172043 0.11003584229390681 0.1028673835125448 0.11792114695340501 0.10771418414504089 0.1038037682189833 0.1173124777817277 0.10558123000355492 0.11802346249555634 0.11126910771418415 0.11624600071098472 0.10771418414504089 0.11233558478492713 0.1174325309992706 0.11232676878191102 0.10466812545587163 0.11305616338439095 0.10138584974471189 0.11196207148067104 0.10466812545587163 0.11269146608315099 0.12180889861415026 0.1166191155492154 0.11626248216833096 0.10485021398002853 0.1130527817403709 0.10984308131241084 0.11055634807417974 0.10485021398002853 0.11198288159771755 0.11198288159771755 0.11167146974063401 0.11203170028818443 0.10951008645533142 0.10554755043227666 0.1105907780979827 0.11239193083573487 0.10770893371757925 0.11131123919308357 0.11923631123919308 0.11497515968772179 0.11000709723207949 0.10149041873669269 0.11249112845990064 0.11284599006387509 0.1185237757274663 0.11639460610361958 0.10681334279630944 0.10645848119233499 0.10988632449190493 0.11505339304168102 0.12263176024801929 0.11367550809507407 0.11160868067516362 0.10161901481226318 0.10678608336203926 0.11367550809507407 0.10506372717878057 0.10483297796730633 0.1140724946695096 0.1062544420753376 0.10732054015636106 0.11478322672352523 0.11513859275053305 0.1122956645344705 0.10909737029140014 0.1162046908315565 0.12102820421278115 0.11388789717957873 0.10103534451981436 0.11138878971795788 0.10067832916815424 0.10746162084969654 0.10924669760799714 0.11424491253123885 0.12102820421278115 0.10836024398995335 0.09974883387154647 0.12450663796196627 0.11481880157875853 0.10369573017581629 0.10477215644061715 0.11517761033369214 0.1090778614998206 0.1198421241478292 0.1163575042158516 0.11163575042158516 0.10725126475548061 0.11096121416526138 0.11433389544688027 0.11264755480607083 0.11231028667790893 0.10860033726812816 0.10590219224283305 0.12143611404435058 0.10876451953537487 0.10876451953537487 0.10207673354452658 0.1186202041534671 0.11334037310806054 0.11158042942625836 0.10700457585357269 0.10841253079901443 0.10281347690170198 0.10767627648489059 0.10698159083014935 0.1031608197290726 0.1219173324070858 0.11844390413337964 0.09725599166377215 0.12156998957971518 0.12018061827023271 0.11190053285968028 0.1147424511545293 0.11545293072824156 0.10763765541740675 0.10905861456483126 0.108348134991119 0.10905861456483126 0.10905861456483126 0.1147424511545293 0.11477151965993623 0.10697839178179241 0.11016648955012398 0.10626992561105207 0.11016648955012398 0.11512575274530641 0.11618845200141693 0.11406305348919589 0.10626992561105207 0.11714589989350373 0.12460063897763578 0.11714589989350373 0.10578629747958822 0.10365637202697905 0.1050763223287185 0.10223642172523961 0.11430599929002484 0.11004614838480653 0.12176073837415691 0.10614128505502307 0.10365637202697905 0.10933617323393681 0.11608093716719915 0.10969116080937168 0.1182108626198083 0.11324103656372027 0.10188143414980476 0.12012756909992912 0.10878809355067329 0.1073706591070163 0.11020552799433027 0.11268603827072998 0.10949681077250177 0.11658398299078668 0.10595322466335932 0.10878809355067329 0.10989399293286219 0.11448763250883393 0.09858657243816255 0.11095406360424029 0.11448763250883393 0.11448763250883393 0.11554770318021201 0.11060070671378092 0.11095406360424029 0.1215489422732162 0.1215489422732162 0.10792398709214772 0.10613122983148082 0.10433847257081391 0.11545356758694873 0.10362136966654716 0.10971674435281463 0.10971674435281463 0.11170212765957446 0.1049645390070922 0.11205673758865248 0.10921985815602837 0.11347517730496454 0.10851063829787234 0.11879432624113476 0.10851063829787234 0.1127659574468085 0.11336032388663968 0.12246963562753037 0.11977058029689609 0.10762483130904184 0.10256410256410256 0.0975033738191633 0.11234817813765183 0.12044534412955465 0.1039136302294197 0.10825625214114423 0.10894141829393628 0.10825625214114423 0.10448783830078794 0.11682082905104488 0.1079136690647482 0.11647824597464886 0.10757108598835217 0.12127440904419322 0.09564621186150155 0.10833047651696949 0.1247857387727117 0.11621528968117929 0.10935893040795337 0.11073020226259855 0.11004456633527597 0.1155296537538567 0.10935893040795337 0.10984455958549223 0.12055267702936097 0.11502590673575129 0.1081174438687392 0.11053540587219343 0.10362694300518134 0.0998272884283247 0.11675302245250432 0.1157167530224525 0.11013370865587614 0.11400422237860662 0.0995777621393385 0.11154116819141449 0.11576354679802955 0.11224489795918367 0.12280084447572133 0.1143560872624912 0.0995777621393385 0.109072375127421 0.1236833163438668 0.11518858307849134 0.11145090044172613 0.10227658851512063 0.11416921508664628 0.1111111111111111 0.10431532449881074 0.10873258579680598 0.11371467953135768 0.11302549965541006 0.11164713990351481 0.10923501033769814 0.1140592694693315 0.1171605789110958 0.10923501033769814 0.10475534114403859 0.10716747070985527 0.10730897009966778 0.11760797342192691 0.11495016611295682 0.1 0.11362126245847176 0.10664451827242524 0.10963455149501661 0.11760797342192691 0.11262458471760797 0.12029546253957088 0.11818501582835034 0.12029546253957088 0.10974322898346817 0.1037636299683433 0.10306014773126979 0.10306014773126979 0.11009497010200492 0.11150193457615196</probabilities>
</cpt>
<cpt id="items_fsl_S0tilde_quantiled">
<state id="s5_0"/>
<state id="s15_0"/>
<state id="s25_0"/>
<state id="s100_0"/>
<parents>h_2 items_warehouse_Stilde_fsl2_quantiled pai_2 increm_cost_z </parents>
<probabilities>0.8571428571428571 0.023809523809523808 0.047619047619047616 0.07142857142857142 0.8611111111111112 0.05555555555555555 0.027777777777777776 0.05555555555555555 0.9333333333333333 0.022222222222222223 0.022222222222222223 0.022222222222222223 0.88 0.02 0.02 0.08 0.8679245283018868 0.018867924528301886 0.05660377358490566 0.05660377358490566 0.9090909090909091 0.01818181818181818 0.03636363636363636 0.03636363636363636 0.9166666666666666 0.020833333333333332 0.020833333333333332 0.041666666666666664 0.9111111111111111 0.022222222222222223 0.022222222222222223 0.044444444444444446 0.8863636363636364 0.045454545454545456 0.045454545454545456 0.022727272727272728 0.8928571428571429 0.03571428571428571 0.03571428571428571 0.03571428571428571 0.8837209302325582 0.023255813953488372 0.046511627906976744 0.046511627906976744 0.9166666666666666 0.027777777777777776 0.027777777777777776 0.027777777777777776 0.8545454545454545 0.05454545454545454 0.03636363636363636 0.05454545454545454 0.8611111111111112 0.05555555555555555 0.027777777777777776 0.05555555555555555 0.9361702127659575 0.02127659574468085 0.02127659574468085 0.02127659574468085 0.8571428571428571 0.07142857142857142 0.023809523809523808 0.047619047619047616 0.8888888888888888 0.022222222222222223 0.06666666666666667 0.022222222222222223 0.868421052631579 0.02631578947368421 0.05263157894736842 0.05263157894736842 0.9 0.025 0.05 0.025 0.8333333333333334 0.047619047619047616 0.047619047619047616 0.07142857142857142 0.825 0.025 0.1 0.05 0.9166666666666666 0.020833333333333332 0.020833333333333332 0.041666666666666664 0.9038461538461539 0.019230769230769232 0.057692307692307696 0.019230769230769232 0.8775510204081632 0.061224489795918366 0.02040816326530612 0.04081632653061224 0.9122807017543859 0.017543859649122806 0.03508771929824561 0.03508771929824561 0.9047619047619048 0.023809523809523808 0.023809523809523808 0.047619047619047616 0.9166666666666666 0.020833333333333332 0.020833333333333332 0.041666666666666664 0.851063829787234 0.02127659574468085 0.06382978723404255 0.06382978723404255 0.8285714285714286 0.05714285714285714 0.05714285714285714 0.05714285714285714 0.8717948717948718 0.02564102564102564 0.02564102564102564 0.07692307692307693 0.8571428571428571 0.02040816326530612 0.10204081632653061 0.02040816326530612 0.926829268292683 0.024390243902439025 0.024390243902439025 0.024390243902439025 0.8913043478260869 0.043478260869565216 0.043478260869565216 0.021739130434782608 0.8157894736842105 0.02631578947368421 0.02631578947368421 0.13157894736842105 0.8596491228070176 0.017543859649122806 0.07017543859649122 0.05263157894736842 0.8484848484848485 0.06060606060606061 0.06060606060606061 0.030303030303030304 0.8947368421052632 0.017543859649122806 0.017543859649122806 0.07017543859649122 0.8837209302325582 0.046511627906976744 0.046511627906976744 0.023255813953488372 0.9245283018867925 0.018867924528301886 0.018867924528301886 0.03773584905660377 0.8536585365853658 0.024390243902439025 0.07317073170731707 0.04878048780487805 0.9024390243902439 0.024390243902439025 0.04878048780487805 0.024390243902439025 0.918918918918919 0.02702702702702703 0.02702702702702703 0.02702702702702703 0.9047619047619048 0.023809523809523808 0.023809523809523808 0.047619047619047616 0.9107142857142857 0.03571428571428571 0.017857142857142856 0.03571428571428571 0.9024390243902439 0.024390243902439025 0.024390243902439025 0.04878048780487805 0.8823529411764706 0.029411764705882353 0.058823529411764705 0.029411764705882353 0.9 0.02 0.04 0.04 0.9302325581395349 0.023255813953488372 0.023255813953488372 0.023255813953488372 0.8823529411764706 0.029411764705882353 0.029411764705882353 0.058823529411764705 0.8285714285714286 0.02857142857142857 0.02857142857142857 0.11428571428571428 0.9361702127659575 0.02127659574468085 0.02127659574468085 0.02127659574468085 0.8636363636363636 0.045454545454545456 0.045454545454545456 0.045454545454545456 0.9361702127659575 0.02127659574468085 0.02127659574468085 0.02127659574468085 0.8695652173913043 0.021739130434782608 0.06521739130434782 0.043478260869565216 0.9347826086956522 0.021739130434782608 0.021739130434782608 0.021739130434782608 0.8611111111111112 0.027777777777777776 0.027777777777777776 0.08333333333333333 0.9183673469387755 0.04081632653061224 0.02040816326530612 0.02040816326530612 0.9183673469387755 0.02040816326530612 0.04081632653061224 0.02040816326530612 0.8958333333333334 0.020833333333333332 0.020833333333333332 0.0625 0.9038461538461539 0.038461538461538464 0.019230769230769232 0.038461538461538464 0.8780487804878049 0.024390243902439025 0.07317073170731707 0.024390243902439025 0.8627450980392157 0.0392156862745098 0.0392156862745098 0.058823529411764705 0.9444444444444444 0.018518518518518517 0.018518518518518517 0.018518518518518517 0.9166666666666666 0.027777777777777776 0.027777777777777776 0.027777777777777776 0.9183673469387755 0.02040816326530612 0.04081632653061224 0.02040816326530612 0.8695652173913043 0.043478260869565216 0.043478260869565216 0.043478260869565216 0.875 0.05 0.025 0.05 0.875 0.041666666666666664 0.020833333333333332 0.0625 0.9148936170212766 0.02127659574468085 0.02127659574468085 0.0425531914893617 0.8372093023255814 0.06976744186046512 0.023255813953488372 0.06976744186046512 0.8636363636363636 0.06818181818181818 0.022727272727272728 0.045454545454545456 0.8 0.05 0.025 0.125 0.9333333333333333 0.022222222222222223 0.022222222222222223 0.022222222222222223 0.8947368421052632 0.05263157894736842 0.017543859649122806 0.03508771929824561 0.9333333333333333 0.022222222222222223 0.022222222222222223 0.022222222222222223 0.8947368421052632 0.03508771929824561 0.05263157894736842 0.017543859649122806 0.9069767441860465 0.046511627906976744 0.023255813953488372 0.023255813953488372 0.875 0.05 0.05 0.025 0.925 0.025 0.025 0.025 0.8409090909090909 0.045454545454545456 0.06818181818181818 0.045454545454545456 0.8378378378378378 0.10810810810810811 0.02702702702702703 0.02702702702702703 0.8518518518518519 0.037037037037037035 0.07407407407407407 0.037037037037037035 0.85 0.05 0.05 0.05 0.8837209302325582 0.046511627906976744 0.023255813953488372 0.046511627906976744 0.8918918918918919 0.05405405405405406 0.02702702702702703 0.02702702702702703 0.8913043478260869 0.043478260869565216 0.043478260869565216 0.021739130434782608 0.9047619047619048 0.047619047619047616 0.023809523809523808 0.023809523809523808 0.9210526315789473 0.02631578947368421 0.02631578947368421 0.02631578947368421 0.8888888888888888 0.037037037037037035 0.037037037037037035 0.037037037037037035 0.8979591836734694 0.04081632653061224 0.04081632653061224 0.02040816326530612 0.043478260869565216 0.8695652173913043 0.021739130434782608 0.06521739130434782 0.025 0.9 0.025 0.05 0.046511627906976744 0.8837209302325582 0.023255813953488372 0.046511627906976744 0.0625 0.84375 0.03125 0.0625 0.07894736842105263 0.868421052631579 0.02631578947368421 0.02631578947368421 0.025 0.875 0.025 0.075 0.05405405405405406 0.8378378378378378 0.02702702702702703 0.08108108108108109 0.0625 0.875 0.03125 0.03125 0.046511627906976744 0.8837209302325582 0.023255813953488372 0.046511627906976744 0.0425531914893617 0.9148936170212766 0.02127659574468085 0.02127659574468085 0.025 0.875 0.025 0.075 0.08333333333333333 0.8611111111111112 0.027777777777777776 0.027777777777777776 0.02631578947368421 0.868421052631579 0.02631578947368421 0.07894736842105263 0.024390243902439025 0.926829268292683 0.024390243902439025 0.024390243902439025 0.022222222222222223 0.9333333333333333 0.022222222222222223 0.022222222222222223 0.05714285714285714 0.8857142857142857 0.02857142857142857 0.02857142857142857 0.047619047619047616 0.9047619047619048 0.023809523809523808 0.023809523809523808 0.018867924528301886 0.9433962264150944 0.018867924528301886 0.018867924528301886 0.025 0.875 0.025 0.075 0.04878048780487805 0.9024390243902439 0.024390243902439025 0.024390243902439025 0.027777777777777776 0.9166666666666666 0.027777777777777776 0.027777777777777776 0.05263157894736842 0.8421052631578947 0.02631578947368421 0.07894736842105263 0.02564102564102564 0.9230769230769231 0.02564102564102564 0.02564102564102564 0.07142857142857142 0.8571428571428571 0.023809523809523808 0.047619047619047616 0.02857142857142857 0.9142857142857143 0.02857142857142857 0.02857142857142857 0.08823529411764706 0.8235294117647058 0.029411764705882353 0.058823529411764705 0.025 0.925 0.025 0.025 0.03225806451612903 0.9032258064516129 0.03225806451612903 0.03225806451612903 0.030303030303030304 0.8787878787878788 0.030303030303030304 0.06060606060606061 0.030303030303030304 0.9090909090909091 0.030303030303030304 0.030303030303030304 0.030303030303030304 0.9090909090909091 0.030303030303030304 0.030303030303030304 0.02631578947368421 0.9210526315789473 0.02631578947368421 0.02631578947368421 0.05405405405405406 0.8648648648648649 0.02702702702702703 0.05405405405405406 0.07142857142857142 0.8571428571428571 0.023809523809523808 0.047619047619047616 0.03571428571428571 0.8928571428571429 0.03571428571428571 0.03571428571428571 0.02 0.94 0.02 0.02 0.022222222222222223 0.9333333333333333 0.022222222222222223 0.022222222222222223 0.04 0.88 0.04 0.04 0.10344827586206896 0.7931034482758621 0.034482758620689655 0.06896551724137931 0.043478260869565216 0.9130434782608695 0.021739130434782608 0.021739130434782608 0.045454545454545456 0.9090909090909091 0.022727272727272728 0.022727272727272728 0.024390243902439025 0.926829268292683 0.024390243902439025 0.024390243902439025 0.03571428571428571 0.8928571428571429 0.03571428571428571 0.03571428571428571 0.029411764705882353 0.9117647058823529 0.029411764705882353 0.029411764705882353 0.037037037037037035 0.8888888888888888 0.037037037037037035 0.037037037037037035 0.02702702702702703 0.8918918918918919 0.02702702702702703 0.05405405405405406 0.02040816326530612 0.9387755102040817 0.02040816326530612 0.02040816326530612 0.02702702702702703 0.918918918918919 0.02702702702702703 0.02702702702702703 0.11764705882352941 0.8235294117647058 0.029411764705882353 0.029411764705882353 0.046511627906976744 0.8837209302325582 0.023255813953488372 0.046511627906976744 0.030303030303030304 0.9090909090909091 0.030303030303030304 0.030303030303030304 0.025 0.875 0.025 0.075 0.0425531914893617 0.9148936170212766 0.02127659574468085 0.02127659574468085 0.07692307692307693 0.8461538461538461 0.038461538461538464 0.038461538461538464 0.029411764705882353 0.8823529411764706 0.029411764705882353 0.058823529411764705 0.020833333333333332 0.9166666666666666 0.020833333333333332 0.041666666666666664 0.05263157894736842 0.868421052631579 0.02631578947368421 0.05263157894736842 0.02857142857142857 0.9142857142857143 0.02857142857142857 0.02857142857142857 0.05263157894736842 0.868421052631579 0.02631578947368421 0.05263157894736842 0.08571428571428572 0.8571428571428571 0.02857142857142857 0.02857142857142857 0.023255813953488372 0.9302325581395349 0.023255813953488372 0.023255813953488372 0.02857142857142857 0.9142857142857143 0.02857142857142857 0.02857142857142857 0.043478260869565216 0.8260869565217391 0.043478260869565216 0.08695652173913043 0.058823529411764705 0.8529411764705882 0.029411764705882353 0.058823529411764705 0.027777777777777776 0.9166666666666666 0.027777777777777776 0.027777777777777776 0.05128205128205128 0.8461538461538461 0.02564102564102564 0.07692307692307693 0.04878048780487805 0.9024390243902439 0.024390243902439025 0.024390243902439025 0.02857142857142857 0.9142857142857143 0.02857142857142857 0.02857142857142857 0.0392156862745098 0.9019607843137255 0.0196078431372549 0.0392156862745098 0.02127659574468085 0.9361702127659575 0.02127659574468085 0.02127659574468085 0.030303030303030304 0.8787878787878788 0.030303030303030304 0.06060606060606061 0.05263157894736842 0.8947368421052632 0.02631578947368421 0.02631578947368421 0.024390243902439025 0.9024390243902439 0.024390243902439025 0.04878048780487805 0.04081632653061224 0.8775510204081632 0.02040816326530612 0.061224489795918366 0.04878048780487805 0.8780487804878049 0.024390243902439025 0.04878048780487805 0.05555555555555555 0.8888888888888888 0.027777777777777776 0.027777777777777776 0.05128205128205128 0.7948717948717948 0.02564102564102564 0.1282051282051282 0.02564102564102564 0.9230769230769231 0.02564102564102564 0.02564102564102564 0.05 0.9 0.025 0.025 0.03225806451612903 0.8709677419354839 0.03225806451612903 0.06451612903225806 0.044444444444444446 0.9111111111111111 0.022222222222222223 0.022222222222222223 0.05 0.9 0.025 0.025 0.022727272727272728 0.9318181818181818 0.022727272727272728 0.022727272727272728 0.05405405405405406 0.8918918918918919 0.02702702702702703 0.02702702702702703 0.02857142857142857 0.8857142857142857 0.02857142857142857 0.05714285714285714 0.03225806451612903 0.8709677419354839 0.03225806451612903 0.06451612903225806 0.021739130434782608 0.9130434782608695 0.021739130434782608 0.043478260869565216 0.023809523809523808 0.9285714285714286 0.023809523809523808 0.023809523809523808 0.021739130434782608 0.9347826086956522 0.021739130434782608 0.021739130434782608 0.03571428571428571 0.8928571428571429 0.03571428571428571 0.03571428571428571 0.0196078431372549 0.0196078431372549 0.9411764705882353 0.0196078431372549 0.044444444444444446 0.022222222222222223 0.9111111111111111 0.022222222222222223 0.03125 0.03125 0.90625 0.03125 0.02564102564102564 0.02564102564102564 0.9230769230769231 0.02564102564102564 0.08333333333333333 0.027777777777777776 0.8611111111111112 0.027777777777777776 0.06451612903225806 0.03225806451612903 0.8709677419354839 0.03225806451612903 0.06896551724137931 0.034482758620689655 0.8275862068965517 0.06896551724137931 0.05 0.025 0.875 0.05 0.022727272727272728 0.022727272727272728 0.9318181818181818 0.022727272727272728 0.05714285714285714 0.02857142857142857 0.8571428571428571 0.05714285714285714 0.05128205128205128 0.02564102564102564 0.8717948717948718 0.05128205128205128 0.023809523809523808 0.023809523809523808 0.9285714285714286 0.023809523809523808 0.020833333333333332 0.020833333333333332 0.9375 0.020833333333333332 0.047619047619047616 0.023809523809523808 0.8333333333333334 0.09523809523809523 0.024390243902439025 0.024390243902439025 0.9024390243902439 0.04878048780487805 0.04878048780487805 0.024390243902439025 0.9024390243902439 0.024390243902439025 0.02857142857142857 0.02857142857142857 0.9142857142857143 0.02857142857142857 0.030303030303030304 0.030303030303030304 0.9090909090909091 0.030303030303030304 0.024390243902439025 0.024390243902439025 0.926829268292683 0.024390243902439025 0.027777777777777776 0.027777777777777776 0.8888888888888888 0.05555555555555555 0.022727272727272728 0.022727272727272728 0.9090909090909091 0.045454545454545456 0.02857142857142857 0.02857142857142857 0.9142857142857143 0.02857142857142857 0.05555555555555555 0.027777777777777776 0.8888888888888888 0.027777777777777776 0.018867924528301886 0.018867924528301886 0.9056603773584906 0.05660377358490566 0.05128205128205128 0.02564102564102564 0.8974358974358975 0.02564102564102564 0.05 0.025 0.875 0.05 0.030303030303030304 0.030303030303030304 0.9090909090909091 0.030303030303030304 0.06451612903225806 0.03225806451612903 0.8387096774193549 0.06451612903225806 0.07692307692307693 0.038461538461538464 0.8461538461538461 0.038461538461538464 0.025 0.025 0.925 0.025 0.027777777777777776 0.027777777777777776 0.9166666666666666 0.027777777777777776 0.023809523809523808 0.023809523809523808 0.9047619047619048 0.047619047619047616 0.020833333333333332 0.020833333333333332 0.8958333333333334 0.0625 0.023809523809523808 0.023809523809523808 0.9047619047619048 0.047619047619047616 0.06976744186046512 0.023255813953488372 0.8837209302325582 0.023255813953488372 0.038461538461538464 0.019230769230769232 0.9038461538461539 0.038461538461538464 0.07894736842105263 0.02631578947368421 0.8421052631578947 0.05263157894736842 0.029411764705882353 0.029411764705882353 0.9117647058823529 0.029411764705882353 0.05555555555555555 0.027777777777777776 0.8888888888888888 0.027777777777777776 0.03571428571428571 0.03571428571428571 0.8928571428571429 0.03571428571428571 0.022222222222222223 0.022222222222222223 0.8666666666666667 0.08888888888888889 0.05128205128205128 0.02564102564102564 0.8974358974358975 0.02564102564102564 0.05128205128205128 0.02564102564102564 0.8717948717948718 0.05128205128205128 0.03225806451612903 0.03225806451612903 0.9032258064516129 0.03225806451612903 0.022727272727272728 0.022727272727272728 0.9090909090909091 0.045454545454545456 0.06976744186046512 0.023255813953488372 0.8837209302325582 0.023255813953488372 0.02040816326530612 0.02040816326530612 0.8979591836734694 0.061224489795918366 0.02857142857142857 0.02857142857142857 0.9142857142857143 0.02857142857142857 0.025 0.025 0.925 0.025 0.025 0.025 0.9 0.05 0.024390243902439025 0.024390243902439025 0.9024390243902439 0.04878048780487805 0.022727272727272728 0.022727272727272728 0.9090909090909091 0.045454545454545456 0.022222222222222223 0.022222222222222223 0.8888888888888888 0.06666666666666667 0.0967741935483871 0.03225806451612903 0.8387096774193549 0.03225806451612903 0.02631578947368421 0.02631578947368421 0.9210526315789473 0.02631578947368421 0.03125 0.03125 0.84375 0.09375 0.05263157894736842 0.02631578947368421 0.8947368421052632 0.02631578947368421 0.1 0.03333333333333333 0.8 0.06666666666666667 0.029411764705882353 0.029411764705882353 0.9117647058823529 0.029411764705882353 0.022727272727272728 0.022727272727272728 0.9318181818181818 0.022727272727272728 0.07142857142857142 0.023809523809523808 0.8809523809523809 0.023809523809523808 0.022727272727272728 0.022727272727272728 0.9090909090909091 0.045454545454545456 0.025 0.025 0.9 0.05 0.025 0.025 0.9 0.05 0.06896551724137931 0.034482758620689655 0.8620689655172413 0.034482758620689655 0.04878048780487805 0.024390243902439025 0.9024390243902439 0.024390243902439025 0.020833333333333332 0.020833333333333332 0.9166666666666666 0.041666666666666664 0.05405405405405406 0.02702702702702703 0.8918918918918919 0.02702702702702703 0.037037037037037035 0.037037037037037035 0.8888888888888888 0.037037037037037035 0.07894736842105263 0.02631578947368421 0.868421052631579 0.02631578947368421 0.02702702702702703 0.02702702702702703 0.918918918918919 0.02702702702702703 0.02702702702702703 0.02702702702702703 0.8918918918918919 0.05405405405405406 0.02631578947368421 0.02631578947368421 0.8947368421052632 0.05263157894736842 0.03125 0.03125 0.90625 0.03125 0.02564102564102564 0.02564102564102564 0.8974358974358975 0.05128205128205128 0.02702702702702703 0.02702702702702703 0.8918918918918919 0.05405405405405406 0.02564102564102564 0.02564102564102564 0.8974358974358975 0.05128205128205128 0.02564102564102564 0.02564102564102564 0.8974358974358975 0.05128205128205128 0.029411764705882353 0.029411764705882353 0.9117647058823529 0.029411764705882353 0.1111111111111111 0.037037037037037035 0.7777777777777778 0.07407407407407407 0.024390243902439025 0.024390243902439025 0.926829268292683 0.024390243902439025 0.030303030303030304 0.030303030303030304 0.8787878787878788 0.06060606060606061 0.0425531914893617 0.02127659574468085 0.8936170212765957 0.0425531914893617 0.02631578947368421 0.02631578947368421 0.868421052631579 0.07894736842105263 0.05263157894736842 0.02631578947368421 0.868421052631579 0.05263157894736842 0.02564102564102564 0.02564102564102564 0.9230769230769231 0.02564102564102564 0.029411764705882353 0.029411764705882353 0.9117647058823529 0.029411764705882353 0.02702702702702703 0.02702702702702703 0.918918918918919 0.02702702702702703 0.02702702702702703 0.02702702702702703 0.918918918918919 0.02702702702702703 0.02702702702702703 0.02702702702702703 0.918918918918919 0.02702702702702703 0.02564102564102564 0.02564102564102564 0.02564102564102564 0.9230769230769231 0.017857142857142856 0.05357142857142857 0.03571428571428571 0.8928571428571429 0.029411764705882353 0.029411764705882353 0.029411764705882353 0.9117647058823529 0.023809523809523808 0.023809523809523808 0.023809523809523808 0.9285714285714286 0.02631578947368421 0.05263157894736842 0.02631578947368421 0.8947368421052632 0.046511627906976744 0.023255813953488372 0.06976744186046512 0.8604651162790697 0.017857142857142856 0.03571428571428571 0.03571428571428571 0.9107142857142857 0.02631578947368421 0.07894736842105263 0.07894736842105263 0.8157894736842105 0.058823529411764705 0.029411764705882353 0.029411764705882353 0.8823529411764706 0.022727272727272728 0.022727272727272728 0.022727272727272728 0.9318181818181818 0.025 0.025 0.025 0.925 0.0425531914893617 0.06382978723404255 0.02127659574468085 0.8723404255319149 0.06666666666666667 0.06666666666666667 0.044444444444444446 0.8222222222222222 0.02702702702702703 0.05405405405405406 0.02702702702702703 0.8918918918918919 0.04878048780487805 0.04878048780487805 0.024390243902439025 0.8780487804878049 0.046511627906976744 0.046511627906976744 0.023255813953488372 0.8837209302325582 0.04878048780487805 0.024390243902439025 0.024390243902439025 0.9024390243902439 0.023809523809523808 0.023809523809523808 0.07142857142857142 0.8809523809523809 0.06976744186046512 0.046511627906976744 0.046511627906976744 0.8372093023255814 0.021739130434782608 0.021739130434782608 0.021739130434782608 0.9347826086956522 0.058823529411764705 0.029411764705882353 0.058823529411764705 0.8529411764705882 0.022222222222222223 0.06666666666666667 0.022222222222222223 0.8888888888888888 0.0625 0.09375 0.0625 0.78125 0.021739130434782608 0.043478260869565216 0.021739130434782608 0.9130434782608695 0.022222222222222223 0.044444444444444446 0.044444444444444446 0.8888888888888888 0.05263157894736842 0.02631578947368421 0.02631578947368421 0.8947368421052632 0.07017543859649122 0.017543859649122806 0.017543859649122806 0.8947368421052632 0.03125 0.03125 0.03125 0.90625 0.023255813953488372 0.046511627906976744 0.046511627906976744 0.8837209302325582 0.024390243902439025 0.04878048780487805 0.024390243902439025 0.9024390243902439 0.05555555555555555 0.027777777777777776 0.08333333333333333 0.8333333333333334 0.022727272727272728 0.022727272727272728 0.045454545454545456 0.9090909090909091 0.022222222222222223 0.022222222222222223 0.044444444444444446 0.9111111111111111 0.038461538461538464 0.07692307692307693 0.11538461538461539 0.7692307692307693 0.05405405405405406 0.02702702702702703 0.05405405405405406 0.8648648648648649 0.02564102564102564 0.02564102564102564 0.05128205128205128 0.8974358974358975 0.023255813953488372 0.046511627906976744 0.046511627906976744 0.8837209302325582 0.0425531914893617 0.0425531914893617 0.0425531914893617 0.8723404255319149 0.025 0.025 0.025 0.925 0.021739130434782608 0.021739130434782608 0.043478260869565216 0.9130434782608695 0.018518518518518517 0.037037037037037035 0.018518518518518517 0.9259259259259259 0.020833333333333332 0.041666666666666664 0.041666666666666664 0.8958333333333334 0.02 0.04 0.02 0.92 0.043478260869565216 0.021739130434782608 0.021739130434782608 0.9130434782608695 0.05714285714285714 0.02857142857142857 0.02857142857142857 0.8857142857142857 0.044444444444444446 0.022222222222222223 0.022222222222222223 0.9111111111111111 0.047619047619047616 0.023809523809523808 0.14285714285714285 0.7857142857142857 0.041666666666666664 0.020833333333333332 0.020833333333333332 0.9166666666666666 0.022727272727272728 0.045454545454545456 0.022727272727272728 0.9090909090909091 0.08823529411764706 0.029411764705882353 0.029411764705882353 0.8529411764705882 0.027777777777777776 0.05555555555555555 0.027777777777777776 0.8888888888888888 0.03333333333333333 0.03333333333333333 0.03333333333333333 0.9 0.07142857142857142 0.023809523809523808 0.047619047619047616 0.8571428571428571 0.027777777777777776 0.05555555555555555 0.027777777777777776 0.8888888888888888 0.043478260869565216 0.021739130434782608 0.021739130434782608 0.9130434782608695 0.047619047619047616 0.023809523809523808 0.023809523809523808 0.9047619047619048 0.05714285714285714 0.02857142857142857 0.05714285714285714 0.8571428571428571 0.0967741935483871 0.03225806451612903 0.06451612903225806 0.8064516129032258 0.02631578947368421 0.02631578947368421 0.10526315789473684 0.8421052631578947 0.022727272727272728 0.022727272727272728 0.022727272727272728 0.9318181818181818 0.041666666666666664 0.020833333333333332 0.020833333333333332 0.9166666666666666 0.06521739130434782 0.021739130434782608 0.043478260869565216 0.8695652173913043 0.05714285714285714 0.05714285714285714 0.05714285714285714 0.8285714285714286 0.0851063829787234 0.02127659574468085 0.0425531914893617 0.851063829787234 0.058823529411764705 0.029411764705882353 0.029411764705882353 0.8823529411764706 0.04081632653061224 0.02040816326530612 0.02040816326530612 0.9183673469387755 0.029411764705882353 0.08823529411764706 0.029411764705882353 0.8529411764705882 0.10869565217391304 0.06521739130434782 0.043478260869565216 0.782608695652174 0.030303030303030304 0.030303030303030304 0.030303030303030304 0.9090909090909091 0.02631578947368421 0.05263157894736842 0.02631578947368421 0.8947368421052632 0.06976744186046512 0.023255813953488372 0.046511627906976744 0.8604651162790697 0.02857142857142857 0.02857142857142857 0.02857142857142857 0.9142857142857143 0.1111111111111111 0.044444444444444446 0.044444444444444446 0.8 0.022222222222222223 0.022222222222222223 0.08888888888888889 0.8666666666666667 0.024390243902439025 0.024390243902439025 0.024390243902439025 0.926829268292683 0.046511627906976744 0.023255813953488372 0.023255813953488372 0.9069767441860465 0.05405405405405406 0.05405405405405406 0.02702702702702703 0.8648648648648649 0.030303030303030304 0.030303030303030304 0.06060606060606061 0.8787878787878788 0.023255813953488372 0.023255813953488372 0.046511627906976744 0.9069767441860465 0.02702702702702703 0.05405405405405406 0.02702702702702703 0.8918918918918919 0.04878048780487805 0.024390243902439025 0.024390243902439025 0.9024390243902439 0.046511627906976744 0.023255813953488372 0.023255813953488372 0.9069767441860465 0.023255813953488372 0.023255813953488372 0.023255813953488372 0.9302325581395349 0.08571428571428572 0.02857142857142857 0.05714285714285714 0.8285714285714286 0.03125 0.0625 0.0625 0.84375 0.06451612903225806 0.03225806451612903 0.03225806451612903 0.8709677419354839 0.05405405405405406 0.02702702702702703 0.02702702702702703 0.8918918918918919 0.10526315789473684 0.02631578947368421 0.02631578947368421 0.8421052631578947 0.08888888888888889 0.044444444444444446 0.022222222222222223 0.8444444444444444 0.10810810810810811 0.02702702702702703 0.02702702702702703 0.8378378378378378 0.8809523809523809 0.047619047619047616 0.023809523809523808 0.047619047619047616 0.9 0.025 0.05 0.025 0.8837209302325582 0.06976744186046512 0.023255813953488372 0.023255813953488372 0.85 0.05 0.025 0.075 0.9193548387096774 0.016129032258064516 0.03225806451612903 0.03225806451612903 0.8484848484848485 0.030303030303030304 0.030303030303030304 0.09090909090909091 0.8857142857142857 0.02857142857142857 0.02857142857142857 0.05714285714285714 0.8648648648648649 0.05405405405405406 0.02702702702702703 0.05405405405405406 0.8695652173913043 0.043478260869565216 0.043478260869565216 0.043478260869565216 0.896551724137931 0.034482758620689655 0.034482758620689655 0.034482758620689655 0.9 0.016666666666666666 0.03333333333333333 0.05 0.918918918918919 0.02702702702702703 0.02702702702702703 0.02702702702702703 0.8958333333333334 0.020833333333333332 0.041666666666666664 0.041666666666666664 0.8958333333333334 0.041666666666666664 0.041666666666666664 0.020833333333333332 0.9245283018867925 0.018867924528301886 0.018867924528301886 0.03773584905660377 0.8857142857142857 0.02857142857142857 0.05714285714285714 0.02857142857142857 0.8823529411764706 0.058823529411764705 0.0196078431372549 0.0392156862745098 0.8541666666666666 0.041666666666666664 0.020833333333333332 0.08333333333333333 0.8837209302325582 0.023255813953488372 0.046511627906976744 0.046511627906976744 0.9090909090909091 0.022727272727272728 0.022727272727272728 0.045454545454545456 0.9302325581395349 0.023255813953488372 0.023255813953488372 0.023255813953488372 0.8780487804878049 0.04878048780487805 0.04878048780487805 0.024390243902439025 0.8666666666666667 0.03333333333333333 0.03333333333333333 0.06666666666666667 0.9166666666666666 0.020833333333333332 0.020833333333333332 0.041666666666666664 0.8936170212765957 0.0425531914893617 0.02127659574468085 0.0425531914893617 0.926829268292683 0.024390243902439025 0.024390243902439025 0.024390243902439025 0.8823529411764706 0.058823529411764705 0.029411764705882353 0.029411764705882353 0.9111111111111111 0.022222222222222223 0.022222222222222223 0.044444444444444446 0.8333333333333334 0.020833333333333332 0.10416666666666667 0.041666666666666664 0.8837209302325582 0.023255813953488372 0.046511627906976744 0.046511627906976744 0.8888888888888888 0.022222222222222223 0.022222222222222223 0.06666666666666667 0.896551724137931 0.017241379310344827 0.034482758620689655 0.05172413793103448 0.825 0.1 0.025 0.05 0.92 0.02 0.02 0.04 0.9206349206349206 0.015873015873015872 0.015873015873015872 0.047619047619047616 0.8888888888888888 0.022222222222222223 0.044444444444444446 0.044444444444444446 0.9047619047619048 0.047619047619047616 0.023809523809523808 0.023809523809523808 0.8936170212765957 0.02127659574468085 0.02127659574468085 0.06382978723404255 0.8292682926829268 0.04878048780487805 0.024390243902439025 0.0975609756097561 0.925 0.025 0.025 0.025 0.9024390243902439 0.04878048780487805 0.024390243902439025 0.024390243902439025 0.9387755102040817 0.02040816326530612 0.02040816326530612 0.02040816326530612 0.8888888888888888 0.037037037037037035 0.037037037037037035 0.037037037037037035 0.8857142857142857 0.05714285714285714 0.02857142857142857 0.02857142857142857 0.8648648648648649 0.05405405405405406 0.02702702702702703 0.05405405405405406 0.8709677419354839 0.016129032258064516 0.03225806451612903 0.08064516129032258 0.8958333333333334 0.041666666666666664 0.041666666666666664 0.020833333333333332 0.8181818181818182 0.030303030303030304 0.12121212121212122 0.030303030303030304 0.8787878787878788 0.030303030303030304 0.06060606060606061 0.030303030303030304 0.8108108108108109 0.05405405405405406 0.05405405405405406 0.08108108108108109 0.8611111111111112 0.05555555555555555 0.027777777777777776 0.05555555555555555 0.8703703703703703 0.05555555555555555 0.037037037037037035 0.037037037037037035 0.8571428571428571 0.08571428571428572 0.02857142857142857 0.02857142857142857 0.926829268292683 0.024390243902439025 0.024390243902439025 0.024390243902439025 0.9285714285714286 0.023809523809523808 0.023809523809523808 0.023809523809523808 0.8571428571428571 0.023809523809523808 0.047619047619047616 0.07142857142857142 0.9090909090909091 0.01818181818181818 0.01818181818181818 0.05454545454545454 0.925 0.025 0.025 0.025 0.9074074074074074 0.018518518518518517 0.037037037037037035 0.037037037037037035 0.8536585365853658 0.04878048780487805 0.024390243902439025 0.07317073170731707 0.875 0.0625 0.041666666666666664 0.020833333333333332 0.9090909090909091 0.030303030303030304 0.030303030303030304 0.030303030303030304 0.9 0.025 0.05 0.025 0.9166666666666666 0.020833333333333332 0.020833333333333332 0.041666666666666664 0.8571428571428571 0.023809523809523808 0.07142857142857142 0.047619047619047616 0.9285714285714286 0.023809523809523808 0.023809523809523808 0.023809523809523808 0.92 0.02 0.04 0.02 0.9302325581395349 0.023255813953488372 0.023255813953488372 0.023255813953488372 0.9347826086956522 0.021739130434782608 0.021739130434782608 0.021739130434782608 0.8958333333333334 0.020833333333333332 0.0625 0.020833333333333332 0.8571428571428571 0.04081632653061224 0.04081632653061224 0.061224489795918366 0.9090909090909091 0.022727272727272728 0.022727272727272728 0.045454545454545456 0.875 0.08333333333333333 0.020833333333333332 0.020833333333333332 0.8717948717948718 0.05128205128205128 0.02564102564102564 0.05128205128205128 0.8857142857142857 0.02857142857142857 0.02857142857142857 0.05714285714285714 0.875 0.075 0.025 0.025 0.9272727272727272 0.01818181818181818 0.01818181818181818 0.03636363636363636 0.9230769230769231 0.038461538461538464 0.019230769230769232 0.019230769230769232 0.9375 0.020833333333333332 0.020833333333333332 0.020833333333333332 0.8780487804878049 0.024390243902439025 0.024390243902439025 0.07317073170731707 0.8636363636363636 0.022727272727272728 0.045454545454545456 0.06818181818181818 0.9047619047619048 0.047619047619047616 0.023809523809523808 0.023809523809523808 0.8863636363636364 0.045454545454545456 0.022727272727272728 0.045454545454545456 0.9111111111111111 0.022222222222222223 0.022222222222222223 0.044444444444444446 0.8823529411764706 0.058823529411764705 0.029411764705882353 0.029411764705882353 0.8857142857142857 0.05714285714285714 0.02857142857142857 0.02857142857142857 0.8888888888888888 0.044444444444444446 0.022222222222222223 0.044444444444444446 0.8709677419354839 0.06451612903225806 0.03225806451612903 0.03225806451612903 0.8823529411764706 0.029411764705882353 0.029411764705882353 0.058823529411764705 0.8723404255319149 0.06382978723404255 0.0425531914893617 0.02127659574468085 0.05 0.875 0.025 0.05 0.05714285714285714 0.8571428571428571 0.02857142857142857 0.05714285714285714 0.05714285714285714 0.8285714285714286 0.02857142857142857 0.08571428571428572 0.08333333333333333 0.8611111111111112 0.027777777777777776 0.027777777777777776 0.02564102564102564 0.9230769230769231 0.02564102564102564 0.02564102564102564 0.023809523809523808 0.9285714285714286 0.023809523809523808 0.023809523809523808 0.05555555555555555 0.8055555555555556 0.027777777777777776 0.1111111111111111 0.02564102564102564 0.9230769230769231 0.02564102564102564 0.02564102564102564 0.058823529411764705 0.8823529411764706 0.029411764705882353 0.029411764705882353 0.10810810810810811 0.8108108108108109 0.02702702702702703 0.05405405405405406 0.05128205128205128 0.8974358974358975 0.02564102564102564 0.02564102564102564 0.05714285714285714 0.8857142857142857 0.02857142857142857 0.02857142857142857 0.02702702702702703 0.8918918918918919 0.02702702702702703 0.05405405405405406 0.05714285714285714 0.8571428571428571 0.02857142857142857 0.05714285714285714 0.03125 0.90625 0.03125 0.03125 0.022727272727272728 0.9090909090909091 0.022727272727272728 0.045454545454545456 0.045454545454545456 0.8863636363636364 0.022727272727272728 0.045454545454545456 0.044444444444444446 0.8888888888888888 0.022222222222222223 0.044444444444444446 0.0196078431372549 0.9411764705882353 0.0196078431372549 0.0196078431372549 0.05555555555555555 0.7777777777777778 0.05555555555555555 0.1111111111111111 0.02702702702702703 0.8918918918918919 0.02702702702702703 0.05405405405405406 0.01694915254237288 0.9491525423728814 0.01694915254237288 0.01694915254237288 0.06060606060606061 0.8787878787878788 0.030303030303030304 0.030303030303030304 0.029411764705882353 0.9117647058823529 0.029411764705882353 0.029411764705882353 0.029411764705882353 0.8823529411764706 0.029411764705882353 0.058823529411764705 0.03125 0.90625 0.03125 0.03125 0.021739130434782608 0.9130434782608695 0.021739130434782608 0.043478260869565216 0.075 0.875 0.025 0.025 0.03571428571428571 0.8571428571428571 0.03571428571428571 0.07142857142857142 0.05263157894736842 0.8947368421052632 0.02631578947368421 0.02631578947368421 0.025 0.925 0.025 0.025 0.07692307692307693 0.8461538461538461 0.038461538461538464 0.038461538461538464 0.06060606060606061 0.8484848484848485 0.030303030303030304 0.06060606060606061 0.02857142857142857 0.9142857142857143 0.02857142857142857 0.02857142857142857 0.029411764705882353 0.8823529411764706 0.029411764705882353 0.058823529411764705 0.0967741935483871 0.8387096774193549 0.03225806451612903 0.03225806451612903 0.043478260869565216 0.8695652173913043 0.021739130434782608 0.06521739130434782 0.05 0.9 0.025 0.025 0.022727272727272728 0.9090909090909091 0.022727272727272728 0.045454545454545456 0.02702702702702703 0.918918918918919 0.02702702702702703 0.02702702702702703 0.03333333333333333 0.9 0.03333333333333333 0.03333333333333333 0.07142857142857142 0.8333333333333334 0.023809523809523808 0.07142857142857142 0.024390243902439025 0.8780487804878049 0.024390243902439025 0.07317073170731707 0.02127659574468085 0.9361702127659575 0.02127659574468085 0.02127659574468085 0.05405405405405406 0.8648648648648649 0.02702702702702703 0.05405405405405406 0.0196078431372549 0.8823529411764706 0.0196078431372549 0.0784313725490196 0.0425531914893617 0.9148936170212766 0.02127659574468085 0.02127659574468085 0.05263157894736842 0.8947368421052632 0.02631578947368421 0.02631578947368421 0.07692307692307693 0.8717948717948718 0.02564102564102564 0.02564102564102564 0.06060606060606061 0.8484848484848485 0.030303030303030304 0.06060606060606061 0.05555555555555555 0.8888888888888888 0.027777777777777776 0.027777777777777776 0.02127659574468085 0.9148936170212766 0.02127659574468085 0.0425531914893617 0.07142857142857142 0.8571428571428571 0.03571428571428571 0.03571428571428571 0.025 0.925 0.025 0.025 0.02631578947368421 0.9210526315789473 0.02631578947368421 0.02631578947368421 0.02 0.94 0.02 0.02 0.05555555555555555 0.8611111111111112 0.027777777777777776 0.05555555555555555 0.02702702702702703 0.8918918918918919 0.02702702702702703 0.05405405405405406 0.029411764705882353 0.9117647058823529 0.029411764705882353 0.029411764705882353 0.030303030303030304 0.9090909090909091 0.030303030303030304 0.030303030303030304 0.02702702702702703 0.918918918918919 0.02702702702702703 0.02702702702702703 0.024390243902439025 0.926829268292683 0.024390243902439025 0.024390243902439025 0.030303030303030304 0.9090909090909091 0.030303030303030304 0.030303030303030304 0.08333333333333333 0.8611111111111112 0.027777777777777776 0.027777777777777776 0.029411764705882353 0.9117647058823529 0.029411764705882353 0.029411764705882353 0.03125 0.90625 0.03125 0.03125 0.04 0.92 0.02 0.02 0.0196078431372549 0.9411764705882353 0.0196078431372549 0.0196078431372549 0.034482758620689655 0.896551724137931 0.034482758620689655 0.034482758620689655 0.02 0.94 0.02 0.02 0.04878048780487805 0.9024390243902439 0.024390243902439025 0.024390243902439025 0.023809523809523808 0.9285714285714286 0.023809523809523808 0.023809523809523808 0.02631578947368421 0.8947368421052632 0.02631578947368421 0.05263157894736842 0.07317073170731707 0.8780487804878049 0.024390243902439025 0.024390243902439025 0.0196078431372549 0.9215686274509803 0.0196078431372549 0.0392156862745098 0.02040816326530612 0.8979591836734694 0.02040816326530612 0.061224489795918366 0.021739130434782608 0.9347826086956522 0.021739130434782608 0.021739130434782608 0.06666666666666667 0.8666666666666667 0.03333333333333333 0.03333333333333333 0.025 0.925 0.025 0.025 0.02631578947368421 0.9210526315789473 0.02631578947368421 0.02631578947368421 0.02 0.94 0.02 0.02 0.023255813953488372 0.9302325581395349 0.023255813953488372 0.023255813953488372 0.02631578947368421 0.9210526315789473 0.02631578947368421 0.02631578947368421 0.07142857142857142 0.8571428571428571 0.03571428571428571 0.03571428571428571 0.021739130434782608 0.9130434782608695 0.021739130434782608 0.043478260869565216 0.023809523809523808 0.9285714285714286 0.023809523809523808 0.023809523809523808 0.02702702702702703 0.8918918918918919 0.02702702702702703 0.05405405405405406 0.02564102564102564 0.9230769230769231 0.02564102564102564 0.02564102564102564 0.030303030303030304 0.9090909090909091 0.030303030303030304 0.030303030303030304 0.024390243902439025 0.926829268292683 0.024390243902439025 0.024390243902439025 0.02857142857142857 0.02857142857142857 0.8857142857142857 0.05714285714285714 0.05 0.025 0.875 0.05 0.022727272727272728 0.022727272727272728 0.8863636363636364 0.06818181818181818 0.058823529411764705 0.029411764705882353 0.8823529411764706 0.029411764705882353 0.027777777777777776 0.027777777777777776 0.8611111111111112 0.08333333333333333 0.06818181818181818 0.022727272727272728 0.8863636363636364 0.022727272727272728 0.043478260869565216 0.021739130434782608 0.8695652173913043 0.06521739130434782 0.023255813953488372 0.023255813953488372 0.9302325581395349 0.023255813953488372 0.029411764705882353 0.029411764705882353 0.9117647058823529 0.029411764705882353 0.020833333333333332 0.020833333333333332 0.9375 0.020833333333333332 0.046511627906976744 0.023255813953488372 0.8604651162790697 0.06976744186046512 0.037037037037037035 0.037037037037037035 0.8888888888888888 0.037037037037037035 0.05714285714285714 0.02857142857142857 0.8285714285714286 0.08571428571428572 0.046511627906976744 0.023255813953488372 0.9069767441860465 0.023255813953488372 0.03225806451612903 0.03225806451612903 0.9032258064516129 0.03225806451612903 0.02564102564102564 0.02564102564102564 0.9230769230769231 0.02564102564102564 0.02702702702702703 0.02702702702702703 0.8918918918918919 0.05405405405405406 0.058823529411764705 0.029411764705882353 0.8823529411764706 0.029411764705882353 0.030303030303030304 0.030303030303030304 0.8787878787878788 0.06060606060606061 0.02564102564102564 0.02564102564102564 0.8974358974358975 0.05128205128205128 0.05555555555555555 0.027777777777777776 0.8888888888888888 0.027777777777777776 0.04878048780487805 0.024390243902439025 0.9024390243902439 0.024390243902439025 0.03125 0.03125 0.90625 0.03125 0.030303030303030304 0.030303030303030304 0.9090909090909091 0.030303030303030304 0.05405405405405406 0.02702702702702703 0.8918918918918919 0.02702702702702703 0.02702702702702703 0.02702702702702703 0.8648648648648649 0.08108108108108109 0.03225806451612903 0.03225806451612903 0.9032258064516129 0.03225806451612903 0.021739130434782608 0.021739130434782608 0.9130434782608695 0.043478260869565216 0.029411764705882353 0.029411764705882353 0.8529411764705882 0.08823529411764706 0.05263157894736842 0.02631578947368421 0.868421052631579 0.05263157894736842 0.024390243902439025 0.024390243902439025 0.926829268292683 0.024390243902439025 0.030303030303030304 0.030303030303030304 0.8787878787878788 0.06060606060606061 0.07407407407407407 0.037037037037037035 0.8518518518518519 0.037037037037037035 0.023809523809523808 0.023809523809523808 0.9047619047619048 0.047619047619047616 0.02857142857142857 0.02857142857142857 0.9142857142857143 0.02857142857142857 0.034482758620689655 0.034482758620689655 0.896551724137931 0.034482758620689655 0.06060606060606061 0.030303030303030304 0.8787878787878788 0.030303030303030304 0.061224489795918366 0.02040816326530612 0.8775510204081632 0.04081632653061224 0.027777777777777776 0.027777777777777776 0.9166666666666666 0.027777777777777776 0.0625 0.03125 0.78125 0.125 0.08333333333333333 0.027777777777777776 0.8611111111111112 0.027777777777777776 0.022727272727272728 0.022727272727272728 0.9090909090909091 0.045454545454545456 0.044444444444444446 0.022222222222222223 0.9111111111111111 0.022222222222222223 0.027777777777777776 0.027777777777777776 0.9166666666666666 0.027777777777777776 0.024390243902439025 0.024390243902439025 0.926829268292683 0.024390243902439025 0.047619047619047616 0.023809523809523808 0.8571428571428571 0.07142857142857142 0.024390243902439025 0.024390243902439025 0.9024390243902439 0.04878048780487805 0.023809523809523808 0.023809523809523808 0.9047619047619048 0.047619047619047616 0.030303030303030304 0.030303030303030304 0.9090909090909091 0.030303030303030304 0.023809523809523808 0.023809523809523808 0.9285714285714286 0.023809523809523808 0.043478260869565216 0.021739130434782608 0.9130434782608695 0.021739130434782608 0.03571428571428571 0.03571428571428571 0.8928571428571429 0.03571428571428571 0.025 0.025 0.9 0.05 0.029411764705882353 0.029411764705882353 0.9117647058823529 0.029411764705882353 0.07692307692307693 0.02564102564102564 0.8461538461538461 0.05128205128205128 0.05405405405405406 0.02702702702702703 0.8918918918918919 0.02702702702702703 0.0425531914893617 0.02127659574468085 0.8936170212765957 0.0425531914893617 0.025 0.025 0.925 0.025 0.025 0.025 0.925 0.025 0.05714285714285714 0.02857142857142857 0.8571428571428571 0.05714285714285714 0.025 0.025 0.925 0.025 0.03333333333333333 0.03333333333333333 0.9 0.03333333333333333 0.05555555555555555 0.027777777777777776 0.8888888888888888 0.027777777777777776 0.018518518518518517 0.018518518518518517 0.9444444444444444 0.018518518518518517 0.05555555555555555 0.027777777777777776 0.8611111111111112 0.05555555555555555 0.05405405405405406 0.02702702702702703 0.8918918918918919 0.02702702702702703 0.027777777777777776 0.027777777777777776 0.8611111111111112 0.08333333333333333 0.02127659574468085 0.02127659574468085 0.9361702127659575 0.02127659574468085 0.04878048780487805 0.024390243902439025 0.8780487804878049 0.04878048780487805 0.02702702702702703 0.02702702702702703 0.918918918918919 0.02702702702702703 0.05555555555555555 0.027777777777777776 0.8611111111111112 0.05555555555555555 0.03225806451612903 0.03225806451612903 0.9032258064516129 0.03225806451612903 0.022222222222222223 0.022222222222222223 0.9333333333333333 0.022222222222222223 0.021739130434782608 0.021739130434782608 0.9347826086956522 0.021739130434782608 0.021739130434782608 0.021739130434782608 0.9130434782608695 0.043478260869565216 0.022222222222222223 0.022222222222222223 0.9111111111111111 0.044444444444444446 0.029411764705882353 0.029411764705882353 0.9117647058823529 0.029411764705882353 0.027777777777777776 0.027777777777777776 0.9166666666666666 0.027777777777777776 0.03125 0.03125 0.90625 0.03125 0.03225806451612903 0.03225806451612903 0.9032258064516129 0.03225806451612903 0.024390243902439025 0.024390243902439025 0.926829268292683 0.024390243902439025 0.06666666666666667 0.022222222222222223 0.8666666666666667 0.044444444444444446 0.02564102564102564 0.02564102564102564 0.9230769230769231 0.02564102564102564 0.07142857142857142 0.023809523809523808 0.8809523809523809 0.023809523809523808 0.030303030303030304 0.030303030303030304 0.9090909090909091 0.030303030303030304 0.024390243902439025 0.024390243902439025 0.926829268292683 0.024390243902439025 0.02631578947368421 0.02631578947368421 0.9210526315789473 0.02631578947368421 0.030303030303030304 0.030303030303030304 0.9090909090909091 0.030303030303030304 0.043478260869565216 0.021739130434782608 0.8695652173913043 0.06521739130434782 0.03571428571428571 0.03571428571428571 0.8571428571428571 0.07142857142857142 0.05263157894736842 0.02631578947368421 0.02631578947368421 0.8947368421052632 0.08333333333333333 0.020833333333333332 0.020833333333333332 0.875 0.06521739130434782 0.043478260869565216 0.021739130434782608 0.8695652173913043 0.05405405405405406 0.02702702702702703 0.02702702702702703 0.8918918918918919 0.07317073170731707 0.024390243902439025 0.024390243902439025 0.8780487804878049 0.125 0.041666666666666664 0.041666666666666664 0.7916666666666666 0.02564102564102564 0.02564102564102564 0.02564102564102564 0.9230769230769231 0.02857142857142857 0.02857142857142857 0.02857142857142857 0.9142857142857143 0.02127659574468085 0.02127659574468085 0.02127659574468085 0.9361702127659575 0.0784313725490196 0.0196078431372549 0.0392156862745098 0.8627450980392157 0.06451612903225806 0.06451612903225806 0.03225806451612903 0.8387096774193549 0.05128205128205128 0.02564102564102564 0.02564102564102564 0.8974358974358975 0.02127659574468085 0.0425531914893617 0.02127659574468085 0.9148936170212766 0.030303030303030304 0.06060606060606061 0.06060606060606061 0.8484848484848485 0.07142857142857142 0.023809523809523808 0.047619047619047616 0.8571428571428571 0.029411764705882353 0.029411764705882353 0.029411764705882353 0.9117647058823529 0.045454545454545456 0.022727272727272728 0.022727272727272728 0.9090909090909091 0.03773584905660377 0.07547169811320754 0.018867924528301886 0.8679245283018868 0.047619047619047616 0.07142857142857142 0.07142857142857142 0.8095238095238095 0.02702702702702703 0.02702702702702703 0.02702702702702703 0.918918918918919 0.0425531914893617 0.0851063829787234 0.02127659574468085 0.851063829787234 0.05 0.075 0.125 0.75 0.029411764705882353 0.058823529411764705 0.029411764705882353 0.8823529411764706 0.023809523809523808 0.047619047619047616 0.047619047619047616 0.8809523809523809 0.03125 0.03125 0.03125 0.90625 0.02857142857142857 0.02857142857142857 0.02857142857142857 0.9142857142857143 0.058823529411764705 0.0196078431372549 0.058823529411764705 0.8627450980392157 0.07142857142857142 0.023809523809523808 0.09523809523809523 0.8095238095238095 0.02564102564102564 0.02564102564102564 0.05128205128205128 0.8974358974358975 0.057692307692307696 0.019230769230769232 0.057692307692307696 0.8653846153846154 0.022727272727272728 0.09090909090909091 0.022727272727272728 0.8636363636363636 0.030303030303030304 0.030303030303030304 0.06060606060606061 0.8787878787878788 0.038461538461538464 0.038461538461538464 0.038461538461538464 0.8846153846153846 0.021739130434782608 0.043478260869565216 0.021739130434782608 0.9130434782608695 0.10256410256410256 0.02564102564102564 0.02564102564102564 0.8461538461538461 0.05555555555555555 0.05555555555555555 0.027777777777777776 0.8611111111111112 0.02631578947368421 0.05263157894736842 0.02631578947368421 0.8947368421052632 0.027777777777777776 0.027777777777777776 0.027777777777777776 0.9166666666666666 0.06818181818181818 0.022727272727272728 0.022727272727272728 0.8863636363636364 0.023255813953488372 0.046511627906976744 0.023255813953488372 0.9069767441860465 0.1 0.03333333333333333 0.03333333333333333 0.8333333333333334 0.08571428571428572 0.05714285714285714 0.08571428571428572 0.7714285714285715 0.025 0.025 0.05 0.9 0.07142857142857142 0.047619047619047616 0.023809523809523808 0.8571428571428571 0.05405405405405406 0.02702702702702703 0.05405405405405406 0.8648648648648649 0.06060606060606061 0.030303030303030304 0.030303030303030304 0.8787878787878788 0.04878048780487805 0.024390243902439025 0.04878048780487805 0.8780487804878049 0.02564102564102564 0.02564102564102564 0.02564102564102564 0.9230769230769231 0.023255813953488372 0.046511627906976744 0.023255813953488372 0.9069767441860465 0.025 0.05 0.025 0.9 0.05263157894736842 0.05263157894736842 0.07894736842105263 0.8157894736842105 0.044444444444444446 0.044444444444444446 0.022222222222222223 0.8888888888888888 0.07407407407407407 0.07407407407407407 0.037037037037037035 0.8148148148148148 0.10256410256410256 0.02564102564102564 0.02564102564102564 0.8461538461538461 0.030303030303030304 0.030303030303030304 0.030303030303030304 0.9090909090909091 0.03125 0.03125 0.0625 0.875 0.023809523809523808 0.047619047619047616 0.023809523809523808 0.9047619047619048 0.041666666666666664 0.020833333333333332 0.020833333333333332 0.9166666666666666 0.05714285714285714 0.05714285714285714 0.02857142857142857 0.8571428571428571 0.02631578947368421 0.07894736842105263 0.02631578947368421 0.868421052631579 0.022727272727272728 0.022727272727272728 0.022727272727272728 0.9318181818181818 0.023255813953488372 0.023255813953488372 0.023255813953488372 0.9302325581395349 0.07142857142857142 0.023809523809523808 0.023809523809523808 0.8809523809523809 0.046511627906976744 0.023255813953488372 0.023255813953488372 0.9069767441860465 0.05714285714285714 0.05714285714285714 0.02857142857142857 0.8571428571428571 0.05405405405405406 0.02702702702702703 0.02702702702702703 0.8918918918918919 0.02702702702702703 0.05405405405405406 0.02702702702702703 0.8918918918918919 0.022727272727272728 0.045454545454545456 0.022727272727272728 0.9090909090909091 0.058823529411764705 0.029411764705882353 0.029411764705882353 0.8823529411764706 0.022727272727272728 0.045454545454545456 0.022727272727272728 0.9090909090909091 0.075 0.075 0.025 0.825 0.02127659574468085 0.02127659574468085 0.06382978723404255 0.8936170212765957 0.02564102564102564 0.05128205128205128 0.02564102564102564 0.8974358974358975 0.0425531914893617 0.02127659574468085 0.0425531914893617 0.8936170212765957 0.025 0.025 0.05 0.9 0.030303030303030304 0.06060606060606061 0.030303030303030304 0.8787878787878788 0.02702702702702703 0.02702702702702703 0.08108108108108109 0.8648648648648649 0.025 0.025 0.05 0.9 0.04878048780487805 0.04878048780487805 0.024390243902439025 0.8780487804878049 0.04 0.04 0.04 0.88 0.05 0.05 0.05 0.85 0.044444444444444446 0.06666666666666667 0.022222222222222223 0.8666666666666667 0.11363636363636363 0.045454545454545456 0.022727272727272728 0.8181818181818182 0.05263157894736842 0.05263157894736842 0.05263157894736842 0.8421052631578947 0.06976744186046512 0.046511627906976744 0.046511627906976744 0.8372093023255814 0.05405405405405406 0.02702702702702703 0.02702702702702703 0.8918918918918919 0.029411764705882353 0.029411764705882353 0.08823529411764706 0.8529411764705882 0.0425531914893617 0.02127659574468085 0.02127659574468085 0.9148936170212766 0.046511627906976744 0.023255813953488372 0.046511627906976744 0.8837209302325582 0.02 0.02 0.06 0.9 0.925 0.025 0.025 0.025 0.8809523809523809 0.047619047619047616 0.023809523809523808 0.047619047619047616 0.8 0.03636363636363636 0.05454545454545454 0.10909090909090909 0.8157894736842105 0.02631578947368421 0.02631578947368421 0.13157894736842105 0.9047619047619048 0.023809523809523808 0.047619047619047616 0.023809523809523808 0.8809523809523809 0.047619047619047616 0.023809523809523808 0.047619047619047616 0.9056603773584906 0.05660377358490566 0.018867924528301886 0.018867924528301886 0.8648648648648649 0.02702702702702703 0.02702702702702703 0.08108108108108109 0.9361702127659575 0.02127659574468085 0.02127659574468085 0.02127659574468085 0.8793103448275862 0.05172413793103448 0.034482758620689655 0.034482758620689655 0.8461538461538461 0.07692307692307693 0.02564102564102564 0.05128205128205128 0.9130434782608695 0.021739130434782608 0.043478260869565216 0.021739130434782608 0.8333333333333334 0.047619047619047616 0.047619047619047616 0.07142857142857142 0.8780487804878049 0.024390243902439025 0.04878048780487805 0.04878048780487805 0.9038461538461539 0.038461538461538464 0.038461538461538464 0.019230769230769232 0.9 0.02 0.04 0.04 0.875 0.041666666666666664 0.041666666666666664 0.041666666666666664 0.8636363636363636 0.045454545454545456 0.045454545454545456 0.045454545454545456 0.8604651162790697 0.046511627906976744 0.06976744186046512 0.023255813953488372 0.9411764705882353 0.0196078431372549 0.0196078431372549 0.0196078431372549 0.8636363636363636 0.045454545454545456 0.06818181818181818 0.022727272727272728 0.9090909090909091 0.030303030303030304 0.030303030303030304 0.030303030303030304 0.9318181818181818 0.022727272727272728 0.022727272727272728 0.022727272727272728 0.9130434782608695 0.021739130434782608 0.021739130434782608 0.043478260869565216 0.8837209302325582 0.023255813953488372 0.046511627906976744 0.046511627906976744 0.9090909090909091 0.045454545454545456 0.022727272727272728 0.022727272727272728 0.9032258064516129 0.03225806451612903 0.03225806451612903 0.03225806451612903 0.9032258064516129 0.03225806451612903 0.03225806451612903 0.03225806451612903 0.8979591836734694 0.02040816326530612 0.061224489795918366 0.02040816326530612 0.8409090909090909 0.045454545454545456 0.045454545454545456 0.06818181818181818 0.8809523809523809 0.047619047619047616 0.023809523809523808 0.047619047619047616 0.9210526315789473 0.02631578947368421 0.02631578947368421 0.02631578947368421 0.8 0.075 0.05 0.075 0.8888888888888888 0.022222222222222223 0.044444444444444446 0.044444444444444446 0.8913043478260869 0.06521739130434782 0.021739130434782608 0.021739130434782608 0.9111111111111111 0.044444444444444446 0.022222222222222223 0.022222222222222223 0.8809523809523809 0.047619047619047616 0.047619047619047616 0.023809523809523808 0.875 0.03571428571428571 0.07142857142857142 0.017857142857142856 0.94 0.02 0.02 0.02 0.8863636363636364 0.022727272727272728 0.06818181818181818 0.022727272727272728 0.9016393442622951 0.01639344262295082 0.01639344262295082 0.06557377049180328 0.8571428571428571 0.02857142857142857 0.05714285714285714 0.05714285714285714 0.9230769230769231 0.019230769230769232 0.019230769230769232 0.038461538461538464 0.8604651162790697 0.046511627906976744 0.046511627906976744 0.046511627906976744 0.9 0.025 0.025 0.05 0.8333333333333334 0.027777777777777776 0.08333333333333333 0.05555555555555555 0.8888888888888888 0.05555555555555555 0.027777777777777776 0.027777777777777776 0.9090909090909091 0.045454545454545456 0.022727272727272728 0.022727272727272728 0.8775510204081632 0.04081632653061224 0.04081632653061224 0.04081632653061224 0.9069767441860465 0.023255813953488372 0.023255813953488372 0.046511627906976744 0.926829268292683 0.024390243902439025 0.024390243902439025 0.024390243902439025 0.8666666666666667 0.06666666666666667 0.044444444444444446 0.022222222222222223 0.9090909090909091 0.045454545454545456 0.022727272727272728 0.022727272727272728 0.8636363636363636 0.022727272727272728 0.06818181818181818 0.045454545454545456 0.8909090909090909 0.03636363636363636 0.03636363636363636 0.03636363636363636 0.8571428571428571 0.061224489795918366 0.02040816326530612 0.061224489795918366 0.9166666666666666 0.027777777777777776 0.027777777777777776 0.027777777777777776 0.8275862068965517 0.06896551724137931 0.034482758620689655 0.06896551724137931 0.8857142857142857 0.05714285714285714 0.02857142857142857 0.02857142857142857 0.9210526315789473 0.02631578947368421 0.02631578947368421 0.02631578947368421 0.8823529411764706 0.058823529411764705 0.029411764705882353 0.029411764705882353 0.7941176470588235 0.029411764705882353 0.08823529411764706 0.08823529411764706 0.875 0.025 0.025 0.075 0.9245283018867925 0.018867924528301886 0.03773584905660377 0.018867924528301886 0.9117647058823529 0.029411764705882353 0.029411764705882353 0.029411764705882353 0.875 0.025 0.025 0.075 0.8604651162790697 0.046511627906976744 0.023255813953488372 0.06976744186046512 0.9318181818181818 0.022727272727272728 0.022727272727272728 