<?xml version="1.0" encoding="UTF-8"?>
<!-- This network was created in GeNIe Academic, which can be used for academic teaching and research purposes only -->
<smile version="1.0" id="Network2" numsamples="1234" discsamples="10000">
	<nodes>
		<cpt id="h_2">
			<state id="s3" />
			<state id="s4" />
			<state id="s5" />
			<state id="s10" />
			<state id="s11" />
			<state id="s12" />
			<state id="s15" />
			<state id="s16" />
			<state id="s17" />
			<probabilities>0.1100810470298426 0.1097425675548619 0.1122059459561105 0.1110024633784013 0.1115854002519792 0.111340942853382 0.1110400722089547 0.1109836589631245 0.1120179018033434</probabilities>
		</cpt>
		<cpt id="ship_cost_c">
			<state id="s0" />
			<state id="s5" />
			<state id="s10" />
			<state id="s15" />
			<state id="s20" />
			<state id="s25" />
			<state id="s30" />
			<state id="s35" />
			<state id="s40" />
			<state id="s45" />
			<parents>h_2</parents>
			<probabilities>0.09430422919508867 0.1011255115961801 0.09532742155525238 0.1040245566166439 0.09396316507503411 0.1072646657571623 0.1012960436562074 0.0985675306957708 0.1011255115961801 0.1030013642564802 0.1010947656517277 0.1074238795757783 0.09733150872391379 0.1052001368457065 0.09681833732466644 0.0925419089976052 0.09835785152240849 0.09989736572015052 0.09664728019158399 0.1046869654464591 0.09519825999665384 0.1040655847415091 0.1065752049523172 0.09151748368746863 0.1010540404885394 0.1017232725447549 0.1060732809101556 0.09268863978584574 0.09837711226367743 0.1027271206290781 0.1062066632842888 0.09386098427194317 0.1024860476915271 0.09504481650600372 0.09927278877050566 0.1006257398951463 0.1041772365973279 0.09944190766108574 0.09808895653644512 0.1007948587857264 0.101278600269179 0.09387617765814267 0.1021197846567968 0.09757738896366083 0.1049798115746972 0.1038021534320323 0.1034656796769852 0.1036339165545088 0.09740915208613728 0.09185733512786003 0.09930871691114483 0.09795987185972012 0.1025122239082785 0.09610520991401113 0.1013319844882819 0.1050413083796999 0.09947732254257292 0.1040296745911313 0.09509357612544259 0.09914011127971674 0.09315300084530853 0.09788672865595943 0.1026204564666103 0.1048182586644125 0.094843617920541 0.1061707523245985 0.09551986475063398 0.1022823330515638 0.09602704987320372 0.1066779374471682 0.1104533152909337 0.09523004059539919 0.1019959404600812 0.1031799729364005 0.09810554803788904 0.09827469553450609 0.1009810554803789 0.09523004059539919 0.09539918809201624 0.1011502029769959 0.1000502765208648 0.09468744762862411 0.09535780124015418 0.1032344561756326 0.09049773755656108 0.106251047427518 0.1008882185352774 0.1077593430534607 0.1027316909669851 0.09854198089492207</probabilities>
		</cpt>
		<cpt id="c_z_ratio_quantiled">
			<state id="s0_2" />
			<state id="s0_3" />
			<state id="s0_5" />
			<state id="s1_0" />
			<parents>ship_cost_c h_2</parents>
			<probabilities>0.9946043165467626 0.001798561151079137 0.001798561151079137 0.001798561151079137 0.9949494949494949 0.001683501683501683 0.001683501683501683 0.001683501683501683 0.9947552447552448 0.001748251748251748 0.001748251748251748 0.001748251748251748 0.9952456418383518 0.001584786053882726 0.001584786053882726 0.001584786053882726 0.9950413223140496 0.001652892561983471 0.001652892561983471 0.001652892561983471 0.9949324324324325 0.001689189189189189 0.001689189189189189 0.001689189189189189 0.9945848375451264 0.001805054151624549 0.001805054151624549 0.001805054151624549 0.9954268292682927 0.001524390243902439 0.001524390243902439 0.001524390243902439 0.995 0.001666666666666667 0.001666666666666667 0.001666666666666667 0.714765100671141 0.1963087248322148 0.001677852348993289 0.08724832214765101 0.7036450079239303 0.1806656101426307 0.001584786053882726 0.1141045958795563 0.68 0.1936 0.0016 0.1248 0.7186379928315412 0.1792114695340502 0.001792114695340502 0.1003584229390681 0.7201426024955436 0.1693404634581105 0.0017825311942959 0.1087344028520499 0.7054794520547946 0.1797945205479452 0.001712328767123288 0.113013698630137 0.718213058419244 0.1941580756013746 0.001718213058419244 0.0859106529209622 0.7014134275618374 0.2014134275618374 0.00176678445229682 0.09540636042402827 0.7095070422535211 0.2059859154929577 0.00176056338028169 0.08274647887323944 0.501779359430605 0.2935943060498221 0.099644128113879 0.1049822064056939 0.5297202797202797 0.2849650349650349 0.0979020979020979 0.08741258741258741 0.5 0.3109375 0.09375 0.09531249999999999 0.4844006568144499 0.3070607553366174 0.08538587848932677 0.1231527093596059 0.5 0.3213114754098361 0.1032786885245902 0.07540983606557378 0.4762684124386252 0.3011456628477905 0.1292962356792144 0.09328968903436989 0.5229508196721312 0.2868852459016393 0.08196721311475409 0.1081967213114754 0.5181518151815182 0.2739273927392739 0.103960396039604 0.103960396039604 0.5034965034965035 0.2674825174825175 0.1101398601398601 0.1188811188811189 0.3083197389885807 0.4061990212071778 0.08482871125611746 0.200652528548124 0.3171521035598706 0.3802588996763754 0.1148867313915858 0.1877022653721683 0.2818181818181818 0.4327272727272727 0.09272727272727273 0.1927272727272727 0.320353982300885 0.3734513274336283 0.1008849557522124 0.2053097345132743 0.3156089193825043 0.3962264150943396 0.1097770154373928 0.1783876500857633 0.2931937172774869 0.3821989528795812 0.1134380453752181 0.2111692844677138 0.2696629213483146 0.420545746388443 0.1203852327447833 0.1894060995184591 0.3050570962479608 0.3572593800978793 0.09787928221859707 0.2398042414355628 0.3392568659127625 0.3909531502423264 0.1001615508885299 0.1696284329563812 0.001805054151624549 0.5866425992779783 0.2021660649819494 0.2093862815884477 0.001757469244288225 0.5992970123022847 0.2038664323374341 0.195079086115993 0.001647446457990115 0.6194398682042833 0.1878088962108732 0.1911037891268534 0.001694915254237288 0.611864406779661 0.1949152542372881 0.1915254237288136 0.001594896331738437 0.6108452950558214 0.2216905901116427 0.1658692185007974 0.001655629139072848 0.6009933774834437 0.1837748344370861 0.2135761589403974 0.001773049645390071 0.6046099290780141 0.2074468085106383 0.1861702127659574 0.001715265866209262 0.5849056603773585 0.2229845626072041 0.1903945111492281 0.001841620626151013 0.6132596685082873 0.1933701657458564 0.1915285451197054 0.001582278481012658 0.4873417721518987 0.1977848101265823 0.3132911392405063 0.001838235294117647 0.4816176470588235 0.2352941176470588 0.28125 0.001636661211129296 0.4893617021276596 0.204582651391162 0.3044189852700491 0.001672240802675585 0.5183946488294314 0.1688963210702341 0.3110367892976589 0.001612903225806452 0.4725806451612903 0.2016129032258064 0.3241935483870968 0.001597444089456869 0.4920127795527157 0.2012779552715655 0.305111821086262 0.001584786053882726 0.5023771790808241 0.1854199683042789 0.3106180665610143 0.001712328767123288 0.5171232876712328 0.1952054794520548 0.285958904109589 0.001569858712715856 0.4882260596546311 0.2072213500784929 0.3029827315541601 0.001675041876046901 0.3835845896147403 0.2914572864321608 0.3232830820770519 0.001730103806228374 0.4117647058823529 0.2958477508650519 0.2906574394463668 0.001569858712715856 0.3783359497645212 0.3249607535321821 0.2951334379905808 0.001615508885298869 0.3812600969305331 0.3004846526655897 0.3166397415185784 0.001618122977346278 0.3996763754045308 0.3220064724919094 0.2766990291262136 0.001686340640809443 0.4367622259696459 0.2529510961214165 0.3086003372681282 0.00176056338028169 0.4172535211267606 0.2887323943661972 0.2922535211267606 0.001666666666666667 0.4033333333333333 0.3183333333333334 0.2766666666666667 0.001652892561983471 0.3933884297520661 0.3140495867768595 0.2909090909090909 0.001721170395869191 0.3115318416523236 0.2908777969018933 0.3958691910499139 0.001703577512776831 0.2998296422487223 0.2981260647359455 0.4003407155025553 0.001795332136445242 0.2549371633752244 0.3195691202872532 0.4236983842010772 0.001692047377326565 0.3164128595600677 0.2690355329949238 0.4128595600676819 0.001615508885298869 0.2859450726978998 0.3069466882067851 0.4054927302100161 0.001612903225806452 0.2758064516129032 0.2887096774193548 0.4338709677419355 0.001644736842105263 0.3125 0.2911184210526316 0.3947368421052632 0.00176678445229682 0.3180212014134275 0.284452296819788 0.3957597173144876 0.001547987616099071 0.3018575851393189 0.2801857585139319 0.4164086687306501 0.001677852348993289 0.2281879194630873 0.3859060402684564 0.3842281879194631 0.00176056338028169 0.198943661971831 0.4154929577464789 0.3838028169014084 0.001692047377326565 0.1979695431472081 0.4010152284263959 0.3993231810490694 0.001715265866209262 0.1989708404802744 0.3910806174957118 0.4082332761578045 0.001718213058419244 0.1941580756013746 0.3969072164948453 0.4072164948453608 0.001763668430335097 0.2098765432098765 0.4038800705467372 0.3844797178130511 0.001751313485113835 0.2171628721541156 0.4115586690017513 0.3695271453590193 0.001763668430335097 0.1869488536155203 0.4268077601410935 0.3844797178130511 0.001623376623376623 0.2142857142857143 0.4172077922077922 0.3668831168831169 0.001647446457990115 0.113673805601318 0.485996705107084 0.3986820428336079 0.001626016260162602 0.1040650406504065 0.526829268292683 0.367479674796748 0.001620745542949757 0.106969205834684 0.4570502431118315 0.4343598055105348 0.001669449081803005 0.09682804674457429 0.5141903171953256 0.3873121869782972 0.001821493624772313 0.09289617486338798 0.5009107468123861 0.4043715846994536 0.001692047377326565 0.08460236886632826 0.5109983079526227 0.4027072758037225 0.001577287066246057 0.09621451104100946 0.4700315457413249 0.4321766561514195 0.001663893510815308 0.09151414309484193 0.4925124792013311 0.4143094841930117 0.001692047377326565 0.09813874788494077 0.494077834179357 0.4060913705583756</probabilities>
		</cpt>
		<cpt id="increm_cost_z">
			<state id="s0" />
			<state id="s10" />
			<state id="s20" />
			<state id="s30" />
			<state id="s40" />
			<state id="s50" />
			<state id="s60" />
			<state id="s70" />
			<state id="s80" />
			<state id="s90" />
			<parents>c_z_ratio_quantiled ship_cost_c h_2</parents>
			<probabilities>0.07651245551601424 0.1245551601423488 0.1103202846975089 0.1103202846975089 0.099644128113879 0.1049822064056939 0.08362989323843416 0.09608540925266904 0.09430604982206406 0.099644128113879 0.08 0.09166666666666666 0.125 0.09666666666666666 0.095 0.09666666666666666 0.095 0.11 0.1116666666666667 0.09833333333333333 0.1072664359861592 0.1072664359861592 0.08823529411764706 0.1038062283737024 0.09342560553633218 0.1176470588235294 0.1003460207612457 0.08131487889273356 0.1107266435986159 0.08996539792387544 0.08320251177394035 0.1318681318681319 0.09262166405023547 0.1036106750392465 0.0847723704866562 0.1020408163265306 0.07849293563579278 0.1145996860282575 0.1020408163265306 0.1067503924646782 0.08183306055646482 0.1014729950900164 0.11620294599018 0.1014729950900164 0.09165302782324058 0.1112929623567921 0.1178396072013093 0.1014729950900164 0.09492635024549918 0.08183306055646482 0.09364548494983277 0.1103678929765886 0.1003344481605351 0.1137123745819398 0.1020066889632107 0.1003344481605351 0.07692307692307693 0.1003344481605351 0.1003344481605351 0.1020066889632107 0.1142857142857143 0.1071428571428571 0.1 0.08214285714285714 0.08749999999999999 0.1053571428571429 0.1196428571428571 0.1089285714285714 0.08035714285714286 0.09464285714285714 0.0891238670694864 0.09063444108761329 0.09214501510574018 0.08610271903323263 0.1163141993957704 0.1012084592145015 0.09818731117824774 0.09969788519637462 0.1072507552870091 0.1193353474320242 0.0924092409240924 0.1072607260726073 0.1171617161716172 0.103960396039604 0.1221122112211221 0.1023102310231023 0.08580858085808581 0.09405940594059406 0.0924092409240924 0.08250825082508251 0.002298850574712644 0.002298850574712644 0.002298850574712644 0.1379310344827586 0.1609195402298851 0.1471264367816092 0.1425287356321839 0.1310344827586207 0.1471264367816092 0.1264367816091954 0.002207505518763797 0.002207505518763797 0.002207505518763797 0.1589403973509934 0.1103752759381898 0.163355408388521 0.1611479028697572 0.1324503311258278 0.1434878587196468 0.1236203090507726 0.002304147465437788 0.002304147465437788 0.002304147465437788 0.1451612903225807 0.1751152073732719 0.1658986175115207 0.1313364055299539 0.1013824884792627 0.1405529953917051 0.1336405529953917 0.002439024390243902 0.002439024390243902 0.002439024390243902 0.1170731707317073 0.1414634146341463 0.1707317073170732 0.1512195121951219 0.148780487804878 0.1439024390243902 0.1195121951219512 0.002421307506053269 0.002421307506053269 0.002421307506053269 0.1404358353510896 0.1283292978208233 0.1307506053268765 0.1840193704600484 0.1234866828087167 0.12590799031477 0.1598062953995157 0.002375296912114014 0.002375296912114014 0.002375296912114014 0.1353919239904988 0.1520190023752969 0.163895486935867 0.1163895486935867 0.1543942992874109 0.1425178147268409 0.1282660332541568 0.00234192037470726 0.00234192037470726 0.00234192037470726 0.1358313817330211 0.1943793911007026 0.1030444964871194 0.1405152224824356 0.1288056206088993 0.1288056206088993 0.1615925058548009 0.002463054187192118 0.002463054187192118 0.002463054187192118 0.1650246305418719 0.167487684729064 0.1280788177339902 0.1280788177339902 0.1280788177339902 0.1379310344827586 0.1379310344827586 0.002427184466019417 0.002427184466019417 0.002427184466019417 0.1286407766990291 0.1480582524271845 0.1432038834951456 0.1262135922330097 0.1577669902912621 0.1286407766990291 0.1601941747572816 0.003436426116838488 0.003436426116838488 0.003436426116838488 0.003436426116838488 0.003436426116838488 0.2164948453608248 0.1855670103092784 0.154639175257732 0.2130584192439862 0.2130584192439862 0.003205128205128205 0.003205128205128205 0.003205128205128205 0.003205128205128205 0.003205128205128205 0.233974358974359 0.1666666666666667 0.2019230769230769 0.2051282051282051 0.1762820512820513 0.00303951367781155 0.00303951367781155 0.00303951367781155 0.00303951367781155 0.00303951367781155 0.1762917933130699 0.2279635258358663 0.1732522796352584 0.2006079027355623 0.2066869300911854 0.003289473684210526 0.003289473684210526 0.003289473684210526 0.003289473684210526 0.003289473684210526 0.1973684210526316 0.2006578947368421 0.194078947368421 0.180921052631579 0.2105263157894737 0.003184713375796179 0.003184713375796179 0.003184713375796179 0.003184713375796179 0.003184713375796179 0.1592356687898089 0.1974522292993631 0.1974522292993631 0.2452229299363057 0.1847133757961783 0.003333333333333334 0.003333333333333334 0.003333333333333334 0.003333333333333334 0.003333333333333334 0.2166666666666667 0.19 0.16 0.1933333333333333 0.2233333333333333 0.003048780487804878 0.003048780487804878 0.003048780487804878 0.003048780487804878 0.003048780487804878 0.1585365853658537 0.1981707317073171 0.2042682926829268 0.2164634146341463 0.2073170731707317 0.003095975232198143 0.003095975232198143 0.003095975232198143 0.003095975232198143 0.003095975232198143 0.2229102167182662 0.1981424148606811 0.195046439628483 0.1826625386996904 0.1857585139318886 0.003367003367003367 0.003367003367003367 0.003367003367003367 0.003367003367003367 0.003367003367003367 0.2424242424242424 0.1784511784511784 0.164983164983165 0.1952861952861953 0.202020202020202 0.005050505050505051 0.005050505050505051 0.005050505050505051 0.005050505050505051 0.005050505050505051 0.005050505050505051 0.005050505050505051 0.3585858585858586 0.3333333333333333 0.2727272727272727 0.004878048780487805 0.004878048780487805 0.004878048780487805 0.004878048780487805 0.004878048780487805 0.004878048780487805 0.004878048780487805 0.3804878048780488 0.3170731707317073 0.2682926829268293 0.006097560975609756 0.006097560975609756 0.006097560975609756 0.006097560975609756 0.006097560975609756 0.006097560975609756 0.006097560975609756 0.2926829268292683 0.3414634146341464 0.3231707317073171 0.005263157894736842 0.005263157894736842 0.005263157894736842 0.005263157894736842 0.005263157894736842 0.005263157894736842 0.005263157894736842 0.3210526315789474 0.3473684210526316 0.2947368421052631 0.005181347150259068 0.005181347150259068 0.005181347150259068 0.005181347150259068 0.005181347150259068 0.005181347150259068 0.005181347150259068 0.310880829015544 0.3264248704663212 0.3264248704663212 0.005649717514124294 0.005649717514124294 0.005649717514124294 0.005649717514124294 0.005649717514124294 0.005649717514124294 0.005649717514124294 0.2429378531073446 0.2768361581920904 0.4406779661016949 0.005649717514124294 0.005649717514124294 0.005649717514124294 0.005649717514124294 0.005649717514124294 0.005649717514124294 0.005649717514124294 0.2994350282485876 0.3163841807909605 0.3446327683615819 0.00510204081632653 0.00510204081632653 0.00510204081632653 0.00510204081632653 0.00510204081632653 0.00510204081632653 0.00510204081632653 0.2959183673469388 0.2908163265306122 0.3775510204081632 0.0045662100456621 0.0045662100456621 0.0045662100456621 0.0045662100456621 0.0045662100456621 0.0045662100456621 0.0045662100456621 0.2694063926940639 0.3698630136986301 0.3287671232876712 0.1 0.1 0.1 0.1 0.1 0.1 0.1 0.1 0.1 0.1 0.1 0.1 0.1 0.1 0.1 0.1 0.1 0.1 0.1 0.1 0.1 0.1 0.1 0.1 0.1 0.1 0.1 0.1 0.1 0.1 0.1 0.1 0.1 0.1 0.1 0.1 0.1 0.1 0.1 0.1 0.1 0.1 0.1 0.1 0.1 0.1 0.1 0.1 0.1 0.1 0.1 0.1 0.1 0.1 0.1 0.1 0.1 0.1 0.1 0.1 0.1 0.1 0.1 0.1 0.1 0.1 0.1 0.1 0.1 0.1 0.1 0.1 0.1 0.1 0.1 0.1 0.1 0.1 0.1 0.1 0.1 0.1 0.1 0.1 0.1 0.1 0.1 0.1 0.1 0.1 0.1 0.1 0.1 0.1 0.1 0.1 0.1 0.1 0.1 0.1 0.1 0.1 0.1 0.1 0.1 0.1 0.1 0.1 0.1 0.1 0.1 0.1 0.1 0.1 0.1 0.1 0.1 0.1 0.1 0.1 0.1 0.1 0.1 0.1 0.1 0.1 0.1 0.1 0.1 0.1 0.1 0.1 0.1 0.1 0.1 0.1 0.1 0.1 0.1 0.1 0.1 0.1 0.1 0.1 0.1 0.1 0.1 0.1 0.1 0.1 0.1 0.1 0.1 0.1 0.1 0.1 0.1 0.1 0.1 0.1 0.1 0.1 0.1 0.1 0.1 0.1 0.1 0.1 0.1 0.1 0.1 0.1 0.1 0.1 0.1 0.1 0.1 0.1 0.1 0.1 0.1 0.1 0.1 0.1 0.1 0.1 0.1 0.1 0.1 0.1 0.1 0.1 0.1 0.1 0.1 0.1 0.1 0.1 0.1 0.1 0.1 0.1 0.1 0.1 0.1 0.1 0.1 0.1 0.1 0.1 0.1 0.1 0.1 0.1 0.1 0.1 0.1 0.1 0.1 0.1 0.1 0.1 0.1 0.1 0.1 0.1 0.1 0.1 0.1 0.1 0.1 0.1 0.1 0.1 0.1 0.1 0.1 0.1 0.1 0.1 0.1 0.1 0.1 0.1 0.1 0.1 0.1 0.1 0.1 0.1 0.1 0.1 0.1 0.1 0.1 0.1 0.1 0.1 0.1 0.1 0.1 0.1 0.1 0.1 0.1 0.1 0.1 0.1 0.1 0.1 0.1 0.1 0.1 0.1 0.1 0.1 0.1 0.1 0.1 0.1 0.1 0.1 0.1 0.1 0.1 0.1 0.1 0.1 0.1 0.1 0.1 0.1 0.1 0.1 0.1 0.1 0.1 0.1 0.1 0.1 0.1 0.1 0.1 0.1 0.1 0.1 0.1 0.1 0.1 0.1 0.1 0.1 0.1 0.1 0.1 0.1 0.1 0.1 0.1 0.1 0.1 0.1 0.1 0.1 0.1 0.1 0.1 0.1 0.1 0.1 0.1 0.1 0.1 0.1 0.1 0.1 0.1 0.1 0.1 0.1 0.1 0.1 0.1 0.1 0.1 0.1 0.1 0.1 0.1 0.1 0.1 0.1 0.1 0.1 0.1 0.1 0.1 0.1 0.1 0.1 0.1 0.1 0.1 0.1 0.1 0.1 0.1 0.1 0.1 0.1 0.1 0.1 0.1 0.1 0.1 0.1 0.1 0.1 0.1 0.1 0.1 0.1 0.1 0.1 0.1 0.1 0.1 0.1 0.1 0.1 0.1 0.1 0.1 0.1 0.1 0.1 0.1 0.1 0.1 0.1 0.1 0.1 0.1 0.1 0.1 0.1 0.1 0.1 0.1 0.1 0.1 0.1 0.1 0.1 0.1 0.1 0.1 0.1 0.1 0.1 0.1 0.1 0.1 0.1 0.1 0.1 0.1 0.1 0.1 0.1 0.1 0.1 0.1 0.1 0.1 0.1 0.1 0.1 0.1 0.1 0.1 0.1 0.1 0.1 0.1 0.1 0.1 0.1 0.1 0.1 0.1 0.1 0.1 0.1 0.1 0.1 0.1 0.1 0.1 0.1 0.1 0.1 0.1 0.1 0.1 0.1 0.1 0.1 0.1 0.1 0.1 0.1 0.1 0.1 0.1 0.1 0.1 0.1 0.1 0.1 0.1 0.1 0.1 0.1 0.1 0.1 0.1 0.1 0.1 0.1 0.1 0.1 0.1 0.1 0.1 0.1 0.1 0.1 0.1 0.1 0.1 0.1 0.1 0.1 0.1 0.1 0.1 0.1 0.1 0.1 0.1 0.1 0.1 0.1 0.1 0.1 0.1 0.1 0.1 0.1 0.1 0.1 0.1 0.1 0.1 0.1 0.1 0.1 0.1 0.1 0.1 0.1 0.1 0.1 0.1 0.1 0.1 0.1 0.1 0.1 0.1 0.1 0.1 0.1 0.1 0.1 0.1 0.1 0.1 0.1 0.1 0.1 0.1 0.1 0.1 0.1 0.1 0.1 0.1 0.1 0.1 0.1 0.1 0.1 0.1 0.1 0.1 0.1 0.1 0.1 0.1 0.1 0.1 0.1 0.1 0.1 0.1 0.1 0.1 0.1 0.1 0.1 0.1 0.1 0.1 0.1 0.1 0.1 0.1 0.1 0.1 0.1 0.1 0.1 0.1 0.1 0.1 0.1 0.1 0.1 0.1 0.1 0.1 0.1 0.1 0.1 0.1 0.1 0.1 0.1 0.1 0.1 0.1 0.1 0.1 0.1 0.1 0.1 0.1 0.1 0.1 0.1 0.1 0.1 0.1 0.1 0.1 0.1 0.1 0.1 0.007936507936507936 0.5 0.4365079365079365 0.007936507936507936 0.007936507936507936 0.007936507936507936 0.007936507936507936 0.007936507936507936 0.007936507936507936 0.007936507936507936 0.008130081300813009 0.4959349593495935 0.4390243902439024 0.008130081300813009 0.008130081300813009 0.008130081300813009 0.008130081300813009 0.008130081300813009 0.008130081300813009 0.008130081300813009 0.007692307692307693 0.4461538461538462 0.4923076923076923 0.007692307692307693 0.007692307692307693 0.007692307692307693 0.007692307692307693 0.007692307692307693 0.007692307692307693 0.007692307692307693 0.009174311926605505 0.5045871559633027 0.4220183486238532 0.009174311926605505 0.009174311926605505 0.009174311926605505 0.009174311926605505 0.009174311926605505 0.009174311926605505 0.009174311926605505 0.009615384615384616 0.4423076923076923 0.4807692307692308 0.009615384615384616 0.009615384615384616 0.009615384615384616 0.009615384615384616 0.009615384615384616 0.009615384615384616 0.009615384615384616 0.008771929824561403 0.4473684210526316 0.4824561403508772 0.008771929824561403 0.008771929824561403 0.008771929824561403 0.008771929824561403 0.008771929824561403 0.008771929824561403 0.008771929824561403 0.00819672131147541 0.5819672131147541 0.3524590163934426 0.00819672131147541 0.00819672131147541 0.00819672131147541 0.00819672131147541 0.00819672131147541 0.00819672131147541 0.00819672131147541 0.008130081300813009 0.5284552845528455 0.4065040650406504 0.008130081300813009 0.008130081300813009 0.008130081300813009 0.008130081300813009 0.008130081300813009 0.008130081300813009 0.008130081300813009 0.007936507936507936 0.4523809523809524 0.4841269841269841 0.007936507936507936 0.007936507936507936 0.007936507936507936 0.007936507936507936 0.007936507936507936 0.007936507936507936 0.007936507936507936 0.005747126436781609 0.005747126436781609 0.3850574712643678 0.2471264367816092 0.3275862068965517 0.005747126436781609 0.005747126436781609 0.005747126436781609 0.005747126436781609 0.005747126436781609 0.005813953488372093 0.005813953488372093 0.2965116279069768 0.3372093023255814 0.3255813953488372 0.005813953488372093 0.005813953488372093 0.005813953488372093 0.005813953488372093 0.005813953488372093 0.004807692307692308 0.004807692307692308 0.3269230769230769 0.3269230769230769 0.3125 0.004807692307692308 0.004807692307692308 0.004807692307692308 0.004807692307692308 0.004807692307692308 0.00510204081632653 0.00510204081632653 0.3571428571428572 0.2806122448979592 0.3265306122448979 0.00510204081632653 0.00510204081632653 0.00510204081632653 0.00510204081632653 0.00510204081632653 0.004878048780487805 0.004878048780487805 0.2926829268292683 0.2634146341463415 0.4097560975609756 0.004878048780487805 0.004878048780487805 0.004878048780487805 0.004878048780487805 0.004878048780487805 0.005181347150259068 0.005181347150259068 0.3005181347150259 0.3264248704663212 0.3367875647668394 0.005181347150259068 0.005181347150259068 0.005181347150259068 0.005181347150259068 0.005181347150259068 0.005434782608695652 0.005434782608695652 0.2989130434782609 0.375 0.2880434782608696 0.005434782608695652 0.005434782608695652 0.005434782608695652 0.005434782608695652 0.005434782608695652 0.005714285714285714 0.005714285714285714 0.3142857142857143 0.3028571428571429 0.3428571428571429 0.005714285714285714 0.005714285714285714 0.005714285714285714 0.005714285714285714 0.005714285714285714 0.006172839506172839 0.006172839506172839 0.2962962962962963 0.3703703703703703 0.2901234567901235 0.006172839506172839 0.006172839506172839 0.006172839506172839 0.006172839506172839 0.006172839506172839 0.003875968992248062 0.003875968992248062 0.003875968992248062 0.2209302325581395 0.2441860465116279 0.2984496124031008 0.2131782945736434 0.003875968992248062 0.003875968992248062 0.003875968992248062 0.004098360655737705 0.004098360655737705 0.004098360655737705 0.209016393442623 0.2786885245901639 0.2213114754098361 0.2663934426229508 0.004098360655737705 0.004098360655737705 0.004098360655737705 0.004048582995951417 0.004048582995951417 0.004048582995951417 0.242914979757085 0.2226720647773279 0.242914979757085 0.2672064777327935 0.004048582995951417 0.004048582995951417 0.004048582995951417 0.004545454545454545 0.004545454545454545 0.004545454545454545 0.1909090909090909 0.2590909090909091 0.2727272727272727 0.25 0.004545454545454545 0.004545454545454545 0.004545454545454545 0.004166666666666667 0.004166666666666667 0.004166666666666667 0.2541666666666667 0.2291666666666667 0.2708333333333333 0.2208333333333333 0.004166666666666667 0.004166666666666667 0.004166666666666667 0.004385964912280702 0.004385964912280702 0.004385964912280702 0.2631578947368421 0.1885964912280702 0.2587719298245614 0.2631578947368421 0.004385964912280702 0.004385964912280702 0.004385964912280702 0.003690036900369004 0.003690036900369004 0.003690036900369004 0.2287822878228782 0.2619926199261993 0.2361623616236162 0.2509225092250922 0.003690036900369004 0.003690036900369004 0.003690036900369004 0.004385964912280702 0.004385964912280702 0.004385964912280702 0.2807017543859649 0.2412280701754386 0.2149122807017544 0.2368421052631579 0.004385964912280702 0.004385964912280702 0.004385964912280702 0.00398406374501992 0.00398406374501992 0.00398406374501992 0.199203187250996 0.2948207171314741 0.2669322709163346 0.2151394422310757 0.00398406374501992 0.00398406374501992 0.00398406374501992 0.002994011976047904 0.002994011976047904 0.002994011976047904 0.002994011976047904 0.1826347305389222 0.1766467065868264 0.1826347305389222 0.1676646706586826 0.1586826347305389 0.1197604790419162 0.002857142857142857 0.002857142857142857 0.002857142857142857 0.002857142857142857 0.1828571428571429 0.2114285714285714 0.1114285714285714 0.1828571428571429 0.1457142857142857 0.1542857142857143 0.002597402597402597 0.002597402597402597 0.002597402597402597 0.002597402597402597 0.1584415584415584 0.2051948051948052 0.1324675324675325 0.1584415584415584 0.1636363636363636 0.1714285714285714 0.002702702702702703 0.002702702702702703 0.002702702702702703 0.002702702702702703 0.1513513513513514 0.1594594594594595 0.1513513513513514 0.172972972972973 0.1756756756756757 0.1783783783783784 0.002551020408163265 0.002551020408163265 0.002551020408163265 0.002551020408163265 0.1377551020408163 0.1760204081632653 0.1683673469387755 0.1811224489795918 0.163265306122449 0.163265306122449 0.002688172043010753 0.002688172043010753 0.002688172043010753 0.002688172043010753 0.1451612903225807 0.1478494623655914 0.1774193548387097 0.1370967741935484 0.1720430107526882 0.2096774193548387 0.002857142857142857 0.002857142857142857 0.002857142857142857 0.002857142857142857 0.1571428571428571 0.2171428571428571 0.1771428571428571 0.1457142857142857 0.1371428571428571 0.1542857142857143 0.002857142857142857 0.002857142857142857 0.002857142857142857 0.002857142857142857 0.1885714285714286 0.1371428571428571 0.1885714285714286 0.1485714285714286 0.16 0.1657142857142857 0.002923976608187134 0.002923976608187134 0.002923976608187134 0.002923976608187134 0.1549707602339181 0.1871345029239766 0.1871345029239766 0.1491228070175439 0.1578947368421053 0.152046783625731 0.003154574132492113 0.003154574132492113 0.003154574132492113 0.003154574132492113 0.003154574132492113 0.1861198738170347 0.2239747634069401 0.2397476340694006 0.1703470031545741 0.1640378548895899 0.003690036900369004 0.003690036900369004 0.003690036900369004 0.003690036900369004 0.003690036900369004 0.2177121771217712 0.1771217712177122 0.1734317343173432 0.1992619926199262 0.2140221402214022 0.003246753246753247 0.003246753246753247 0.003246753246753247 0.003246753246753247 0.003246753246753247 0.1980519480519481 0.1980519480519481 0.1818181818181818 0.1948051948051948 0.211038961038961 0.003134796238244514 0.003134796238244514 0.003134796238244514 0.003134796238244514 0.003134796238244514 0.1724137931034483 0.2100313479623825 0.2006269592476489 0.1943573667711599 0.2068965517241379 0.003311258278145695 0.003311258278145695 0.003311258278145695 0.003311258278145695 0.003311258278145695 0.2317880794701987 0.1688741721854305 0.2185430463576159 0.195364238410596 0.1688741721854305 0.003154574132492113 0.003154574132492113 0.003154574132492113 0.003154574132492113 0.003154574132492113 0.2082018927444795 0.1924290220820189 0.2208201892744479 0.1703470031545741 0.1924290220820189 0.003067484662576687 0.003067484662576687 0.003067484662576687 0.003067484662576687 0.003067484662576687 0.2024539877300613 0.2269938650306748 0.1809815950920245 0.1595092024539877 0.2147239263803681 0.003215434083601286 0.003215434083601286 0.003215434083601286 0.003215434083601286 0.003215434083601286 0.2218649517684887 0.1639871382636656 0.1993569131832797 0.1864951768488746 0.2122186495176849 0.003125 0.003125 0.003125 0.003125 0.003125 0.209375 0.16875 0.1875 0.234375 0.184375 0.004201680672268907 0.004201680672268907 0.004201680672268907 0.004201680672268907 0.004201680672268907 0.004201680672268907 0.2058823529411765 0.273109243697479 0.226890756302521 0.2689075630252101 0.004048582995951417 0.004048582995951417 0.004048582995951417 0.004048582995951417 0.004048582995951417 0.004048582995951417 0.1902834008097166 0.2591093117408907 0.2712550607287449 0.2550607287449393 0.004 0.004 0.004 0.004 0.004 0.004 0.212 0.248 0.248 0.268 0.004081632653061225 0.004081632653061225 0.004081632653061225 0.004081632653061225 0.004081632653061225 0.004081632653061225 0.2081632653061224 0.3061224489795918 0.2408163265306122 0.2204081632653061 0.00390625 0.00390625 0.00390625 0.00390625 0.00390625 0.00390625 0.21484375 0.24609375 0.25390625 0.26171875 0.003731343283582089 0.003731343283582089 0.003731343283582089 0.003731343283582089 0.003731343283582089 0.003731343283582089 0.3097014925373134 0.1902985074626866 0.25 0.2276119402985075 0.004065040650406504 0.004065040650406504 0.004065040650406504 0.004065040650406504 0.004065040650406504 0.004065040650406504 0.1991869918699187 0.2276422764227642 0.2317073170731707 0.3170731707317073 0.00398406374501992 0.00398406374501992 0.00398406374501992 0.00398406374501992 0.00398406374501992 0.00398406374501992 0.2310756972111554 0.2470119521912351 0.2868525896414343 0.2111553784860558 0.004048582995951417 0.004048582995951417 0.004048582995951417 0.004048582995951417 0.004048582995951417 0.004048582995951417 0.2672064777327935 0.2064777327935223 0.2550607287449393 0.2469635627530364 0.005263157894736842 0.005263157894736842 0.005263157894736842 0.005263157894736842 0.005263157894736842 0.005263157894736842 0.005263157894736842 0.3157894736842105 0.3263157894736842 0.3210526315789474 0.005405405405405406 0.005405405405405406 0.005405405405405406 0.005405405405405406 0.005405405405405406 0.005405405405405406 0.005405405405405406 0.2972972972972973 0.3243243243243243 0.3405405405405406 0.006622516556291391 0.006622516556291391 0.006622516556291391 0.006622516556291391 0.006622516556291391 0.006622516556291391 0.006622516556291391 0.3443708609271523 0.3178807947019868 0.2913907284768212 0.00510204081632653 0.00510204081632653 0.00510204081632653 0.00510204081632653 0.00510204081632653 0.00510204081632653 0.00510204081632653 0.3010204081632653 0.3061224489795918 0.3571428571428572 0.005376344086021506 0.005376344086021506 0.005376344086021506 0.005376344086021506 0.005376344086021506 0.005376344086021506 0.005376344086021506 0.3225806451612903 0.2849462365591398 0.3548387096774194 0.005555555555555556 0.005555555555555556 0.005555555555555556 0.005555555555555556 0.005555555555555556 0.005555555555555556 0.005555555555555556 0.3166666666666667 0.2722222222222222 0.3722222222222222 0.005025125628140704 0.005025125628140704 0.005025125628140704 0.005025125628140704 0.005025125628140704 0.005025125628140704 0.005025125628140704 0.2864321608040201 0.3668341708542713 0.3115577889447236 0.005291005291005291 0.005291005291005291 0.005291005291005291 0.005291005291005291 0.005291005291005291 0.005291005291005291 0.005291005291005291 0.3121693121693122 0.2751322751322751 0.3756613756613756 0.004901960784313725 0.004901960784313725 0.004901960784313725 0.004901960784313725 0.004901960784313725 0.004901960784313725 0.004901960784313725 0.2843137254901961 0.3431372549019608 0.3382352941176471 0.006896551724137931 0.006896551724137931 0.006896551724137931 0.006896551724137931 0.006896551724137931 0.006896551724137931 0.006896551724137931 0.006896551724137931 0.4482758620689655 0.496551724137931 0.00819672131147541 0.00819672131147541 0.00819672131147541 0.00819672131147541 0.00819672131147541 0.00819672131147541 0.00819672131147541 0.00819672131147541 0.4672131147540984 0.4672131147540984 0.007936507936507936 0.007936507936507936 0.007936507936507936 0.007936507936507936 0.007936507936507936 0.007936507936507936 0.007936507936507936 0.007936507936507936 0.4285714285714285 0.5079365079365079 0.008 0.008 0.008 0.008 0.008 0.008 0.008 0.008 0.44 0.496 0.00819672131147541 0.00819672131147541 0.00819672131147541 0.00819672131147541 0.00819672131147541 0.00819672131147541 0.00819672131147541 0.00819672131147541 0.4836065573770492 0.4508196721311475 0.0078125 0.0078125 0.0078125 0.0078125 0.0078125 0.0078125 0.0078125 0.0078125 0.46875 0.46875 0.007518796992481203 0.007518796992481203 0.007518796992481203 0.007518796992481203 0.007518796992481203 0.007518796992481203 0.007518796992481203 0.007518796992481203 0.556390977443609 0.3834586466165413 0.008695652173913044 0.008695652173913044 0.008695652173913044 0.008695652173913044 0.008695652173913044 0.008695652173913044 0.008695652173913044 0.008695652173913044 0.5217391304347826 0.4086956521739131 0.007092198581560284 0.007092198581560284 0.007092198581560284 0.007092198581560284 0.007092198581560284 0.007092198581560284 0.007092198581560284 0.007092198581560284 0.4822695035460993 0.4609929078014184 0.01282051282051282 0.01282051282051282 0.01282051282051282 0.01282051282051282 0.01282051282051282 0.01282051282051282 0.01282051282051282 0.01282051282051282 0.01282051282051282 0.8846153846153846 0.0136986301369863 0.0136986301369863 0.0136986301369863 0.0136986301369863 0.0136986301369863 0.0136986301369863 0.0136986301369863 0.0136986301369863 0.0136986301369863 0.8767123287671232 0.01333333333333333 0.01333333333333333 0.01333333333333333 0.01333333333333333 0.01333333333333333 0.01333333333333333 0.01333333333333333 0.01333333333333333 0.01333333333333333 0.88 0.01492537313432836 0.01492537313432836 0.01492537313432836 0.01492537313432836 0.01492537313432836 0.01492537313432836 0.01492537313432836 0.01492537313432836 0.01492537313432836 0.8656716417910447 0.01666666666666667 0.01666666666666667 0.01666666666666667 0.01666666666666667 0.01666666666666667 0.01666666666666667 0.01666666666666667 0.01666666666666667 0.01666666666666667 0.85 0.01694915254237288 0.01694915254237288 0.01694915254237288 0.01694915254237288 0.01694915254237288 0.01694915254237288 0.01694915254237288 0.01694915254237288 0.01694915254237288 0.847457627118644 0.01428571428571429 0.01428571428571429 0.01428571428571429 0.01428571428571429 0.01428571428571429 0.01428571428571429 0.01428571428571429 0.01428571428571429 0.01428571428571429 0.8714285714285714 0.015625 0.015625 0.015625 0.015625 0.015625 0.015625 0.015625 0.015625 0.015625 0.859375 0.01492537313432836 0.01492537313432836 0.01492537313432836 0.01492537313432836 0.01492537313432836 0.01492537313432836 0.01492537313432836 0.01492537313432836 0.01492537313432836 0.8656716417910447 0.1 0.1 0.1 0.1 0.1 0.1 0.1 0.1 0.1 0.1 0.1 0.1 0.1 0.1 0.1 0.1 0.1 0.1 0.1 0.1 0.1 0.1 0.1 0.1 0.1 0.1 0.1 0.1 0.1 0.1 0.1 0.1 0.1 0.1 0.1 0.1 0.1 0.1 0.1 0.1 0.1 0.1 0.1 0.1 0.1 0.1 0.1 0.1 0.1 0.1 0.1 0.1 0.1 0.1 0.1 0.1 0.1 0.1 0.1 0.1 0.1 0.1 0.1 0.1 0.1 0.1 0.1 0.1 0.1 0.1 0.1 0.1 0.1 0.1 0.1 0.1 0.1 0.1 0.1 0.1 0.1 0.1 0.1 0.1 0.1 0.1 0.1 0.1 0.1 0.1 0.1 0.1 0.1 0.1 0.1 0.1 0.1 0.1 0.1 0.1 0.1 0.1 0.1 0.1 0.1 0.1 0.1 0.1 0.1 0.1 0.1 0.1 0.1 0.1 0.1 0.1 0.1 0.1 0.1 0.1 0.1 0.1 0.1 0.1 0.1 0.1 0.1 0.1 0.1 0.1 0.1 0.1 0.1 0.1 0.1 0.1 0.1 0.1 0.1 0.1 0.1 0.1 0.1 0.1 0.1 0.1 0.1 0.1 0.1 0.1 0.1 0.1 0.1 0.1 0.1 0.1 0.1 0.1 0.1 0.1 0.1 0.1 0.1 0.1 0.1 0.1 0.1 0.1 0.1 0.1 0.1 0.1 0.1 0.1 0.1 0.1 0.1 0.1 0.1 0.1 0.01538461538461539 0.8615384615384616 0.01538461538461539 0.01538461538461539 0.01538461538461539 0.01538461538461539 0.01538461538461539 0.01538461538461539 0.01538461538461539 0.01538461538461539 0.01538461538461539 0.8615384615384616 0.01538461538461539 0.01538461538461539 0.01538461538461539 0.01538461538461539 0.01538461538461539 0.01538461538461539 0.01538461538461539 0.01538461538461539 0.01449275362318841 0.8695652173913043 0.01449275362318841 0.01449275362318841 0.01449275362318841 0.01449275362318841 0.01449275362318841 0.01449275362318841 0.01449275362318841 0.01449275362318841 0.01639344262295082 0.8524590163934426 0.01639344262295082 0.01639344262295082 0.01639344262295082 0.01639344262295082 0.01639344262295082 0.01639344262295082 0.01639344262295082 0.01639344262295082 0.01388888888888889 0.875 0.01388888888888889 0.01388888888888889 0.01388888888888889 0.01388888888888889 0.01388888888888889 0.01388888888888889 0.01388888888888889 0.01388888888888889 0.01136363636363636 0.8977272727272727 0.01136363636363636 0.01136363636363636 0.01136363636363636 0.01136363636363636 0.01136363636363636 0.01136363636363636 0.01136363636363636 0.01136363636363636 0.01694915254237288 0.847457627118644 0.01694915254237288 0.01694915254237288 0.01694915254237288 0.01694915254237288 0.01694915254237288 0.01694915254237288 0.01694915254237288 0.01694915254237288 0.01388888888888889 0.875 0.01388888888888889 0.01388888888888889 0.01388888888888889 0.01388888888888889 0.01388888888888889 0.01388888888888889 0.01388888888888889 0.01388888888888889 0.01388888888888889 0.875 0.01388888888888889 0.01388888888888889 0.01388888888888889 0.01388888888888889 0.01388888888888889 0.01388888888888889 0.01388888888888889 0.01388888888888889 0.01639344262295082 0.01639344262295082 0.8524590163934426 0.01639344262295082 0.01639344262295082 0.01639344262295082 0.01639344262295082 0.01639344262295082 0.01639344262295082 0.01639344262295082 0.0125 0.0125 0.8875 0.0125 0.0125 0.0125 0.0125 0.0125 0.0125 0.0125 0.01666666666666667 0.01666666666666667 0.85 0.01666666666666667 0.01666666666666667 0.01666666666666667 0.01666666666666667 0.01666666666666667 0.01666666666666667 0.01666666666666667 0.01515151515151515 0.01515151515151515 0.8636363636363636 0.01515151515151515 0.01515151515151515 0.01515151515151515 0.01515151515151515 0.01515151515151515 0.01515151515151515 0.01515151515151515 0.0136986301369863 0.0136986301369863 0.8767123287671232 0.0136986301369863 0.0136986301369863 0.0136986301369863 0.0136986301369863 0.0136986301369863 0.0136986301369863 0.0136986301369863 0.01351351351351351 0.01351351351351351 0.8783783783783784 0.01351351351351351 0.01351351351351351 0.01351351351351351 0.01351351351351351 0.01351351351351351 0.01351351351351351 0.01351351351351351 0.0119047619047619 0.0119047619047619 0.8928571428571429 0.0119047619047619 0.0119047619047619 0.0119047619047619 0.0119047619047619 0.0119047619047619 0.0119047619047619 0.0119047619047619 0.01449275362318841 0.01449275362318841 0.8695652173913043 0.01449275362318841 0.01449275362318841 0.01449275362318841 0.01449275362318841 0.01449275362318841 0.01449275362318841 0.01449275362318841 0.01408450704225352 0.01408450704225352 0.8732394366197183 0.01408450704225352 0.01408450704225352 0.01408450704225352 0.01408450704225352 0.01408450704225352 0.01408450704225352 0.01408450704225352 0.008264462809917356 0.008264462809917356 0.4297520661157025 0.5041322314049587 0.008264462809917356 0.008264462809917356 0.008264462809917356 0.008264462809917356 0.008264462809917356 0.008264462809917356 0.008 0.008 0.488 0.448 0.008 0.008 0.008 0.008 0.008 0.008 0.008130081300813009 0.008130081300813009 0.4308943089430894 0.5040650406504065 0.008130081300813009 0.008130081300813009 0.008130081300813009 0.008130081300813009 0.008130081300813009 0.008130081300813009 0.008064516129032258 0.008064516129032258 0.4919354838709677 0.4435483870967742 0.008064516129032258 0.008064516129032258 0.008064516129032258 0.008064516129032258 0.008064516129032258 0.008064516129032258 0.006756756756756757 0.006756756756756757 0.5608108108108109 0.3851351351351351 0.006756756756756757 0.006756756756756757 0.006756756756756757 0.006756756756756757 0.006756756756756757 0.006756756756756757 0.008333333333333333 0.008333333333333333 0.5 0.4333333333333333 0.008333333333333333 0.008333333333333333 0.008333333333333333 0.008333333333333333 0.008333333333333333 0.008333333333333333 0.007936507936507936 0.007936507936507936 0.4603174603174603 0.4761904761904762 0.007936507936507936 0.007936507936507936 0.007936507936507936 0.007936507936507936 0.007936507936507936 0.007936507936507936 0.007194244604316547 0.007194244604316547 0.4964028776978417 0.4460431654676259 0.007194244604316547 0.007194244604316547 0.007194244604316547 0.007194244604316547 0.007194244604316547 0.007194244604316547 0.008771929824561403 0.008771929824561403 0.4912280701754386 0.4385964912280702 0.008771929824561403 0.008771929824561403 0.008771929824561403 0.008771929824561403 0.008771929824561403 0.008771929824561403 0.007462686567164179 0.007462686567164179 0.007462686567164179 0.4925373134328358 0.4477611940298508 0.007462686567164179 0.007462686567164179 0.007462686567164179 0.007462686567164179 0.007462686567164179 0.0072992700729927 0.0072992700729927 0.0072992700729927 0.5036496350364964 0.4379562043795621 0.0072992700729927 0.0072992700729927 0.0072992700729927 0.0072992700729927 0.0072992700729927 0.007462686567164179 0.007462686567164179 0.007462686567164179 0.4850746268656717 0.4552238805970149 0.007462686567164179 0.007462686567164179 0.007462686567164179 0.007462686567164179 0.007462686567164179 0.00909090909090909 0.00909090909090909 0.00909090909090909 0.4727272727272727 0.4545454545454545 0.00909090909090909 0.00909090909090909 0.00909090909090909 0.00909090909090909 0.00909090909090909 0.007462686567164179 0.007462686567164179 0.007462686567164179 0.4925373134328358 0.4477611940298508 0.007462686567164179 0.007462686567164179 0.007462686567164179 0.007462686567164179 0.007462686567164179 0.007407407407407408 0.007407407407407408 0.007407407407407408 0.3925925925925926 0.5481481481481482 0.007407407407407408 0.007407407407407408 0.007407407407407408 0.007407407407407408 0.007407407407407408 0.007936507936507936 0.007936507936507936 0.007936507936507936 0.5238095238095238 0.4126984126984127 0.007936507936507936 0.007936507936507936 0.007936507936507936 0.007936507936507936 0.007936507936507936 0.008130081300813009 0.008130081300813009 0.008130081300813009 0.4065040650406504 0.5284552845528455 0.008130081300813009 0.008130081300813009 0.008130081300813009 0.008130081300813009 0.008130081300813009 0.007092198581560284 0.007092198581560284 0.007092198581560284 0.4680851063829787 0.475177304964539 0.007092198581560284 0.007092198581560284 0.007092198581560284 0.007092198581560284 0.007092198581560284 0.00546448087431694 0.00546448087431694 0.00546448087431694 0.3060109289617486 0.3770491803278688 0.2786885245901639 0.00546448087431694 0.00546448087431694 0.00546448087431694 0.00546448087431694 0.005555555555555556 0.005555555555555556 0.005555555555555556 0.3 0.3111111111111111 0.35 0.005555555555555556 0.005555555555555556 0.005555555555555556 0.005555555555555556 0.004629629629629629 0.004629629629629629 0.004629629629629629 0.3472222222222222 0.3194444444444444 0.3009259259259259 0.004629629629629629 0.004629629629629629 0.004629629629629629 0.004629629629629629 0.005128205128205128 0.005128205128205128 0.005128205128205128 0.2564102564102564 0.3641025641025641 0.3435897435897436 0.005128205128205128 0.005128205128205128 0.005128205128205128 0.005128205128205128 0.004807692307692308 0.004807692307692308 0.004807692307692308 0.3605769230769231 0.2980769230769231 0.3076923076923077 0.004807692307692308 0.004807692307692308 0.004807692307692308 0.004807692307692308 0.006289308176100629 0.006289308176100629 0.006289308176100629 0.3710691823899371 0.2830188679245283 0.3018867924528302 0.006289308176100629 0.006289308176100629 0.006289308176100629 0.006289308176100629 0.005780346820809248 0.005780346820809248 0.005780346820809248 0.3468208092485549 0.2716763005780347 0.3410404624277457 0.005780346820809248 0.005780346820809248 0.005780346820809248 0.005780346820809248 0.005 0.005 0.005 0.33 0.33 0.305 0.005 0.005 0.005 0.005 0.005025125628140704 0.005025125628140704 0.005025125628140704 0.3517587939698493 0.2613065326633166 0.3517587939698493 0.005025125628140704 0.005025125628140704 0.005025125628140704 0.005025125628140704 0.005617977528089887 0.005617977528089887 0.005617977528089887 0.005617977528089887 0.3876404494382023 0.2865168539325842 0.2865168539325842 0.005617977528089887 0.005617977528089887 0.005617977528089887 0.005434782608695652 0.005434782608695652 0.005434782608695652 0.005434782608695652 0.3315217391304348 0.3097826086956522 0.3206521739130435 0.005434782608695652 0.005434782608695652 0.005434782608695652 0.0053475935828877 0.0053475935828877 0.0053475935828877 0.0053475935828877 0.2834224598930482 0.320855614973262 0.3582887700534759 0.0053475935828877 0.0053475935828877 0.0053475935828877 0.005952380952380952 0.005952380952380952 0.005952380952380952 0.005952380952380952 0.3452380952380952 0.3273809523809524 0.2857142857142857 0.005952380952380952 0.005952380952380952 0.005952380952380952 0.005025125628140704 0.005025125628140704 0.005025125628140704 0.005025125628140704 0.3618090452261307 0.321608040201005 0.2814070351758794 0.005025125628140704 0.005025125628140704 0.005025125628140704 0.005319148936170213 0.005319148936170213 0.005319148936170213 0.005319148936170213 0.2978723404255319 0.3404255319148936 0.324468085106383 0.005319148936170213 0.005319148936170213 0.005319148936170213 0.005376344086021506 0.005376344086021506 0.005376344086021506 0.005376344086021506 0.3118279569892473 0.3602150537634409 0.2903225806451613 0.005376344086021506 0.005376344086021506 0.005376344086021506 0.005882352941176471 0.005882352941176471 0.005882352941176471 0.005882352941176471 0.2647058823529412 0.3235294117647059 0.3705882352941177 0.005882352941176471 0.005882352941176471 0.005882352941176471 0.005263157894736842 0.005263157894736842 0.005263157894736842 0.005263157894736842 0.3105263157894737 0.3473684210526316 0.3052631578947368 0.005263157894736842 0.005263157894736842 0.005263157894736842 0.004184100418410041 0.004184100418410041 0.004184100418410041 0.004184100418410041 0.2510460251046025 0.2133891213389121 0.2594142259414226 0.2510460251046025 0.004184100418410041 0.004184100418410041 0.004081632653061225 0.004081632653061225 0.004081632653061225 0.004081632653061225 0.2653061224489796 0.2489795918367347 0.2489795918367347 0.2122448979591837 0.004081632653061225 0.004081632653061225 0.004065040650406504 0.004065040650406504 0.004065040650406504 0.004065040650406504 0.2113821138211382 0.1991869918699187 0.3048780487804878 0.2601626016260163 0.004065040650406504 0.004065040650406504 0.004219409282700422 0.004219409282700422 0.004219409282700422 0.004219409282700422 0.2320675105485232 0.2278481012658228 0.2362869198312236 0.2784810126582278 0.004219409282700422 0.004219409282700422 0.004166666666666667 0.004166666666666667 0.004166666666666667 0.004166666666666667 0.2666666666666667 0.2083333333333333 0.2583333333333334 0.2416666666666667 0.004166666666666667 0.004166666666666667 0.004201680672268907 0.004201680672268907 0.004201680672268907 0.004201680672268907 0.2521008403361344 0.2689075630252101 0.2226890756302521 0.2310924369747899 0.004201680672268907 0.004201680672268907 0.004098360655737705 0.004098360655737705 0.004098360655737705 0.004098360655737705 0.25 0.2254098360655738 0.2254098360655738 0.2745901639344263 0.004098360655737705 0.004098360655737705 0.00398406374501992 0.00398406374501992 0.00398406374501992 0.00398406374501992 0.2310756972111554 0.2868525896414343 0.2549800796812749 0.203187250996016 0.00398406374501992 0.00398406374501992 0.003759398496240601 0.003759398496240601 0.003759398496240601 0.003759398496240601 0.2293233082706767 0.2932330827067669 0.1954887218045113 0.2593984962406015 0.003759398496240601 0.003759398496240601 0.003289473684210526 0.003289473684210526 0.003289473684210526 0.003289473684210526 0.2203947368421053 0.1973684210526316 0.2105263157894737 0.180921052631579 0.1743421052631579 0.003289473684210526 0.003003003003003003 0.003003003003003003 0.003003003003003003 0.003003003003003003 0.2192192192192192 0.2012012012012012 0.1591591591591592 0.1951951951951952 0.2102102102102102 0.003003003003003003 0.003436426116838488 0.003436426116838488 0.003436426116838488 0.003436426116838488 0.2096219931271478 0.1752577319587629 0.1718213058419244 0.2268041237113402 0.1993127147766323 0.003436426116838488 0.003154574132492113 0.003154574132492113 0.003154574132492113 0.003154574132492113 0.1892744479495268 0.2208201892744479 0.1703470031545741 0.1892744479495268 0.2145110410094637 0.003154574132492113 0.00352112676056338 0.00352112676056338 0.00352112676056338 0.00352112676056338 0.1971830985915493 0.1901408450704225 0.2183098591549296 0.2183098591549296 0.1584507042253521 0.00352112676056338 0.003215434083601286 0.003215434083601286 0.003215434083601286 0.003215434083601286 0.2057877813504823 0.1511254019292604 0.2057877813504823 0.2443729903536977 0.1768488745980707 0.003215434083601286 0.003257328990228013 0.003257328990228013 0.003257328990228013 0.003257328990228013 0.1921824104234528 0.1628664495114006 0.1824104234527687 0.1986970684039088 0.247557003257329 0.003257328990228013 0.003278688524590164 0.003278688524590164 0.003278688524590164 0.003278688524590164 0.180327868852459 0.1770491803278688 0.2557377049180328 0.1934426229508197 0.1770491803278688 0.003278688524590164 0.003322259136212625 0.003322259136212625 0.003322259136212625 0.003322259136212625 0.1694352159468439 0.2093023255813954 0.2192691029900332 0.186046511627907 0.1993355481727575 0.003322259136212625 0.1 0.1 0.1 0.1 0.1 0.1 0.1 0.1 0.1 0.1 0.1 0.1 0.1 0.1 0.1 0.1 0.1 0.1 0.1 0.1 0.1 0.1 0.1 0.1 0.1 0.1 0.1 0.1 0.1 0.1 0.1 0.1 0.1 0.1 0.1 0.1 0.1 0.1 0.1 0.1 0.1 0.1 0.1 0.1 0.1 0.1 0.1 0.1 0.1 0.1 0.1 0.1 0.1 0.1 0.1 0.1 0.1 0.1 0.1 0.1 0.1 0.1 0.1 0.1 0.1 0.1 0.1 0.1 0.1 0.1 0.1 0.1 0.1 0.1 0.1 0.1 0.1 0.1 0.1 0.1 0.1 0.1 0.1 0.1 0.1 0.1 0.1 0.1 0.1 0.1 0.8524590163934426 0.01639344262295082 0.01639344262295082 0.01639344262295082 0.01639344262295082 0.01639344262295082 0.01639344262295082 0.01639344262295082 0.01639344262295082 0.01639344262295082 0.8888888888888888 0.01234567901234568 0.01234567901234568 0.01234567901234568 0.01234567901234568 0.01234567901234568 0.01234567901234568 0.01234567901234568 0.01234567901234568 0.01234567901234568 0.896551724137931 0.01149425287356322 0.01149425287356322 0.01149425287356322 0.01149425287356322 0.01149425287356322 0.01149425287356322 0.01149425287356322 0.01149425287356322 0.01149425287356322 0.8615384615384616 0.01538461538461539 0.01538461538461539 0.01538461538461539 0.01538461538461539 0.01538461538461539 0.01538461538461539 0.01538461538461539 0.01538461538461539 0.01538461538461539 0.8714285714285714 0.01428571428571429 0.01428571428571429 0.01428571428571429 0.01428571428571429 0.01428571428571429 0.01428571428571429 0.01428571428571429 0.01428571428571429 0.01428571428571429 0.88 0.01333333333333333 0.01333333333333333 0.01333333333333333 0.01333333333333333 0.01333333333333333 0.01333333333333333 0.01333333333333333 0.01333333333333333 0.01333333333333333 0.847457627118644 0.01694915254237288 0.01694915254237288 0.01694915254237288 0.01694915254237288 0.01694915254237288 0.01694915254237288 0.01694915254237288 0.01694915254237288 0.01694915254237288 0.8571428571428571 0.01587301587301587 0.01587301587301587 0.01587301587301587 0.01587301587301587 0.01587301587301587 0.01587301587301587 0.01587301587301587 0.01587301587301587 0.01587301587301587 0.8392857142857143 0.01785714285714286 0.01785714285714286 0.01785714285714286 0.01785714285714286 0.01785714285714286 0.01785714285714286 0.01785714285714286 0.01785714285714286 0.01785714285714286 0.8676470588235294 0.01470588235294118 0.01470588235294118 0.01470588235294118 0.01470588235294118 0.01470588235294118 0.01470588235294118 0.01470588235294118 0.01470588235294118 0.01470588235294118 0.847457627118644 0.01694915254237288 0.01694915254237288 0.01694915254237288 0.01694915254237288 0.01694915254237288 0.01694915254237288 0.01694915254237288 0.01694915254237288 0.01694915254237288 0.8714285714285714 0.01428571428571429 0.01428571428571429 0.01428571428571429 0.01428571428571429 0.01428571428571429 0.01428571428571429 0.01428571428571429 0.01428571428571429 0.01428571428571429 0.8928571428571429 0.0119047619047619 0.0119047619047619 0.0119047619047619 0.0119047619047619 0.0119047619047619 0.0119047619047619 0.0119047619047619 0.0119047619047619 0.0119047619047619 0.8363636363636363 0.01818181818181818 0.01818181818181818 0.01818181818181818 0.01818181818181818 0.01818181818181818 0.01818181818181818 0.01818181818181818 0.01818181818181818 0.01818181818181818 0.8636363636363636 0.01515151515151515 0.01515151515151515 0.01515151515151515 0.01515151515151515 0.01515151515151515 0.01515151515151515 0.01515151515151515 0.01515151515151515 0.01515151515151515 0.88 0.01333333333333333 0.01333333333333333 0.01333333333333333 0.01333333333333333 0.01333333333333333 0.01333333333333333 0.01333333333333333 0.01333333333333333 0.01333333333333333 0.875 0.01388888888888889 0.01388888888888889 0.01388888888888889 0.01388888888888889 0.01388888888888889 0.01388888888888889 0.01388888888888889 0.01388888888888889 0.01388888888888889 0.8831168831168831 0.01298701298701299 0.01298701298701299 0.01298701298701299 0.01298701298701299 0.01298701298701299 0.01298701298701299 0.01298701298701299 0.01298701298701299 0.01298701298701299 0.4393939393939394 0.5 0.007575757575757576 0.007575757575757576 0.007575757575757576 0.007575757575757576 0.007575757575757576 0.007575757575757576 0.007575757575757576 0.007575757575757576 0.456 0.48 0.008 0.008 0.008 0.008 0.008 0.008 0.008 0.008 0.5043478260869565 0.4260869565217391 0.008695652173913044 0.008695652173913044 0.008695652173913044 0.008695652173913044 0.008695652173913044 0.008695652173913044 0.008695652173913044 0.008695652173913044 0.52 0.416 0.008 0.008 0.008 0.008 0.008 0.008 0.008 0.008 0.5309734513274337 0.3982300884955752 0.008849557522123894 0.008849557522123894 0.008849557522123894 0.008849557522123894 0.008849557522123894 0.008849557522123894 0.008849557522123894 0.008849557522123894 0.4692307692307692 0.4692307692307692 0.007692307692307693 0.007692307692307693 0.007692307692307693 0.007692307692307693 0.007692307692307693 0.007692307692307693 0.007692307692307693 0.007692307692307693 0.4566929133858268 0.4803149606299212 0.007874015748031496 0.007874015748031496 0.007874015748031496 0.007874015748031496 0.007874015748031496 0.007874015748031496 0.007874015748031496 0.007874015748031496 0.4551282051282051 0.4935897435897436 0.00641025641025641 0.00641025641025641 0.00641025641025641 0.00641025641025641 0.00641025641025641 0.00641025641025641 0.00641025641025641 0.00641025641025641 0.4649122807017544 0.4649122807017544 0.008771929824561403 0.008771929824561403 0.008771929824561403 0.008771929824561403 0.008771929824561403 0.008771929824561403 0.008771929824561403 0.008771929824561403 0.464 0.472 0.008 0.008 0.008 0.008 0.008 0.008 0.008 0.008 0.475 0.4583333333333333 0.008333333333333333 0.008333333333333333 0.008333333333333333 0.008333333333333333 0.008333333333333333 0.008333333333333333 0.008333333333333333 0.008333333333333333 0.464 0.472 0.008 0.008 0.008 0.008 0.008 0.008 0.008 0.008 0.4426229508196721 0.4918032786885246 0.00819672131147541 0.00819672131147541 0.00819672131147541 0.00819672131147541 0.00819672131147541 0.00819672131147541 0.00819672131147541 0.00819672131147541 0.4070796460176991 0.5221238938053098 0.008849557522123894 0.008849557522123894 0.008849557522123894 0.008849557522123894 0.008849557522123894 0.008849557522123894 0.008849557522123894 0.008849557522123894 0.5362318840579711 0.4057971014492754 0.007246376811594203 0.007246376811594203 0.007246376811594203 0.007246376811594203 0.007246376811594203 0.007246376811594203 0.007246376811594203 0.007246376811594203 0.4649122807017544 0.4649122807017544 0.008771929824561403 0.008771929824561403 0.008771929824561403 0.008771929824561403 0.008771929824561403 0.008771929824561403 0.008771929824561403 0.008771929824561403 0.4833333333333333 0.45 0.008333333333333333 0.008333333333333333 0.008333333333333333 0.008333333333333333 0.008333333333333333 0.008333333333333333 0.008333333333333333 0.008333333333333333 0.3893805309734513 0.5398230088495575 0.008849557522123894 0.008849557522123894 0.008849557522123894 0.008849557522123894 0.008849557522123894 0.008849557522123894 0.008849557522123894 0.008849557522123894 0.3236714975845411 0.2898550724637681 0.3526570048309179 0.004830917874396135 0.004830917874396135 0.004830917874396135 0.004830917874396135 0.004830917874396135 0.004830917874396135 0.004830917874396135 0.3024691358024691 0.228395061728395 0.4259259259259259 0.006172839506172839 0.006172839506172839 0.006172839506172839 0.006172839506172839 0.006172839506172839 0.006172839506172839 0.006172839506172839 0.2974358974358974 0.3384615384615385 0.3282051282051282 0.005128205128205128 0.005128205128205128 0.005128205128205128 0.005128205128205128 0.005128205128205128 0.005128205128205128 0.005128205128205128 0.3025641025641025 0.3282051282051282 0.3333333333333333 0.005128205128205128 0.005128205128205128 0.005128205128205128 0.005128205128205128 0.005128205128205128 0.005128205128205128 0.005128205128205128 0.2857142857142857 0.3809523809523809 0.3 0.004761904761904762 0.004761904761904762 0.004761904761904762 0.004761904761904762 0.004761904761904762 0.004761904761904762 0.004761904761904762 0.26 0.33 0.375 0.005 0.005 0.005 0.005 0.005 0.005 0.005 0.3951219512195122 0.2878048780487805 0.2829268292682927 0.004878048780487805 0.004878048780487805 0.004878048780487805 0.004878048780487805 0.004878048780487805 0.004878048780487805 0.004878048780487805 0.2670454545454545 0.3295454545454545 0.3636363636363636 0.005681818181818182 0.005681818181818182 0.005681818181818182 0.005681818181818182 0.005681818181818182 0.005681818181818182 0.005681818181818182 0.3217821782178218 0.3217821782178218 0.3217821782178218 0.004950495049504951 0.004950495049504951 0.004950495049504951 0.004950495049504951 0.004950495049504951 0.004950495049504951 0.004950495049504951 0.4207920792079208 0.297029702970297 0.2475247524752475 0.004950495049504951 0.004950495049504951 0.004950495049504951 0.004950495049504951 0.004950495049504951 0.004950495049504951 0.004950495049504951 0.3446327683615819 0.288135593220339 0.327683615819209 0.005649717514124294 0.005649717514124294 0.005649717514124294 0.005649717514124294 0.005649717514124294 0.005649717514124294 0.005649717514124294 0.3451776649746193 0.3096446700507614 0.3096446700507614 0.005076142131979695 0.005076142131979695 0.005076142131979695 0.005076142131979695 0.005076142131979695 0.005076142131979695 0.005076142131979695 0.3219512195121951 0.2878048780487805 0.3560975609756097 0.004878048780487805 0.004878048780487805 0.004878048780487805 0.004878048780487805 0.004878048780487805 0.004878048780487805 0.004878048780487805 0.3222222222222222 0.3055555555555556 0.3333333333333333 0.005555555555555556 0.005555555555555556 0.005555555555555556 0.005555555555555556 0.005555555555555556 0.005555555555555556 0.005555555555555556 0.3645833333333333 0.2916666666666667 0.3072916666666667 0.005208333333333333 0.005208333333333333 0.005208333333333333 0.005208333333333333 0.005208333333333333 0.005208333333333333 0.005208333333333333 0.3885714285714286 0.2685714285714286 0.3028571428571429 0.005714285714285714 0.005714285714285714 0.005714285714285714 0.005714285714285714 0.005714285714285714 0.005714285714285714 0.005714285714285714 0.3314285714285714 0.3028571428571429 0.3257142857142857 0.005714285714285714 0.005714285714285714 0.005714285714285714 0.005714285714285714 0.005714285714285714 0.005714285714285714 0.005714285714285714 0.2918918918918919 0.345945945945946 0.3243243243243243 0.005405405405405406 0.005405405405405406 0.005405405405405406 0.005405405405405406 0.005405405405405406 0.005405405405405406 0.005405405405405406 0.2133891213389121 0.2510460251046025 0.2761506276150628 0.2343096234309623 0.004184100418410041 0.004184100418410041 0.004184100418410041 0.004184100418410041 0.004184100418410041 0.004184100418410041 0.2991803278688525 0.2172131147540984 0.2172131147540984 0.2418032786885246 0.004098360655737705 0.004098360655737705 0.004098360655737705 0.004098360655737705 0.004098360655737705 0.004098360655737705 0.2816326530612245 0.2163265306122449 0.2285714285714286 0.2489795918367347 0.004081632653061225 0.004081632653061225 0.004081632653061225 0.004081632653061225 0.004081632653061225 0.004081632653061225 0.2727272727272727 0.2569169960474308 0.2213438735177866 0.225296442687747 0.003952569169960474 0.003952569169960474 0.003952569169960474 0.003952569169960474 0.003952569169960474 0.003952569169960474 0.2346153846153846 0.2461538461538462 0.2 0.2961538461538462 0.003846153846153846 0.003846153846153846 0.003846153846153846 0.003846153846153846 0.003846153846153846 0.003846153846153846 0.3129496402877698 0.2266187050359712 0.1942446043165468 0.2446043165467626 0.003597122302158274 0.003597122302158274 0.003597122302158274 0.003597122302158274 0.003597122302158274 0.003597122302158274 0.285140562248996 0.2208835341365462 0.2650602409638554 0.2048192771084337 0.004016064257028112 0.004016064257028112 0.004016064257028112 0.004016064257028112 0.004016064257028112 0.004016064257028112 0.2145922746781116 0.2875536480686695 0.2360515021459227 0.2360515021459227 0.004291845493562232 0.004291845493562232 0.004291845493562232 0.004291845493562232 0.004291845493562232 0.004291845493562232 0.2446043165467626 0.2338129496402878 0.302158273381295 0.197841726618705 0.003597122302158274 0.003597122302158274 0.003597122302158274 0.003597122302158274 0.003597122302158274 0.003597122302158274 0.2563025210084033 0.2436974789915966 0.226890756302521 0.2478991596638656 0.004201680672268907 0.004201680672268907 0.004201680672268907 0.004201680672268907 0.004201680672268907 0.004201680672268907 0.2643171806167401 0.2246696035242291 0.2422907488986784 0.2422907488986784 0.004405286343612335 0.004405286343612335 0.004405286343612335 0.004405286343612335 0.004405286343612335 0.004405286343612335 0.236734693877551 0.2530612244897959 0.2326530612244898 0.2530612244897959 0.004081632653061225 0.004081632653061225 0.004081632653061225 0.004081632653061225 0.004081632653061225 0.004081632653061225 0.1983805668016194 0.2307692307692308 0.2793522267206478 0.2672064777327935 0.004048582995951417 0.004048582995951417 0.004048582995951417 0.004048582995951417 0.004048582995951417 0.004048582995951417 0.2601626016260163 0.2154471544715447 0.2764227642276423 0.2235772357723577 0.004065040650406504 0.004065040650406504 0.004065040650406504 0.004065040650406504 0.004065040650406504 0.004065040650406504 0.2378854625550661 0.2026431718061674 0.2907488986784141 0.2422907488986784 0.004405286343612335 0.004405286343612335 0.004405286343612335 0.004405286343612335 0.004405286343612335 0.004405286343612335 0.2409090909090909 0.1863636363636364 0.3090909090909091 0.2363636363636364 0.004545454545454545 0.004545454545454545 0.004545454545454545 0.004545454545454545 0.004545454545454545 0.004545454545454545 0.2158590308370044 0.2907488986784141 0.2114537444933921 0.2555066079295154 0.004405286343612335 0.004405286343612335 0.004405286343612335 0.004405286343612335 0.004405286343612335 0.004405286343612335 0.2382978723404255 0.2127659574468085 0.2893617021276595 0.2340425531914894 0.00425531914893617 0.00425531914893617 0.00425531914893617 0.00425531914893617 0.00425531914893617 0.00425531914893617 0.2310756972111554 0.298804780876494 0.203187250996016 0.2430278884462151 0.00398406374501992 0.00398406374501992 0.00398406374501992 0.00398406374501992 0.00398406374501992 0.00398406374501992 0.3063829787234043 0.2127659574468085 0.2340425531914894 0.2212765957446808 0.00425531914893617 0.00425531914893617 0.00425531914893617 0.00425531914893617 0.00425531914893617 0.00425531914893617 0.259927797833935 0.2527075812274368 0.2527075812274368 0.2129963898916968 0.003610108303249098 0.003610108303249098 0.003610108303249098 0.003610108303249098 0.003610108303249098 0.003610108303249098 0.2780082987551867 0.2240663900414938 0.2614107883817428 0.2116182572614108 0.004149377593360996 0.004149377593360996 0.004149377593360996 0.004149377593360996 0.004149377593360996 0.004149377593360996 0.2510822510822511 0.2467532467532468 0.2380952380952381 0.2380952380952381 0.004329004329004329 0.004329004329004329 0.004329004329004329 0.004329004329004329 0.004329004329004329 0.004329004329004329 0.2145748987854251 0.2672064777327935 0.2510121457489878 0.242914979757085 0.004048582995951417 0.004048582995951417 0.004048582995951417 0.004048582995951417 0.004048582995951417 0.004048582995951417 0.2579505300353357 0.2014134275618374 0.2508833922261484 0.2685512367491166 0.00353356890459364 0.00353356890459364 0.00353356890459364 0.00353356890459364 0.00353356890459364 0.00353356890459364 0.2364341085271318 0.2364341085271318 0.2558139534883721 0.248062015503876 0.003875968992248062 0.003875968992248062 0.003875968992248062 0.003875968992248062 0.003875968992248062 0.003875968992248062 0.2891566265060241 0.248995983935743 0.2369477911646586 0.2008032128514056 0.004016064257028112 0.004016064257028112 0.004016064257028112 0.004016064257028112 0.004016064257028112 0.004016064257028112</probabilities>
		</cpt>
		<cpt id="pai_2">
			<state id="s5" />
			<state id="s10" />
			<state id="s15" />
			<state id="s20" />
			<state id="s25" />
			<state id="s30" />
			<state id="s35" />
			<state id="s40" />
			<state id="s45" />
			<parents>h_2</parents>
			<probabilities>0.122121780658366 0.1076240832338393 0.1132526010574791 0.1152993348115299 0.1050656660412758 0.1146170902268463 0.1083063278185229 0.1091591335493775 0.1045539826027631 0.1081266039349872 0.1142857142857143 0.1165098374679213 0.1115483319076133 0.114114627887083 0.1038494439692045 0.1062446535500428 0.113601368691189 0.1117194183062447 0.1178045515394913 0.1101070950468541 0.1144578313253012 0.1079317269076305 0.1055890227576975 0.1079317269076305 0.1168005354752343 0.1040829986613119 0.1152945113788487 0.115020297699594 0.1131596752368065 0.1195872801082544 0.1099458728010825 0.1058863328822733 0.111468200270636 0.1043640054127199 0.1128213802435724 0.1077469553450609 0.1137472656907286 0.110718492343934 0.1083627797408716 0.1157664479219249 0.1041561500925458 0.110381961972068 0.1127376745751304 0.1120646138313983 0.1120646138313983 0.1097807757166948 0.103035413153457 0.1107925801011804 0.1055649241146712 0.118212478920742 0.1053962900505902 0.1209106239460371 0.1148397976391231 0.1114671163575042 0.1068650659452147 0.1119377747717281 0.1100777815353399 0.1143050388907677 0.111768684477511 0.1080486980047345 0.1092323300642543 0.1144741291849848 0.113290497125465 0.1175773980713923 0.1114870580274065 0.1199458636440535 0.1108103535780748 0.1119945863644053 0.1033666046354255 0.110133649128743 0.1064117746574184 0.1082727118930807 0.1139792155548106 0.1099564197116996 0.1107945021790144 0.1205162587998659 0.1154877639959772 0.1055983908816628 0.1118002011397922 0.1057660073751257 0.1061012403620516</probabilities>
		</cpt>
		<cpt id="pai_h_ratio_fsl_2_quantiled">
			<state id="s0_2" />
			<state id="s0_3" />
			<state id="s0_4" />
			<state id="s0_8" />
			<parents>increm_cost_z pai_2 h_2</parents>
			<probabilities>0.0136986301369863 0.0136986301369863 0.958904109589041 0.0136986301369863 0.0136986301369863 0.0136986301369863 0.0136986301369863 0.958904109589041 0.01333333333333333 0.01333333333333333 0.01333333333333333 0.96 0.01351351351351351 0.01351351351351351 0.01351351351351351 0.9594594594594594 0.01298701298701299 0.01298701298701299 0.01298701298701299 0.961038961038961 0.0125 0.0125 0.0125 0.9625 0.01298701298701299 0.01298701298701299 0.01298701298701299 0.961038961038961 0.01265822784810127 0.01265822784810127 0.01265822784810127 0.9620253164556962 0.01234567901234568 0.01234567901234568 0.01234567901234568 0.9629629629629629 0.01408450704225352 0.9577464788732394 0.01408450704225352 0.01408450704225352 0.01538461538461539 0.9538461538461539 0.01538461538461539 0.01538461538461539 0.01388888888888889 0.01388888888888889 0.9583333333333334 0.01388888888888889 0.01818181818181818 0.01818181818181818 0.01818181818181818 0.9454545454545454 0.01492537313432836 0.01492537313432836 0.01492537313432836 0.9552238805970149 0.01388888888888889 0.01388888888888889 0.01388888888888889 0.9583333333333334 0.01298701298701299 0.01298701298701299 0.01298701298701299 0.961038961038961 0.01666666666666667 0.01666666666666667 0.01666666666666667 0.95 0.01694915254237288 0.01694915254237288 0.01694915254237288 0.9491525423728814 0.9647058823529412 0.01176470588235294 0.01176470588235294 0.01176470588235294 0.01351351351351351 0.9594594594594594 0.01351351351351351 0.01351351351351351 0.01123595505617977 0.9662921348314607 0.01123595505617977 0.01123595505617977 0.01162790697674419 0.01162790697674419 0.9651162790697675 0.01162790697674419 0.01408450704225352 0.01408450704225352 0.9577464788732394 0.01408450704225352 0.015625 0.015625 0.015625 0.953125 0.01515151515151515 0.01515151515151515 0.01515151515151515 0.9545454545454546 0.01492537313432836 0.01492537313432836 0.01492537313432836 0.9552238805970149 0.01282051282051282 0.01282051282051282 0.01282051282051282 0.9615384615384616 0.9605263157894737 0.0131578947368421 0.0131578947368421 0.0131578947368421 0.968421052631579 0.01052631578947368 0.01052631578947368 0.01052631578947368 0.9647058823529412 0.01176470588235294 0.01176470588235294 0.01176470588235294 0.01282051282051282 0.01282051282051282 0.9615384615384616 0.01282051282051282 0.01724137931034483 0.01724137931034483 0.9482758620689655 0.01724137931034483 0.01470588235294118 0.01470588235294118 0.9558823529411765 0.01470588235294118 0.01428571428571429 0.01428571428571429 0.9571428571428572 0.01428571428571429 0.01666666666666667 0.01666666666666667 0.01666666666666667 0.95 0.01388888888888889 0.01388888888888889 0.01388888888888889 0.9583333333333334 0.9583333333333334 0.01388888888888889 0.01388888888888889 0.01388888888888889 0.9454545454545454 0.01818181818181818 0.01818181818181818 0.01818181818181818 0.9583333333333334 0.01388888888888889 0.01388888888888889 0.01388888888888889 0.01408450704225352 0.9577464788732394 0.01408450704225352 0.01408450704225352 0.01886792452830189 0.01886792452830189 0.9433962264150944 0.01886792452830189 0.01724137931034483 0.01724137931034483 0.9482758620689655 0.01724137931034483 0.01408450704225352 0.01408450704225352 0.9577464788732394 0.01408450704225352 0.01282051282051282 0.01282051282051282 0.9615384615384616 0.01282051282051282 0.01449275362318841 0.01449275362318841 0.9565217391304348 0.01449275362318841 0.9523809523809523 0.01587301587301587 0.01587301587301587 0.01587301587301587 0.9482758620689655 0.01724137931034483 0.01724137931034483 0.01724137931034483 0.9583333333333334 0.01388888888888889 0.01388888888888889 0.01388888888888889 0.015625 0.953125 0.015625 0.015625 0.01538461538461539 0.9538461538461539 0.01538461538461539 0.01538461538461539 0.01351351351351351 0.9594594594594594 0.01351351351351351 0.01351351351351351 0.01428571428571429 0.01428571428571429 0.9571428571428572 0.01428571428571429 0.01612903225806452 0.01612903225806452 0.9516129032258065 0.01612903225806452 0.01754385964912281 0.01754385964912281 0.9473684210526315 0.01754385964912281 0.9545454545454546 0.01515151515151515 0.01515151515151515 0.01515151515151515 0.9558823529411765 0.01470588235294118 0.01470588235294118 0.01470588235294118 0.9516129032258065 0.01612903225806452 0.01612903225806452 0.01612903225806452 0.0131578947368421 0.9605263157894737 0.0131578947368421 0.0131578947368421 0.01265822784810127 0.9620253164556962 0.01265822784810127 0.01265822784810127 0.01219512195121951 0.9634146341463414 0.01219512195121951 0.01219512195121951 0.01470588235294118 0.01470588235294118 0.9558823529411765 0.01470588235294118 0.01538461538461539 0.01538461538461539 0.9538461538461539 0.01538461538461539 0.01408450704225352 0.01408450704225352 0.9577464788732394 0.01408450704225352 0.9473684210526315 0.01754385964912281 0.01754385964912281 0.01754385964912281 0.9516129032258065 0.01612903225806452 0.01612903225806452 0.01612903225806452 0.9558823529411765 0.01470588235294118 0.01470588235294118 0.01470588235294118 0.9577464788732394 0.01408450704225352 0.01408450704225352 0.01408450704225352 0.01538461538461539 0.9538461538461539 0.01538461538461539 0.01538461538461539 0.0125 0.9625 0.0125 0.0125 0.01298701298701299 0.961038961038961 0.01298701298701299 0.01298701298701299 0.01515151515151515 0.9545454545454546 0.01515151515151515 0.01515151515151515 0.01639344262295082 0.01639344262295082 0.9508196721311475 0.01639344262295082 0.9454545454545454 0.01818181818181818 0.01818181818181818 0.01818181818181818 0.96 0.01333333333333333 0.01333333333333333 0.01333333333333333 0.958904109589041 0.0136986301369863 0.0136986301369863 0.0136986301369863 0.953125 0.015625 0.015625 0.015625 0.9454545454545454 0.01818181818181818 0.01818181818181818 0.01818181818181818 0.01282051282051282 0.9615384615384616 0.01282051282051282 0.01282051282051282 0.01149425287356322 0.9655172413793104 0.01149425287356322 0.01149425287356322 0.01694915254237288 0.9491525423728814 0.01694915254237288 0.01694915254237288 0.01639344262295082 0.9508196721311475 0.01639344262295082 0.01639344262295082 0.01162790697674419 0.01162790697674419 0.9651162790697675 0.01162790697674419 0.01612903225806452 0.01612903225806452 0.01612903225806452 0.9516129032258065 0.01492537313432836 0.01492537313432836 0.01492537313432836 0.9552238805970149 0.01265822784810127 0.01265822784810127 0.01265822784810127 0.9620253164556962 0.01515151515151515 0.01515151515151515 0.01515151515151515 0.9545454545454546 0.01515151515151515 0.01515151515151515 0.01515151515151515 0.9545454545454546 0.01639344262295082 0.01639344262295082 0.01639344262295082 0.9508196721311475 0.01408450704225352 0.01408450704225352 0.01408450704225352 0.9577464788732394 0.01176470588235294 0.01176470588235294 0.01176470588235294 0.9647058823529412 0.01408450704225352 0.9577464788732394 0.01408450704225352 0.01408450704225352 0.0125 0.9625 0.0125 0.0125 0.01351351351351351 0.01351351351351351 0.9594594594594594 0.01351351351351351 0.01470588235294118 0.01470588235294118 0.01470588235294118 0.9558823529411765 0.01408450704225352 0.01408450704225352 0.01408450704225352 0.9577464788732394 0.01785714285714286 0.01785714285714286 0.01785714285714286 0.9464285714285714 0.01694915254237288 0.01694915254237288 0.01694915254237288 0.9491525423728814 0.01234567901234568 0.01234567901234568 0.01234567901234568 0.9629629629629629 0.01470588235294118 0.01470588235294118 0.01470588235294118 0.9558823529411765 0.958904109589041 0.0136986301369863 0.0136986301369863 0.0136986301369863 0.01694915254237288 0.9491525423728814 0.01694915254237288 0.01694915254237288 0.01408450704225352 0.9577464788732394 0.01408450704225352 0.01408450704225352 0.01265822784810127 0.01265822784810127 0.9620253164556962 0.01265822784810127 0.01818181818181818 0.01818181818181818 0.9454545454545454 0.01818181818181818 0.01298701298701299 0.01298701298701299 0.01298701298701299 0.961038961038961 0.0136986301369863 0.0136986301369863 0.0136986301369863 0.958904109589041 0.01470588235294118 0.01470588235294118 0.01470588235294118 0.9558823529411765 0.01351351351351351 0.01351351351351351 0.01351351351351351 0.9594594594594594 0.9491525423728814 0.01694915254237288 0.01694915254237288 0.01694915254237288 0.9538461538461539 0.01538461538461539 0.01538461538461539 0.01538461538461539 0.96 0.01333333333333333 0.01333333333333333 0.01333333333333333 0.02040816326530612 0.02040816326530612 0.9387755102040817 0.02040816326530612 0.0136986301369863 0.0136986301369863 0.958904109589041 0.0136986301369863 0.015625 0.015625 0.953125 0.015625 0.01612903225806452 0.01612903225806452 0.9516129032258065 0.01612903225806452 0.01428571428571429 0.01428571428571429 0.01428571428571429 0.9571428571428572 0.01333333333333333 0.01333333333333333 0.01333333333333333 0.96 0.961038961038961 0.01298701298701299 0.01298701298701299 0.01298701298701299 0.9571428571428572 0.01428571428571429 0.01428571428571429 0.01428571428571429 0.9523809523809523 0.01587301587301587 0.01587301587301587 0.01587301587301587 0.01388888888888889 0.9583333333333334 0.01388888888888889 0.01388888888888889 0.01515151515151515 0.01515151515151515 0.9545454545454546 0.01515151515151515 0.0131578947368421 0.0131578947368421 0.9605263157894737 0.0131578947368421 0.01449275362318841 0.01449275362318841 0.9565217391304348 0.01449275362318841 0.01204819277108434 0.01204819277108434 0.963855421686747 0.01204819277108434 0.01449275362318841 0.01449275362318841 0.9565217391304348 0.01449275362318841 0.9620253164556962 0.01265822784810127 0.01265822784810127 0.01265822784810127 0.9508196721311475 0.01639344262295082 0.01639344262295082 0.01639344262295082 0.9552238805970149 0.01492537313432836 0.01492537313432836 0.01492537313432836 0.01298701298701299 0.961038961038961 0.01298701298701299 0.01298701298701299 0.01265822784810127 0.9620253164556962 0.01265822784810127 0.01265822784810127 0.0125 0.9625 0.0125 0.0125 0.01612903225806452 0.01612903225806452 0.9516129032258065 0.01612903225806452 0.01612903225806452 0.01612903225806452 0.9516129032258065 0.01612903225806452 0.01754385964912281 0.01754385964912281 0.9473684210526315 0.01754385964912281 0.9516129032258065 0.01612903225806452 0.01612903225806452 0.01612903225806452 0.9433962264150944 0.01886792452830189 0.01886792452830189 0.01886792452830189 0.9558823529411765 0.01470588235294118 0.01470588235294118 0.01470588235294118 0.01298701298701299 0.961038961038961 0.01298701298701299 0.01298701298701299 0.01470588235294118 0.9558823529411765 0.01470588235294118 0.01470588235294118 0.01176470588235294 0.9647058823529412 0.01176470588235294 0.01176470588235294 0.01666666666666667 0.01666666666666667 0.95 0.01666666666666667 0.01388888888888889 0.01388888888888889 0.9583333333333334 0.01388888888888889 0.01449275362318841 0.01449275362318841 0.9565217391304348 0.01449275362318841 0.9620253164556962 0.01265822784810127 0.01265822784810127 0.01265822784810127 0.9482758620689655 0.01724137931034483 0.01724137931034483 0.01724137931034483 0.9583333333333334 0.01388888888888889 0.01388888888888889 0.01388888888888889 0.9583333333333334 0.01388888888888889 0.01388888888888889 0.01388888888888889 0.01449275362318841 0.9565217391304348 0.01449275362318841 0.01449275362318841 0.015625 0.953125 0.015625 0.015625 0.01538461538461539 0.9538461538461539 0.01538461538461539 0.01538461538461539 0.0131578947368421 0.9605263157894737 0.0131578947368421 0.0131578947368421 0.01408450704225352 0.01408450704225352 0.9577464788732394 0.01408450704225352 0.9552238805970149 0.01492537313432836 0.01492537313432836 0.01492537313432836 0.9361702127659575 0.02127659574468085 0.02127659574468085 0.02127659574468085 0.9565217391304348 0.01449275362318841 0.01449275362318841 0.01449275362318841 0.9454545454545454 0.01818181818181818 0.01818181818181818 0.01818181818181818 0.9523809523809523 0.01587301587301587 0.01587301587301587 0.01587301587301587 0.01470588235294118 0.9558823529411765 0.01470588235294118 0.01470588235294118 0.01449275362318841 0.9565217391304348 0.01449275362318841 0.01449275362318841 0.01492537313432836 0.9552238805970149 0.01492537313432836 0.01492537313432836 0.01587301587301587 0.9523809523809523 0.01587301587301587 0.01587301587301587 0.01333333333333333 0.01333333333333333 0.96 0.01333333333333333 0.01818181818181818 0.01818181818181818 0.01818181818181818 0.9454545454545454 0.01265822784810127 0.01265822784810127 0.01265822784810127 0.9620253164556962 0.0136986301369863 0.0136986301369863 0.0136986301369863 0.958904109589041 0.01282051282051282 0.01282051282051282 0.01282051282051282 0.9615384615384616 0.01428571428571429 0.01428571428571429 0.01428571428571429 0.9571428571428572 0.01449275362318841 0.01449275362318841 0.01449275362318841 0.9565217391304348 0.01388888888888889 0.01388888888888889 0.01388888888888889 0.9583333333333334 0.01492537313432836 0.01492537313432836 0.01492537313432836 0.9552238805970149 0.01785714285714286 0.9464285714285714 0.01785714285714286 0.01785714285714286 0.01351351351351351 0.9594594594594594 0.01351351351351351 0.01351351351351351 0.01886792452830189 0.01886792452830189 0.9433962264150944 0.01886792452830189 0.0136986301369863 0.0136986301369863 0.0136986301369863 0.958904109589041 0.01694915254237288 0.01694915254237288 0.01694915254237288 0.9491525423728814 0.01492537313432836 0.01492537313432836 0.01492537313432836 0.9552238805970149 0.01333333333333333 0.01333333333333333 0.01333333333333333 0.96 0.01408450704225352 0.01408450704225352 0.01408450704225352 0.9577464788732394 0.01666666666666667 0.01666666666666667 0.01666666666666667 0.95 0.9523809523809523 0.01587301587301587 0.01587301587301587 0.01587301587301587 0.01470588235294118 0.9558823529411765 0.01470588235294118 0.01470588235294118 0.01428571428571429 0.9571428571428572 0.01428571428571429 0.01428571428571429 0.01351351351351351 0.01351351351351351 0.9594594594594594 0.01351351351351351 0.01265822784810127 0.01265822784810127 0.9620253164556962 0.01265822784810127 0.01724137931034483 0.01724137931034483 0.01724137931034483 0.9482758620689655 0.01428571428571429 0.01428571428571429 0.01428571428571429 0.9571428571428572 0.01639344262295082 0.01639344262295082 0.01639344262295082 0.9508196721311475 0.01388888888888889 0.01388888888888889 0.01388888888888889 0.9583333333333334 0.9538461538461539 0.01538461538461539 0.01538461538461539 0.01538461538461539 0.953125 0.015625 0.015625 0.015625 0.9508196721311475 0.01639344262295082 0.01639344262295082 0.01639344262295082 0.01234567901234568 0.01234567901234568 0.9629629629629629 0.01234567901234568 0.01298701298701299 0.01298701298701299 0.961038961038961 0.01298701298701299 0.015625 0.015625 0.953125 0.015625 0.01388888888888889 0.01388888888888889 0.9583333333333334 0.01388888888888889 0.01298701298701299 0.01298701298701299 0.01298701298701299 0.961038961038961 0.01204819277108434 0.01204819277108434 0.01204819277108434 0.963855421686747 0.9565217391304348 0.01449275362318841 0.01449275362318841 0.01449275362318841 0.9629629629629629 0.01234567901234568 0.01234567901234568 0.01234567901234568 0.9594594594594594 0.01351351351351351 0.01351351351351351 0.01351351351351351 0.01612903225806452 0.9516129032258065 0.01612903225806452 0.01612903225806452 0.01351351351351351 0.01351351351351351 0.9594594594594594 0.01351351351351351 0.0136986301369863 0.0136986301369863 0.958904109589041 0.0136986301369863 0.01351351351351351 0.01351351351351351 0.9594594594594594 0.01351351351351351 0.01333333333333333 0.01333333333333333 0.96 0.01333333333333333 0.0119047619047619 0.0119047619047619 0.9642857142857143 0.0119047619047619 0.9583333333333334 0.01388888888888889 0.01388888888888889 0.01388888888888889 0.9545454545454546 0.01515151515151515 0.01515151515151515 0.01515151515151515 0.9444444444444444 0.01851851851851852 0.01851851851851852 0.01851851851851852 0.0136986301369863 0.958904109589041 0.0136986301369863 0.0136986301369863 0.0131578947368421 0.9605263157894737 0.0131578947368421 0.0131578947368421 0.01408450704225352 0.9577464788732394 0.01408450704225352 0.01408450704225352 0.01388888888888889 0.01388888888888889 0.9583333333333334 0.01388888888888889 0.01538461538461539 0.01538461538461539 0.9538461538461539 0.01538461538461539 0.01265822784810127 0.01265822784810127 0.9620253164556962 0.01265822784810127 0.9545454545454546 0.01515151515151515 0.01515151515151515 0.01515151515151515 0.9571428571428572 0.01428571428571429 0.01428571428571429 0.01428571428571429 0.961038961038961 0.01298701298701299 0.01298701298701299 0.01298701298701299 0.01666666666666667 0.95 0.01666666666666667 0.01666666666666667 0.01492537313432836 0.9552238805970149 0.01492537313432836 0.01492537313432836 0.01136363636363636 0.9659090909090909 0.01136363636363636 0.01136363636363636 0.01515151515151515 0.01515151515151515 0.9545454545454546 0.01515151515151515 0.01666666666666667 0.01666666666666667 0.95 0.01666666666666667 0.0136986301369863 0.0136986301369863 0.958904109589041 0.0136986301369863 0.96 0.01333333333333333 0.01333333333333333 0.01333333333333333 0.9662921348314607 0.01123595505617977 0.01123595505617977 0.01123595505617977 0.96 0.01333333333333333 0.01333333333333333 0.01333333333333333 0.9625 0.0125 0.0125 0.0125 0.01492537313432836 0.9552238805970149 0.01492537313432836 0.01492537313432836 0.0136986301369863 0.958904109589041 0.0136986301369863 0.0136986301369863 0.01587301587301587 0.9523809523809523 0.01587301587301587 0.01587301587301587 0.01612903225806452 0.9516129032258065 0.01612903225806452 0.01612903225806452 0.01388888888888889 0.01388888888888889 0.9583333333333334 0.01388888888888889 0.9552238805970149 0.01492537313432836 0.01492537313432836 0.01492537313432836 0.9508196721311475 0.01639344262295082 0.01639344262295082 0.01639344262295082 0.9615384615384616 0.01282051282051282 0.01282051282051282 0.01282051282051282 0.9565217391304348 0.01449275362318841 0.01449275362318841 0.01449275362318841 0.96 0.01333333333333333 0.01333333333333333 0.01333333333333333 0.0131578947368421 0.9605263157894737 0.0131578947368421 0.0131578947368421 0.01470588235294118 0.9558823529411765 0.01470588235294118 0.01470588235294118 0.01470588235294118 0.9558823529411765 0.01470588235294118 0.01470588235294118 0.01428571428571429 0.9571428571428572 0.01428571428571429 0.01428571428571429 0.01408450704225352 0.01408450704225352 0.9577464788732394 0.01408450704225352 0.01408450704225352 0.01408450704225352 0.01408450704225352 0.9577464788732394 0.0108695652173913 0.0108695652173913 0.0108695652173913 0.9673913043478261 0.01587301587301587 0.01587301587301587 0.01587301587301587 0.9523809523809523 0.01388888888888889 0.01388888888888889 0.01388888888888889 0.9583333333333334 0.01587301587301587 0.01587301587301587 0.01587301587301587 0.9523809523809523 0.01333333333333333 0.01333333333333333 0.01333333333333333 0.96 0.0125 0.0125 0.0125 0.9625 0.01538461538461539 0.01538461538461539 0.01538461538461539 0.9538461538461539 0.01639344262295082 0.9508196721311475 0.01639344262295082 0.01639344262295082 0.01694915254237288 0.9491525423728814 0.01694915254237288 0.01694915254237288 0.01538461538461539 0.01538461538461539 0.9538461538461539 0.01538461538461539 0.01492537313432836 0.01492537313432836 0.01492537313432836 0.9552238805970149 0.01333333333333333 0.01333333333333333 0.01333333333333333 0.96 0.01666666666666667 0.01666666666666667 0.01666666666666667 0.95 0.015625 0.015625 0.015625 0.953125 0.015625 0.015625 0.015625 0.953125 0.01282051282051282 0.01282051282051282 0.01282051282051282 0.9615384615384616 0.96 0.01333333333333333 0.01333333333333333 0.01333333333333333 0.0125 0.9625 0.0125 0.0125 0.01333333333333333 0.96 0.01333333333333333 0.01333333333333333 0.01408450704225352 0.01408450704225352 0.9577464788732394 0.01408450704225352 0.01666666666666667 0.01666666666666667 0.95 0.01666666666666667 0.01298701298701299 0.01298701298701299 0.01298701298701299 0.961038961038961 0.01265822784810127 0.01265822784810127 0.01265822784810127 0.9620253164556962 0.01219512195121951 0.01219512195121951 0.01219512195121951 0.9634146341463414 0.01694915254237288 0.01694915254237288 0.01694915254237288 0.9491525423728814 0.9523809523809523 0.01587301587301587 0.01587301587301587 0.01587301587301587 0.9558823529411765 0.01470588235294118 0.01470588235294118 0.01470588235294118 0.9594594594594594 0.01351351351351351 0.01351351351351351 0.01351351351351351 0.01408450704225352 0.01408450704225352 0.9577464788732394 0.01408450704225352 0.01428571428571429 0.01428571428571429 0.9571428571428572 0.01428571428571429 0.01492537313432836 0.01492537313432836 0.9552238805970149 0.01492537313432836 0.01587301587301587 0.01587301587301587 0.9523809523809523 0.01587301587301587 0.01818181818181818 0.01818181818181818 0.01818181818181818 0.9454545454545454 0.01219512195121951 0.01219512195121951 0.01219512195121951 0.9634146341463414 0.95 0.01666666666666667 0.01666666666666667 0.01666666666666667 0.9565217391304348 0.01449275362318841 0.01449275362318841 0.01449275362318841 0.9552238805970149 0.01492537313432836 0.01492537313432836 0.01492537313432836 0.01785714285714286 0.9464285714285714 0.01785714285714286 0.01785714285714286 0.01587301587301587 0.01587301587301587 0.9523809523809523 0.01587301587301587 0.0108695652173913 0.0108695652173913 0.9673913043478261 0.0108695652173913 0.01408450704225352 0.01408450704225352 0.9577464788732394 0.01408450704225352 0.01724137931034483 0.01724137931034483 0.9482758620689655 0.01724137931034483 0.01351351351351351 0.01351351351351351 0.9594594594594594 0.01351351351351351 0.9538461538461539 0.01538461538461539 0.01538461538461539 0.01538461538461539 0.9552238805970149 0.01492537313432836 0.01492537313432836 0.01492537313432836 0.9565217391304348 0.01449275362318841 0.01449275362318841 0.01449275362318841 0.01388888888888889 0.9583333333333334 0.01388888888888889 0.01388888888888889 0.01298701298701299 0.961038961038961 0.01298701298701299 0.01298701298701299 0.01754385964912281 0.9473684210526315 0.01754385964912281 0.01754385964912281 0.01515151515151515 0.01515151515151515 0.9545454545454546 0.01515151515151515 0.0136986301369863 0.0136986301369863 0.958904109589041 0.0136986301369863 0.01724137931034483 0.01724137931034483 0.9482758620689655 0.01724137931034483 0.9629629629629629 0.01234567901234568 0.01234567901234568 0.01234567901234568 0.9571428571428572 0.01428571428571429 0.01428571428571429 0.01428571428571429 0.9583333333333334 0.01388888888888889 0.01388888888888889 0.01388888888888889 0.02040816326530612 0.9387755102040817 0.02040816326530612 0.02040816326530612 0.01408450704225352 0.9577464788732394 0.01408450704225352 0.01408450704225352 0.0136986301369863 0.958904109589041 0.0136986301369863 0.0136986301369863 0.0125 0.0125 0.9625 0.0125 0.0136986301369863 0.0136986301369863 0.958904109589041 0.0136986301369863 0.015625 0.015625 0.953125 0.015625 0.9552238805970149 0.01492537313432836 0.01492537313432836 0.01492537313432836 0.9454545454545454 0.01818181818181818 0.01818181818181818 0.01818181818181818 0.9482758620689655 0.01724137931034483 0.01724137931034483 0.01724137931034483 0.9433962264150944 0.01886792452830189 0.01886792452830189 0.01886792452830189 0.0136986301369863 0.958904109589041 0.0136986301369863 0.0136986301369863 0.0136986301369863 0.958904109589041 0.0136986301369863 0.0136986301369863 0.01538461538461539 0.9538461538461539 0.01538461538461539 0.01538461538461539 0.01538461538461539 0.9538461538461539 0.01538461538461539 0.01538461538461539 0.01694915254237288 0.01694915254237288 0.9491525423728814 0.01694915254237288 0.953125 0.015625 0.015625 0.015625 0.9577464788732394 0.01408450704225352 0.01408450704225352 0.01408450704225352 0.9662921348314607 0.01123595505617977 0.01123595505617977 0.01123595505617977 0.9545454545454546 0.01515151515151515 0.01515151515151515 0.01515151515151515 0.9647058823529412 0.01176470588235294 0.01176470588235294 0.01176470588235294 0.01694915254237288 0.9491525423728814 0.01694915254237288 0.01694915254237288 0.01587301587301587 0.9523809523809523 0.01587301587301587 0.01587301587301587 0.01388888888888889 0.9583333333333334 0.01388888888888889 0.01388888888888889 0.01694915254237288 0.9491525423728814 0.01694915254237288 0.01694915254237288 0.01149425287356322 0.01149425287356322 0.9655172413793104 0.01149425287356322 0.01282051282051282 0.01282051282051282 0.01282051282051282 0.9615384615384616 0.01408450704225352 0.01408450704225352 0.01408450704225352 0.9577464788732394 0.01470588235294118 0.01470588235294118 0.01470588235294118 0.9558823529411765 0.01282051282051282 0.01282051282051282 0.01282051282051282 0.9615384615384616 0.01538461538461539 0.01538461538461539 0.01538461538461539 0.9538461538461539 0.015625 0.015625 0.015625 0.953125 0.0125 0.0125 0.0125 0.9625 0.01666666666666667 0.01666666666666667 0.01666666666666667 0.95 0.0125 0.9625 0.0125 0.0125 0.01282051282051282 0.9615384615384616 0.01282051282051282 0.01282051282051282 0.01408450704225352 0.01408450704225352 0.9577464788732394 0.01408450704225352 0.01408450704225352 0.01408450704225352 0.01408450704225352 0.9577464788732394 0.01587301587301587 0.01587301587301587 0.01587301587301587 0.9523809523809523 0.01265822784810127 0.01265822784810127 0.01265822784810127 0.9620253164556962 0.0136986301369863 0.0136986301369863 0.0136986301369863 0.958904109589041 0.0136986301369863 0.0136986301369863 0.0136986301369863 0.958904109589041 0.015625 0.015625 0.015625 0.953125 0.9577464788732394 0.01408450704225352 0.01408450704225352 0.01408450704225352 0.0125 0.9625 0.0125 0.0125 0.01538461538461539 0.9538461538461539 0.01538461538461539 0.01538461538461539 0.01282051282051282 0.01282051282051282 0.9615384615384616 0.01282051282051282 0.01428571428571429 0.01428571428571429 0.9571428571428572 0.01428571428571429 0.01724137931034483 0.01724137931034483 0.01724137931034483 0.9482758620689655 0.01886792452830189 0.01886792452830189 0.01886792452830189 0.9433962264150944 0.01176470588235294 0.01176470588235294 0.01176470588235294 0.9647058823529412 0.01492537313432836 0.01492537313432836 0.01492537313432836 0.9552238805970149 0.9482758620689655 0.01724137931034483 0.01724137931034483 0.01724137931034483 0.958904109589041 0.0136986301369863 0.0136986301369863 0.0136986301369863 0.9523809523809523 0.01587301587301587 0.01587301587301587 0.01587301587301587 0.01428571428571429 0.01428571428571429 0.9571428571428572 0.01428571428571429 0.01204819277108434 0.01204819277108434 0.963855421686747 0.01204819277108434 0.01351351351351351 0.01351351351351351 0.9594594594594594 0.01351351351351351 0.01282051282051282 0.01282051282051282 0.9615384615384616 0.01282051282051282 0.01428571428571429 0.01428571428571429 0.01428571428571429 0.9571428571428572 0.01234567901234568 0.01234567901234568 0.01234567901234568 0.9629629629629629 0.9538461538461539 0.01538461538461539 0.01538461538461539 0.01538461538461539 0.9545454545454546 0.01515151515151515 0.01515151515151515 0.01515151515151515 0.9552238805970149 0.01492537313432836 0.01492537313432836 0.01492537313432836 0.01694915254237288 0.9491525423728814 0.01694915254237288 0.01694915254237288 0.01428571428571429 0.01428571428571429 0.9571428571428572 0.01428571428571429 0.01428571428571429 0.01428571428571429 0.9571428571428572 0.01428571428571429 0.01282051282051282 0.01282051282051282 0.9615384615384616 0.01282051282051282 0.01515151515151515 0.01515151515151515 0.9545454545454546 0.01515151515151515 0.0131578947368421 0.0131578947368421 0.9605263157894737 0.0131578947368421 0.9620253164556962 0.01265822784810127 0.01265822784810127 0.01265822784810127 0.9571428571428572 0.01428571428571429 0.01428571428571429 0.01428571428571429 0.9558823529411765 0.01470588235294118 0.01470588235294118 0.01470588235294118 0.01408450704225352 0.9577464788732394 0.01408450704225352 0.01408450704225352 0.01694915254237288 0.9491525423728814 0.01694915254237288 0.01694915254237288 0.01818181818181818 0.9454545454545454 0.01818181818181818 0.01818181818181818 0.01639344262295082 0.01639344262295082 0.9508196721311475 0.01639344262295082 0.01470588235294118 0.01470588235294118 0.9558823529411765 0.01470588235294118 0.01408450704225352 0.01408450704225352 0.9577464788732394 0.01408450704225352 0.9545454545454546 0.01515151515151515 0.01515151515151515 0.01515151515151515 0.9464285714285714 0.01785714285714286 0.01785714285714286 0.01785714285714286 0.9666666666666667 0.01111111111111111 0.01111111111111111 0.01111111111111111 0.01515151515151515 0.9545454545454546 0.01515151515151515 0.01515151515151515 0.01587301587301587 0.9523809523809523 0.01587301587301587 0.01587301587301587 0.01428571428571429 0.9571428571428572 0.01428571428571429 0.01428571428571429 0.01492537313432836 0.01492537313432836 0.9552238805970149 0.01492537313432836 0.015625 0.015625 0.953125 0.015625 0.0131578947368421 0.0131578947368421 0.9605263157894737 0.0131578947368421 0.9605263157894737 0.0131578947368421 0.0131578947368421 0.0131578947368421 0.9552238805970149 0.01492537313432836 0.01492537313432836 0.01492537313432836 0.9558823529411765 0.01470588235294118 0.01470588235294118 0.01470588235294118 0.9464285714285714 0.01785714285714286 0.01785714285714286 0.01785714285714286 0.01351351351351351 0.9594594594594594 0.01351351351351351 0.01351351351351351 0.01282051282051282 0.9615384615384616 0.01282051282051282 0.01282051282051282 0.01265822784810127 0.9620253164556962 0.01265822784810127 0.01265822784810127 0.01428571428571429 0.9571428571428572 0.01428571428571429 0.01428571428571429 0.0136986301369863 0.0136986301369863 0.958904109589041 0.0136986301369863 0.9605263157894737 0.0131578947368421 0.0131578947368421 0.0131578947368421 0.9558823529411765 0.01470588235294118 0.01470588235294118 0.01470588235294118 0.9571428571428572 0.01428571428571429 0.01428571428571429 0.01428571428571429 0.9571428571428572 0.01428571428571429 0.01428571428571429 0.01428571428571429 0.9634146341463414 0.01219512195121951 0.01219512195121951 0.01219512195121951 0.01587301587301587 0.9523809523809523 0.01587301587301587 0.01587301587301587 0.01639344262295082 0.9508196721311475 0.01639344262295082 0.01639344262295082 0.01538461538461539 0.9538461538461539 0.01538461538461539 0.01538461538461539 0.01754385964912281 0.9473684210526315 0.01754385964912281 0.01754385964912281 0.01428571428571429 0.01428571428571429 0.9571428571428572 0.01428571428571429 0.01612903225806452 0.01612903225806452 0.01612903225806452 0.9516129032258065 0.01428571428571429 0.01428571428571429 0.01428571428571429 0.9571428571428572 0.01333333333333333 0.01333333333333333 0.01333333333333333 0.96 0.01449275362318841 0.01449275362318841 0.01449275362318841 0.9565217391304348 0.01587301587301587 0.01587301587301587 0.01587301587301587 0.9523809523809523 0.01492537313432836 0.01492537313432836 0.01492537313432836 0.9552238805970149 0.01694915254237288 0.01694915254237288 0.01694915254237288 0.9491525423728814 0.01333333333333333 0.01333333333333333 0.01333333333333333 0.96 0.01515151515151515 0.9545454545454546 0.01515151515151515 0.01515151515151515 0.015625 0.953125 0.015625 0.015625 0.01428571428571429 0.01428571428571429 0.9571428571428572 0.01428571428571429 0.01351351351351351 0.01351351351351351 0.01351351351351351 0.9594594594594594 0.01388888888888889 0.01388888888888889 0.01388888888888889 0.9583333333333334 0.01818181818181818 0.01818181818181818 0.01818181818181818 0.9454545454545454 0.01538461538461539 0.01538461538461539 0.01538461538461539 0.9538461538461539 0.01587301587301587 0.01587301587301587 0.01587301587301587 0.9523809523809523 0.01470588235294118 0.01470588235294118 0.01470588235294118 0.9558823529411765 0.9558823529411765 0.01470588235294118 0.01470588235294118 0.01470588235294118 0.0119047619047619 0.9642857142857143 0.0119047619047619 0.0119047619047619 0.01351351351351351 0.9594594594594594 0.01351351351351351 0.01351351351351351 0.0125 0.0125 0.9625 0.0125 0.015625 0.015625 0.953125 0.015625 0.01449275362318841 0.01449275362318841 0.01449275362318841 0.9565217391304348 0.01408450704225352 0.01408450704225352 0.01408450704225352 0.9577464788732394 0.01162790697674419 0.01162790697674419 0.01162790697674419 0.9651162790697675 0.0131578947368421 0.0131578947368421 0.0131578947368421 