<?xml version="1.0" encoding="UTF-8"?>
<!-- This network was created in GeNIe Academic, which can be used for academic teaching and research purposes only -->
<smile version="1.0" id="Network2" numsamples="1234" discsamples="10000">
	<nodes>
		<cpt id="Tr_1_quantiled">
			<state id="s17_0" />
			<state id="s49_0" />
			<probabilities>0.1525277671390272 0.8474722328609728</probabilities>
		</cpt>
		<cpt id="items_fsl_S0tilde_quantiled">
			<state id="s5_0" />
			<state id="s15_0" />
			<state id="s25_0" />
			<state id="s100_0" />
			<probabilities>0.2695965785778118 0.2389729350185114 0.2438242052853313 0.2476062811183455</probabilities>
		</cpt>
		<cpt id="h_2">
			<state id="s3" />
			<state id="s4" />
			<state id="s5" />
			<state id="s10" />
			<state id="s11" />
			<state id="s12" />
			<state id="s15" />
			<state id="s16" />
			<state id="s17" />
			<parents>items_fsl_S0tilde_quantiled</parents>
			<probabilities>0.1134709814825771 0.1118736318996628 0.1069040998639295 0.1169614861267231 0.1116369875170088 0.110453765603739 0.1028219842631485 0.1115778264213453 0.1142992368218659 0.1106513614522157 0.1104511478910838 0.1109183128670582 0.1107848371596369 0.1129204484783769 0.1124532835024026 0.1084490122797651 0.1127202349172451 0.1106513614522157 0.1128990057561486 0.1100209314495029 0.1080586080586081 0.1155808477237049 0.1125719518576661 0.1100863422291994 0.1089089481946625 0.1128990057561486 0.108974358974359 0.1109178743961353 0.1138164251207729 0.1065378421900161 0.1107246376811594 0.1143317230273752 0.1122705314009662 0.1060225442834138 0.1131723027375201 0.1122061191626409</probabilities>
		</cpt>
		<cpt id="pai_h_ratio_fsl_2_quantiled">
			<state id="s0_2" />
			<state id="s0_3" />
			<state id="s0_4" />
			<state id="s0_8" />
			<probabilities>0.2693891229414018 0.2351429848078642 0.2478775692582663 0.2475903229924678</probabilities>
		</cpt>
		<cpt id="pai_2">
			<state id="s5" />
			<state id="s10" />
			<state id="s15" />
			<state id="s20" />
			<state id="s25" />
			<state id="s30" />
			<state id="s35" />
			<state id="s40" />
			<state id="s45" />
			<parents>h_2 pai_h_ratio_fsl_2_quantiled items_fsl_S0tilde_quantiled</parents>
			<probabilities>0.0006596306068601583 0.0006596306068601583 0.1411609498680739 0.145778364116095 0.1503957783641161 0.1365435356200528 0.1378627968337731 0.1550131926121372 0.1319261213720317 0.0007800312012480499 0.0007800312012480499 0.124804992199688 0.1333853354134165 0.1638065522620905 0.1544461778471139 0.1357254290171607 0.1427457098283931 0.1435257410296412 0.0007598784194528875 0.0007598784194528875 0.1512158054711246 0.1367781155015197 0.1413373860182371 0.1443768996960486 0.1413373860182371 0.1344984802431611 0.148936170212766 0.0007524454477050414 0.0007524454477050414 0.1422121896162528 0.1286681715575621 0.1519939804364183 0.1512415349887133 0.1422121896162528 0.1331828442437923 0.1489841986455982 0.004830917874396135 0.961352657004831 0.004830917874396135 0.004830917874396135 0.004830917874396135 0.004830917874396135 0.004830917874396135 0.004830917874396135 0.004830917874396135 0.004926108374384237 0.9605911330049262 0.004926108374384237 0.004926108374384237 0.004926108374384237 0.004926108374384237 0.004926108374384237 0.004926108374384237 0.004926108374384237 0.004878048780487805 0.9609756097560975 0.004878048780487805 0.004878048780487805 0.004878048780487805 0.004878048780487805 0.004878048780487805 0.004878048780487805 0.004878048780487805 0.004901960784313725 0.9607843137254902 0.004901960784313725 0.004901960784313725 0.004901960784313725 0.004901960784313725 0.004901960784313725 0.004901960784313725 0.004901960784313725 0.9638009049773756 0.004524886877828055 0.004524886877828055 0.004524886877828055 0.004524886877828055 0.004524886877828055 0.004524886877828055 0.004524886877828055 0.004524886877828055 0.9597989949748744 0.005025125628140704 0.005025125628140704 0.005025125628140704 0.005025125628140704 0.005025125628140704 0.005025125628140704 0.005025125628140704 0.005025125628140704 0.9653679653679653 0.004329004329004329 0.004329004329004329 0.004329004329004329 0.004329004329004329 0.004329004329004329 0.004329004329004329 0.004329004329004329 0.004329004329004329 0.9627906976744186 0.004651162790697674 0.004651162790697674 0.004651162790697674 0.004651162790697674 0.004651162790697674 0.004651162790697674 0.004651162790697674 0.004651162790697674 0.1111111111111111 0.1111111111111111 0.1111111111111111 0.1111111111111111 0.1111111111111111 0.1111111111111111 0.1111111111111111 0.1111111111111111 0.1111111111111111 0.1111111111111111 0.1111111111111111 0.1111111111111111 0.1111111111111111 0.1111111111111111 0.1111111111111111 0.1111111111111111 0.1111111111111111 0.1111111111111111 0.1111111111111111 0.1111111111111111 0.1111111111111111 0.1111111111111111 0.1111111111111111 0.1111111111111111 0.1111111111111111 0.1111111111111111 0.1111111111111111 0.1111111111111111 0.1111111111111111 0.1111111111111111 0.1111111111111111 0.1111111111111111 0.1111111111111111 0.1111111111111111 0.1111111111111111 0.1111111111111111 0.0007936507936507937 0.0007936507936507937 0.0007936507936507937 0.1626984126984127 0.1563492063492063 0.1793650793650794 0.1682539682539683 0.1698412698412698 0.1611111111111111 0.0009009009009009009 0.0009009009009009009 0.0009009009009009009 0.1432432432432433 0.1657657657657658 0.1657657657657658 0.1828828828828829 0.1711711711711712 0.1684684684684685 0.00089126559714795 0.00089126559714795 0.00089126559714795 0.1470588235294118 0.17825311942959 0.1595365418894831 0.1871657754010695 0.1648841354723708 0.160427807486631 0.0008764241893076249 0.0008764241893076249 0.0008764241893076249 0.1779141104294479 0.1516213847502191 0.1779141104294479 0.1805433829973707 0.1551270815074496 0.154250657318142 0.00228310502283105 0.4748858447488584 0.5091324200913242 0.00228310502283105 0.00228310502283105 0.00228310502283105 0.00228310502283105 0.00228310502283105 0.00228310502283105 0.002816901408450704 0.4957746478873239 0.4845070422535211 0.002816901408450704 0.002816901408450704 0.002816901408450704 0.002816901408450704 0.002816901408450704 0.002816901408450704 0.002469135802469136 0.5209876543209877 0.4617283950617284 0.002469135802469136 0.002469135802469136 0.002469135802469136 0.002469135802469136 0.002469135802469136 0.002469135802469136 0.002298850574712644 0.496551724137931 0.4873563218390805 0.002298850574712644 0.002298850574712644 0.002298850574712644 0.002298850574712644 0.002298850574712644 0.002298850574712644 0.1111111111111111 0.1111111111111111 0.1111111111111111 0.1111111111111111 0.1111111111111111 0.1111111111111111 0.1111111111111111 0.1111111111111111 0.1111111111111111 0.1111111111111111 0.1111111111111111 0.1111111111111111 0.1111111111111111 0.1111111111111111 0.1111111111111111 0.1111111111111111 0.1111111111111111 0.1111111111111111 0.1111111111111111 0.1111111111111111 0.1111111111111111 0.1111111111111111 0.1111111111111111 0.1111111111111111 0.1111111111111111 0.1111111111111111 0.1111111111111111 0.1111111111111111 0.1111111111111111 0.1111111111111111 0.1111111111111111 0.1111111111111111 0.1111111111111111 0.1111111111111111 0.1111111111111111 0.1111111111111111 0.9634703196347032 0.0045662100456621 0.0045662100456621 0.0045662100456621 0.0045662100456621 0.0045662100456621 0.0045662100456621 0.0045662100456621 0.0045662100456621 0.9629629629629629 0.004629629629629629 0.004629629629629629 0.004629629629629629 0.004629629629629629 0.004629629629629629 0.004629629629629629 0.004629629629629629 0.004629629629629629 0.9558011049723757 0.005524861878453038 0.005524861878453038 0.005524861878453038 0.005524861878453038 0.005524861878453038 0.005524861878453038 0.005524861878453038 0.005524861878453038 0.9631336405529954 0.004608294930875576 0.004608294930875576 0.004608294930875576 0.004608294930875576 0.004608294930875576 0.004608294930875576 0.004608294930875576 0.004608294930875576 0.0008396305625524769 0.0008396305625524769 0.0008396305625524769 0.1435768261964736 0.1897565071368598 0.163727959697733 0.1696053736356003 0.1662468513853904 0.1645675902602855 0.0009033423667570009 0.0009033423667570009 0.0009033423667570009 0.1635049683830172 0.1598915989159892 0.1562782294489612 0.1725383920505872 0.1662149954832882 0.1788617886178862 0.00088261253309797 0.00088261253309797 0.00088261253309797 0.1800529567519859 0.1438658428949691 0.1641659311562224 0.1738746690203001 0.1738746690203001 0.1615180935569285 0.0008787346221441124 0.0008787346221441124 0.0008787346221441124 0.1581722319859402 0.1775043936731107 0.1660808435852373 0.1695957820738137 0.1652021089630931 0.1608084358523726 0.004950495049504951 0.004950495049504951 0.9603960396039604 0.004950495049504951 0.004950495049504951 0.004950495049504951 0.004950495049504951 0.004950495049504951 0.004950495049504951 0.004651162790697674 0.004651162790697674 0.9627906976744186 0.004651162790697674 0.004651162790697674 0.004651162790697674 0.004651162790697674 0.004651162790697674 0.004651162790697674 0.005847953216374269 0.005847953216374269 0.9532163742690059 0.005847953216374269 0.005847953216374269 0.005847953216374269 0.005847953216374269 0.005847953216374269 0.005847953216374269 0.005319148936170213 0.005319148936170213 0.9574468085106383 0.005319148936170213 0.005319148936170213 0.005319148936170213 0.005319148936170213 0.005319148936170213 0.005319148936170213 0.004444444444444444 0.9644444444444444 0.004444444444444444 0.004444444444444444 0.004444444444444444 0.004444444444444444 0.004444444444444444 0.004444444444444444 0.004444444444444444 0.005376344086021506 0.956989247311828 0.005376344086021506 0.005376344086021506 0.005376344086021506 0.005376344086021506 0.005376344086021506 0.005376344086021506 0.005376344086021506 0.005208333333333333 0.9583333333333334 0.005208333333333333 0.005208333333333333 0.005208333333333333 0.005208333333333333 0.005208333333333333 0.005208333333333333 0.005208333333333333 0.005291005291005291 0.9576719576719577 0.005291005291005291 0.005291005291005291 0.005291005291005291 0.005291005291005291 0.005291005291005291 0.005291005291005291 0.005291005291005291 0.9642857142857143 0.004464285714285714 0.004464285714285714 0.004464285714285714 0.004464285714285714 0.004464285714285714 0.004464285714285714 0.004464285714285714 0.004464285714285714 0.9576719576719577 0.005291005291005291 0.005291005291005291 0.005291005291005291 0.005291005291005291 0.005291005291005291 0.005291005291005291 0.005291005291005291 0.005291005291005291 0.9581151832460733 0.005235602094240838 0.005235602094240838 0.005235602094240838 0.005235602094240838 0.005235602094240838 0.005235602094240838 0.005235602094240838 0.005235602094240838 0.9540229885057471 0.005747126436781609 0.005747126436781609 0.005747126436781609 0.005747126436781609 0.005747126436781609 0.005747126436781609 0.005747126436781609 0.005747126436781609 0.002380952380952381 0.002380952380952381 0.002380952380952381 0.002380952380952381 0.002380952380952381 0.002380952380952381 0.002380952380952381 0.4880952380952381 0.4952380952380953 0.0024330900243309 0.0024330900243309 0.0024330900243309 0.0024330900243309 0.0024330900243309 0.0024330900243309 0.0024330900243309 0.4695863746958637 0.51338199513382 0.002427184466019417 0.002427184466019417 0.002427184466019417 0.002427184466019417 0.002427184466019417 0.002427184466019417 0.002427184466019417 0.5024271844660194 0.4805825242718447 0.002544529262086514 0.002544529262086514 0.002544529262086514 0.002544529262086514 0.002544529262086514 0.002544529262086514 0.002544529262086514 0.4758269720101781 0.5063613231552163 0.001414427157001414 0.001414427157001414 0.001414427157001414 0.001414427157001414 0.3352192362093352 0.314002828854314 0.3422913719943423 0.001414427157001414 0.001414427157001414 0.00186219739292365 0.00186219739292365 0.00186219739292365 0.00186219739292365 0.3612662942271881 0.2886405959031657 0.3389199255121043 0.00186219739292365 0.00186219739292365 0.001754385964912281 0.001754385964912281 0.001754385964912281 0.001754385964912281 0.3385964912280702 0.3105263157894737 0.3403508771929825 0.001754385964912281 0.001754385964912281 0.001751313485113835 0.001751313485113835 0.001751313485113835 0.001751313485113835 0.3362521891418564 0.3222416812609457 0.3309982486865149 0.001751313485113835 0.001751313485113835 0.002272727272727273 0.002272727272727273 0.4931818181818182 0.4909090909090909 0.002272727272727273 0.002272727272727273 0.002272727272727273 0.002272727272727273 0.002272727272727273 0.002770083102493075 0.002770083102493075 0.4626038781163435 0.518005540166205 0.002770083102493075 0.002770083102493075 0.002770083102493075 0.002770083102493075 0.002770083102493075 0.002369668246445498 0.002369668246445498 0.4454976303317535 0.5379146919431279 0.002369668246445498 0.002369668246445498 0.002369668246445498 0.002369668246445498 0.002369668246445498 0.002610966057441253 0.002610966057441253 0.4751958224543081 0.5065274151436031 0.002610966057441253 0.002610966057441253 0.002610966057441253 0.002610966057441253 0.002610966057441253 0.4404494382022472 0.5438202247191011 0.002247191011235955 0.002247191011235955 0.002247191011235955 0.002247191011235955 0.002247191011235955 0.002247191011235955 0.002247191011235955 0.4818652849740933 0.5 0.002590673575129534 0.002590673575129534 0.002590673575129534 0.002590673575129534 0.002590673575129534 0.002590673575129534 0.002590673575129534 0.5376884422110553 0.4447236180904522 0.002512562814070352 0.002512562814070352 0.002512562814070352 0.002512562814070352 0.002512562814070352 0.002512562814070352 0.002512562814070352 0.4717444717444718 0.5110565110565111 0.002457002457002457 0.002457002457002457 0.002457002457002457 0.002457002457002457 0.002457002457002457 0.002457002457002457 0.002457002457002457 0.005 0.005 0.005 0.005 0.005 0.005 0.005 0.005 0.96 0.005847953216374269 0.005847953216374269 0.005847953216374269 0.005847953216374269 0.005847953216374269 0.005847953216374269 0.005847953216374269 0.005847953216374269 0.9532163742690059 0.004854368932038835 0.004854368932038835 0.004854368932038835 0.004854368932038835 0.004854368932038835 0.004854368932038835 0.004854368932038835 0.004854368932038835 0.9611650485436893 0.004926108374384237 0.004926108374384237 0.004926108374384237 0.004926108374384237 0.004926108374384237 0.004926108374384237 0.004926108374384237 0.004926108374384237 0.9605911330049262 0.001574803149606299 0.001574803149606299 0.001574803149606299 0.001574803149606299 0.001574803149606299 0.3952755905511811 0.3070866141732284 0.2881889763779528 0.001574803149606299 0.001890359168241966 0.001890359168241966 0.001890359168241966 0.001890359168241966 0.001890359168241966 0.2948960302457467 0.3931947069943289 0.3005671077504726 0.001890359168241966 0.0017825311942959 0.0017825311942959 0.0017825311942959 0.0017825311942959 0.0017825311942959 0.3333333333333333 0.3368983957219251 0.3190730837789661 0.0017825311942959 0.001633986928104575 0.001633986928104575 0.001633986928104575 0.001633986928104575 0.001633986928104575 0.3774509803921569 0.3120915032679739 0.3006535947712418 0.001633986928104575 0.001545595054095827 0.001545595054095827 0.3168469860896445 0.3245749613601236 0.3493044822256569 0.001545595054095827 0.001545595054095827 0.001545595054095827 0.001545595054095827 0.001652892561983471 0.001652892561983471 0.3223140495867768 0.3305785123966942 0.3371900826446281 0.001652892561983471 0.001652892561983471 0.001652892561983471 0.001652892561983471 0.001692047377326565 0.001692047377326565 0.3197969543147208 0.3434856175972927 0.3265651438240271 0.001692047377326565 0.001692047377326565 0.001692047377326565 0.001692047377326565 0.001666666666666667 0.001666666666666667 0.3366666666666667 0.3316666666666667 0.3216666666666667 0.001666666666666667 0.001666666666666667 0.001666666666666667 0.001666666666666667 0.4727272727272727 0.5113636363636364 0.002272727272727273 0.002272727272727273 0.002272727272727273 0.002272727272727273 0.002272727272727273 0.002272727272727273 0.002272727272727273 0.466824644549763 0.5165876777251185 0.002369668246445498 0.002369668246445498 0.002369668246445498 0.002369668246445498 0.002369668246445498 0.002369668246445498 0.002369668246445498 0.4597989949748744 0.5226130653266332 0.002512562814070352 0.002512562814070352 0.002512562814070352 0.002512562814070352 0.002512562814070352 0.002512562814070352 0.002512562814070352 0.5215189873417722 0.4607594936708861 0.002531645569620253 0.002531645569620253 0.002531645569620253 0.002531645569620253 0.002531645569620253 0.002531645569620253 0.002531645569620253 0.1111111111111111 0.1111111111111111 0.1111111111111111 0.1111111111111111 0.1111111111111111 0.1111111111111111 0.1111111111111111 0.1111111111111111 0.1111111111111111 0.1111111111111111 0.1111111111111111 0.1111111111111111 0.1111111111111111 0.1111111111111111 0.1111111111111111 0.1111111111111111 0.1111111111111111 0.1111111111111111 0.1111111111111111 0.1111111111111111 0.1111111111111111 0.1111111111111111 0.1111111111111111 0.1111111111111111 0.1111111111111111 0.1111111111111111 0.1111111111111111 0.1111111111111111 0.1111111111111111 0.1111111111111111 0.1111111111111111 0.1111111111111111 0.1111111111111111 0.1111111111111111 0.1111111111111111 0.1111111111111111 0.001184834123222749 0.001184834123222749 0.001184834123222749 0.001184834123222749 0.001184834123222749 0.2428909952606635 0.2618483412322275 0.2381516587677725 0.2511848341232227 0.001317523056653491 0.001317523056653491 0.001317523056653491 0.001317523056653491 0.001317523056653491 0.2727272727272727 0.2397891963109355 0.2371541501976284 0.2437417654808959 0.001394700139470014 0.001394700139470014 0.001394700139470014 0.001394700139470014 0.001394700139470014 0.2538354253835425 0.2440725244072524 0.2343096234309623 0.2608089260808926 0.001267427122940431 0.001267427122940431 0.001267427122940431 0.001267427122940431 0.001267427122940431 0.2408111533586819 0.2408111533586819 0.2598225602027883 0.2522179974651457 0.002347417840375587 0.002347417840375587 0.002347417840375587 0.4718309859154929 0.5117370892018779 0.002347417840375587 0.002347417840375587 0.002347417840375587 0.002347417840375587 0.002680965147453083 0.002680965147453083 0.002680965147453083 0.4584450402144772 0.5227882037533512 0.002680965147453083 0.002680965147453083 0.002680965147453083 0.002680965147453083 0.002544529262086514 0.002544529262086514 0.002544529262086514 0.4732824427480916 0.5089058524173028 0.002544529262086514 0.002544529262086514 0.002544529262086514 0.002544529262086514 0.002624671916010499 0.002624671916010499 0.002624671916010499 0.5196850393700787 0.4619422572178478 0.002624671916010499 0.002624671916010499 0.002624671916010499 0.002624671916010499 0.3081861958266452 0.3772070626003211 0.3049759229534511 0.001605136436597111 0.001605136436597111 0.001605136436597111 0.001605136436597111 0.001605136436597111 0.001605136436597111 0.3229706390328152 0.3454231433506045 0.3212435233160622 0.001727115716753022 0.001727115716753022 0.001727115716753022 0.001727115716753022 0.001727115716753022 0.001727115716753022 0.313856427378965 0.337228714524207 0.33889816360601 0.001669449081803005 0.001669449081803005 0.001669449081803005 0.001669449081803005 0.001669449081803005 0.001669449081803005 0.333889816360601 0.332220367278798 0.323873121869783 0.001669449081803005 0.001669449081803005 0.001669449081803005 0.001669449081803005 0.001669449081803005 0.001669449081803005 0.1111111111111111 0.1111111111111111 0.1111111111111111 0.1111111111111111 0.1111111111111111 0.1111111111111111 0.1111111111111111 0.1111111111111111 0.1111111111111111 0.1111111111111111 0.1111111111111111 0.1111111111111111 0.1111111111111111 0.1111111111111111 0.1111111111111111 0.1111111111111111 0.1111111111111111 0.1111111111111111 0.1111111111111111 0.1111111111111111 0.1111111111111111 0.1111111111111111 0.1111111111111111 0.1111111111111111 0.1111111111111111 0.1111111111111111 0.1111111111111111 0.1111111111111111 0.1111111111111111 0.1111111111111111 0.1111111111111111 0.1111111111111111 0.1111111111111111 0.1111111111111111 0.1111111111111111 0.1111111111111111 0.002415458937198068 0.002415458937198068 0.002415458937198068 0.002415458937198068 0.002415458937198068 0.002415458937198068 0.002415458937198068 0.4541062801932367 0.5289855072463768 0.002557544757033248 0.002557544757033248 0.002557544757033248 0.002557544757033248 0.002557544757033248 0.002557544757033248 0.002557544757033248 0.4987212276214834 0.4833759590792839 0.002398081534772182 0.002398081534772182 0.002398081534772182 0.002398081534772182 0.002398081534772182 0.002398081534772182 0.002398081534772182 0.4940047961630695 0.4892086330935252 0.002570694087403599 0.002570694087403599 0.002570694087403599 0.002570694087403599 0.002570694087403599 0.002570694087403599 0.002570694087403599 0.5115681233933161 0.4704370179948586 0.001310615989515072 0.001310615989515072 0.001310615989515072 0.2477064220183486 0.2319790301441678 0.2293577981651376 0.2844036697247707 0.001310615989515072 0.001310615989515072 0.00145985401459854 0.00145985401459854 0.00145985401459854 0.2379562043795621 0.2379562043795621 0.254014598540146 0.2627737226277372 0.00145985401459854 0.00145985401459854 0.001324503311258278 0.001324503311258278 0.001324503311258278 0.2463576158940397 0.2278145695364238 0.2556291390728477 0.2635761589403974 0.001324503311258278 0.001324503311258278 0.001358695652173913 0.001358695652173913 0.001358695652173913 0.2432065217391304 0.2201086956521739 0.2567934782608696 0.2730978260869565 0.001358695652173913 0.001358695652173913 0.3628620102214651 0.2793867120954003 0.3475298126064736 0.001703577512776831 0.001703577512776831 0.001703577512776831 0.001703577512776831 0.001703577512776831 0.001703577512776831 0.3321739130434783 0.3356521739130435 0.3217391304347826 0.001739130434782609 0.001739130434782609 0.001739130434782609 0.001739130434782609 0.001739130434782609 0.001739130434782609 0.3429672447013488 0.302504816955684 0.3429672447013488 0.001926782273603083 0.001926782273603083 0.001926782273603083 0.001926782273603083 0.001926782273603083 0.001926782273603083 0.3162705667276051 0.3235831809872029 0.3491773308957952 0.001828153564899452 0.001828153564899452 0.001828153564899452 0.001828153564899452 0.001828153564899452 0.001828153564899452 0.1111111111111111 0.1111111111111111 0.1111111111111111 0.1111111111111111 0.1111111111111111 0.1111111111111111 0.1111111111111111 0.1111111111111111 0.1111111111111111 0.1111111111111111 0.1111111111111111 0.1111111111111111 0.1111111111111111 0.1111111111111111 0.1111111111111111 0.1111111111111111 0.1111111111111111 0.1111111111111111 0.1111111111111111 0.1111111111111111 0.1111111111111111 0.1111111111111111 0.1111111111111111 0.1111111111111111 0.1111111111111111 0.1111111111111111 0.1111111111111111 0.1111111111111111 0.1111111111111111 0.1111111111111111 0.1111111111111111 0.1111111111111111 0.1111111111111111 0.1111111111111111 0.1111111111111111 0.1111111111111111 0.002375296912114014 0.002375296912114014 0.002375296912114014 0.002375296912114014 0.002375296912114014 0.002375296912114014 0.002375296912114014 0.503562945368171 0.4798099762470309 0.002645502645502645 0.002645502645502645 0.002645502645502645 0.002645502645502645 0.002645502645502645 0.002645502645502645 0.002645502645502645 0.4656084656084656 0.5158730158730159 0.002617801047120419 0.002617801047120419 0.002617801047120419 0.002617801047120419 0.002617801047120419 0.002617801047120419 0.002617801047120419 0.5052356020942408 0.4764397905759162 0.002610966057441253 0.002610966057441253 0.002610966057441253 0.002610966057441253 0.002610966057441253 0.002610966057441253 0.002610966057441253 0.4830287206266319 0.4986945169712794 0.001510574018126888 0.001510574018126888 0.001510574018126888 0.001510574018126888 0.3308157099697885 0.3640483383685801 0.2960725075528701 0.001510574018126888 0.001510574018126888 0.001642036124794745 0.001642036124794745 0.001642036124794745 0.001642036124794745 0.3530377668308703 0.3136288998357964 0.3234811165845649 0.001642036124794745 0.001642036124794745 0.00176056338028169 0.00176056338028169 0.00176056338028169 0.00176056338028169 0.3292253521126761 0.3151408450704226 0.3450704225352113 0.00176056338028169 0.00176056338028169 0.001661129568106312 0.001661129568106312 0.001661129568106312 0.001661129568106312 0.3272425249169435 0.3338870431893688 0.3289036544850498 0.001661129568106312 0.001661129568106312 0.2545235223160434 0.2533172496984318 0.2496984318455971 0.2364294330518697 0.00120627261761158 0.00120627261761158 0.00120627261761158 0.00120627261761158 0.00120627261761158 0.25 0.2596153846153846 0.2527472527472527 0.2307692307692308 0.001373626373626374 0.001373626373626374 0.001373626373626374 0.001373626373626374 0.001373626373626374 0.2518703241895262 0.243142144638404 0.2518703241895262 0.2468827930174564 0.001246882793017456 0.001246882793017456 0.001246882793017456 0.001246882793017456 0.001246882793017456 0.2431077694235589 0.2506265664160401 0.2543859649122807 0.2456140350877193 0.0012531328320802 0.0012531328320802 0.0012531328320802 0.0012531328320802 0.0012531328320802 0.1111111111111111 0.1111111111111111 0.1111111111111111 0.1111111111111111 0.1111111111111111 0.1111111111111111 0.1111111111111111 0.1111111111111111 0.1111111111111111 0.1111111111111111 0.1111111111111111 0.1111111111111111 0.1111111111111111 0.1111111111111111 0.1111111111111111 0.1111111111111111 0.1111111111111111 0.1111111111111111 0.1111111111111111 0.1111111111111111 0.1111111111111111 0.1111111111111111 0.1111111111111111 0.1111111111111111 0.1111111111111111 0.1111111111111111 0.1111111111111111 0.1111111111111111 0.1111111111111111 0.1111111111111111 0.1111111111111111 0.1111111111111111 0.1111111111111111 0.1111111111111111 0.1111111111111111 0.1111111111111111 0.005076142131979695 0.005076142131979695 0.005076142131979695 0.005076142131979695 0.005076142131979695 0.005076142131979695 0.005076142131979695 0.005076142131979695 0.9593908629441624 0.004739336492890996 0.004739336492890996 0.004739336492890996 0.004739336492890996 0.004739336492890996 0.004739336492890996 0.004739336492890996 0.004739336492890996 0.9620853080568721 0.004761904761904762 0.004761904761904762 0.004761904761904762 0.004761904761904762 0.004761904761904762 0.004761904761904762 0.004761904761904762 0.004761904761904762 0.9619047619047619 0.004830917874396135 0.004830917874396135 0.004830917874396135 0.004830917874396135 0.004830917874396135 0.004830917874396135 0.004830917874396135 0.004830917874396135 0.961352657004831 0.001116071428571429 0.001116071428571429 0.001116071428571429 0.001116071428571429 0.2589285714285715 0.2321428571428572 0.25 0.2533482142857143 0.001116071428571429 0.001383125864453665 0.001383125864453665 0.001383125864453665 0.001383125864453665 0.2351313969571231 0.2475795297372061 0.2752420470262794 0.2351313969571231 0.001383125864453665 0.001342281879194631 0.001342281879194631 0.001342281879194631 0.001342281879194631 0.2832214765100671 0.225503355704698 0.2214765100671141 0.2630872483221476 0.001342281879194631 0.001254705144291092 0.001254705144291092 0.001254705144291092 0.001254705144291092 0.2597239648682559 0.2547051442910916 0.2421580928481807 0.2371392722710163 0.001254705144291092 0.2763005780346821 0.2358381502890173 0.2369942196531792 0.2450867052023121 0.00115606936416185 0.00115606936416185 0.00115606936416185 0.00115606936416185 0.00115606936416185 0.2573333333333334 0.2226666666666667 0.2533333333333334 0.26 0.001333333333333333 0.001333333333333333 0.001333333333333333 0.001333333333333333 0.001333333333333333 0.2700135685210312 0.2306648575305292 0.2605156037991859 0.2320217096336499 0.00135685210312076 0.00135685210312076 0.00135685210312076 0.00135685210312076 0.00135685210312076 0.2578534031413612 0.2526178010471204 0.2382198952879581 0.2447643979057592 0.00130890052356021 0.00130890052356021 0.00130890052356021 0.00130890052356021 0.00130890052356021</probabilities>
		</cpt>
		<cpt id="Tr_2_quantiled">
			<state id="s17_0" />
			<state id="s49_0" />
			<parents>Tr_1_quantiled pai_2 h_2</parents>
			<probabilities>0.8260869565217391 0.1739130434782609 0.8396946564885496 0.1603053435114504 0.7833333333333333 0.2166666666666667 0.7741935483870968 0.2258064516129032 0.7445255474452555 0.2554744525547445 0.7321428571428571 0.2678571428571428 0.7835820895522388 0.2164179104477612 0.8018018018018018 0.1981981981981982 0.792 0.208 0.8059701492537313 0.1940298507462687 0.7880794701986755 0.2119205298013245 0.8155339805825242 0.1844660194174757 0.7777777777777778 0.2222222222222222 0.7465753424657534 0.2534246575342466 0.7967479674796748 0.2032520325203252 0.8526315789473684 0.1473684210526316 0.7142857142857143 0.2857142857142857 0.7642276422764228 0.2357723577235772 0.7652173913043478 0.2347826086956522 0.8235294117647058 0.1764705882352941 0.8347826086956521 0.1652173913043478 0.8559322033898306 0.1440677966101695 0.7966101694915254 0.2033898305084746 0.7933884297520661 0.2066115702479339 0.8151260504201681 0.1848739495798319 0.7938931297709924 0.2061068702290076 0.6929824561403509 0.3070175438596491 0.8367346938775511 0.163265306122449 0.7346938775510204 0.2653061224489796 0.7555555555555555 0.2444444444444444 0.8793103448275862 0.1206896551724138 0.8062015503875969 0.1937984496124031 0.8173913043478261 0.1826086956521739 0.788135593220339 0.211864406779661 0.808695652173913 0.191304347826087 0.775 0.225 0.7663551401869159 0.2336448598130841 0.7407407407407407 0.2592592592592592 0.8260869565217391 0.1739130434782609 0.84375 0.15625 0.8045112781954887 0.1954887218045113 0.7948717948717948 0.2051282051282051 0.8103448275862069 0.1896551724137931 0.7333333333333333 0.2666666666666667 0.7874015748031497 0.2125984251968504 0.8046875 0.1953125 0.7833333333333333 0.2166666666666667 0.8468468468468469 0.1531531531531531 0.7281553398058253 0.2718446601941747 0.819672131147541 0.180327868852459 0.7614678899082569 0.2385321100917431 0.7622950819672131 0.2377049180327869 0.8 0.2 0.7894736842105263 0.2105263157894737 0.7272727272727273 0.2727272727272727 0.8161764705882353 0.1838235294117647 0.7698412698412699 0.2301587301587301 0.8151260504201681 0.1848739495798319 0.7719298245614035 0.2280701754385965 0.8205128205128205 0.1794871794871795 0.8571428571428571 0.1428571428571428 0.75 0.25 0.7661290322580645 0.2338709677419355 0.8080000000000001 0.192 0.7181818181818181 0.2818181818181818 0.7747747747747747 0.2252252252252252 0.7950819672131147 0.2049180327868853 0.7931034482758621 0.2068965517241379 0.8153846153846154 0.1846153846153846 0.8487394957983193 0.1512605042016807 0.7542372881355932 0.2457627118644068 0.7981651376146789 0.2018348623853211 0.853448275862069 0.146551724137931 0.8181818181818182 0.1818181818181818 0.7734375 0.2265625 0.8515625 0.1484375 0.7850467289719626 0.2149532710280374 0.824 0.176 0.7983193277310925 0.2016806722689076 0.890625 0.109375 0.7333333333333333 0.2666666666666667 0.02086230876216968 0.9791376912378303 0.02985074626865672 0.9701492537313433 0.01757188498402556 0.9824281150159745 0.03162650602409638 0.9683734939759037 0.0319634703196347 0.9680365296803652 0.02442748091603053 0.9755725190839695 0.02093397745571659 0.9790660225442834 0.02507374631268437 0.9749262536873157 0.02702702702702703 0.972972972972973 0.01837672281776417 0.9816232771822359 0.03181818181818181 0.9681818181818181 0.030441400304414 0.969558599695586 0.03357664233576643 0.9664233576642336 0.024745269286754 0.975254730713246 0.02103786816269285 0.9789621318373072 0.02348993288590604 0.9765100671140939 0.02962962962962963 0.9703703703703703 0.02454991816693944 0.9754500818330606 0.0231839258114374 0.9768160741885626 0.02222222222222222 0.9777777777777777 0.01589825119236884 0.9841017488076311 0.01415094339622642 0.9858490566037735 0.02971768202080238 0.9702823179791976 0.02300613496932515 0.9769938650306749 0.02347417840375587 0.9765258215962441 0.01804511278195489 0.9819548872180451 0.0183206106870229 0.981679389312977 0.02015503875968992 0.9798449612403101 0.02996845425867508 0.9700315457413249 0.03095975232198142 0.9690402476780186 0.01977401129943503 0.980225988700565 0.02049780380673499 0.9795021961932651 0.031201248049922 0.968798751950078 0.0333889816360601 0.9666110183639399 0.02332814930015552 0.9766718506998445 0.02325581395348837 0.9767441860465116 0.03198887343532685 0.9680111265646731 0.03405572755417956 0.9659442724458205 0.0253968253968254 0.9746031746031746 0.02180232558139535 0.9781976744186046 0.02781844802342606 0.972181551976574 0.02529761904761905 0.9747023809523809 0.02329749103942652 0.9767025089605734 0.01402524544179523 0.9859747545582047 0.02308802308802309 0.976911976911977 0.03143712574850299 0.968562874251497 0.02827380952380952 0.9717261904761905 0.02215189873417722 0.9778481012658228 0.02519685039370079 0.9748031496062992 0.02418207681365576 0.9758179231863442 0.02222222222222222 0.9777777777777777 0.02134646962233169 0.9786535303776683 0.02991452991452992 0.9700854700854701 0.032 0.968 0.02236421725239617 0.9776357827476039 0.02014388489208633 0.9798561151079137 0.0243531202435312 0.9756468797564688 0.01598837209302326 0.9840116279069767 0.03587443946188341 0.9641255605381166 0.03993855606758832 0.9600614439324117 0.0258751902587519 0.974124809741248 0.02074074074074074 0.9792592592592593 0.0136986301369863 0.9863013698630136 0.0231839258114374 0.9768160741885626 0.03201219512195122 0.9679878048780488 0.0350609756097561 0.9649390243902439 0.02537313432835821 0.9746268656716418 0.01358234295415959 0.9864176570458404 0.02564102564102564 0.9743589743589743 0.0343796711509716 0.9656203288490284 0.02006172839506173 0.9799382716049383 0.02674591381872214 0.9732540861812778 0.02416918429003021 0.9758308157099698 0.02672955974842767 0.9732704402515723 0.03639240506329114 0.9636075949367089 0.02470930232558139 0.9752906976744186 0.0218408736349454 0.9781591263650546 0.0364741641337386 0.9635258358662614 0.02366863905325444 0.9763313609467456 0.0249221183800623 0.9750778816199377 0.03495440729483282 0.9650455927051672</probabilities>
		</cpt>
		<cpt id="Costs_relation_fsl1">
			<state id="spai_ge_c_or_z" />
			<state id="spai_gt_sum_cz" />
			<state id="spai_gt_sum_hcz" />
			<parents>pai_h_ratio_fsl_2_quantiled pai_2</parents>
			<probabilities>0.3333333333333333 0.3333333333333333 0.3333333333333333 0.3333333333333333 0.3333333333333333 0.3333333333333333 0.4940867279894875 0.09067017082785808 0.4152431011826544 0.485921889191644 0.09445958219800181 0.4196185286103542 0.5173150919196238 0.08037622915775973 0.4023086789226165 0.4905254091300603 0.07579672695951765 0.4336778639104221 0.4875158696572154 0.086754126110876 0.4257300042319086 0.5003242542153048 0.08916990920881972 0.4105058365758755 0.4962150874445315 0.08457321848081441 0.4192116940746541 0.3333333333333333 0.3333333333333333 0.3333333333333333 0.4971751412429379 0.09541745134965474 0.4074074074074074 0.4996738421395955 0.08414872798434442 0.41617742987606 0.3333333333333333 0.3333333333333333 0.3333333333333333 0.5079754601226993 0.08098159509202454 0.4110429447852761 0.5124037639007699 0.08254918733960651 0.4050470487596236 0.4993614303959131 0.1047254150702427 0.3959131545338442 0.5016666666666667 0.08533333333333333 0.413 0.4974424552429668 0.09398976982097186 0.4085677749360614 0.5042016806722689 0.08283313325330131 0.4129651860744298 0.4927536231884058 0.08563899868247694 0.4216073781291172 0.5058441558441559 0.07272727272727272 0.4214285714285714 0.5222868217054264 0.08817829457364341 0.3895348837209303 0.4979487179487179 0.09 0.4120512820512821 0.518760907504363 0.08507853403141362 0.3961605584642234 0.4910865874363328 0.08701188455008489 0.4219015280135823 0.4660691421254802 0.119078104993598 0.4148527528809219 0.3333333333333333 0.3333333333333333 0.3333333333333333 0.5032857829780414 0.08366725436768713 0.4130469626542715 0.4939193513974824 0.096436953275016 0.4096436953275016 0.4881608822575413 0.09536166072007785 0.4164774570223808 0.5013175230566534 0.08432147562582346 0.4143610013175231 0.3333333333333333 0.3333333333333333 0.3333333333333333 0.3333333333333333 0.3333333333333333 0.3333333333333333 0.3333333333333333 0.3333333333333333 0.3333333333333333 0.3333333333333333 0.3333333333333333 0.3333333333333333 0.3333333333333333 0.3333333333333333 0.3333333333333333</probabilities>
		</cpt>
		<cpt id="Costs_relation_fsl2">
			<state id="spai_ge_c_or_z" />
			<state id="spai_gt_sum_cz" />
			<state id="spai_gt_sum_hcz" />
			<state id="spai_lt_c_and_z" />
			<parents>pai_2 Costs_relation_fsl1 pai_h_ratio_fsl_2_quantiled</parents>
			<probabilities>0.25 0.25 0.25 0.25 0.25 0.25 0.25 0.25 0.1583924349881797 0.002364066193853428 0.002364066193853428 0.8368794326241135 0.12663060769965 0.0003181673560292714 0.0003181673560292714 0.8727330575882914 0.25 0.25 0.25 0.25 0.25 0.25 0.25 0.25 0.2083333333333333 0.01388888888888889 0.01388888888888889 0.7638888888888888 0.2457142857142857 0.001904761904761905 0.001904761904761905 0.7504761904761905 0.25 0.25 0.25 0.25 0.25 0.25 0.25 0.25 0.4524495677233429 0.002881844380403458 0.01729106628242075 0.5273775216138329 0.4573643410852713 0.02364341085271318 0.002325581395348837 0.5166666666666667 0.25 0.25 0.25 0.25 0.2238993710691824 0.001257861635220126 0.001257861635220126 0.7735849056603774 0.1830238726790451 0.002652519893899204 0.002652519893899204 0.8116710875331565 0.1975841242450388 0.0004314063848144953 0.0004314063848144953 0.8015530629853321 0.25 0.25 0.25 0.25 0.4064516129032258 0.006451612903225806 0.006451612903225806 0.5806451612903226 0.3970588235294117 0.01470588235294118 0.01470588235294118 0.5735294117647058 0.4197802197802198 0.002197802197802198 0.002197802197802198 0.5758241758241758 0.25 0.25 0.25 0.25 0.7223926380368099 0.001533742331288344 0.04447852760736196 0.2315950920245399 0.6253869969040248 0.02476780185758514 0.02786377708978328 0.3219814241486068 0.6775871034841394 0.04420176807072283 0.0005200208008320333 0.2776911076443058 0.3245382585751979 0.002638522427440633 0.002638522427440633 0.6701846965699209 0.2899869960988297 0.001300390117035111 0.001300390117035111 0.7074122236671001 0.3056265984654731 0.001278772378516624 0.001278772378516624 0.6918158567774936 0.2937665782493369 0.000663129973474801 0.000663129973474801 0.7049071618037135 0.5694444444444444 0.01388888888888889 0.01388888888888889 0.4027777777777778 0.6212121212121212 0.007575757575757576 0.007575757575757576 0.3636363636363636 0.591304347826087 0.008695652173913044 0.008695652173913044 0.391304347826087 0.5387205387205387 0.003367003367003367 0.003367003367003367 0.4545454545454545 0.6802507836990596 0.003134796238244514 0.109717868338558 0.2068965517241379 0.6911076443057722 0.0280811232449298 0.08268330733229329 0.1981279251170047 0.6901840490797546 0.07668711656441718 0.02147239263803681 0.2116564417177914 0.6891996891996892 0.1103341103341103 0.00777000777000777 0.1926961926961927 0.4165890027958993 0.0009319664492078285 0.0009319664492078285 0.581547064305685 0.25 0.25 0.25 0.25 0.4253086419753087 0.0006172839506172839 0.0006172839506172839 0.5734567901234567 0.4267015706806283 0.00130890052356021 0.00130890052356021 0.5706806282722513 0.7582938388625592 0.004739336492890996 0.004739336492890996 0.2322274881516588 0.25 0.25 0.25 0.25 0.7173913043478261 0.003623188405797101 0.003623188405797101 0.2753623188405797 0.732824427480916 0.007633587786259542 0.007633587786259542 0.2519083969465649 0.7950377562028047 0.01402373247033441 0.1089536138079827 0.08198489751887811 0.25 0.25 0.25 0.25 0.76095947063689 0.1141439205955335 0.04714640198511166 0.07775020678246485 0.7816455696202531 0.1344936708860759 0.01424050632911392 0.06962025316455696 0.5078318219291014 0.0008244023083264633 0.0008244023083264633 0.4905193734542457 0.4772182254196642 0.002398081534772182 0.002398081534772182 0.5179856115107914 0.5125964010282776 0.0005141388174807198 0.0005141388174807198 0.4863753213367609 0.25 0.25 0.25 0.25 0.774869109947644 0.005235602094240838 0.005235602094240838 0.2146596858638743 0.7391304347826086 0.01449275362318841 0.01449275362318841 0.2318840579710145 0.8050847457627118 0.002824858757062147 0.002824858757062147 0.1892655367231638 0.25 0.25 0.25 0.25 0.6896186440677966 0.03601694915254237 0.2224576271186441 0.05190677966101695 0.757396449704142 0.1005917159763314 0.08875739644970414 0.05325443786982249 0.7285714285714285 0.1521739130434783 0.07453416149068323 0.04472049689440994 0.25 0.25 0.25 0.25 0.6409807355516638 0.0008756567425569177 0.0008756567425569177 0.3572679509632224 0.6486261448792673 0.0008326394671107411 0.0008326394671107411 0.3497085761865112 0.6468120805369127 0.0008389261744966443 0.0008389261744966443 0.3515100671140939 0.25 0.25 0.25 0.25 0.9106145251396648 0.00558659217877095 0.00558659217877095 0.0782122905027933 0.9183673469387755 0.00510204081632653 0.00510204081632653 0.07142857142857142 0.9090909090909091 0.005050505050505051 0.005050505050505051 0.08080808080808081 0.25 0.25 0.25 0.25 0.7049504950495049 0.01881188118811881 0.2673267326732673 0.00891089108910891 0.6947368421052632 0.1452631578947368 0.1526315789473684 0.007368421052631579 0.6893523600439078 0.2030735455543359 0.09769484083424808 0.009879253567508232 0.25 0.25 0.25 0.25 0.7653679653679654 0.0008658008658008658 0.0008658008658008658 0.2329004329004329 0.7704081632653061 0.0008503401360544217 0.0008503401360544217 0.227891156462585 0.7577586206896552 0.0008620689655172414 0.0008620689655172414 0.2405172413793104 0.25 0.25 0.25 0.25 0.9759615384615384 0.004807692307692308 0.004807692307692308 0.01442307692307692 0.9598393574297188 0.004016064257028112 0.004016064257028112 0.0321285140562249 0.9615384615384616 0.004807692307692308 0.004807692307692308 0.02884615384615385 0.25 0.25 0.25 0.25 0.6035678889990089 0.03666997026759167 0.354806739345887 0.004955401387512388 0.6012861736334405 0.1768488745980707 0.2186495176848875 0.003215434083601286 0.6138415245737212 0.2497492477432297 0.1313941825476429 0.005015045135406218 0.25 0.25 0.25 0.25 0.8926261319534282 0.000646830530401035 0.000646830530401035 0.1060802069857697 0.896551724137931 0.000663129973474801 0.000663129973474801 0.1021220159151194 0.9291553133514986 0.002724795640326975 0.002724795640326975 0.06539509536784741 0.25 0.25 0.25 0.25 0.9532374100719424 0.02877697841726619 0.01438848920863309 0.003597122302158274 0.9652509652509652 0.02702702702702703 0.003861003861003861 0.003861003861003861 0.9583333333333334 0.02083333333333333 0.01041666666666667 0.01041666666666667 0.25 0.25 0.25 0.25 0.5145784081954294 0.06382978723404255 0.4208037825059102 0.0007880220646178094 0.4847020933977456 0.2584541062801932 0.2560386473429952 0.0008051529790660225 0.4954128440366973 0.2568807339449541 0.2446483180428135 0.003058103975535168 0.25 0.25 0.25 0.25 0.9984243697478992 0.0005252100840336134 0.0005252100840336134 0.0005252100840336134 0.9980756895445798 0.0006414368184733803 0.0006414368184733803 0.0006414368184733803 0.25 0.25 0.25 0.25 0.25 0.25 0.25 0.25 0.8807339449541285 0.07033639143730887 0.04587155963302753 0.003058103975535168 0.8855218855218855 0.1077441077441077 0.003367003367003367 0.003367003367003367 0.25 0.25 0.25 0.25 0.25 0.25 0.25 0.25 0.4133001864512119 0.09073958980733375 0.4953387197016781 0.0006215040397762585 0.4129586260733802 0.2622950819672131 0.3239656518345043 0.00078064012490242 0.25 0.25 0.25 0.25 0.25 0.25 0.25 0.25</probabilities>
		</cpt>
		<cpt id="increm_cost_z">
			<state id="s0" />
			<state id="s10" />
			<state id="s20" />
			<state id="s30" />
			<state id="s40" />
			<state id="s50" />
			<state id="s60" />
			<state id="s70" />
			<state id="s80" />
			<state id="s90" />
			<probabilities>0.1012862249457424 0.1001531980084259 0.09932337546278565 0.09830205540661305 0.09895633856759863 0.09790310225967062 0.1004564024001021 0.1019085918549726 0.1019085918549726 0.09980211923911655</probabilities>
		</cpt>
		<cpt id="c_z_ratio_quantiled">
			<state id="s0_2" />
			<state id="s0_3" />
			<state id="s0_5" />
			<state id="s1_0" />
			<parents>increm_cost_z</parents>
			<probabilities>0.1014013541174618 0.0001574555188159345 0.0001574555188159345 0.8982837348449063 0.1054140127388535 0.09601910828025478 0.1036624203821656 0.6949044585987261 0.1030828516377649 0.2021515735388568 0.2063262684649968 0.4884393063583815 0.1972744970798183 0.1941920830629461 0.3069435431537962 0.3015898767034393 0.2074133763094279 0.2999194198227236 0.4925060435132957 0.00016116035455278 0.3077048379214856 0.2946733995764783 0.3974588695227236 0.0001628929793125916 0.2984600730274647 0.393713287823464 0.307667883791078 0.0001587553579933323 0.4037558685446009 0.3899843505477308 0.2061032863849765 0.0001564945226917058 0.3984350547730829 0.4957746478873239 0.1056338028169014 0.0001564945226917058 0.4073186321508469 0.5923617769255353 0.0001597954618088846 0.0001597954618088846</probabilities>
		</cpt>
		<cpt id="ship_cost_c">
			<state id="s0" />
			<state id="s5" />
			<state id="s10" />
			<state id="s15" />
			<state id="s20" />
			<state id="s25" />
			<state id="s30" />
			<state id="s35" />
			<state id="s40" />
			<state id="s45" />
			<parents>Costs_relation_fsl2 c_z_ratio_quantiled increm_cost_z</parents>
			<probabilities>0.1 0.1 0.1 0.1 0.1 0.1 0.1 0.1 0.1 0.1 0.9407894736842105 0.006578947368421052 0.006578947368421052 0.006578947368421052 0.006578947368421052 0.006578947368421052 0.006578947368421052 0.006578947368421052 0.006578947368421052 0.006578947368421052 0.9688581314878892 0.003460207612456748 0.003460207612456748 0.003460207612456748 0.003460207612456748 0.003460207612456748 0.003460207612456748 0.003460207612456748 0.003460207612456748 0.003460207612456748 0.4510250569476082 0.5398633257403189 0.001138952164009112 0.001138952164009112 0.001138952164009112 0.001138952164009112 0.001138952164009112 0.001138952164009112 0.001138952164009112 0.001138952164009112 0.4585045193097781 0.5349219391947412 0.0008216926869350862 0.0008216926869350862 0.0008216926869350862 0.0008216926869350862 0.0008216926869350862 0.0008216926869350862 0.0008216926869350862 0.0008216926869350862 0.3499452354874041 0.3543263964950712 0.291894852135816 0.000547645125958379 0.000547645125958379 0.000547645125958379 0.000547645125958379 0.000547645125958379 0.000547645125958379 0.000547645125958379 0.3512035010940919 0.3446389496717724 0.300328227571116 0.0005470459518599562 0.0005470459518599562 0.0005470459518599562 0.0005470459518599562 0.0005470459518599562 0.0005470459518599562 0.0005470459518599562 0.2634680134680135 0.2647306397306397 0.255050505050505 0.2142255892255892 0.0004208754208754209 0.0004208754208754209 0.0004208754208754209 0.0004208754208754209 0.0004208754208754209 0.0004208754208754209 0.2837665104388581 0.2582019599488709 0.242011077971879 0.2134639965913933 0.0004260758414997869 0.0004260758414997869 0.0004260758414997869 0.0004260758414997869 0.0004260758414997869 0.0004260758414997869 0.2693631669535284 0.2710843373493976 0.2401032702237522 0.2168674698795181 0.0004302925989672978 0.0004302925989672978 0.0004302925989672978 0.0004302925989672978 0.0004302925989672978 0.0004302925989672978 0.1 0.1 0.1 0.1 0.1 0.1 0.1 0.1 0.1 0.1 0.004608294930875576 0.9585253456221198 0.004608294930875576 0.004608294930875576 0.004608294930875576 0.004608294930875576 0.004608294930875576 0.004608294930875576 0.004608294930875576 0.004608294930875576 0.001426533523537803 0.4964336661911555 0.4921540656205421 0.001426533523537803 0.001426533523537803 0.001426533523537803 0.001426533523537803 0.001426533523537803 0.001426533523537803 0.001426533523537803 0.001051524710830704 0.001051524710830704 0.4742376445846477 0.5173501577287066 0.001051524710830704 0.001051524710830704 0.001051524710830704 0.001051524710830704 0.001051524710830704 0.001051524710830704 0.0006816632583503749 0.0006816632583503749 0.3735514655760054 0.3531015678254942 0.2685753237900477 0.0006816632583503749 0.0006816632583503749 0.0006816632583503749 0.0006816632583503749 0.0006816632583503749 0.0008620689655172414 0.0008620689655172414 0.0008620689655172414 0.3939655172413793 0.3181034482758621 0.2818965517241379 0.0008620689655172414 0.0008620689655172414 0.0008620689655172414 0.0008620689655172414 0.0006501950585175553 0.0006501950585175553 0.0006501950585175553 0.3270481144343303 0.2776332899869961 0.2288686605981795 0.1625487646293888 0.0006501950585175553 0.0006501950585175553 0.0006501950585175553 0.0007942811755361397 0.0007942811755361397 0.0007942811755361397 0.0007942811755361397 0.3264495631453534 0.2946783161239079 0.2231930103256553 0.1509134233518666 0.0007942811755361397 0.0007942811755361397 0.0007052186177715092 0.0007052186177715092 0.0007052186177715092 0.0007052186177715092 0.2849083215796897 0.2334273624823695 0.2122708039492243 0.1636107193229901 0.1022566995768688 0.0007052186177715092 0.0006802721088435374 0.0006802721088435374 0.0006802721088435374 0.0006802721088435374 0.254421768707483 0.2333333333333333 0.1993197278911565 0.1564625850340136 0.1027210884353742 0.05102040816326531 0.1 0.1 0.1 0.1 0.1 0.1 0.1 0.1 0.1 0.1 0.004310344827586207 0.004310344827586207 0.9612068965517241 0.004310344827586207 0.004310344827586207 0.004310344827586207 0.004310344827586207 0.004310344827586207 0.004310344827586207 0.004310344827586207 0.001443001443001443 0.001443001443001443 0.001443001443001443 0.5295815295815296 0.4588744588744589 0.001443001443001443 0.001443001443001443 0.001443001443001443 0.001443001443001443 0.001443001443001443 0.0009551098376313276 0.0009551098376313276 0.0009551098376313276 0.0009551098376313276 0.4030563514804202 0.3400191021967526 0.2502387774594078 0.0009551098376313276 0.0009551098376313276 0.0009551098376313276 0.0009225092250922509 0.0009225092250922509 0.0009225092250922509 0.0009225092250922509 0.0009225092250922509 0.3035055350553506 0.2592250922509225 0.1937269372693727 0.1190036900369004 0.1199261992619926 0.001515151515151515 0.001515151515151515 0.001515151515151515 0.001515151515151515 0.001515151515151515 0.001515151515151515 0.3924242424242424 0.2878787878787879 0.203030303030303 0.1075757575757576 0.00228310502283105 0.00228310502283105 0.00228310502283105 0.00228310502283105 0.00228310502283105 0.00228310502283105 0.00228310502283105 0.4817351598173516 0.3538812785388128 0.1484018264840183 0.00398406374501992 0.00398406374501992 0.00398406374501992 0.00398406374501992 0.00398406374501992 0.00398406374501992 0.00398406374501992 0.00398406374501992 0.6374501992031872 0.3306772908366534 0.01041666666666667 0.01041666666666667 0.01041666666666667 0.01041666666666667 0.01041666666666667 0.01041666666666667 0.01041666666666667 0.01041666666666667 0.01041666666666667 0.90625 0.1 0.1 0.1 0.1 0.1 0.1 0.1 0.1 0.1 0.1 0.000315059861373661 0.02709514807813485 0.04631379962192816 0.06679269061121614 0.09577819785759294 0.112476370510397 0.1263390044108381 0.151543793320731 0.18588531821046 0.1874606175173283 0.0003139717425431711 0.0003139717425431711 0.0003139717425431711 0.09167974882260596 0.1120879120879121 0.1227629513343799 0.1547880690737834 0.1626373626373626 0.1877551020408163 0.1673469387755102 0.0004957858205255329 0.0004957858205255329 0.0004957858205255329 0.0004957858205255329 0.0004957858205255329 0.2126921170054537 0.2017848289538919 0.2087258304412494 0.1908775409023302 0.1834407535944472 0.001175088131609871 0.001175088131609871 0.001175088131609871 0.001175088131609871 0.001175088131609871 0.001175088131609871 0.001175088131609871 0.3384253819036428 0.3337250293772033 0.3196239717978848 0.1 0.1 0.1 0.1 0.1 0.1 0.1 0.1 0.1 0.1 0.1 0.1 0.1 0.1 0.1 0.1 0.1 0.1 0.1 0.1 0.1 0.1 0.1 0.1 0.1 0.1 0.1 0.1 0.1 0.1 0.1 0.1 0.1 0.1 0.1 0.1 0.1 0.1 0.1 0.1 0.1 0.1 0.1 0.1 0.1 0.1 0.1 0.1 0.1 0.1 0.1 0.1 0.1 0.1 0.1 0.1 0.1 0.1 0.1 0.1 0.9343065693430657 0.0072992700729927 0.0072992700729927 0.0072992700729927 0.0072992700729927 0.0072992700729927 0.0072992700729927 0.0072992700729927 0.0072992700729927 0.0072992700729927 0.9387755102040817 0.006802721088435374 0.006802721088435374 0.006802721088435374 0.006802721088435374 0.006802721088435374 0.006802721088435374 0.006802721088435374 0.006802721088435374 0.006802721088435374 0.9375 0.006944444444444444 0.006944444444444444 0.006944444444444444 0.006944444444444444 0.006944444444444444 0.006944444444444444 0.006944444444444444 0.006944444444444444 0.006944444444444444 0.5545851528384279 0.4104803493449782 0.004366812227074236 0.004366812227074236 0.004366812227074236 0.004366812227074236 0.004366812227074236 0.004366812227074236 0.004366812227074236 0.004366812227074236 0.8676470588235294 0.01470588235294118 0.01470588235294118 0.01470588235294118 0.01470588235294118 0.01470588235294118 0.01470588235294118 0.01470588235294118 0.01470588235294118 0.01470588235294118 0.1 0.1 0.1 0.1 0.1 0.1 0.1 0.1 0.1 0.1 0.1 0.1 0.1 0.1 0.1 0.1 0.1 0.1 0.1 0.1 0.1 0.1 0.1 0.1 0.1 0.1 0.1 0.1 0.1 0.1 0.1 0.1 0.1 0.1 0.1 0.1 0.1 0.1 0.1 0.1 0.1 0.1 0.1 0.1 0.1 0.1 0.1 0.1 0.1 0.1 0.1 0.1 0.1 0.1 0.1 0.1 0.1 0.1 0.1 0.1 0.007407407407407408 0.9333333333333333 0.007407407407407408 0.007407407407407408 0.007407407407407408 0.007407407407407408 0.007407407407407408 0.007407407407407408 0.007407407407407408 0.007407407407407408 0.003861003861003861 0.4787644787644788 0.4903474903474904 0.003861003861003861 0.003861003861003861 0.003861003861003861 0.003861003861003861 0.003861003861003861 0.003861003861003861 0.003861003861003861 0.01639344262295082 0.01639344262295082 0.8524590163934426 0.01639344262295082 0.01639344262295082 0.01639344262295082 0.01639344262295082 0.01639344262295082 0.01639344262295082 0.01639344262295082 0.1 0.1 0.1 0.1 0.1 0.1 0.1 0.1 0.1 0.1 0.1 0.1 0.1 0.1 0.1 0.1 0.1 0.1 0.1 0.1 0.1 0.1 0.1 0.1 0.1 0.1 0.1 0.1 0.1 0.1 0.1 0.1 0.1 0.1 0.1 0.1 0.1 0.1 0.1 0.1 0.1 0.1 0.1 0.1 0.1 0.1 0.1 0.1 0.1 0.1 0.1 0.1 0.1 0.1 0.1 0.1 0.1 0.1 0.1 0.1 0.1 0.1 0.1 0.1 0.1 0.1 0.1 0.1 0.1 0.1 0.0072992700729927 0.0072992700729927 0.9343065693430657 0.0072992700729927 0.0072992700729927 0.0072992700729927 0.0072992700729927 0.0072992700729927 0.0072992700729927 0.0072992700729927 0.005813953488372093 0.005813953488372093 0.005813953488372093 0.6453488372093024 0.3081395348837209 0.005813953488372093 0.005813953488372093 0.005813953488372093 0.005813953488372093 0.005813953488372093 0.1 0.1 0.1 0.1 0.1 0.1 0.1 0.1 0.1 0.1 0.1 0.1 0.1 0.1 0.1 0.1 0.1 0.1 0.1 0.1 0.1 0.1 0.1 0.1 0.1 0.1 0.1 0.1 0.1 0.1 0.1 0.1 0.1 0.1 0.1 0.1 0.1 0.1 0.1 0.1 0.1 0.1 0.1 0.1 0.1 0.1 0.1 0.1 0.1 0.1 0.1 0.1 0.1 0.1 0.1 0.1 0.1 0.1 0.1 0.1 0.1 0.1 0.1 0.1 0.1 0.1 0.1 0.1 0.1 0.1 0.001070663811563169 0.1316916488222698 0.1466809421841542 0.1241970021413276 0.1552462526766595 0.1316916488222698 0.126338329764454 0.1209850107066381 0.06102783725910065 0.001070663811563169 0.002409638554216868 0.002409638554216868 0.002409638554216868 0.3253012048192771 0.2939759036144579 0.255421686746988 0.1108433734939759 0.002409638554216868 0.002409638554216868 0.002409638554216868 0.1 0.1 0.1 0.1 0.1 0.1 0.1 0.1 0.1 0.1 0.1 0.1 0.1 0.1 0.1 0.1 0.1 0.1 0.1 0.1 0.1 0.1 0.1 0.1 0.1 0.1 0.1 0.1 0.1 0.1 0.1 0.1 0.1 0.1 0.1 0.1 0.1 0.1 0.1 0.1 0.1 0.1 0.1 0.1 0.1 0.1 0.1 0.1 0.1 0.1 0.1 0.1 0.1 0.1 0.1 0.1 0.1 0.1 0.1 0.1 0.1 0.1 0.1 0.1 0.1 0.1 0.1 0.1 0.1 0.1 0.1 0.1 0.1 0.1 0.1 0.1 0.1 0.1 0.1 0.1 0.9828897338403042 0.001901140684410646 0.001901140684410646 0.001901140684410646 0.001901140684410646 0.001901140684410646 0.001901140684410646 0.001901140684410646 0.001901140684410646 0.001901140684410646 0.9770408163265306 0.002551020408163265 0.002551020408163265 0.002551020408163265 0.002551020408163265 0.002551020408163265 0.002551020408163265 0.002551020408163265 0.002551020408163265 0.002551020408163265 0.9621848739495799 0.004201680672268907 0.004201680672268907 0.004201680672268907 0.004201680672268907 0.004201680672268907 0.004201680672268907 0.004201680672268907 0.004201680672268907 0.004201680672268907 0.6811594202898551 0.2608695652173913 0.007246376811594203 0.007246376811594203 0.007246376811594203 0.007246376811594203 0.007246376811594203 0.007246376811594203 0.007246376811594203 0.007246376811594203 0.7096774193548387 0.03225806451612903 0.03225806451612903 0.03225806451612903 0.03225806451612903 0.03225806451612903 0.03225806451612903 0.03225806451612903 0.03225806451612903 0.03225806451612903 0.1 0.1 0.1 0.1 0.1 0.1 0.1 0.1 0.1 0.1 0.1 0.1 0.1 0.1 0.1 0.1 0.1 0.1 0.1 0.1 0.1 0.1 0.1 0.1 0.1 0.1 0.1 0.1 0.1 0.1 0.1 0.1 0.1 0.1 0.1 0.1 0.1 0.1 0.1 0.1 0.1 0.1 0.1 0.1 0.1 0.1 0.1 0.1 0.1 0.1 0.1 0.1 0.1 0.1 0.1 0.1 0.1 0.1 0.1 0.1 0.003571428571428571 0.9678571428571429 0.003571428571428571 0.003571428571428571 0.003571428571428571 0.003571428571428571 0.003571428571428571 0.003571428571428571 0.003571428571428571 0.003571428571428571 0.003802281368821293 0.6083650190114068 0.3612167300380228 0.003802281368821293 0.003802281368821293 0.003802281368821293 0.003802281368821293 0.003802281368821293 0.003802281368821293 0.003802281368821293 0.03571428571428571 0.03571428571428571 0.6785714285714286 0.03571428571428571 0.03571428571428571 0.03571428571428571 0.03571428571428571 0.03571428571428571 0.03571428571428571 0.03571428571428571 0.1 0.1 0.1 0.1 0.1 0.1 0.1 0.1 0.1 0.1 0.1 0.1 0.1 0.1 0.1 0.1 0.1 0.1 0.1 0.1 0.1 0.1 0.1 0.1 0.1 0.1 0.1 0.1 0.1 0.1 0.1 0.1 0.1 0.1 0.1 0.1 0.1 0.1 0.1 0.1 0.1 0.1 0.1 0.1 0.1 0.1 0.1 0.1 0.1 0.1 0.1 0.1 0.1 0.1 0.1 0.1 0.1 0.1 0.1 0.1 0.1 0.1 0.1 0.1 0.1 0.1 0.1 0.1 0.1 0.1 0.004219409282700422 0.004219409282700422 0.9620253164556962 0.004219409282700422 0.004219409282700422 0.004219409282700422 0.004219409282700422 0.004219409282700422 0.004219409282700422 0.004219409282700422 0.01639344262295082 0.01639344262295082 0.01639344262295082 0.6065573770491803 0.2622950819672131 0.01639344262295082 0.01639344262295082 0.01639344262295082 0.01639344262295082 0.01639344262295082 0.1 0.1 0.1 0.1 0.1 0.1 0.1 0.1 0.1 0.1 0.1 0.1 0.1 0.1 0.1 0.1 0.1 0.1 0.1 0.1 0.1 0.1 0.1 0.1 0.1 0.1 0.1 0.1 0.1 0.1 0.1 0.1 0.1 0.1 0.1 0.1 0.1 0.1 0.1 0.1 0.1 0.1 0.1 0.1 0.1 0.1 0.1 0.1 0.1 0.1 0.1 0.1 0.1 0.1 0.1 0.1 0.1 0.1 0.1 0.1 0.1 0.1 0.1 0.1 0.1 0.1 0.1 0.1 0.1 0.1 0.0006150061500615006 0.2699876998769988 0.2146371463714637 0.1783517835178352 0.1420664206642066 0.1002460024600246 0.05535055350553506 0.02644526445264453 0.01168511685116851 0.0006150061500615006 0.003105590062111801 0.003105590062111801 0.003105590062111801 0.4906832298136646 0.2950310559006211 0.139751552795031 0.05590062111801242 0.003105590062111801 0.003105590062111801 0.003105590062111801 0.1 0.1 0.1 0.1 0.1 0.1 0.1 0.1 0.1 0.1 0.1 0.1 0.1 0.1 0.1 0.1 0.1 0.1 0.1 0.1 0.1 0.1 0.1 0.1 0.1 0.1 0.1 0.1 0.1 0.1 0.1 0.1 0.1 0.1 0.1 0.1 0.1 0.1 0.1 0.1 0.1 0.1 0.1 0.1 0.1 0.1 0.1 0.1 0.1 0.1 0.1 0.1 0.1 0.1 0.1 0.1 0.1 0.1 0.1 0.1 0.1 0.1 0.1 0.1 0.1 0.1 0.1 0.1 0.1 0.1 0.1 0.1 0.1 0.1 0.1 0.1 0.1 0.1 0.1 0.1 0.1 0.1 0.1 0.1 0.1 0.1 0.1 0.1 0.1 0.1 0.1 0.1 0.1 0.1 0.1 0.1 0.1 0.1 0.1 0.1 0.1 0.1 0.1 0.1 0.1 0.1 0.1 0.1 0.1 0.1 0.1 0.1 0.1 0.1 0.1 0.1 0.1 0.1 0.1 0.1 0.1 0.1 0.1 0.1 0.1 0.1 0.1 0.1 0.1 0.1 0.01219512195121951 0.01219512195121951 0.8902439024390244 0.01219512195121951 0.01219512195121951 0.01219512195121951 0.01219512195121951 0.01219512195121951 0.01219512195121951 0.01219512195121951 0.01408450704225352 0.01408450704225352 0.8732394366197183 0.01408450704225352 0.01408450704225352 0.01408450704225352 0.01408450704225352 0.01408450704225352 0.01408450704225352 0.01408450704225352 0.004484304932735426 0.004484304932735426 0.3542600896860987 0.6098654708520179 0.004484304932735426 0.004484304932735426 0.004484304932735426 0.004484304932735426 0.004484304932735426 0.004484304932735426 0.004587155963302753 0.004587155963302753 0.3302752293577982 0.6330275229357798 0.004587155963302753 0.004587155963302753 0.004587155963302753 0.004587155963302753 0.004587155963302753 0.004587155963302753 0.004098360655737705 0.004098360655737705 0.2622950819672131 0.7049180327868853 0.004098360655737705 0.004098360655737705 0.004098360655737705 0.004098360655737705 0.004098360655737705 0.004098360655737705 0.1 0.1 0.1 0.1 0.1 0.1 0.1 0.1 0.1 0.1 0.1 0.1 0.1 0.1 0.1 0.1 0.1 0.1 0.1 0.1 0.01333333333333333 0.01333333333333333 0.88 0.01333333333333333 0.01333333333333333 0.01333333333333333 0.01333333333333333 0.01333333333333333 0.01333333333333333 0.01333333333333333 0.00510204081632653 0.00510204081632653 0.3469387755102041 0.6122448979591837 0.00510204081632653 0.00510204081632653 0.00510204081632653 0.00510204081632653 0.00510204081632653 0.00510204081632653 0.002421307506053269 0.002421307506053269 0.1815980629539952 0.3220338983050847 0.4794188861985472 0.002421307506053269 0.002421307506053269 0.002421307506053269 0.002421307506053269 0.002421307506053269 0.001497005988023952 0.001497005988023952 0.001497005988023952 0.2215568862275449 0.3338323353293413 0.4341317365269461 0.001497005988023952 0.001497005988023952 0.001497005988023952 0.001497005988023952 0.001040582726326743 0.001040582726326743 0.001040582726326743 0.1436004162330905 0.2206035379812695 0.2767950052029136 0.3527575442247659 0.001040582726326743 0.001040582726326743 0.001040582726326743 0.0007987220447284345 0.0007987220447284345 0.0007987220447284345 0.0007987220447284345 0.1613418530351438 0.2068690095846645 0.2699680511182109 0.3570287539936102 0.0007987220447284345 0.0007987220447284345 0.0005652911249293386 0.0005652911249293386 0.0005652911249293386 0.0005652911249293386 0.1317128321085359 0.1548897682306388 0.1888072357263991 0.245336348219333 0.2764273600904466 0.0005652911249293386 0.0004432624113475177 0.0004432624113475177 0.0004432624113475177 0.0004432624113475177 0.08643617021276596 0.1183510638297872 0.1546985815602837 0.1945921985815603 0.2043439716312057 0.2398049645390071 0.1 0.1 0.1 0.1 0.1 0.1 0.1 0.1 0.1 0.1 0.0119047619047619 0.0119047619047619 0.8928571428571429 0.0119047619047619 0.0119047619047619 0.0119047619047619 0.0119047619047619 0.0119047619047619 0.0119047619047619 0.0119047619047619 0.002512562814070352 0.002512562814070352 0.002512562814070352 0.4145728643216081 0.5653266331658291 0.002512562814070352 0.002512562814070352 0.002512562814070352 0.002512562814070352 0.002512562814070352 0.001157407407407407 0.001157407407407407 0.001157407407407407 0.001157407407407407 0.2511574074074074 0.3240740740740741 0.4166666666666667 0.001157407407407407 0.001157407407407407 0.001157407407407407 0.0005022601707684581 0.0005022601707684581 0.0005022601707684581 0.0005022601707684581 0.0005022601707684581 0.1376192867905575 0.1868407835258664 0.2024108488196886 0.2410848819688599 0.2295328980411853 0.0005558643690939411 0.0005558643690939411 0.0005558643690939411 0.0005558643690939411 0.0005558643690939411 0.0005558643690939411 0.1845469705391884 0.2206781545302946 0.2745969983324069 0.3168426903835464 0.0006583278472679394 0.0006583278472679394 0.0006583278472679394 0.0006583278472679394 0.0006583278472679394 0.0006583278472679394 0.0006583278472679394 0.2975641869651086 0.3159973666886109 0.3818301514154049 0.0009216589861751152 0.0009216589861751152 0.0009216589861751152 0.0009216589861751152 0.0009216589861751152 0.0009216589861751152 0.0009216589861751152 0.0009216589861751152 0.4903225806451613 0.5023041474654378 0.001672240802675585 0.001672240802675585 0.001672240802675585 0.001672240802675585 0.001672240802675585 0.001672240802675585 0.001672240802675585 0.001672240802675585 0.001672240802675585 0.9849498327759197 0.1 0.1 0.1 0.1 0.1 0.1 0.1 0.1 0.1 0.1 0.1 0.1 0.1 0.1 0.1 0.1 0.1 0.1 0.1 0.1 0.002079002079002079 0.002079002079002079 0.002079002079002079 0.1767151767151767 0.1455301455301455 0.1517671517671518 0.1101871101871102 0.1226611226611227 0.1351351351351351 0.1517671517671518 0.0009578544061302681 0.0009578544061302681 0.0009578544061302681 0.0009578544061302681 0.0009578544061302681 0.185823754789272 0.2088122605363985 0.2030651340996169 0.200191570881226 0.1973180076628352 0.0009737098344693282 0.0009737098344693282 0.0009737098344693282 0.0009737098344693282 0.0009737098344693282 0.0009737098344693282 0.0009737098344693282 0.3388510223953262 0.311587147030185 0.3427458617332035 0.1 0.1 0.1 0.1 0.1 0.1 0.1 0.1 0.1 0.1 0.1 0.1 0.1 0.1 0.1 0.1 0.1 0.1 0.1 0.1 0.1 0.1 0.1 0.1 0.1 0.1 0.1 0.1 0.1 0.1 0.1 0.1 0.1 0.1 0.1 0.1 0.1 0.1 0.1 0.1 0.1 0.1 0.1 0.1 0.1 0.1 0.1 0.1 0.1 0.1 0.1 0.1 0.1 0.1 0.1 0.1 0.1 0.1 0.1 0.1</probabilities>
		</cpt>
		<cpt id="r_UB">
			<state id="s0_0" />
			<state id="s0_25" />
			<state id="s0_5" />
			<state id="s0_75" />
			<state id="s1_0" />
			<parents>pai_2 items_fsl_S0tilde_quantiled h_2</parents>
			<probabilities>0.01382488479262673 0.1105990783410138 0.1751152073732719 0.2304147465437788 0.4700460829493088 0.02325581395348837 0.09767441860465116 0.1906976744186047 0.172093023255814 0.5162790697674419 0.00909090909090909 0.1181818181818182 0.2545454545454545 0.1681818181818182 0.45 0.005 0.15 0.215 0.175 0.455 0.01415094339622642 0.09905660377358491 0.25 0.1745283018867924 0.4622641509433962 0.01020408163265306 0.0663265306122449 0.25 0.1785714285714286 0.4948979591836735 0.004608294930875576 0.1105990783410138 0.2534562211981567 0.1751152073732719 0.4562211981566821 0.009302325581395349 0.1441860465116279 0.2232558139534884 0.2 0.4232558139534884 0.00411522633744856 0.09053497942386832 0.2345679012345679 0.1728395061728395 0.4979423868312757 0.01025641025641026 0.1230769230769231 0.1846153846153846 0.1076923076923077 0.5743589743589743 0.01415094339622642 0.1509433962264151 0.2028301886792453 0.1367924528301887 0.4952830188679245 0.01081081081081081 0.1675675675675676 0.2216216216216216 0.1567567567567568 0.4432432432432433 0.005263157894736842 0.2157894736842105 0.2210526315789474 0.08947368421052632 0.468421052631579 0.01990049751243781 0.1393034825870647 0.2437810945273632 0.1243781094527363 0.472636815920398 0.01570680628272251 0.1780104712041885 0.2931937172774869 0.08376963350785341 0.4293193717277487 0.01538461538461539 0.1897435897435897 0.2 0.1641025641025641 0.4307692307692308 0.005376344086021506 0.1935483870967742 0.2419354838709677 0.08064516129032258 0.478494623655914 0.01015228426395939 0.1472081218274112 0.2284263959390863 0.1269035532994924 0.4873096446700508 0.004405286343612335 0.1233480176211454 0.1013215859030837 0.03083700440528634 0.7400881057268722 0.01129943502824859 0.1186440677966102 0.1186440677966102 0.03389830508474576 0.7175141242937854 0.0160427807486631 0.1925133689839572 0.1336898395721925 0.06417112299465241 0.5935828877005348 0.01376146788990826 0.2110091743119266 0.1100917431192661 0.06422018348623854 0.6009174311926605 0.0053475935828877 0.1818181818181818 0.1229946524064171 0.0374331550802139 0.6524064171122995 0.01041666666666667 0.15625 0.15625 0.05208333333333334 0.625 0.01098901098901099 0.1318681318681319 0.1923076923076923 0.07142857142857142 0.5934065934065934 0.01456310679611651 0.2135922330097087 0.1116504854368932 0.09223300970873786 0.5679611650485437 0.004926108374384237 0.1477832512315271 0.103448275862069 0.07881773399014778 0.6650246305418719 0.4549763033175355 0.04739336492890995 0.03791469194312796 0.02369668246445497 0.4360189573459716 0.4647887323943662 0.04225352112676056 0.0187793427230047 0.0187793427230047 0.4553990610328639 0.3882352941176471 0.07058823529411765 0.01764705882352941 0.02941176470588235 0.4941176470588236 0.4336734693877551 0.08673469387755102 0.02551020408163265 0.02551020408163265 0.4285714285714285 0.4523809523809524 0.06190476190476191 0.0380952380952381 0.009523809523809525 0.4380952380952381 0.446078431372549 0.04411764705882353 0.02450980392156863 0.0196078431372549 0.4656862745098039 0.423728813559322 0.096045197740113 0.04519774011299435 0.02824858757062147 0.4067796610169492 0.4393939393939394 0.08080808080808081 0.01515151515151515 0.0303030303030303 0.4343434343434344 0.5124378109452736 0.04477611940298507 0.02487562189054726 0.02985074626865672 0.3880597014925373 0.009852216748768473 0.07389162561576355 0.1970443349753695 0.2216748768472906 0.4975369458128079 0.004716981132075472 0.1179245283018868 0.1886792452830189 0.160377358490566 0.5283018867924528 0.009049773755656109 0.1085972850678733 0.1855203619909502 0.2036199095022624 0.4932126696832579 0.01219512195121951 0.08536585365853659 0.2357723577235772 0.1991869918699187 0.467479674796748 0.008733624454148471 0.08733624454148471 0.1703056768558952 0.1834061135371179 0.5502183406113537 0.004184100418410041 0.1171548117154812 0.2301255230125523 0.1673640167364017 0.4811715481171548 0.0119047619047619 0.08928571428571429 0.2023809523809524 0.1607142857142857 0.5357142857142857 0.009345794392523364 0.07009345794392523 0.1962616822429906 0.1588785046728972 0.5654205607476636 0.01442307692307692 0.08653846153846154 0.2307692307692308 0.1682692307692308 0.5 0.01005025125628141 0.09547738693467336 0.1306532663316583 0.09045226130653267 0.6733668341708543 0.01111111111111111 0.1111111111111111 0.1611111111111111 0.15 0.5666666666666667 0.005494505494505495 0.1098901098901099 0.2032967032967033 0.1593406593406593 0.521978021978022 0.005076142131979695 0.116751269035533 0.2182741116751269 0.1065989847715736 0.5532994923857868 0.004504504504504504 0.1441441441441441 0.2072072072072072 0.1351351351351351 0.509009009009009 0.004901960784313725 0.196078431372549 0.196078431372549 0.1225490196078431 0.4803921568627451 0.01522842639593909 0.1573604060913706 0.2690355329949238 0.1015228426395939 0.4568527918781726 0.005181347150259068 0.1606217616580311 0.233160621761658 0.155440414507772 0.4455958549222798 0.005847953216374269 0.07017543859649122 0.2339181286549707 0.1461988304093567 0.543859649122807 0.02487562189054726 0.0945273631840796 0.109452736318408 0.02985074626865672 0.7412935323383084 0.01395348837209302 0.09302325581395349 0.08372093023255814 0.05581395348837209 0.7534883720930232 0.01063829787234043 0.101063829787234 0.05319148936170213 0.04787234042553191 0.7872340425531915 0.01104972375690608 0.1104972375690608 0.1160220994475138 0.06629834254143646 0.6961325966850829 0.004716981132075472 0.1179245283018868 0.09433962264150944 0.08018867924528301 0.7028301886792453 0.01456310679611651 0.09223300970873786 0.1601941747572816 0.04368932038834952 0.6893203883495146 0.01863354037267081 0.08695652173913043 0.124223602484472 0.04347826086956522 0.7267080745341615 0.005025125628140704 0.1407035175879397 0.09045226130653267 0.06532663316582915 0.6984924623115578 0.005747126436781609 0.09770114942528736 0.09195402298850575 0.06321839080459771 0.7413793103448276 0.42 0.055 0.045 0.02 0.46 0.4545454545454545 0.04545454545454546 0.02272727272727273 0.01818181818181818 0.4590909090909091 0.4162162162162162 0.03783783783783784 0.02702702702702703 0.02702702702702703 0.4918918918918919 0.4622641509433962 0.0330188679245283 0.0330188679245283 0.009433962264150943 0.4622641509433962 0.4462365591397849 0.06451612903225806 0.04301075268817205 0.02150537634408602 0.4247311827956989 0.4384236453201971 0.0541871921182266 0.01970443349753695 0.01477832512315271 0.4729064039408867 0.430939226519337 0.03867403314917127 0.03867403314917127 0.01657458563535912 0.4751381215469613 0.4656862745098039 0.05392156862745098 0.03431372549019608 0.009803921568627451 0.4362745098039216 0.4619289340101523 0.06598984771573604 0.02538071065989848 0.02538071065989848 0.4213197969543147 0.009174311926605505 0.07339449541284404 0.1788990825688073 0.2018348623853211 0.536697247706422 0.004405286343612335 0.09691629955947137 0.1365638766519824 0.2290748898678414 0.5330396475770925 0.01515151515151515 0.06060606060606061 0.1313131313131313 0.2222222222222222 0.5707070707070707 0.01357466063348416 0.07239819004524888 0.1809954751131222 0.1764705882352941 0.5565610859728507 0.009569377990430622 0.06220095693779904 0.2057416267942584 0.215311004784689 0.5071770334928229 0.005154639175257732 0.09278350515463918 0.08762886597938144 0.211340206185567 0.6030927835051546 0.004807692307692308 0.08653846153846154 0.125 0.3028846153846154 0.4807692307692308 0.004739336492890996 0.08056872037914692 0.1232227488151659 0.2511848341232227 0.5402843601895735 0.01435406698564593 0.08133971291866028 0.1626794258373206 0.1674641148325359 0.5741626794258373 0.006097560975609756 0.07317073170731707 0.1463414634146341 0.1097560975609756 0.6646341463414634 0.005681818181818182 0.1079545454545455 0.1818181818181818 0.1704545454545454 0.5340909090909091 0.009478672985781991 0.07582938388625593 0.2274881516587678 0.1279620853080569 0.5592417061611374 0.005847953216374269 0.05263157894736842 0.1637426900584795 0.1637426900584795 0.6140350877192983 0.005025125628140704 0.07035175879396985 0.1608040201005025 0.1306532663316583 0.6331658291457286 0.01578947368421053 0.06315789473684211 0.1473684210526316 0.1421052631578947 0.631578947368421 0.005291005291005291 0.1005291005291005 0.164021164021164 0.126984126984127 0.6031746031746031 0.005319148936170213 0.09042553191489362 0.2127659574468085 0.1170212765957447 0.574468085106383 0.005154639175257732 0.1082474226804124 0.1649484536082474 0.1804123711340206 0.5412371134020618 0.004926108374384237 0.08866995073891626 0.07389162561576355 0.03448275862068965 0.7980295566502463 0.01047120418848168 0.05235602094240838 0.1256544502617801 0.06282722513089005 0.7486910994764397 0.005988023952095809 0.08982035928143713 0.09580838323353294 0.04191616766467066 0.7664670658682635 0.01041666666666667 0.0625 0.06770833333333333 0.06770833333333333 0.7916666666666666 0.005181347150259068 0.05699481865284974 0.09326424870466321 0.06217616580310881 0.7823834196891192 0.01932367149758454 0.06763285024154589 0.0966183574879227 0.06280193236714976 0.7536231884057971 0.01098901098901099 0.05494505494505494 0.07142857142857142 0.05494505494505494 0.8076923076923077 0.009708737864077669 0.06310679611650485 0.09223300970873786 0.06796116504854369 0.7669902912621359 0.01530612244897959 0.06122448979591837 0.08163265306122448 0.06122448979591837 0.7806122448979592 0.4715025906735751 0.02590673575129534 0.0310880829015544 0.0155440414507772 0.4559585492227979 0.4444444444444444 0.01851851851851852 0.01851851851851852 0.03240740740740741 0.4861111111111111 0.4619565217391304 0.04347826086956522 0.0108695652173913 0.02173913043478261 0.4619565217391304 0.3978494623655914 0.03225806451612903 0.01612903225806452 0.01612903225806452 0.5376344086021505 0.4174757281553398 0.02427184466019417 0.03883495145631068 0.02427184466019417 0.4951456310679612 0.4646464646464646 0.0303030303030303 0.04545454545454546 0.0101010101010101 0.4494949494949495 0.4717948717948718 0.02564102564102564 0.04615384615384616 0.03589743589743589 0.4205128205128205 0.4734299516908212 0.03381642512077294 0.03381642512077294 0.01449275362318841 0.4444444444444444 0.489247311827957 0.04301075268817205 0.02150537634408602 0.02150537634408602 0.4247311827956989 0.004444444444444444 0.06222222222222222 0.1333333333333333 0.2177777777777778 0.5822222222222222 0.004784688995215311 0.04784688995215311 0.1052631578947368 0.2583732057416268 0.583732057416268 0.005714285714285714 0.05142857142857143 0.1485714285714286 0.2571428571428571 0.5371428571428571 0.004545454545454545 0.03181818181818181 0.1318181818181818 0.2272727272727273 0.6045454545454545 0.009345794392523364 0.06074766355140187 0.1168224299065421 0.2383177570093458 0.5747663551401869 0.00975609756097561 0.02926829268292683 0.1170731707317073 0.2292682926829268 0.6146341463414634 0.005181347150259068 0.04145077720207254 0.1243523316062176 0.2176165803108808 0.6113989637305699 0.005 0.05 0.165 0.19 0.59 0.004629629629629629 0.04166666666666666 0.1342592592592593 0.2037037037037037 0.6157407407407407 0.005714285714285714 0.06285714285714286 0.1371428571428571 0.1028571428571429 0.6914285714285714 0.006134969325153374 0.05521472392638037 0.1288343558282209 0.1533742331288344 0.656441717791411 0.005405405405405406 0.07567567567567568 0.1297297297297297 0.1351351351351351 0.654054054054054 0.01047120418848168 0.06806282722513089 0.1465968586387434 0.09947643979057591 0.6753926701570681 0.004901960784313725 0.05392156862745098 0.1666666666666667 0.1617647058823529 0.6127450980392157 0.01142857142857143 0.06857142857142857 0.1085714285714286 0.1714285714285714 0.64 0.005988023952095809 0.05389221556886228 0.1317365269461078 0.1197604790419162 0.688622754491018 0.005813953488372093 0.09302325581395349 0.1627906976744186 0.0755813953488372 0.6627906976744186 0.005025125628140704 0.06532663316582915 0.1055276381909548 0.1306532663316583 0.6934673366834171 0.0108695652173913 0.06521739130434782 0.07608695652173914 0.05434782608695652 0.7934782608695652 0.005917159763313609 0.05917159763313609 0.09467455621301775 0.03550295857988166 0.8047337278106509 0.009615384615384616 0.0625 0.04807692307692308 0.04326923076923077 0.8365384615384616 0.004329004329004329 0.06493506493506493 0.06493506493506493 0.04329004329004329 0.8225108225108225 0.00966183574879227 0.05797101449275362 0.06763285024154589 0.05797101449275362 0.8067632850241546 0.01052631578947368 0.05263157894736842 0.08947368421052632 0.02631578947368421 0.8210526315789474 0.005263157894736842 0.04736842105263158 0.06842105263157895 0.06315789473684211 0.8157894736842105 0.004950495049504951 0.0594059405940594 0.0297029702970297 0.06930693069306931 0.8366336633663366 0.005714285714285714 0.03428571428571429 0.06285714285714286 0.07428571428571429 0.8228571428571428 0.4228571428571429 0.01714285714285714 0.02857142857142857 0.01714285714285714 0.5142857142857142 0.4589371980676328 0.01932367149758454 0.02415458937198068 0.01449275362318841 0.4830917874396135 0.4239130434782609 0.02173913043478261 0.0108695652173913 0.0108695652173913 0.5326086956521739 0.404040404040404 0.0202020202020202 0.0101010101010101 0.0101010101010101 0.5555555555555556 0.4384236453201971 0.01477832512315271 0.04433497536945813 0.01970443349753695 0.4827586206896552 0.4900990099009901 0.01485148514851485 0.01485148514851485 0.01485148514851485 0.4653465346534654 0.4699453551912569 0.01092896174863388 0.00546448087431694 0.01092896174863388 0.5027322404371585 0.455 0.03 0.01 0.015 0.49 0.3926701570680629 0.02617801047120419 0.01047120418848168 0.02094240837696335 0.5497382198952879 0.004310344827586207 0.04310344827586207 0.125 0.2068965517241379 0.6206896551724138 0.004975124378109453 0.02985074626865672 0.109452736318408 0.2437810945273632 0.6119402985074627 0.004347826086956522 0.03043478260869565 0.1130434782608696 0.2521739130434782 0.6 0.01244813278008299 0.02904564315352697 0.1203319502074689 0.2240663900414938 0.6141078838174274 0.01304347826086956 0.02608695652173913 0.09565217391304348 0.3043478260869565 0.5608695652173913 0.004504504504504504 0.03603603603603604 0.0945945945945946 0.2117117117117117 0.6531531531531531 0.005524861878453038 0.02762430939226519 0.1049723756906077 0.2265193370165746 0.6353591160220995 0.008968609865470852 0.03139013452914798 0.08071748878923767 0.2286995515695067 0.6502242152466368 0.00423728813559322 0.05508474576271186 0.1355932203389831 0.1991525423728814 0.6059322033898306 0.004672897196261682 0.03738317757009346 0.1121495327102804 0.1355140186915888 0.7102803738317757 0.01063829787234043 0.04787234042553191 0.09042553191489362 0.1170212765957447 0.7340425531914894 0.005524861878453038 0.03867403314917127 0.1104972375690608 0.1104972375690608 0.7348066298342542 0.01515151515151515 0.02525252525252525 0.08080808080808081 0.1161616161616162 0.7626262626262627 0.004807692307692308 0.04326923076923077 0.125 0.1105769230769231 0.7163461538461539 0.005025125628140704 0.01507537688442211 0.1055276381909548 0.1055276381909548 0.7688442211055276 0.005988023952095809 0.04790419161676647 0.0718562874251497 0.08982035928143713 0.7844311377245509 0.0045662100456621 0.0547945205479452 0.091324200913242 0.0867579908675799 0.7625570776255708 0.01149425287356322 0.02298850574712644 0.09770114942528736 0.103448275862069 0.764367816091954 0.005263157894736842 0.04210526315789474 0.07368421052631578 0.03684210526315789 0.8421052631578947 0.004901960784313725 0.06862745098039216 0.07843137254901961 0.04901960784313725 0.7990196078431373 0.01796407185628742 0.07784431137724551 0.04790419161676647 0.01796407185628742 0.8383233532934131 0.005076142131979695 0.04060913705583756 0.05076142131979695 0.03553299492385787 0.868020304568528 0.005076142131979695 0.03045685279187817 0.03553299492385787 0.02538071065989848 0.9035532994923858 0.009803921568627451 0.04901960784313725 0.06372549019607843 0.0392156862745098 0.8382352941176471 0.005681818181818182 0.03977272727272727 0.04545454545454546 0.05113636363636364 0.8579545454545454 0.005235602094240838 0.04712041884816754 0.05235602094240838 0.03664921465968586 0.8586387434554974 0.01395348837209302 0.05581395348837209 0.06046511627906977 0.03720930232558139 0.8325581395348837 0.4368932038834951 0.04368932038834952 0.02912621359223301 0.02427184466019417 0.4660194174757282 0.4519774011299435 0.02824858757062147 0.01694915254237288 0.01694915254237288 0.4858757062146893 0.4660194174757282 0.03398058252427184 0.01456310679611651 0.02427184466019417 0.4611650485436893 0.3979591836734694 0.01530612244897959 0.01530612244897959 0.01020408163265306 0.5612244897959183 0.4974619289340101 0.01015228426395939 0.01522842639593909 0.01015228426395939 0.467005076142132 0.4055555555555556 0.02222222222222222 0.03333333333333333 0.01111111111111111 0.5277777777777778 0.4397590361445783 0.01807228915662651 0.01204819277108434 0.02409638554216868 0.5060240963855421 0.4129353233830846 0.02487562189054726 0.009950248756218905 0.009950248756218905 0.5422885572139303 0.4218009478672986 0.03317535545023697 0.02843601895734597 0.01895734597156398 0.4976303317535545 0.01421800947867299 0.03317535545023697 0.09004739336492891 0.1943127962085308 0.6682464454976303 0.004347826086956522 0.04347826086956522 0.0782608695652174 0.2391304347826087 0.6347826086956522 0.005025125628140704 0.03517587939698492 0.1005025125628141 0.1959798994974874 0.6633165829145728 0.008849557522123894 0.02212389380530973 0.1194690265486726 0.1769911504424779 0.672566371681416 0.007843137254901961 0.03137254901960784 0.09803921568627451 0.2352941176470588 0.6274509803921569 0.004784688995215311 0.02392344497607655 0.08133971291866028 0.1483253588516746 0.7416267942583732 0.00558659217877095 0.0223463687150838 0.1005586592178771 0.1955307262569832 0.6759776536312849 0.00816326530612245 0.02857142857142857 0.04897959183673469 0.1510204081632653 0.763265306122449 0.004716981132075472 0.02358490566037736 0.08962264150943396 0.1556603773584906 0.7264150943396226 0.004950495049504951 0.0594059405940594 0.09900990099009901 0.1089108910891089 0.7277227722772277 0.005319148936170213 0.0797872340425532 0.101063829787234 0.09042553191489362 0.723404255319149 0.005649717514124294 0.03954802259887006 0.1242937853107345 0.1468926553672316 0.6836158192090396 0.006289308176100629 0.03144654088050314 0.07547169811320754 0.1006289308176101 0.7861635220125787 0.00625 0.04375 0.08125 0.1 0.76875 0.004739336492890996 0.02369668246445497 0.1090047393364929 0.1042654028436019 0.7582938388625592 0.005617977528089887 0.03932584269662921 0.1067415730337079 0.09550561797752809 0.7528089887640449 0.005128205128205128 0.02051282051282051 0.04615384615384616 0.1230769230769231 0.8051282051282052 0.00546448087431694 0.03278688524590164 0.1038251366120219 0.09289617486338798 0.7650273224043715 0.005154639175257732 0.04639175257731959 0.05154639175257732 0.04639175257731959 0.8505154639175257 0.00546448087431694 0.03278688524590164 0.06557377049180328 0.03278688524590164 0.8633879781420765 0.01052631578947368 0.04210526315789474 0.05789473684210526 0.04736842105263158 0.8421052631578947 0.005524861878453038 0.03867403314917127 0.04972375690607735 0.06077348066298342 0.8453038674033149 0.01047120418848168 0.04712041884816754 0.03664921465968586 0.03664921465968586 0.8691099476439791 0.005376344086021506 0.03763440860215054 0.02688172043010753 0.02688172043010753 0.9032258064516129 0.01522842639593909 0.04060913705583756 0.04060913705583756 0.04568527918781726 0.8578680203045685 0.00546448087431694 0.04371584699453552 0.03825136612021858 0.02185792349726776 0.8907103825136612 0.005813953488372093 0.02906976744186046 0.04069767441860465 0.04651162790697674 0.8779069767441861 0.4390243902439024 0.03414634146341464 0.00975609756097561 0.004878048780487805 0.5121951219512195 0.3961352657004831 0.01449275362318841 0.004830917874396135 0.01932367149758454 0.5652173913043478 0.3782383419689119 0.0155440414507772 0.03626943005181347 0.0155440414507772 0.5544041450777202 0.4521276595744681 0.01595744680851064 0.01595744680851064 0.02127659574468085 0.4946808510638298 0.4170212765957447 0.02553191489361702 0.02553191489361702 0.01702127659574468 0.5148936170212766 0.4484536082474227 0.03092783505154639 0.01030927835051546 0.01030927835051546 0.5 0.4248704663212435 0.01036269430051814 0.0155440414507772 0.005181347150259068 0.5440414507772021 0.4926829268292683 0.004878048780487805 0.01951219512195122 0.00975609756097561 0.473170731707317 0.4734299516908212 0.00966183574879227 0.00966183574879227 0.03381642512077294 0.4734299516908212 0.004694835680751174 0.02816901408450704 0.107981220657277 0.215962441314554 0.6431924882629108 0.004629629629629629 0.03240740740740741 0.06018518518518518 0.2314814814814815 0.6712962962962963 0.009708737864077669 0.02427184466019417 0.06796116504854369 0.1553398058252427 0.7427184466019418 0.008130081300813009 0.01626016260162602 0.1016260162601626 0.1422764227642276 0.7317073170731707 0.005025125628140704 0.03015075376884422 0.08040201005025126 0.1557788944723618 0.7286432160804021 0.004444444444444444 0.01777777777777778 0.09333333333333334 0.1555555555555556 0.7288888888888889 0.004524886877828055 0.03619909502262444 0.09502262443438914 0.1809954751131222 0.6832579185520362 0.005 0.04 0.08500000000000001 0.15 0.72 0.008771929824561403 0.02631578947368421 0.1096491228070175 0.1491228070175439 0.706140350877193 0.005617977528089887 0.05056179775280899 0.1348314606741573 0.1179775280898876 0.6910112359550562 0.00966183574879227 0.05314009661835749 0.1111111111111111 0.0966183574879227 0.7294685990338164 0.005128205128205128 0.04615384615384616 0.09230769230769231 0.1025641025641026 0.7538461538461538 0.005376344086021506 0.02150537634408602 0.09677419354838709 0.08602150537634409 0.7903225806451613 0.009433962264150943 0.02358490566037736 0.08962264150943396 0.1556603773584906 0.7216981132075472 0.005376344086021506 0.02150537634408602 0.1021505376344086 0.08064516129032258 0.7903225806451613 0.005434782608695652 0.03260869565217391 0.08152173913043478 0.09239130434782608 0.7880434782608695 0.004975124378109453 0.01492537313432836 0.0945273631840796 0.05472636815920398 0.8308457711442786 0.009852216748768473 0.04433497536945813 0.05911330049261083 0.06403940886699508 0.8226600985221675 0.005263157894736842 0.02631578947368421 0.07894736842105263 0.03684210526315789 0.8526315789473684 0.004672897196261682 0.02336448598130841 0.04205607476635514 0.04205607476635514 0.8878504672897196 0.004975124378109453 0.03980099502487562 0.05472636815920398 0.04975124378109453 0.8507462686567164 0.005050505050505051 0.0505050505050505 0.04040404040404041 0.03535353535353535 0.8686868686868687 0.005181347150259068 0.05181347150259067 0.04663212435233161 0.06217616580310881 0.8341968911917098 0.00558659217877095 0.02793296089385475 0.0223463687150838 0.03910614525139665 0.9050279329608939 0.004926108374384237 0.02463054187192118 0.04433497536945813 0.01477832512315271 0.9113300492610837 0.01 0.035 0.035 0.045 0.875 0.005917159763313609 0.01775147928994083 0.04142011834319527 0.03550295857988166 0.8994082840236687 0.4352331606217616 0.03626943005181347 0.02072538860103627 0.0310880829015544 0.4766839378238342 0.4333333333333333 0.01904761904761905 0.004761904761904762 0.01428571428571429 0.5285714285714286 0.4010152284263959 0.01522842639593909 0.005076142131979695 0.03045685279187817 0.5482233502538071 0.4404145077720207 0.02590673575129534 0.005181347150259068 0.0155440414507772 0.5129533678756477 0.4666666666666667 0.04615384615384616 0.02051282051282051 0.01538461538461539 0.4512820512820513 0.3917525773195876 0.02061855670103093 0.02061855670103093 0.02061855670103093 0.5463917525773195 0.473170731707317 0.00975609756097561 0.004878048780487805 0.00975609756097561 0.5024390243902439 0.4554455445544555 0.0297029702970297 0.01485148514851485 0.01485148514851485 0.4851485148514851 0.467005076142132 0.01522842639593909 0.01015228426395939 0.01015228426395939 0.4974619289340101 0.004184100418410041 0.02928870292887029 0.07531380753138076 0.1799163179916318 0.7112970711297071 0.004587155963302753 0.02293577981651376 0.0963302752293578 0.1834862385321101 0.6926605504587156 0.004950495049504951 0.0198019801980198 0.05445544554455446 0.1782178217821782 0.7425742574257426 0.004784688995215311 0.01913875598086124 0.0430622009569378 0.1770334928229665 0.7559808612440191 0.0053475935828877 0.03208556149732621 0.0481283422459893 0.1657754010695187 0.7486631016042781 0.00975609756097561 0.01951219512195122 0.06341463414634146 0.1121951219512195 0.7951219512195122 0.005208333333333333 0.01041666666666667 0.07291666666666667 0.140625 0.7708333333333334 0.004629629629629629 0.01851851851851852 0.04166666666666666 0.125 0.8101851851851852 0.004329004329004329 0.01731601731601732 0.06060606060606061 0.1212121212121212 0.7965367965367965 0.0053475935828877 0.06951871657754011 0.06951871657754011 0.106951871657754 0.7486631016042781 0.01030927835051546 0.03092783505154639 0.05670103092783505 0.06701030927835051 0.8350515463917526 0.005319148936170213 0.0425531914893617 0.09042553191489362 0.06382978723404255 0.7978723404255319 0.005076142131979695 0.02030456852791878 0.05583756345177665 0.09137055837563451 0.8274111675126904 0.006134969325153374 0.04294478527607362 0.04294478527607362 0.0736196319018405 0.8343558282208589 0.005434782608695652 0.01630434782608696 0.04347826086956522 0.07065217391304347 0.8641304347826086 0.005025125628140704 0.02010050251256281 0.06532663316582915 0.09045226130653267 0.8190954773869347 0.005555555555555556 0.01666666666666667 0.02777777777777778 0.1055555555555556 0.8444444444444444 0.005747126436781609 0.02873563218390805 0.05172413793103448 0.08620689655172414 0.8275862068965517 0.005524861878453038 0.03314917127071823 0.06077348066298342 0.02209944751381215 0.8784530386740331 0.005291005291005291 0.0582010582010582 0.02645502645502645 0.03174603174603174 0.8783068783068783 0.009950248756218905 0.01990049751243781 0.04477611940298507 0.03980099502487562 0.8855721393034826 0.004739336492890996 0.01895734597156398 0.04739336492890995 0.02843601895734597 0.9004739336492891 0.01639344262295082 0.04371584699453552 0.0273224043715847 0.04371584699453552 0.8688524590163934 0.005813953488372093 0.04069767441860465 0.02325581395348837 0.02325581395348837 0.9069767441860465 0.004761904761904762 0.03333333333333333 0.01428571428571429 0.04761904761904762 0.9 0.005076142131979695 0.02538071065989848 0.04568527918781726 0.03045685279187817 0.8934010152284264 0.01 0.025 0.035 0.015 0.915 0.4475138121546962 0.03867403314917127 0.01657458563535912 0.01657458563535912 0.4806629834254144 0.4806629834254144 0.02762430939226519 0.01657458563535912 0.02762430939226519 0.4475138121546962 0.390625 0.03645833333333334 0.03125 0.02083333333333333 0.5208333333333334 0.4869109947643979 0.01047120418848168 0.02094240837696335 0.01047120418848168 0.4712041884816754 0.4627659574468085 0.02127659574468085 0.02127659574468085 0.02127659574468085 0.4734042553191489 0.3827751196172249 0.02870813397129187 0.01435406698564593 0.01435406698564593 0.5598086124401914 0.4630541871921182 0.02463054187192118 0.01970443349753695 0.01477832512315271 0.477832512315271 0.4126984126984127 0.03703703703703703 0.01058201058201058 0.03174603174603174 0.5079365079365079 0.4404145077720207 0.01036269430051814 0.02590673575129534 0.01036269430051814 0.5129533678756477 0.004901960784313725 0.0196078431372549 0.06862745098039216 0.1470588235294118 0.7598039215686274 0.004830917874396135 0.02415458937198068 0.08695652173913043 0.1884057971014493 0.6956521739130435 0.005 0.035 0.075 0.115 0.77 0.004716981132075472 0.02358490566037736 0.06132075471698113 0.1462264150943396 0.7641509433962265 0.00510204081632653 0.03061224489795918 0.04081632653061224 0.1377551020408163 0.7857142857142857 0.004629629629629629 0.02777777777777778 0.04166666666666666 0.1574074074074074 0.7685185185185185 0.004484304932735426 0.01345291479820628 0.05829596412556054 0.1390134529147982 0.7847533632286996 0.004854368932038835 0.02912621359223301 0.04854368932038835 0.1067961165048544 0.8106796116504854 0.005181347150259068 0.005181347150259068 0.07772020725388601 0.1191709844559585 0.7927461139896373 0.005319148936170213 0.03723404255319149 0.06914893617021277 0.09042553191489362 0.7978723404255319 0.005235602094240838 0.02617801047120419 0.08900523560209424 0.1047120418848168 0.774869109947644 0.009900990099009901 0.0297029702970297 0.03465346534653466 0.06435643564356436 0.8613861386138614 0.004651162790697674 0.02325581395348837 0.04186046511627907 0.07441860465116279 0.8558139534883721 0.005988023952095809 0.02395209580838323 0.04790419161676647 0.09580838323353294 0.8263473053892215 0.005291005291005291 0.02645502645502645 0.05291005291005291 0.07936507936507936 0.8359788359788359 0.005181347150259068 0.01036269430051814 0.04663212435233161 0.07772020725388601 0.8601036269430051 0.01005025125628141 0.03015075376884422 0.05527638190954774 0.06030150753768844 0.8442211055276382 0.004830917874396135 0.02415458937198068 0.04830917874396135 0.06280193236714976 0.8599033816425121 0.02 0.035 0.045 0.03 0.87 0.005434782608695652 0.04347826086956522 0.05978260869565218 0.04347826086956522 0.8478260869565217 0.0106951871657754 0.0267379679144385 0.053475935828877 0.03208556149732621 0.8770053475935828 0.004950495049504951 0.02475247524752475 0.0396039603960396 0.02475247524752475 0.905940594059406 0.009900990099009901 0.03465346534653466 0.0297029702970297 0.0198019801980198 0.905940594059406 0.005235602094240838 0.03141361256544502 0.04712041884816754 0.03664921465968586 0.8795811518324608 0.004807692307692308 0.01442307692307692 0.02884615384615385 0.02884615384615385 0.9230769230769231 0.005376344086021506 0.02150537634408602 0.02688172043010753 0.01612903225806452 0.9301075268817204 0.004854368932038835 0.01941747572815534 0.03883495145631068 0.03883495145631068 0.8980582524271845 0.4207920792079208 0.0297029702970297 0.01485148514851485 0.009900990099009901 0.5247524752475248 0.4222222222222222 0.01111111111111111 0.01111111111111111 0.01666666666666667 0.5388888888888889 0.3796791443850268 0.0213903743315508 0.0106951871657754 0.0053475935828877 0.5828877005347594 0.4334975369458128 0.01477832512315271 0.009852216748768473 0.009852216748768473 0.5320197044334976 0.4221105527638191 0.02512562814070352 0.03015075376884422 0.02512562814070352 0.4974874371859296 0.4729064039408867 0.01477832512315271 0.009852216748768473 0.009852216748768473 0.4926108374384237 0.4705882352941176 0.0160427807486631 0.0160427807486631 0.0053475935828877 0.4919786096256685 0.4 0.02051282051282051 0.005128205128205128 0.03076923076923077 0.5435897435897435 0.4532019704433498 0.004926108374384237 0.009852216748768473 0.004926108374384237 0.5270935960591133</probabilities>
		</cpt>
		<cpt id="wh_OI_bound_ratio">
			<state id="s0" />
			<state id="s10" />
			<state id="s100" />
			<state id="s25" />
			<state id="s50" />
			<state id="s75" />
			<state id="s95" />
			<state id="sLR" />
			<parents>Tr_2_quantiled Costs_relation_fsl2 ship_cost_c r_UB</parents>
