<?xml version="1.0" encoding="ISO-8859-1"?>
<smile version="1.0" id="Network2" numsamples="1234">
<nodes>
<cpt id="items_warehouse_Stilde_fsl2_quantiled">
<state id="s5_0"/>
<state id="s15_0"/>
<state id="s25_0"/>
<state id="s100_0"/>
<parents></parents>
<probabilities>0.2698040342142219 0.23926018128430998 0.2427709689774033 0.24816481552406486</probabilities>
</cpt>
<cpt id="Costs_relation_fsl1">
<state id="spai_ge_c_or_z"/>
<state id="spai_gt_sum_cz"/>
<state id="spai_gt_sum_hcz"/>
<parents></parents>
<probabilities>0.5 0.08799310608962084 0.41200689391037915</probabilities>
</cpt>
<cpt id="c_z_ratio_quantiled">
<state id="s0_2"/>
<state id="s0_3"/>
<state id="s0_5"/>
<state id="s1_0"/>
<parents>Costs_relation_fsl1 </parents>
<probabilities>0.25456344140924175 0.4077738064845545 0.2734235384222619 0.0642392136839418 0.2738310982239942 0.21275824574121058 0.20877129394708227 0.3046393620877129 0.24785066997134228 0.17883974905119665 0.13666640848888545 0.43664317248857565</probabilities>
</cpt>
<cpt id="ship_cost_c">
<state id="s0"/>
<state id="s5"/>
<state id="s10"/>
<state id="s15"/>
<state id="s20"/>
<state id="s25"/>
<state id="s30"/>
<state id="s35"/>
<state id="s40"/>
<state id="s45"/>
<parents>c_z_ratio_quantiled Costs_relation_fsl1 </parents>
<probabilities>0.23628850488354622 0.236038066616579 0.29839719509141 0.22852491860756324 0.00012521913348359628 0.00012521913348359628 0.00012521913348359628 0.00012521913348359628 0.00012521913348359628 0.00012521913348359628 0.2901315789473684 0.4605263157894737 0.17434210526315788 0.07105263157894737 0.0006578947368421052 0.0006578947368421052 0.0006578947368421052 0.0006578947368421052 0.0006578947368421052 0.0006578947368421052 0.6341082852239038 0.28179123108129195 0.07941956623498206 0.0037447339678577003 0.00015603058199407084 0.00015603058199407084 0.00015603058199407084 0.00015603058199407084 0.00015603058199407084 0.00015603058199407084 7.820442637053257e-05 7.820442637053257e-05 0.009775553296316571 0.05896613748338156 0.2271056541800266 0.2110737467740674 0.1937905685461797 0.15382810667083757 0.09720810197857199 0.04809572221787753 0.0008453085376162299 0.0008453085376162299 0.1242603550295858 0.463229078613694 0.21386306001690616 0.19357565511411665 0.0008453085376162299 0.0008453085376162299 0.0008453085376162299 0.0008453085376162299 0.0002161227577263886 0.26626323751891073 0.3386643613572509 0.25977955478711906 0.10287443267776097 0.031337799870326345 0.0002161227577263886 0.0002161227577263886 0.0002161227577263886 0.0002161227577263886 0.00011659088259298122 0.00011659088259298122 0.00011659088259298122 0.00011659088259298122 0.01515681473708756 0.039757490964206596 0.12988224320858108 0.1764020053631806 0.28343243558353737 0.35490264661303483 0.0008613264427217916 0.0008613264427217916 0.0008613264427217916 0.04392764857881137 0.14642549526270457 0.23772609819121446 0.22566752799310938 0.19121447028423771 0.07407407407407407 0.07838070628768304 0.0002826455624646693 0.0002826455624646693 0.18400226116449972 0.17721876766534767 0.2679479932165065 0.17552289429055964 0.13764838892029396 0.035330695308083665 0.011871113623516111 0.009892594686263426 0.0004945598417408506 0.0004945598417408506 0.0004945598417408506 0.0004945598417408506 0.0004945598417408506 0.0004945598417408506 0.06577645895153314 0.1913946587537092 0.3733926805143422 0.3664688427299703 0.000591715976331361 0.000591715976331361 0.000591715976331361 0.000591715976331361 0.000591715976331361 0.1136094674556213 0.10177514792899409 0.28816568047337277 0.18698224852071005 0.30650887573964497 8.862105636299185e-05 0.057249202410492736 0.05591988656504786 0.11361219425735555 0.11680255228642325 0.14906061680255228 0.1358560794044665 0.14205955334987594 0.12850053172633819 0.10085076214108472</probabilities>
</cpt>
<cpt id="r_UB">
<state id="s0_0"/>
<state id="s0_25"/>
<state id="s0_5"/>
<state id="s0_75"/>
<state id="s1_0"/>
<parents>items_warehouse_Stilde_fsl2_quantiled ship_cost_c </parents>
<probabilities>0.0011627906976744186 0.0017441860465116279 0.002325581395348837 0.0017441860465116279 0.9930232558139535 0.0017626321974148062 0.21327849588719153 0.15687426556991774 0.06933019976498238 0.5587544065804936 0.0024464831804281344 0.10886850152905199 0.23302752293577983 0.15351681957186544 0.5021406727828747 0.0024140012070006035 0.05069402534701267 0.22510561255280628 0.18708509354254677 0.5347012673506337 0.004069767441860465 0.021511627906976746 0.1883720930232558 0.24302325581395348 0.5430232558139535 0.0024330900243309003 0.012773722627737226 0.12652068126520682 0.2396593673965937 0.6186131386861314 0.0017391304347826088 0.006376811594202898 0.10260869565217391 0.25333333333333335 0.6359420289855072 0.004050925925925926 0.01099537037037037 0.07002314814814815 0.24305555555555555 0.671875 0.004048582995951417 0.002891844997108155 0.05089647194910353 0.24407171775592829 0.6980913823019086 0.0041249263406010605 0.005303476723629935 0.03417796110783736 0.1991750147318798 0.7572186210960519 0.0018879798615481435 0.0012586532410320957 0.0018879798615481435 0.0018879798615481435 0.9930774071743235 0.000671591672263264 0.30020147750167897 0.16453995970449967 0.042981867024848894 0.4916051040967092 0.002638522427440633 0.14313984168865435 0.2678100263852243 0.09366754617414248 0.49274406332453824 0.0051813471502590676 0.06152849740932642 0.24935233160621761 0.13730569948186527 0.5466321243523317 0.004771642808452625 0.04430811179277437 0.19495569188820722 0.1663258350374915 0.5896387184730743 0.0013306719893546241 0.027944111776447105 0.12907518296739853 0.17365269461077845 0.6679973386560213 0.004018754186202277 0.01808439383791025 0.09377093101138648 0.1419959812458138 0.7421299397186872 0.001951854261548471 0.011711125569290826 0.06896551724137931 0.13142485361093037 0.785946649316851 0.0027548209366391185 0.009641873278236915 0.046831955922865015 0.1115702479338843 0.8292011019283747 0.0041293874741913286 0.006882312456985547 0.03922918100481762 0.09084652443220922 0.8589125946317963 0.0026437541308658294 0.0013218770654329147 0.0013218770654329147 0.005287508261731659 0.9894249834765367 0.00261437908496732 0.28366013071895424 0.12352941176470589 0.025490196078431372 0.5647058823529412 0.0018844221105527637 0.14258793969849246 0.15766331658291458 0.05527638190954774 0.6425879396984925 0.0030998140111593306 0.06633601983880967 0.12213267203967762 0.06633601983880967 0.7420954742715437 0.003443526170798898 0.03443526170798898 0.08195592286501377 0.06680440771349862 0.8133608815426997 0.0033692722371967657 0.018194070080862535 0.0545822102425876 0.06266846361185983 0.8611859838274932 0.0013477088948787063 0.012129380053908356 0.04043126684636118 0.04986522911051213 0.8962264150943396 0.0026195153896529143 0.008513425016371971 0.025540275049115914 0.0412573673870334 0.9220694171578258 0.005685407454200884 0.008843967150979154 0.02969046114971573 0.03158559696778269 0.9241945672773215 0.003367003367003367 0.006060606060606061 0.019528619528619527 0.02962962962962963 0.9414141414141414 0.44549464398235666 0.005040957781978576 0.001260239445494644 0.003780718336483932 0.5444234404536862 0.44529750479846447 0.14587332053742802 0.03390914907229686 0.01599488163787588 0.35892514395393477 0.4460245636716225 0.07821590174531351 0.031027795733678087 0.0200387847446671 0.4246929541047188 0.45673671199011123 0.04511742892459827 0.03522867737948084 0.01668726823238566 0.446229913473424 0.4481881754609027 0.033693579148124604 0.027972027972027972 0.019071837253655435 0.47107438016528924 0.43167305236270753 0.02681992337164751 0.015964240102171137 0.014687100893997445 0.5108556832694764 0.46241610738255035 0.01476510067114094 0.01476510067114094 0.018120805369127517 0.4899328859060403 0.4340983606557377 0.01377049180327869 0.015737704918032787 0.014426229508196721 0.5219672131147541 0.4541984732824427 0.005089058524173028 0.013358778625954198 0.015267175572519083 0.5120865139949109 0.4461538461538462 0.008974358974358974 0.016025641025641024 0.017948717948717947 0.5108974358974359</probabilities>
</cpt>
<cpt id="items_fsl_S0tilde_quantiled">
<state id="s5_0"/>
<state id="s15_0"/>
<state id="s25_0"/>
<state id="s100_0"/>
<parents>r_UB </parents>
<probabilities>0.006359525155455059 0.0045223289994347085 0.007631430186546071 0.9814867156585642 0.2600896860986547 0.31326073030108903 0.2966047405509289 0.13004484304932734 0.40115606936416187 0.36127167630057805 0.18921001926782274 0.04836223506743738 0.5666963490650044 0.2867319679430098 0.11059661620658949 0.03597506678539626 0.2585830474316835 0.25155346560783093 0.3047191766032485 0.1851443103572371</probabilities>
</cpt>
<cpt id="items_warehouse_Stilde_fsl1_quantiled">
<state id="s5_0"/>
<state id="s15_0"/>
<state id="s25_0"/>
<state id="s100_0"/>
<parents>items_fsl_S0tilde_quantiled r_UB </parents>
<probabilities>0.020833333333333332 0.020833333333333332 0.020833333333333332 0.9375 0.9558282208588957 0.006134969325153374 0.006134969325153374 0.03190184049079755 0.9726618705035971 0.0057553956834532375 0.004316546762589928 0.017266187050359712 0.9805337519623234 0.006907378335949764 0.005337519623233909 0.007221350078492936 0.9395232353213988 0.019571468323903163 0.019664224097950097 0.021241072256747984 0.02857142857142857 0.02857142857142857 0.02857142857142857 0.9142857142857143 0.026503567787971458 0.9469928644240571 0.0010193679918450561 0.0254841997961264 0.026624068157614485 0.963258785942492 0.0005324813631522897 0.009584664536741214 0.014879107253564786 0.9807811531308122 0.0006199628022318661 0.0037197768133911966 0.010488176964149503 0.977116704805492 9.534706331045004e-05 0.012299771167048055 0.017543859649122806 0.017543859649122806 0.017543859649122806 0.9473684210526315 0.031216361679224973 0.001076426264800861 0.9504843918191603 0.017222820236813777 0.029441624365482234 0.0010152284263959391 0.9624365482233502 0.007106598984771574 0.027243589743589744 0.0016025641025641025 0.9647435897435898 0.00641025641025641 0.010705289672544081 7.871536523929471e-05 0.9750472292191436 0.014168765743073047 0.0005757052389176742 0.0004317789291882556 0.0005757052389176742 0.9984168105929764 0.07823960880195599 0.03667481662591687 0.014669926650366748 0.8704156479217604 0.05511811023622047 0.051181102362204724 0.05511811023622047 0.8385826771653543 0.03414634146341464 0.024390243902439025 0.00975609756097561 0.9317073170731708 0.039378238341968914 0.027072538860103627 0.02461139896373057 0.9089378238341969</probabilities>
</cpt>
<cpt id="plan_horizon_TO">
<state id="s3"/>
<state id="s4"/>
<state id="s5"/>
<state id="s10"/>
<state id="s11"/>
<state id="s12"/>
<state id="s15"/>
<state id="s16"/>
<state id="s17"/>
<parents></parents>
<probabilities>0.11033448231839653 0.1099514872973318 0.11141963487807992 0.10983978041618793 0.11135580237456913 0.112520745563641 0.1120739180390655 0.10937699476573472 0.11312715434699348</probabilities>
</cpt>
<cpt id="wh_OI_bound_ratio">
<state id="s0"/>
<state id="s10"/>
<state id="s100"/>
<state id="s25"/>
<state id="s50"/>
<state id="s75"/>
<state id="s95"/>
<state id="sLR"/>
<parents>items_warehouse_Stilde_fsl1_quantiled ship_cost_c plan_horizon_TO r_UB </parents>
<probabilities>0.125 0.125 0.125 0.125 0.125 0.125 0.125 0.125 0.125 0.125 0.125 0.125 0.125 0.125 0.125 0.125 0.1111111111111111 0.1111111111111111 0.2222222222222222 0.1111111111111111 0.1111111111111111 0.1111111111111111 0.1111111111111111 0.1111111111111111 0.125 0.125 0.125 0.125 0.125 0.125 0.125 0.125 0.004878048780487805 0.004878048780487805 0.12682926829268293 0.004878048780487805 0.004878048780487805 0.004878048780487805 0.004878048780487805 0.8439024390243902 0.1111111111111111 0.1111111111111111 0.2222222222222222 0.1111111111111111 0.1111111111111111 0.1111111111111111 0.1111111111111111 0.1111111111111111 0.125 0.125 0.125 0.125 0.125 0.125 0.125 0.125 0.125 0.125 0.125 0.125 0.125 0.125 0.125 0.125 0.125 0.125 0.125 0.125 0.125 0.125 0.125 0.125 0.005434782608695652 0.005434782608695652 0.125 0.005434782608695652 0.005434782608695652 0.005434782608695652 0.005434782608695652 0.842391304347826 0.125 0.125 0.125 0.125 0.125 0.125 0.125 0.125 0.125 0.125 0.125 0.125 0.125 0.125 0.125 0.125 0.125 0.125 0.125 0.125 0.125 0.125 0.125 0.125 0.125 0.125 0.125 0.125 0.125 0.125 0.125 0.125 0.005128205128205128 0.005128205128205128 0.14871794871794872 0.005128205128205128 0.005128205128205128 0.005128205128205128 0.005128205128205128 0.8205128205128205 0.125 0.125 0.125 0.125 0.125 0.125 0.125 0.125 0.125 0.125 0.125 0.125 0.125 0.125 0.125 0.125 0.125 0.125 0.125 0.125 0.125 0.125 0.125 0.125 0.125 0.125 0.125 0.125 0.125 0.125 0.125 0.125 0.006289308176100629 0.006289308176100629 0.10062893081761007 0.006289308176100629 0.006289308176100629 0.006289308176100629 0.006289308176100629 0.8616352201257862 0.125 0.125 0.125 0.125 0.125 0.125 0.125 0.125 0.125 0.125 0.125 0.125 0.125 0.125 0.125 0.125 0.125 0.125 0.125 0.125 0.125 0.125 0.125 0.125 0.125 0.125 0.125 0.125 0.125 0.125 0.125 0.125 0.005076142131979695 0.005076142131979695 0.16243654822335024 0.005076142131979695 0.005076142131979695 0.005076142131979695 0.005076142131979695 0.8071065989847716 0.125 0.125 0.125 0.125 0.125 0.125 0.125 0.125 0.125 0.125 0.125 0.125 0.125 0.125 0.125 0.125 0.125 0.125 0.125 0.125 0.125 0.125 0.125 0.125 0.125 0.125 0.125 0.125 0.125 0.125 0.125 0.125 0.004545454545454545 0.004545454545454545 0.1409090909090909 0.004545454545454545 0.004545454545454545 0.004545454545454545 0.004545454545454545 0.8318181818181818 0.125 0.125 0.125 0.125 0.125 0.125 0.125 0.125 0.125 0.125 0.125 0.125 0.125 0.125 0.125 0.125 0.125 0.125 0.125 0.125 0.125 0.125 0.125 0.125 0.125 0.125 0.125 0.125 0.125 0.125 0.125 0.125 0.004975124378109453 0.004975124378109453 0.13432835820895522 0.004975124378109453 0.004975124378109453 0.004975124378109453 0.004975124378109453 0.835820895522388 0.1111111111111111 0.1111111111111111 0.2222222222222222 0.1111111111111111 0.1111111111111111 0.1111111111111111 0.1111111111111111 0.1111111111111111 0.125 0.125 0.125 0.125 0.125 0.125 0.125 0.125 0.125 0.125 0.125 0.125 0.125 0.125 0.125 0.125 0.125 0.125 0.125 0.125 0.125 0.125 0.125 0.125 0.00546448087431694 0.00546448087431694 0.12568306010928962 0.00546448087431694 0.00546448087431694 0.00546448087431694 0.01092896174863388 0.8360655737704918 0.125 0.125 0.125 0.125 0.125 0.125 0.125 0.125 0.1111111111111111 0.1111111111111111 0.2222222222222222 0.1111111111111111 0.1111111111111111 0.1111111111111111 0.1111111111111111 0.1111111111111111 0.125 0.125 0.125 0.125 0.125 0.125 0.125 0.125 0.125 0.125 0.125 0.125 0.125 0.125 0.125 0.125 0.004830917874396135 0.004830917874396135 0.1642512077294686 0.004830917874396135 0.004830917874396135 0.004830917874396135 0.00966183574879227 0.8019323671497585 0.125 0.125 0.125 0.125 0.125 0.125 0.125 0.125 0.08928571428571429 0.03571428571428571 0.7857142857142857 0.017857142857142856 0.017857142857142856 0.017857142857142856 0.017857142857142856 0.017857142857142856 0.047619047619047616 0.023809523809523808 0.8095238095238095 0.023809523809523808 0.023809523809523808 0.023809523809523808 0.023809523809523808 0.023809523809523808 0.07692307692307693 0.038461538461538464 0.6538461538461539 0.07692307692307693 0.038461538461538464 0.038461538461538464 0.038461538461538464 0.038461538461538464 0.009345794392523364 0.009345794392523364 0.1588785046728972 0.009345794392523364 0.009345794392523364 0.009345794392523364 0.009345794392523364 0.7850467289719626 0.125 0.125 0.125 0.125 0.125 0.125 0.125 0.125 0.1 0.025 0.75 0.025 0.025 0.025 0.025 0.025 0.15151515151515152 0.030303030303030304 0.6666666666666666 0.030303030303030304 0.030303030303030304 0.030303030303030304 0.030303030303030304 0.030303030303030304 0.045454545454545456 0.045454545454545456 0.6818181818181818 0.045454545454545456 0.045454545454545456 0.045454545454545456 0.045454545454545456 0.045454545454545456 0.008771929824561403 0.008771929824561403 0.2631578947368421 0.008771929824561403 0.008771929824561403 0.008771929824561403 0.008771929824561403 0.6842105263157895 0.125 0.125 0.125 0.125 0.125 0.125 0.125 0.125 0.09230769230769231 0.09230769230769231 0.7384615384615385 0.015384615384615385 0.015384615384615385 0.015384615384615385 0.015384615384615385 0.015384615384615385 0.1276595744680851 0.02127659574468085 0.7446808510638298 0.02127659574468085 0.02127659574468085 0.02127659574468085 0.02127659574468085 0.02127659574468085 0.043478260869565216 0.043478260869565216 0.6956521739130435 0.043478260869565216 0.043478260869565216 0.043478260869565216 0.043478260869565216 0.043478260869565216 0.009433962264150943 0.009433962264150943 0.19811320754716982 0.009433962264150943 0.009433962264150943 0.009433962264150943 0.009433962264150943 0.7452830188679245 0.125 0.125 0.125 0.125 0.125 0.125 0.125 0.125 0.20408163265306123 0.12244897959183673 0.5714285714285714 0.02040816326530612 0.02040816326530612 0.02040816326530612 0.02040816326530612 0.02040816326530612 0.08333333333333333 0.027777777777777776 0.75 0.027777777777777776 0.027777777777777776 0.027777777777777776 0.027777777777777776 0.027777777777777776 0.05263157894736842 0.05263157894736842 0.631578947368421 0.05263157894736842 0.05263157894736842 0.05263157894736842 0.05263157894736842 0.05263157894736842 0.009708737864077669 0.009708737864077669 0.21359223300970873 0.009708737864077669 0.009708737864077669 0.009708737864077669 0.009708737864077669 0.7281553398058253 0.1111111111111111 0.1111111111111111 0.2222222222222222 0.1111111111111111 0.1111111111111111 0.1111111111111111 0.1111111111111111 0.1111111111111111 0.19047619047619047 0.047619047619047616 0.6825396825396826 0.015873015873015872 0.015873015873015872 0.015873015873015872 0.015873015873015872 0.015873015873015872 0.0967741935483871 0.03225806451612903 0.7096774193548387 0.03225806451612903 0.03225806451612903 0.03225806451612903 0.03225806451612903 0.03225806451612903 0.09523809523809523 0.09523809523809523 0.5714285714285714 0.047619047619047616 0.047619047619047616 0.047619047619047616 0.047619047619047616 0.047619047619047616 0.009259259259259259 0.009259259259259259 0.21296296296296297 0.009259259259259259 0.009259259259259259 0.009259259259259259 0.009259259259259259 0.7314814814814815 0.125 0.125 0.125 0.125 0.125 0.125 0.125 0.125 0.13725490196078433 0.058823529411764705 0.7058823529411765 0.0196078431372549 0.0196078431372549 0.0196078431372549 0.0196078431372549 0.0196078431372549 0.08333333333333333 0.08333333333333333 0.6944444444444444 0.027777777777777776 0.027777777777777776 0.027777777777777776 0.027777777777777776 0.027777777777777776 0.13636363636363635 0.045454545454545456 0.5909090909090909 0.045454545454545456 0.045454545454545456 0.045454545454545456 0.045454545454545456 0.045454545454545456 0.00909090909090909 0.00909090909090909 0.19090909090909092 0.00909090909090909 0.01818181818181818 0.00909090909090909 0.00909090909090909 0.7454545454545455 0.125 0.125 0.125 0.125 0.125 0.125 0.125 0.125 0.18 0.12 0.6 0.02 0.02 0.02 0.02 0.02 0.1388888888888889 0.08333333333333333 0.6388888888888888 0.027777777777777776 0.027777777777777776 0.027777777777777776 0.027777777777777776 0.027777777777777776 0.16666666666666666 0.05555555555555555 0.5 0.05555555555555555 0.05555555555555555 0.05555555555555555 0.05555555555555555 0.05555555555555555 0.009259259259259259 0.009259259259259259 0.2222222222222222 0.009259259259259259 0.009259259259259259 0.009259259259259259 0.009259259259259259 0.7222222222222222 0.125 0.125 0.125 0.125 0.125 0.125 0.125 0.125 0.12962962962962962 0.05555555555555555 0.7222222222222222 0.018518518518518517 0.018518518518518517 0.018518518518518517 0.018518518518518517 0.018518518518518517 0.10344827586206896 0.10344827586206896 0.6206896551724138 0.034482758620689655 0.034482758620689655 0.034482758620689655 0.034482758620689655 0.034482758620689655 0.08695652173913043 0.043478260869565216 0.6521739130434783 0.043478260869565216 0.043478260869565216 0.043478260869565216 0.043478260869565216 0.043478260869565216 0.008547008547008548 0.008547008547008548 0.19658119658119658 0.008547008547008548 0.008547008547008548 0.008547008547008548 0.008547008547008548 0.7521367521367521 0.125 0.125 0.125 0.125 0.125 0.125 0.125 0.125 0.17857142857142858 0.08928571428571429 0.6428571428571429 0.017857142857142856 0.017857142857142856 0.017857142857142856 0.017857142857142856 0.017857142857142856 0.1590909090909091 0.045454545454545456 0.6818181818181818 0.022727272727272728 0.022727272727272728 0.022727272727272728 0.022727272727272728 0.022727272727272728 0.15384615384615385 0.07692307692307693 0.38461538461538464 0.07692307692307693 0.07692307692307693 0.07692307692307693 0.07692307692307693 0.07692307692307693 0.007874015748031496 0.007874015748031496 0.25196850393700787 0.007874015748031496 0.007874015748031496 0.007874015748031496 0.007874015748031496 0.7007874015748031 0.125 0.125 0.125 0.125 0.125 0.125 0.125 0.125 0.2 0.11428571428571428 0.5428571428571428 0.02857142857142857 0.02857142857142857 0.02857142857142857 0.02857142857142857 0.02857142857142857 0.22916666666666666 0.10416666666666667 0.5625 0.020833333333333332 0.020833333333333332 0.020833333333333332 0.020833333333333332 0.020833333333333332 0.10256410256410256 0.02564102564102564 0.717948717948718 0.05128205128205128 0.02564102564102564 0.02564102564102564 0.02564102564102564 0.02564102564102564 0.044444444444444446 0.011111111111111112 0.15555555555555556 0.011111111111111112 0.011111111111111112 0.011111111111111112 0.011111111111111112 0.7444444444444445 0.125 0.125 0.125 0.125 0.125 0.125 0.125 0.125 0.12 0.04 0.64 0.04 0.04 0.04 0.04 0.04 0.1875 0.0625 0.6458333333333334 0.020833333333333332 0.020833333333333332 0.020833333333333332 0.020833333333333332 0.020833333333333332 0.09090909090909091 0.06060606060606061 0.696969696969697 0.030303030303030304 0.030303030303030304 0.030303030303030304 0.030303030303030304 0.030303030303030304 0.011904761904761904 0.011904761904761904 0.21428571428571427 0.011904761904761904 0.011904761904761904 0.011904761904761904 0.011904761904761904 0.7142857142857143 0.125 0.125 0.125 0.125 0.125 0.125 0.125 0.125 0.2 0.13333333333333333 0.5 0.03333333333333333 0.03333333333333333 0.03333333333333333 0.03333333333333333 0.03333333333333333 0.16981132075471697 0.03773584905660377 0.6981132075471698 0.018867924528301886 0.018867924528301886 0.018867924528301886 0.018867924528301886 0.018867924528301886 0.0975609756097561 0.024390243902439025 0.7560975609756098 0.024390243902439025 0.024390243902439025 0.024390243902439025 0.024390243902439025 0.024390243902439025 0.010869565217391304 0.010869565217391304 0.25 0.010869565217391304 0.010869565217391304 0.010869565217391304 0.010869565217391304 0.6847826086956522 0.125 0.125 0.125 0.125 0.125 0.125 0.125 0.125 0.2727272727272727 0.09090909090909091 0.3181818181818182 0.09090909090909091 0.045454545454545456 0.045454545454545456 0.09090909090909091 0.045454545454545456 0.15517241379310345 0.034482758620689655 0.7241379310344828 0.017241379310344827 0.017241379310344827 0.017241379310344827 0.017241379310344827 0.017241379310344827 0.05555555555555555 0.05555555555555555 0.75 0.027777777777777776 0.027777777777777776 0.027777777777777776 0.027777777777777776 0.027777777777777776 0.010869565217391304 0.010869565217391304 0.29347826086956524 0.010869565217391304 0.021739130434782608 0.010869565217391304 0.010869565217391304 0.6304347826086957 0.125 0.125 0.125 0.125 0.125 0.125 0.125 0.125 0.2972972972972973 0.08108108108108109 0.4864864864864865 0.02702702702702703 0.02702702702702703 0.02702702702702703 0.02702702702702703 0.02702702702702703 0.35714285714285715 0.017857142857142856 0.5357142857142857 0.017857142857142856 0.017857142857142856 0.017857142857142856 0.017857142857142856 0.017857142857142856 0.11764705882352941 0.058823529411764705 0.6764705882352942 0.029411764705882353 0.029411764705882353 0.029411764705882353 0.029411764705882353 0.029411764705882353 0.018867924528301886 0.009433962264150943 0.19811320754716982 0.009433962264150943 0.009433962264150943 0.018867924528301886 0.018867924528301886 0.7169811320754716 0.125 0.125 0.125 0.125 0.125 0.125 0.125 0.125 0.3333333333333333 0.08333333333333333 0.4166666666666667 0.05555555555555555 0.027777777777777776 0.027777777777777776 0.027777777777777776 0.027777777777777776 0.3137254901960784 0.0784313725490196 0.5098039215686274 0.0196078431372549 0.0196078431372549 0.0196078431372549 0.0196078431372549 0.0196078431372549 0.18181818181818182 0.030303030303030304 0.6363636363636364 0.030303030303030304 0.030303030303030304 0.030303030303030304 0.030303030303030304 0.030303030303030304 0.043478260869565216 0.014492753623188406 0.21739130434782608 0.028985507246376812 0.014492753623188406 0.014492753623188406 0.014492753623188406 0.6521739130434783 0.125 0.125 0.125 0.125 0.125 0.125 0.125 0.125 0.4 0.03333333333333333 0.4 0.03333333333333333 0.03333333333333333 0.03333333333333333 0.03333333333333333 0.03333333333333333 0.28888888888888886 0.08888888888888889 0.4888888888888889 0.022222222222222223 0.044444444444444446 0.022222222222222223 0.022222222222222223 0.022222222222222223 0.2 0.03333333333333333 0.5333333333333333 0.1 0.03333333333333333 0.03333333333333333 0.03333333333333333 0.03333333333333333 0.021505376344086023 0.010752688172043012 0.24731182795698925 0.010752688172043012 0.010752688172043012 0.010752688172043012 0.010752688172043012 0.6774193548387096 0.125 0.125 0.125 0.125 0.125 0.125 0.125 0.125 0.2631578947368421 0.05263157894736842 0.5526315789473685 0.02631578947368421 0.02631578947368421 0.02631578947368421 0.02631578947368421 0.02631578947368421 0.24528301886792453 0.05660377358490566 0.6037735849056604 0.018867924528301886 0.018867924528301886 0.018867924528301886 0.018867924528301886 0.018867924528301886 0.06896551724137931 0.034482758620689655 0.7241379310344828 0.034482758620689655 0.034482758620689655 0.034482758620689655 0.034482758620689655 0.034482758620689655 0.01834862385321101 0.009174311926605505 0.26605504587155965 0.009174311926605505 0.009174311926605505 0.009174311926605505 0.009174311926605505 0.6697247706422018 0.125 0.125 0.125 0.125 0.125 0.125 0.125 0.125 0.15384615384615385 0.11538461538461539 0.5384615384615384 0.038461538461538464 0.038461538461538464 0.038461538461538464 0.038461538461538464 0.038461538461538464 0.14583333333333334 0.125 0.625 0.020833333333333332 0.020833333333333332 0.020833333333333332 0.020833333333333332 0.020833333333333332 0.17073170731707318 0.04878048780487805 0.6585365853658537 0.024390243902439025 0.024390243902439025 0.024390243902439025 0.024390243902439025 0.024390243902439025 0.031914893617021274 0.010638297872340425 0.2872340425531915 0.02127659574468085 0.010638297872340425 0.010638297872340425 0.010638297872340425 0.6170212765957447 0.125 0.125 0.125 0.125 0.125 0.125 0.125 0.125 0.2727272727272727 0.09090909090909091 0.4090909090909091 0.045454545454545456 0.045454545454545456 0.045454545454545456 0.045454545454545456 0.045454545454545456 0.21428571428571427 0.03571428571428571 0.6607142857142857 0.017857142857142856 0.017857142857142856 0.017857142857142856 0.017857142857142856 0.017857142857142856 0.0975609756097561 0.024390243902439025 0.7560975609756098 0.024390243902439025 0.024390243902439025 0.024390243902439025 0.024390243902439025 0.024390243902439025 0.02247191011235955 0.011235955056179775 0.3146067415730337 0.011235955056179775 0.011235955056179775 0.011235955056179775 0.011235955056179775 0.6067415730337079 0.125 0.125 0.125 0.125 0.125 0.125 0.125 0.125 0.18518518518518517 0.07407407407407407 0.5555555555555556 0.037037037037037035 0.037037037037037035 0.037037037037037035 0.037037037037037035 0.037037037037037035 0.18 0.04 0.68 0.02 0.02 0.02 0.02 0.02 0.13333333333333333 0.022222222222222223 0.7333333333333333 0.022222222222222223 0.022222222222222223 0.022222222222222223 0.022222222222222223 0.022222222222222223 0.014492753623188406 0.007246376811594203 0.34782608695652173 0.007246376811594203 0.007246376811594203 0.007246376811594203 0.007246376811594203 0.6014492753623188 0.125 0.125 0.125 0.125 0.125 0.125 0.125 0.125 0.125 0.0625 0.5 0.0625 0.0625 0.0625 0.0625 0.0625 0.22448979591836735 0.04081632653061224 0.6326530612244898 0.02040816326530612 0.02040816326530612 0.02040816326530612 0.02040816326530612 0.02040816326530612 0.06976744186046512 0.023255813953488372 0.7906976744186046 0.023255813953488372 0.023255813953488372 0.023255813953488372 0.023255813953488372 0.023255813953488372 0.03488372093023256 0.011627906976744186 0.2558139534883721 0.011627906976744186 0.011627906976744186 0.011627906976744186 0.011627906976744186 0.6511627906976745 0.125 0.125 0.125 0.125 0.125 0.125 0.125 0.125 0.21052631578947367 0.05263157894736842 0.47368421052631576 0.05263157894736842 0.05263157894736842 0.05263157894736842 0.05263157894736842 0.05263157894736842 0.36 0.04 0.5 0.02 0.02 0.02 0.02 0.02 0.22857142857142856 0.02857142857142857 0.6 0.02857142857142857 0.02857142857142857 0.02857142857142857 0.02857142857142857 0.02857142857142857 0.02127659574468085 0.010638297872340425 0.2872340425531915 0.02127659574468085 0.010638297872340425 0.010638297872340425 0.010638297872340425 0.6276595744680851 0.125 0.125 0.125 0.125 0.125 0.125 0.125 0.125 0.23529411764705882 0.058823529411764705 0.4117647058823529 0.058823529411764705 0.058823529411764705 0.058823529411764705 0.058823529411764705 0.058823529411764705 0.25 0.045454545454545456 0.5909090909090909 0.022727272727272728 0.022727272727272728 0.022727272727272728 0.022727272727272728 0.022727272727272728 0.14634146341463414 0.04878048780487805 0.6829268292682927 0.024390243902439025 0.024390243902439025 0.024390243902439025 0.024390243902439025 0.024390243902439025 0.031578947368421054 0.010526315789473684 0.3368421052631579 0.010526315789473684 0.010526315789473684 0.010526315789473684 0.031578947368421054 0.5578947368421052 0.125 0.125 0.125 0.125 0.125 0.125 0.125 0.125 0.13333333333333333 0.06666666666666667 0.4666666666666667 0.06666666666666667 0.06666666666666667 0.06666666666666667 0.06666666666666667 0.06666666666666667 0.27941176470588236 0.029411764705882353 0.6176470588235294 0.014705882352941176 0.014705882352941176 0.014705882352941176 0.014705882352941176 0.014705882352941176 0.10638297872340426 0.02127659574468085 0.7659574468085106 0.02127659574468085 0.02127659574468085 0.02127659574468085 0.02127659574468085 0.02127659574468085 0.0449438202247191 0.011235955056179775 0.2247191011235955 0.011235955056179775 0.011235955056179775 0.011235955056179775 0.011235955056179775 0.6741573033707865 0.125 0.125 0.125 0.125 0.125 0.125 0.125 0.125 0.11764705882352941 0.29411764705882354 0.29411764705882354 0.058823529411764705 0.058823529411764705 0.058823529411764705 0.058823529411764705 0.058823529411764705 0.20689655172413793 0.06896551724137931 0.6379310344827587 0.017241379310344827 0.017241379310344827 0.017241379310344827 0.017241379310344827 0.017241379310344827 0.16326530612244897 0.04081632653061224 0.6326530612244898 0.08163265306122448 0.02040816326530612 0.02040816326530612 0.02040816326530612 0.02040816326530612 0.02127659574468085 0.010638297872340425 0.30851063829787234 0.010638297872340425 0.02127659574468085 0.010638297872340425 0.010638297872340425 0.6063829787234043 0.125 0.125 0.125 0.125 0.125 0.125 0.125 0.125 0.13043478260869565 0.08695652173913043 0.5652173913043478 0.043478260869565216 0.043478260869565216 0.043478260869565216 0.043478260869565216 0.043478260869565216 0.17073170731707318 0.07317073170731707 0.6341463414634146 0.024390243902439025 0.024390243902439025 0.024390243902439025 0.024390243902439025 0.024390243902439025 0.14705882352941177 0.08823529411764706 0.6176470588235294 0.029411764705882353 0.029411764705882353 0.029411764705882353 0.029411764705882353 0.029411764705882353 0.03508771929824561 0.008771929824561403 0.3157894736842105 0.008771929824561403 0.008771929824561403 0.008771929824561403 0.008771929824561403 0.6052631578947368 0.125 0.125 0.125 0.125 0.125 0.125 0.125 0.125 0.18181818181818182 0.045454545454545456 0.5454545454545454 0.045454545454545456 0.045454545454545456 0.045454545454545456 0.045454545454545456 0.045454545454545456 0.2549019607843137 0.058823529411764705 0.5882352941176471 0.0196078431372549 0.0196078431372549 0.0196078431372549 0.0196078431372549 0.0196078431372549 0.12 0.06 0.7 0.04 0.02 0.02 0.02 0.02 0.02586206896551724 0.008620689655172414 0.25 0.008620689655172414 0.017241379310344827 0.008620689655172414 0.008620689655172414 0.6724137931034483 0.125 0.125 0.125 0.125 0.125 0.125 0.125 0.125 0.3333333333333333 0.08333333333333333 0.375 0.041666666666666664 0.041666666666666664 0.041666666666666664 0.041666666666666664 0.041666666666666664 0.18421052631578946 0.10526315789473684 0.5789473684210527 0.02631578947368421 0.02631578947368421 0.02631578947368421 0.02631578947368421 0.02631578947368421 0.2692307692307692 0.038461538461538464 0.5961538461538461 0.019230769230769232 0.019230769230769232 0.019230769230769232 0.019230769230769232 0.019230769230769232 0.02727272727272727 0.00909090909090909 0.3090909090909091 0.00909090909090909 0.00909090909090909 0.00909090909090909 0.01818181818181818 0.6090909090909091 0.125 0.125 0.125 0.125 0.125 0.125 0.125 0.125 0.23529411764705882 0.058823529411764705 0.4117647058823529 0.058823529411764705 0.058823529411764705 0.058823529411764705 0.058823529411764705 0.058823529411764705 0.2727272727272727 0.022727272727272728 0.5909090909090909 0.022727272727272728 0.022727272727272728 0.022727272727272728 0.022727272727272728 0.022727272727272728 0.19298245614035087 0.05263157894736842 0.6666666666666666 0.017543859649122806 0.017543859649122806 0.017543859649122806 0.017543859649122806 0.017543859649122806 0.04040404040404041 0.010101010101010102 0.2828282828282828 0.010101010101010102 0.020202020202020204 0.010101010101010102 0.020202020202020204 0.6060606060606061 0.125 0.125 0.125 0.125 0.125 0.125 0.125 0.125 0.1 0.1 0.3 0.1 0.1 0.1 0.1 0.1 0.1590909090909091 0.045454545454545456 0.6818181818181818 0.022727272727272728 0.022727272727272728 0.022727272727272728 0.022727272727272728 0.022727272727272728 0.22058823529411764 0.058823529411764705 0.6470588235294118 0.014705882352941176 0.014705882352941176 0.014705882352941176 0.014705882352941176 0.014705882352941176 0.03389830508474576 0.00847457627118644 0.3644067796610169 0.00847457627118644 0.00847457627118644 0.00847457627118644 0.00847457627118644 0.559322033898305 0.125 0.125 0.125 0.125 0.125 0.125 0.125 0.125 0.25 0.08333333333333333 0.25 0.08333333333333333 0.08333333333333333 0.08333333333333333 0.08333333333333333 0.08333333333333333 0.2857142857142857 0.09523809523809523 0.5 0.023809523809523808 0.023809523809523808 0.023809523809523808 0.023809523809523808 0.023809523809523808 0.22727272727272727 0.09090909090909091 0.6060606060606061 0.015151515151515152 0.015151515151515152 0.015151515151515152 0.015151515151515152 0.015151515151515152 0.03773584905660377 0.009433962264150943 0.32075471698113206 0.009433962264150943 0.009433962264150943 0.009433962264150943 0.018867924528301886 0.5849056603773585 0.125 0.125 0.125 0.125 0.125 0.125 0.125 0.125 0.16666666666666666 0.16666666666666666 0.25 0.08333333333333333 0.08333333333333333 0.08333333333333333 0.08333333333333333 0.08333333333333333 0.30434782608695654 0.043478260869565216 0.5434782608695652 0.021739130434782608 0.021739130434782608 0.021739130434782608 0.021739130434782608 0.021739130434782608 0.2037037037037037 0.037037037037037035 0.6666666666666666 0.018518518518518517 0.018518518518518517 0.018518518518518517 0.018518518518518517 0.018518518518518517 0.035398230088495575 0.008849557522123894 0.415929203539823 0.008849557522123894 0.008849557522123894 0.017699115044247787 0.008849557522123894 0.49557522123893805 0.125 0.125 0.125 0.125 0.125 0.125 0.125 0.125 0.13333333333333333 0.13333333333333333 0.4 0.06666666666666667 0.06666666666666667 0.06666666666666667 0.06666666666666667 0.06666666666666667 0.2 0.1 0.6166666666666667 0.016666666666666666 0.016666666666666666 0.016666666666666666 0.016666666666666666 0.016666666666666666 0.3220338983050847 0.01694915254237288 0.559322033898305 0.03389830508474576 0.01694915254237288 0.01694915254237288 0.01694915254237288 0.01694915254237288 0.030612244897959183 0.01020408163265306 0.30612244897959184 0.01020408163265306 0.01020408163265306 0.01020408163265306 0.01020408163265306 0.6122448979591837 0.125 0.125 0.125 0.125 0.125 0.125 0.125 0.125 0.3333333333333333 0.16666666666666666 0.08333333333333333 0.08333333333333333 0.08333333333333333 0.08333333333333333 0.08333333333333333 0.08333333333333333 0.34 0.04 0.52 0.02 0.02 0.02 0.02 0.02 0.19607843137254902 0.0392156862745098 0.6470588235294118 0.0196078431372549 0.0392156862745098 0.0196078431372549 0.0196078431372549 0.0196078431372549 0.011111111111111112 0.011111111111111112 0.3 0.011111111111111112 0.011111111111111112 0.011111111111111112 0.022222222222222223 0.6222222222222222 0.125 0.125 0.125 0.125 0.125 0.125 0.125 0.125 0.1 0.1 0.3 0.1 0.1 0.1 0.1 0.1 0.2127659574468085 0.1276595744680851 0.5531914893617021 0.02127659574468085 0.02127659574468085 0.02127659574468085 0.02127659574468085 0.02127659574468085 0.2549019607843137 0.0392156862745098 0.5882352941176471 0.0392156862745098 0.0196078431372549 0.0196078431372549 0.0196078431372549 0.0196078431372549 0.047619047619047616 0.009523809523809525 0.26666666666666666 0.009523809523809525 0.009523809523809525 0.009523809523809525 0.009523809523809525 0.638095238095238 0.125 0.125 0.125 0.125 0.125 0.125 0.125 0.125 0.18181818181818182 0.18181818181818182 0.18181818181818182 0.09090909090909091 0.09090909090909091 0.09090909090909091 0.09090909090909091 0.09090909090909091 0.30434782608695654 0.17391304347826086 0.41304347826086957 0.021739130434782608 0.021739130434782608 0.021739130434782608 0.021739130434782608 0.021739130434782608 0.17142857142857143 0.08571428571428572 0.6 0.02857142857142857 0.02857142857142857 0.02857142857142857 0.02857142857142857 0.02857142857142857 0.047619047619047616 0.009523809523809525 0.4 0.009523809523809525 0.009523809523809525 0.009523809523809525 0.009523809523809525 0.5047619047619047 0.125 0.125 0.125 0.125 0.125 0.125 0.125 0.125 0.17647058823529413 0.058823529411764705 0.47058823529411764 0.058823529411764705 0.058823529411764705 0.058823529411764705 0.058823529411764705 0.058823529411764705 0.16666666666666666 0.05555555555555555 0.6388888888888888 0.027777777777777776 0.027777777777777776 0.027777777777777776 0.027777777777777776 0.027777777777777776 0.35185185185185186 0.037037037037037035 0.5185185185185185 0.018518518518518517 0.018518518518518517 0.018518518518518517 0.018518518518518517 0.018518518518518517 0.024793388429752067 0.008264462809917356 0.371900826446281 0.008264462809917356 0.008264462809917356 0.008264462809917356 0.01652892561983471 0.5537190082644629 0.125 0.125 0.125 0.125 0.125 0.125 0.125 0.125 0.13333333333333333 0.13333333333333333 0.4 0.06666666666666667 0.06666666666666667 0.06666666666666667 0.06666666666666667 0.06666666666666667 0.1875 0.03125 0.59375 0.03125 0.03125 0.0625 0.03125 0.03125 0.22580645161290322 0.03225806451612903 0.6612903225806451 0.016129032258064516 0.016129032258064516 0.016129032258064516 0.016129032258064516 0.016129032258064516 0.007692307692307693 0.007692307692307693 0.35384615384615387 0.007692307692307693 0.007692307692307693 0.015384615384615385 0.015384615384615385 0.5846153846153846 0.125 0.125 0.125 0.125 0.125 0.125 0.125 0.125 0.1 0.2 0.2 0.1 0.1 0.1 0.1 0.1 0.13793103448275862 0.10344827586206896 0.5862068965517241 0.034482758620689655 0.034482758620689655 0.034482758620689655 0.034482758620689655 0.034482758620689655 0.1702127659574468 0.0851063829787234 0.6382978723404256 0.02127659574468085 0.02127659574468085 0.02127659574468085 0.02127659574468085 0.02127659574468085 0.031496062992125984 0.007874015748031496 0.41732283464566927 0.007874015748031496 0.007874015748031496 0.007874015748031496 0.015748031496062992 0.5039370078740157 0.125 0.125 0.125 0.125 0.125 0.125 0.125 0.125 0.3333333333333333 0.08333333333333333 0.16666666666666666 0.08333333333333333 0.08333333333333333 0.08333333333333333 0.08333333333333333 0.08333333333333333 0.35714285714285715 0.07142857142857142 0.39285714285714285 0.03571428571428571 0.03571428571428571 0.03571428571428571 0.03571428571428571 0.03571428571428571 0.1694915254237288 0.01694915254237288 0.7288135593220338 0.01694915254237288 0.01694915254237288 0.01694915254237288 0.01694915254237288 0.01694915254237288 0.035398230088495575 0.008849557522123894 0.2920353982300885 0.008849557522123894 0.008849557522123894 0.008849557522123894 0.008849557522123894 0.6283185840707964 0.125 0.125 0.125 0.125 0.125 0.125 0.125 0.125 0.08333333333333333 0.08333333333333333 0.3333333333333333 0.16666666666666666 0.08333333333333333 0.08333333333333333 0.08333333333333333 0.08333333333333333 0.2692307692307692 0.038461538461538464 0.5 0.038461538461538464 0.038461538461538464 0.038461538461538464 0.038461538461538464 0.038461538461538464 0.15625 0.015625 0.75 0.015625 0.015625 0.015625 0.015625 0.015625 0.043859649122807015 0.008771929824561403 0.3157894736842105 0.008771929824561403 0.008771929824561403 0.017543859649122806 0.008771929824561403 0.5877192982456141 0.125 0.125 0.125 0.125 0.125 0.125 0.125 0.125 0.2727272727272727 0.18181818181818182 0.09090909090909091 0.09090909090909091 0.09090909090909091 0.09090909090909091 0.09090909090909091 0.09090909090909091 0.35714285714285715 0.07142857142857142 0.39285714285714285 0.03571428571428571 0.03571428571428571 0.03571428571428571 0.03571428571428571 0.03571428571428571 0.2 0.04 0.66 0.02 0.02 0.02 0.02 0.02 0.05042016806722689 0.008403361344537815 0.29411764705882354 0.01680672268907563 0.008403361344537815 0.008403361344537815 0.008403361344537815 0.6050420168067226 0.125 0.125 0.125 0.125 0.125 0.125 0.125 0.125 0.2 0.1 0.2 0.1 0.1 0.1 0.1 0.1 0.19230769230769232 0.038461538461538464 0.5769230769230769 0.038461538461538464 0.038461538461538464 0.038461538461538464 0.038461538461538464 0.038461538461538464 0.3269230769230769 0.019230769230769232 0.5576923076923077 0.019230769230769232 0.019230769230769232 0.019230769230769232 0.019230769230769232 0.019230769230769232 0.024390243902439025 0.008130081300813009 0.37398373983739835 0.008130081300813009 0.008130081300813009 0.008130081300813009 0.008130081300813009 0.5609756097560976 0.125 0.125 0.125 0.125 0.125 0.125 0.125 0.125 0.125 0.125 0.125 0.125 0.125 0.125 0.125 0.125 0.3695652173913043 0.08695652173913043 0.43478260869565216 0.021739130434782608 0.021739130434782608 0.021739130434782608 0.021739130434782608 0.021739130434782608 0.17073170731707318 0.024390243902439025 0.6829268292682927 0.024390243902439025 0.024390243902439025 0.024390243902439025 0.024390243902439025 0.024390243902439025 0.041666666666666664 0.010416666666666666 0.28125 0.010416666666666666 0.010416666666666666 0.010416666666666666 0.010416666666666666 0.625 0.125 0.125 0.125 0.125 0.125 0.125 0.125 0.125 0.18181818181818182 0.09090909090909091 0.2727272727272727 0.09090909090909091 0.09090909090909091 0.09090909090909091 0.09090909090909091 0.09090909090909091 0.26 0.06 0.56 0.04 0.02 0.02 0.02 0.02 0.3404255319148936 0.06382978723404255 0.48936170212765956 0.02127659574468085 0.02127659574468085 0.02127659574468085 0.02127659574468085 0.02127659574468085 0.01818181818181818 0.00909090909090909 0.38181818181818183 0.00909090909090909 0.00909090909090909 0.00909090909090909 0.01818181818181818 0.5454545454545454 0.125 0.125 0.125 0.125 0.125 0.125 0.125 0.125 0.23076923076923078 0.07692307692307693 0.3076923076923077 0.07692307692307693 0.07692307692307693 0.07692307692307693 0.07692307692307693 0.07692307692307693 0.1111111111111111 0.1111111111111111 0.4444444444444444 0.05555555555555555 0.1111111111111111 0.05555555555555555 0.05555555555555555 0.05555555555555555 0.3108108108108108 0.02702702702702703 0.5945945945945946 0.013513513513513514 0.013513513513513514 0.013513513513513514 0.013513513513513514 0.013513513513513514 0.05084745762711865 0.00847457627118644 0.3559322033898305 0.00847457627118644 0.00847457627118644 0.00847457627118644 0.00847457627118644 0.5508474576271186 0.125 0.125 0.125 0.125 0.125 0.125 0.125 0.125 0.18181818181818182 0.09090909090909091 0.2727272727272727 0.09090909090909091 0.09090909090909091 0.09090909090909091 0.09090909090909091 0.09090909090909091 0.14285714285714285 0.07142857142857142 0.5714285714285714 0.03571428571428571 0.07142857142857142 0.03571428571428571 0.03571428571428571 0.03571428571428571 0.19230769230769232 0.019230769230769232 0.6923076923076923 0.019230769230769232 0.019230769230769232 0.019230769230769232 0.019230769230769232 0.019230769230769232 0.007352941176470588 0.007352941176470588 0.4411764705882353 0.007352941176470588 0.007352941176470588 0.007352941176470588 0.007352941176470588 0.5147058823529411 0.125 0.125 0.125 0.125 0.125 0.125 0.125 0.125 0.2727272727272727 0.09090909090909091 0.18181818181818182 0.09090909090909091 0.09090909090909091 0.09090909090909091 0.09090909090909091 0.09090909090909091 0.16666666666666666 0.05555555555555555 0.5 0.05555555555555555 0.05555555555555555 0.05555555555555555 0.05555555555555555 0.05555555555555555 0.17647058823529413 0.014705882352941176 0.7352941176470589 0.014705882352941176 0.014705882352941176 0.014705882352941176 0.014705882352941176 0.014705882352941176 0.05 0.008333333333333333 0.4083333333333333 0.008333333333333333 0.008333333333333333 0.008333333333333333 0.016666666666666666 0.49166666666666664 0.125 0.125 0.125 0.125 0.125 0.125 0.125 0.125 0.1111111111111111 0.1111111111111111 0.2222222222222222 0.1111111111111111 0.1111111111111111 0.1111111111111111 0.1111111111111111 0.1111111111111111 0.41935483870967744 0.0967741935483871 0.3225806451612903 0.03225806451612903 0.03225806451612903 0.03225806451612903 0.03225806451612903 0.03225806451612903 0.30357142857142855 0.03571428571428571 0.5714285714285714 0.017857142857142856 0.017857142857142856 0.017857142857142856 0.017857142857142856 0.017857142857142856 0.0390625 0.015625 0.40625 0.0078125 0.0078125 0.0078125 0.015625 0.5 0.125 0.125 0.125 0.125 0.125 0.125 0.125 0.125 0.1111111111111111 0.2222222222222222 0.1111111111111111 0.1111111111111111 0.1111111111111111 0.1111111111111111 0.1111111111111111 0.1111111111111111 0.20833333333333334 0.041666666666666664 0.5416666666666666 0.041666666666666664 0.041666666666666664 0.041666666666666664 0.041666666666666664 0.041666666666666664 0.32608695652173914 0.043478260869565216 0.5217391304347826 0.021739130434782608 0.021739130434782608 0.021739130434782608 0.021739130434782608 0.021739130434782608 0.09022556390977443 0.007518796992481203 0.3609022556390977 0.007518796992481203 0.007518796992481203 0.007518796992481203 0.007518796992481203 0.5112781954887218 0.125 0.125 0.125 0.125 0.125 0.125 0.125 0.125 0.2 0.1 0.2 0.1 0.1 0.1 0.1 0.1 0.29411764705882354 0.058823529411764705 0.5 0.029411764705882353 0.029411764705882353 0.029411764705882353 0.029411764705882353 0.029411764705882353 0.328125 0.015625 0.5625 0.03125 0.015625 0.015625 0.015625 0.015625 0.0625 0.008928571428571428 0.2857142857142857 0.008928571428571428 0.008928571428571428 0.008928571428571428 0.008928571428571428 0.6071428571428571 0.125 0.125 0.125 0.125 0.125 0.125 0.125 0.125 0.1 0.1 0.3 0.1 0.1 0.1 0.1 0.1 0.40625 0.0625 0.375 0.03125 0.03125 0.03125 0.03125 0.03125 0.2857142857142857 0.05357142857142857 0.5535714285714286 0.03571428571428571 0.017857142857142856 0.017857142857142856 0.017857142857142856 0.017857142857142856 0.036231884057971016 0.014492753623188406 0.2318840579710145 0.021739130434782608 0.007246376811594203 0.007246376811594203 0.014492753623188406 0.6666666666666666 0.125 0.125 0.125 0.125 0.125 0.125 0.125 0.125 0.125 0.125 0.125 0.125 0.125 0.125 0.125 0.125 0.21052631578947367 0.13157894736842105 0.5 0.05263157894736842 0.02631578947368421 0.02631578947368421 0.02631578947368421 0.02631578947368421 0.18181818181818182 0.03636363636363636 0.6909090909090909 0.01818181818181818 0.01818181818181818 0.01818181818181818 0.01818181818181818 0.01818181818181818 0.03389830508474576 0.00847457627118644 0.3728813559322034 0.00847457627118644 0.00847457627118644 0.00847457627118644 0.00847457627118644 0.5508474576271186 0.125 0.125 0.125 0.125 0.125 0.125 0.125 0.125 0.125 0.125 0.125 0.125 0.125 0.125 0.125 0.125 0.21621621621621623 0.10810810810810811 0.5135135135135135 0.05405405405405406 0.02702702702702703 0.02702702702702703 0.02702702702702703 0.02702702702702703 0.2765957446808511 0.02127659574468085 0.574468085106383 0.0425531914893617 0.02127659574468085 0.02127659574468085 0.02127659574468085 0.02127659574468085 0.0390625 0.0078125 0.359375 0.0078125 0.0078125 0.0078125 0.0078125 0.5625 0.125 0.125 0.125 0.125 0.125 0.125 0.125 0.125 0.2727272727272727 0.09090909090909091 0.18181818181818182 0.09090909090909091 0.09090909090909091 0.09090909090909091 0.09090909090909091 0.09090909090909091 0.2222222222222222 0.05555555555555555 0.4444444444444444 0.05555555555555555 0.05555555555555555 0.05555555555555555 0.05555555555555555 0.05555555555555555 0.3333333333333333 0.0625 0.5 0.020833333333333332 0.020833333333333332 0.020833333333333332 0.020833333333333332 0.020833333333333332 0.07246376811594203 0.007246376811594203 0.38405797101449274 0.007246376811594203 0.007246376811594203 0.014492753623188406 0.014492753623188406 0.4927536231884058 0.125 0.125 0.125 0.125 0.125 0.125 0.125 0.125 0.2857142857142857 0.07142857142857142 0.2857142857142857 0.07142857142857142 0.07142857142857142 0.07142857142857142 0.07142857142857142 0.07142857142857142 0.2222222222222222 0.05555555555555555 0.4444444444444444 0.05555555555555555 0.05555555555555555 0.05555555555555555 0.05555555555555555 0.05555555555555555 0.21212121212121213 0.015151515151515152 0.696969696969697 0.015151515151515152 0.015151515151515152 0.015151515151515152 0.015151515151515152 0.015151515151515152 0.04487179487179487 0.00641025641025641 0.38461538461538464 0.00641025641025641 0.00641025641025641 0.00641025641025641 0.00641025641025641 0.5384615384615384 0.125 0.125 0.125 0.125 0.125 0.125 0.125 0.125 0.1 0.1 0.3 0.1 0.1 0.1 0.1 0.1 0.23529411764705882 0.11764705882352941 0.35294117647058826 0.058823529411764705 0.058823529411764705 0.058823529411764705 0.058823529411764705 0.058823529411764705 0.24193548387096775 0.04838709677419355 0.6290322580645161 0.016129032258064516 0.016129032258064516 0.016129032258064516 0.016129032258064516 0.016129032258064516 0.04201680672268908 0.008403361344537815 0.35294117647058826 0.008403361344537815 0.008403361344537815 0.008403361344537815 0.008403361344537815 0.5630252100840336 0.125 0.125 0.125 0.125 0.125 0.125 0.125 0.125 0.2222222222222222 0.1111111111111111 0.1111111111111111 0.1111111111111111 0.1111111111111111 0.1111111111111111 0.1111111111111111 0.1111111111111111 0.23529411764705882 0.058823529411764705 0.4117647058823529 0.058823529411764705 0.058823529411764705 0.058823529411764705 0.058823529411764705 0.058823529411764705 0.32786885245901637 0.04918032786885246 0.5409836065573771 0.01639344262295082 0.01639344262295082 0.01639344262295082 0.01639344262295082 0.01639344262295082 0.02112676056338028 0.007042253521126761 0.45774647887323944 0.007042253521126761 0.007042253521126761 0.007042253521126761 0.014084507042253521 0.4788732394366197 0.125 0.125 0.125 0.125 0.125 0.125 0.125 0.125 0.2222222222222222 0.1111111111111111 0.1111111111111111 0.1111111111111111 0.1111111111111111 0.1111111111111111 0.1111111111111111 0.1111111111111111 0.13043478260869565 0.08695652173913043 0.5652173913043478 0.043478260869565216 0.043478260869565216 0.043478260869565216 0.043478260869565216 0.043478260869565216 0.2692307692307692 0.038461538461538464 0.5961538461538461 0.019230769230769232 0.019230769230769232 0.019230769230769232 0.019230769230769232 0.019230769230769232 0.03816793893129771 0.007633587786259542 0.3511450381679389 0.007633587786259542 0.007633587786259542 0.007633587786259542 0.007633587786259542 0.5725190839694656 0.125 0.125 0.125 0.125 0.125 0.125 0.125 0.125 0.2 0.1 0.2 0.1 0.1 0.1 0.1 0.1 0.14285714285714285 0.10714285714285714 0.5714285714285714 0.03571428571428571 0.03571428571428571 0.03571428571428571 0.03571428571428571 0.03571428571428571 0.17307692307692307 0.07692307692307693 0.6538461538461539 0.019230769230769232 0.019230769230769232 0.019230769230769232 0.019230769230769232 0.019230769230769232 0.04 0.008 0.352 0.008 0.008 0.008 0.016 0.56 0.125 0.125 0.125 0.125 0.125 0.125 0.125 0.125 0.125 0.125 0.125 0.125 0.125 0.125 0.125 0.125 0.22727272727272727 0.09090909090909091 0.45454545454545453 0.045454545454545456 0.045454545454545456 0.045454545454545456 0.045454545454545456 0.045454545454545456 0.26785714285714285 0.05357142857142857 0.5714285714285714 0.03571428571428571 0.017857142857142856 0.017857142857142856 0.017857142857142856 0.017857142857142856 0.03496503496503497 0.006993006993006993 0.35664335664335667 0.006993006993006993 0.013986013986013986 0.006993006993006993 0.013986013986013986 0.5594405594405595 0.125 0.125 0.125 0.125 0.125 0.125 0.125 0.125 0.38461538461538464 0.07692307692307693 0.15384615384615385 0.07692307692307693 0.07692307692307693 0.07692307692307693 0.07692307692307693 0.07692307692307693 0.34375 0.0625 0.40625 0.0625 0.03125 0.03125 0.03125 0.03125 0.19230769230769232 0.11538461538461539 0.5576923076923077 0.057692307692307696 0.019230769230769232 0.019230769230769232 0.019230769230769232 0.019230769230769232 0.05042016806722689 0.01680672268907563 0.29411764705882354 0.008403361344537815 0.01680672268907563 0.008403361344537815 0.025210084033613446 0.5798319327731093 0.125 0.125 0.125 0.125 0.125 0.125 0.125 0.125 0.125 0.125 0.125 0.125 0.125 0.125 0.125 0.125 0.24 0.12 0.44 0.04 0.04 0.04 0.04 0.04 0.2222222222222222 0.037037037037037035 0.6296296296296297 0.037037037037037035 0.018518518518518517 0.018518518518518517 0.018518518518518517 0.018518518518518517 0.029850746268656716 0.007462686567164179 0.40298507462686567 0.007462686567164179 0.007462686567164179 0.007462686567164179 0.014925373134328358 0.5223880597014925 0.125 0.125 0.125 0.125 0.125 0.125 0.125 0.125 0.1111111111111111 0.1111111111111111 0.2222222222222222 0.1111111111111111 0.1111111111111111 0.1111111111111111 0.1111111111111111 0.1111111111111111 0.13333333333333333 0.13333333333333333 0.4 0.06666666666666667 0.06666666666666667 0.06666666666666667 0.06666666666666667 0.06666666666666667 0.3448275862068966 0.06896551724137931 0.5 0.017241379310344827 0.017241379310344827 0.017241379310344827 0.017241379310344827 0.017241379310344827 0.04929577464788732 0.007042253521126761 0.44366197183098594 0.007042253521126761 0.007042253521126761 0.014084507042253521 0.007042253521126761 0.4647887323943662 0.125 0.125 0.125 0.125 0.125 0.125 0.125 0.125 0.125 0.125 0.125 0.125 0.125 0.125 0.125 0.125 0.25 0.0625 0.375 0.0625 0.0625 0.0625 0.0625 0.0625 0.3 0.04 0.56 0.02 0.02 0.02 0.02 0.02 0.03355704697986577 0.006711409395973154 0.4161073825503356 0.006711409395973154 0.013422818791946308 0.006711409395973154 0.013422818791946308 0.5033557046979866 0.125 0.125 0.125 0.125 0.125 0.125 0.125 0.125 0.2222222222222222 0.1111111111111111 0.1111111111111111 0.1111111111111111 0.1111111111111111 0.1111111111111111 0.1111111111111111 0.1111111111111111 0.15789473684210525 0.10526315789473684 0.42105263157894735 0.10526315789473684 0.05263157894736842 0.05263157894736842 0.05263157894736842 0.05263157894736842 0.2978723404255319 0.06382978723404255 0.5319148936170213 0.02127659574468085 0.02127659574468085 0.02127659574468085 0.02127659574468085 0.02127659574468085 0.0379746835443038 0.006329113924050633 0.44936708860759494 0.006329113924050633 0.006329113924050633 0.006329113924050633 0.012658227848101266 0.47468354430379744 0.125 0.125 0.125 0.125 0.125 0.125 0.125 0.125 0.125 0.125 0.125 0.125 0.125 0.125 0.125 0.125 0.2608695652173913 0.13043478260869565 0.34782608695652173 0.08695652173913043 0.043478260869565216 0.043478260869565216 0.043478260869565216 0.043478260869565216 0.36 0.04 0.5 0.02 0.02 0.02 0.02 0.02 0.06521739130434782 0.007246376811594203 0.30434782608695654 0.014492753623188406 0.007246376811594203 0.007246376811594203 0.014492753623188406 0.5797101449275363 0.125 0.125 0.125 0.125 0.125 0.125 0.125 0.125 0.125 0.125 0.125 0.125 0.125 0.125 0.125 0.125 0.16666666666666666 0.16666666666666666 0.3888888888888889 0.05555555555555555 0.05555555555555555 0.05555555555555555 0.05555555555555555 0.05555555555555555 0.29310344827586204 0.034482758620689655 0.5862068965517241 0.017241379310344827 0.017241379310344827 0.017241379310344827 0.017241379310344827 0.017241379310344827 0.08264462809917356 0.008264462809917356 0.34710743801652894 0.008264462809917356 0.008264462809917356 0.008264462809917356 0.008264462809917356 0.5289256198347108 0.125 0.125 0.125 0.125 0.125 0.125 0.125 0.125 0.1111111111111111 0.1111111111111111 0.2222222222222222 0.1111111111111111 0.1111111111111111 0.1111111111111111 0.1111111111111111 0.1111111111111111 0.3684210526315789 0.10526315789473684 0.2631578947368421 0.05263157894736842 0.05263157894736842 0.05263157894736842 0.05263157894736842 0.05263157894736842 0.35294117647058826 0.029411764705882353 0.5147058823529411 0.04411764705882353 0.014705882352941176 0.014705882352941176 0.014705882352941176 0.014705882352941176 0.05925925925925926 0.007407407407407408 0.3333333333333333 0.007407407407407408 0.007407407407407408 0.007407407407407408 0.007407407407407408 0.5703703703703704 0.125 0.125 0.125 0.125 0.125 0.125 0.125 0.125 0.2222222222222222 0.1111111111111111 0.1111111111111111 0.1111111111111111 0.1111111111111111 0.1111111111111111 0.1111111111111111 0.1111111111111111 0.21052631578947367 0.05263157894736842 0.47368421052631576 0.05263157894736842 0.05263157894736842 0.05263157894736842 0.05263157894736842 0.05263157894736842 0.27586206896551724 0.034482758620689655 0.603448275862069 0.017241379310344827 0.017241379310344827 0.017241379310344827 0.017241379310344827 0.017241379310344827 0.056451612903225805 0.008064516129032258 0.3629032258064516 0.024193548387096774 0.008064516129032258 0.008064516129032258 0.008064516129032258 0.5241935483870968 0.125 0.125 0.125 0.125 0.125 0.125 0.125 0.125 0.125 0.125 0.125 0.125 0.125 0.125 0.125 0.125 0.35 0.05 0.35 0.05 0.05 0.05 0.05 0.05 0.2786885245901639 0.01639344262295082 0.6065573770491803 0.03278688524590164 0.01639344262295082 0.01639344262295082 0.01639344262295082 0.01639344262295082 0.050724637681159424 0.007246376811594203 0.2608695652173913 0.007246376811594203 0.007246376811594203 0.007246376811594203 0.021739130434782608 0.6376811594202898 0.125 0.125 0.125 0.125 0.125 0.125 0.125 0.125 0.2222222222222222 0.1111111111111111 0.1111111111111111 0.1111111111111111 0.1111111111111111 0.1111111111111111 0.1111111111111111 0.1111111111111111 0.2857142857142857 0.10714285714285714 0.42857142857142855 0.03571428571428571 0.03571428571428571 0.03571428571428571 0.03571428571428571 0.03571428571428571 0.23636363636363636 0.01818181818181818 0.6545454545454545 0.01818181818181818 0.01818181818181818 0.01818181818181818 0.01818181818181818 0.01818181818181818 0.02877697841726619 0.007194244604316547 0.35251798561151076 0.007194244604316547 0.007194244604316547 0.007194244604316547 0.007194244604316547 0.5827338129496403 0.125 0.125 0.125 0.125 0.125 0.125 0.125 0.125 0.16666666666666666 0.08333333333333333 0.3333333333333333 0.08333333333333333 0.08333333333333333 0.08333333333333333 0.08333333333333333 0.08333333333333333 0.2222222222222222 0.05555555555555555 0.4444444444444444 0.05555555555555555 0.05555555555555555 0.05555555555555555 0.05555555555555555 0.05555555555555555 0.45454545454545453 0.045454545454545456 0.38636363636363635 0.022727272727272728 0.022727272727272728 0.022727272727272728 0.022727272727272728 0.022727272727272728 0.0821917808219178 0.00684931506849315 0.3767123287671233 0.00684931506849315 0.02054794520547945 0.00684931506849315 0.02054794520547945 0.4794520547945205 0.125 0.125 0.125 0.125 0.125 0.125 0.125 0.125 0.1111111111111111 0.1111111111111111 0.2222222222222222 0.1111111111111111 0.1111111111111111 0.1111111111111111 0.1111111111111111 0.1111111111111111 0.3 0.1 0.1 0.1 0.1 0.1 0.1 0.1 0.37037037037037035 0.018518518518518517 0.5185185185185185 0.018518518518518517 0.018518518518518517 0.018518518518518517 0.018518518518518517 0.018518518518518517 0.03875968992248062 0.007751937984496124 0.43410852713178294 0.007751937984496124 0.007751937984496124 0.007751937984496124 0.023255813953488372 0.4728682170542636 0.125 0.125 0.125 0.125 0.125 0.125 0.125 0.125 0.3 0.1 0.1 0.1 0.1 0.1 0.1 0.1 0.05 0.05 0.6 0.1 0.05 0.05 0.05 0.05 0.3191489361702128 0.0425531914893617 0.5319148936170213 0.02127659574468085 0.02127659574468085 0.02127659574468085 0.02127659574468085 0.02127659574468085 0.05454545454545454 0.006060606060606061 0.45454545454545453 0.006060606060606061 0.006060606060606061 0.006060606060606061 0.006060606060606061 0.46060606060606063 0.125 0.125 0.125 0.125 0.125 0.125 0.125 0.125 0.125 0.125 0.125 0.125 0.125 0.125 0.125 0.125 0.26666666666666666 0.2 0.2 0.06666666666666667 0.06666666666666667 0.06666666666666667 0.06666666666666667 0.06666666666666667 0.45652173913043476 0.06521739130434782 0.3695652173913043 0.021739130434782608 0.021739130434782608 0.021739130434782608 0.021739130434782608 0.021739130434782608 0.07692307692307693 0.006993006993006993 0.4195804195804196 0.006993006993006993 0.006993006993006993 0.006993006993006993 0.013986013986013986 0.46153846153846156 0.125 0.125 0.125 0.125 0.125 0.125 0.125 0.125 0.125 0.125 0.125 0.125 0.125 0.125 0.125 0.125 0.35294117647058826 0.058823529411764705 0.29411764705882354 0.058823529411764705 0.058823529411764705 0.058823529411764705 0.058823529411764705 0.058823529411764705 0.23214285714285715 0.03571428571428571 0.6428571428571429 0.017857142857142856 0.017857142857142856 0.017857142857142856 0.017857142857142856 0.017857142857142856 0.06521739130434782 0.007246376811594203 0.37681159420289856 0.007246376811594203 0.007246376811594203 0.007246376811594203 0.014492753623188406 0.5144927536231884 0.125 0.125 0.125 0.125 0.125 0.125 0.125 0.125 0.125 0.125 0.125 0.125 0.125 0.125 0.125 0.125 0.21052631578947367 0.10526315789473684 0.42105263157894735 0.05263157894736842 0.05263157894736842 0.05263157894736842 0.05263157894736842 0.05263157894736842 0.1694915254237288 0.03389830508474576 0.711864406779661 0.01694915254237288 0.01694915254237288 0.01694915254237288 0.01694915254237288 0.01694915254237288 0.048484848484848485 0.006060606060606061 0.32727272727272727 0.012121212121212121 0.006060606060606061 0.006060606060606061 0.012121212121212121 0.5818181818181818 0.125 0.125 0.125 0.125 0.125 0.125 0.125 0.125 0.2222222222222222 0.1111111111111111 0.1111111111111111 0.1111111111111111 0.1111111111111111 0.1111111111111111 0.1111111111111111 0.1111111111111111 0.25 0.08333333333333333 0.25 0.08333333333333333 0.08333333333333333 0.08333333333333333 0.08333333333333333 0.08333333333333333 0.2631578947368421 0.05263157894736842 0.5263157894736842 0.02631578947368421 0.02631578947368421 0.02631578947368421 0.05263157894736842 0.02631578947368421 0.05263157894736842 0.006578947368421052 0.39473684210526316 0.006578947368421052 0.006578947368421052 0.006578947368421052 0.006578947368421052 0.5197368421052632 0.125 0.125 0.125 0.125 0.125 0.125 0.125 0.125 0.125 0.125 0.125 0.125 0.125 0.125 0.125 0.125 0.2 0.13333333333333333 0.3333333333333333 0.06666666666666667 0.06666666666666667 0.06666666666666667 0.06666666666666667 0.06666666666666667 0.2765957446808511 0.02127659574468085 0.5957446808510638 0.02127659574468085 0.02127659574468085 0.02127659574468085 0.02127659574468085 0.02127659574468085 0.06338028169014084 0.007042253521126761 0.4225352112676056 0.007042253521126761 0.007042253521126761 0.007042253521126761 0.014084507042253521 0.47183098591549294 0.125 0.125 0.125 0.125 0.125 0.125 0.125 0.125 0.1111111111111111 0.1111111111111111 0.2222222222222222 0.1111111111111111 0.1111111111111111 0.1111111111111111 0.1111111111111111 0.1111111111111111 0.18181818181818182 0.18181818181818182 0.4090909090909091 0.045454545454545456 0.045454545454545456 0.045454545454545456 0.045454545454545456 0.045454545454545456 0.3170731707317073 0.07317073170731707 0.4634146341463415 0.024390243902439025 0.04878048780487805 0.024390243902439025 0.024390243902439025 0.024390243902439025 0.03546099290780142 0.0070921985815602835 0.44680851063829785 0.0070921985815602835 0.0070921985815602835 0.0070921985815602835 0.028368794326241134 0.46099290780141844 0.1111111111111111 0.1111111111111111 0.2222222222222222 0.1111111111111111 0.1111111111111111 0.1111111111111111 0.1111111111111111 0.1111111111111111 0.125 0.125 0.125 0.125 0.125 0.125 0.125 0.125 0.1 0.1 0.3 0.1 0.1 0.1 0.1 0.1 0.125 0.125 0.125 0.125 0.125 0.125 0.125 0.125 0.005050505050505051 0.005050505050505051 0.13131313131313133 0.010101010101010102 0.005050505050505051 0.005050505050505051 0.005050505050505051 0.8333333333333334 0.125 0.125 0.125 0.125 0.125 0.125 0.125 0.125 0.125 0.125 0.125 0.125 0.125 0.125 0.125 0.125 0.125 0.125 0.125 0.125 0.125 0.125 0.125 0.125 0.125 0.125 0.125 0.125 0.125 0.125 0.125 0.125 0.005681818181818182 0.005681818181818182 0.14772727272727273 0.005681818181818182 0.005681818181818182 0.005681818181818182 0.005681818181818182 0.8181818181818182 0.125 0.125 0.125 0.125 0.125 0.125 0.125 0.125 0.125 0.125 0.125 0.125 0.125 0.125 0.125 0.125 0.125 0.125 0.125 0.125 0.125 0.125 0.125 0.125 0.125 0.125 0.125 0.125 0.125 0.125 0.125 0.125 0.004784688995215311 0.004784688995215311 0.14354066985645933 0.004784688995215311 0.004784688995215311 0.004784688995215311 0.004784688995215311 0.8277511961722488 0.125 0.125 0.125 0.125 0.125 0.125 0.125 0.125 0.125 0.125 0.125 0.125 0.125 0.125 0.125 0.125 0.125 0.125 0.125 0.125 0.125 0.125 0.125 0.125 0.1111111111111111 0.1111111111111111 0.2222222222222222 0.1111111111111111 0.1111111111111111 0.1111111111111111 0.1111111111111111 0.1111111111111111 0.005208333333333333 0.005208333333333333 0.11979166666666667 0.005208333333333333 0.005208333333333333 0.005208333333333333 0.005208333333333333 0.8489583333333334 0.125 0.125 0.125 0.125 0.125 0.125 0.125 0.125 0.125 0.125 0.125 0.125 0.125 0.125 0.125 0.125 0.125 0.125 0.125 0.125 0.125 0.125 0.125 0.125 0.125 0.125 0.125 0.125 0.125 0.125 0.125 0.125 0.00641025641025641 0.00641025641025641 0.19230769230769232 0.00641025641025641 0.00641025641025641 0.00641025641025641 0.00641025641025641 0.7692307692307693 0.1111111111111111 0.1111111111111111 0.2222222222222222 0.1111111111111111 0.1111111111111111 0.1111111111111111 0.1111111111111111 0.1111111111111111 0.125 0.125 0.125 0.125 0.125 0.125 0.125 0.125 0.125 0.125 0.125 0.125 0.125 0.125 0.125 0.125 0.125 0.125 0.125 0.125 0.125 0.125 0.125 0.125 0.005952380952380952 0.005952380952380952 0.14285714285714285 0.005952380952380952 0.005952380952380952 0.005952380952380952 0.005952380952380952 0.8214285714285714 0.125 0.125 0.125 0.125 0.125 0.125 0.125 0.125 0.125 0.125 0.125 0.125 0.125 0.125 0.125 0.125 0.125 0.125 0.125 0.125 0.125 0.125 0.125 0.125 0.125 0.125 0.125 0.125 0.125 0.125 0.125 0.125 0.0055248618784530384 0.0055248618784530384 0.13259668508287292 0.0055248618784530384 0.0055248618784530384 0.0055248618784530384 0.0055248618784530384 0.8342541436464088 0.125 0.125 0.125 0.125 0.125 0.125 0.125 0.125 0.125 0.125 0.125 0.125 0.125 0.125 0.125 0.125 0.125 0.125 0.125 0.125 0.125 0.125 0.125 0.125 0.125 0.125 0.125 0.125 0.125 0.125 0.125 0.125 0.006211180124223602 0.006211180124223602 0.15527950310559005 0.006211180124223602 0.006211180124223602 0.006211180124223602 0.006211180124223602 0.8074534161490683 0.125 0.125 0.125 0.125 0.125 0.125 0.125 0.125 0.125 0.125 0.125 0.125 0.125 0.125 0.125 0.125 0.125 0.125 0.125 0.125 0.125 0.125 0.125 0.125 0.1111111111111111 0.1111111111111111 0.2222222222222222 0.1111111111111111 0.1111111111111111 0.1111111111111111 0.1111111111111111 0.1111111111111111 0.0047169811320754715 0.0047169811320754715 0.10849056603773585 0.0047169811320754715 0.0047169811320754715 0.0047169811320754715 0.0047169811320754715 0.8632075471698113 0.125 0.125 0.125 0.125 0.125 0.125 0.125 0.125 0.14814814814814814 0.05555555555555555 0.7037037037037037 0.018518518518518517 0.018518518518518517 0.018518518518518517 0.018518518518518517 0.018518518518518517 0.11627906976744186 0.023255813953488372 0.7209302325581395 0.046511627906976744 0.023255813953488372 0.023255813953488372 0.023255813953488372 0.023255813953488372 0.1 0.05 0.6 0.05 0.05 0.05 0.05 0.05 0.013333333333333334 0.013333333333333334 0.28 0.013333333333333334 0.013333333333333334 0.013333333333333334 0.013333333333333334 0.64 0.125 0.125 0.125 0.125 0.125 0.125 0.125 0.125 0.13114754098360656 0.01639344262295082 0.7540983606557377 0.01639344262295082 0.03278688524590164 0.01639344262295082 0.01639344262295082 0.01639344262295082 0.044444444444444446 0.044444444444444446 0.8 0.022222222222222223 0.022222222222222223 0.022222222222222223 0.022222222222222223 0.022222222222222223 0.043478260869565216 0.043478260869565216 0.6956521739130435 0.043478260869565216 0.043478260869565216 0.043478260869565216 0.043478260869565216 0.043478260869565216 0.014705882352941176 0.014705882352941176 0.23529411764705882 0.014705882352941176 0.014705882352941176 0.014705882352941176 0.014705882352941176 0.6764705882352942 0.125 0.125 0.125 0.125 0.125 0.125 0.125 0.125 0.07547169811320754 0.018867924528301886 0.8113207547169812 0.018867924528301886 0.018867924528301886 0.018867924528301886 0.018867924528301886 0.018867924528301886 0.06666666666666667 0.044444444444444446 0.7777777777777778 0.022222222222222223 0.022222222222222223 0.022222222222222223 0.022222222222222223 0.022222222222222223 0.07142857142857142 0.07142857142857142 0.5 0.07142857142857142 0.07142857142857142 0.07142857142857142 0.07142857142857142 0.07142857142857142 0.014705882352941176 0.014705882352941176 0.17647058823529413 0.014705882352941176 0.014705882352941176 0.014705882352941176 0.014705882352941176 0.7352941176470589 0.125 0.125 0.125 0.125 0.125 0.125 0.125 0.125 0.20588235294117646 0.04411764705882353 0.6764705882352942 0.014705882352941176 0.014705882352941176 0.014705882352941176 0.014705882352941176 0.014705882352941176 0.06060606060606061 0.15151515151515152 0.6363636363636364 0.030303030303030304 0.030303030303030304 0.030303030303030304 0.030303030303030304 0.030303030303030304 0.08333333333333333 0.08333333333333333 0.4166666666666667 0.08333333333333333 0.08333333333333333 0.08333333333333333 0.08333333333333333 0.08333333333333333 0.012048192771084338 0.012048192771084338 0.3132530120481928 0.012048192771084338 0.012048192771084338 0.012048192771084338 0.012048192771084338 0.6144578313253012 0.125 0.125 0.125 0.125 0.125 0.125 0.125 0.125 0.14285714285714285 0.06349206349206349 0.7142857142857143 0.015873015873015872 0.015873015873015872 0.015873015873015872 0.015873015873015872 0.015873015873015872 0.08333333333333333 0.1111111111111111 0.6666666666666666 0.027777777777777776 0.027777777777777776 0.027777777777777776 0.027777777777777776 0.027777777777777776 0.08333333333333333 0.16666666666666666 0.3333333333333333 0.08333333333333333 0.08333333333333333 0.08333333333333333 0.08333333333333333 0.08333333333333333 0.009523809523809525 0.009523809523809525 0.2761904761904762 0.009523809523809525 0.009523809523809525 0.009523809523809525 0.009523809523809525 0.6666666666666666 0.125 0.125 0.125 0.125 0.125 0.125 0.125 0.125 0.12903225806451613 0.08064516129032258 0.7096774193548387 0.016129032258064516 0.016129032258064516 0.016129032258064516 0.016129032258064516 0.016129032258064516 0.08823529411764706 0.11764705882352941 0.6470588235294118 0.029411764705882353 0.029411764705882353 0.029411764705882353 0.029411764705882353 0.029411764705882353 0.06666666666666667 0.06666666666666667 0.5333333333333333 0.06666666666666667 0.06666666666666667 0.06666666666666667 0.06666666666666667 0.06666666666666667 0.01098901098901099 0.01098901098901099 0.27472527472527475 0.01098901098901099 0.01098901098901099 0.01098901098901099 0.01098901098901099 0.6593406593406593 0.125 0.125 0.125 0.125 0.125 0.125 0.125 0.125 0.22448979591836735 0.061224489795918366 0.6122448979591837 0.02040816326530612 0.02040816326530612 0.02040816326530612 0.02040816326530612 0.02040816326530612 0.08333333333333333 0.125 0.5833333333333334 0.041666666666666664 0.041666666666666664 0.041666666666666664 0.041666666666666664 0.041666666666666664 0.07692307692307693 0.15384615384615385 0.38461538461538464 0.07692307692307693 0.07692307692307693 0.07692307692307693 0.07692307692307693 0.07692307692307693 0.009174311926605505 0.009174311926605505 0.23853211009174313 0.009174311926605505 0.009174311926605505 0.009174311926605505 0.009174311926605505 0.7064220183486238 0.125 0.125 0.125 0.125 0.125 0.125 0.125 0.125 0.07692307692307693 0.11538461538461539 0.6923076923076923 0.038461538461538464 0.019230769230769232 0.019230769230769232 0.019230769230769232 0.019230769230769232 0.17391304347826086 0.17391304347826086 0.43478260869565216 0.043478260869565216 0.043478260869565216 0.043478260869565216 0.043478260869565216 0.043478260869565216 0.058823529411764705 0.058823529411764705 0.5294117647058824 0.11764705882352941 0.058823529411764705 0.058823529411764705 0.058823529411764705 0.058823529411764705 0.009009009009009009 0.009009009009009009 0.16216216216216217 0.009009009009009009 0.009009009009009009 0.018018018018018018 0.009009009009009009 0.7747747747747747 0.125 0.125 0.125 0.125 0.125 0.125 0.125 0.125 0.10204081632653061 0.08163265306122448 0.7142857142857143 0.02040816326530612 0.02040816326530612 0.02040816326530612 0.02040816326530612 0.02040816326530612 0.12903225806451613 0.12903225806451613 0.5806451612903226 0.03225806451612903 0.03225806451612903 0.03225806451612903 0.03225806451612903 0.03225806451612903 0.1 0.1 0.3 0.1 0.1 0.1 0.1 0.1 0.009615384615384616 0.009615384615384616 0.18269230769230768 0.009615384615384616 0.009615384615384616 0.019230769230769232 0.009615384615384616 0.75 0.125 0.125 0.125 0.125 0.125 0.125 0.125 0.125 0.22580645161290322 0.03225806451612903 0.5806451612903226 0.03225806451612903 0.03225806451612903 0.03225806451612903 0.03225806451612903 0.03225806451612903 0.2028985507246377 0.028985507246376812 0.6956521739130435 0.014492753623188406 0.014492753623188406 0.014492753623188406 0.014492753623188406 0.014492753623188406 0.16 0.04 0.6 0.04 0.04 0.04 0.04 0.04 0.012048192771084338 0.012048192771084338 0.1927710843373494 0.024096385542168676 0.012048192771084338 0.012048192771084338 0.024096385542168676 0.7108433734939759 0.125 0.125 0.125 0.125 0.125 0.125 0.125 0.125 0.18518518518518517 0.07407407407407407 0.5555555555555556 0.037037037037037035 0.037037037037037035 0.037037037037037035 0.037037037037037035 0.037037037037037035 0.17391304347826086 0.10869565217391304 0.6086956521739131 0.021739130434782608 0.021739130434782608 0.021739130434782608 0.021739130434782608 0.021739130434782608 0.037037037037037035 0.037037037037037035 0.7407407407407407 0.037037037037037035 0.037037037037037035 0.037037037037037035 0.037037037037037035 0.037037037037037035 0.012048192771084338 0.024096385542168676 0.3132530120481928 0.024096385542168676 0.024096385542168676 0.012048192771084338 0.012048192771084338 0.5783132530120482 0.125 0.125 0.125 0.125 0.125 0.125 0.125 0.125 0.25 0.08333333333333333 0.4583333333333333 0.041666666666666664 0.041666666666666664 0.041666666666666664 0.041666666666666664 0.041666666666666664 0.234375 0.0625 0.625 0.015625 0.015625 0.015625 0.015625 0.015625 0.0625 0.03125 0.75 0.03125 0.03125 0.03125 0.03125 0.03125 0.023809523809523808 0.011904761904761904 0.17857142857142858 0.011904761904761904 0.011904761904761904 0.023809523809523808 0.011904761904761904 0.7261904761904762 0.125 0.125 0.125 0.125 0.125 0.125 0.125 0.125 0.3448275862068966 0.06896551724137931 0.41379310344827586 0.034482758620689655 0.034482758620689655 0.034482758620689655 0.034482758620689655 0.034482758620689655 0.23529411764705882 0.09803921568627451 0.5686274509803921 0.0196078431372549 0.0196078431372549 0.0196078431372549 0.0196078431372549 0.0196078431372549 0.047619047619047616 0.047619047619047616 0.5714285714285714 0.14285714285714285 0.047619047619047616 0.047619047619047616 0.047619047619047616 0.047619047619047616 0.011764705882352941 0.011764705882352941 0.17647058823529413 0.011764705882352941 0.023529411764705882 0.011764705882352941 0.011764705882352941 0.7411764705882353 0.125 0.125 0.125 0.125 0.125 0.125 0.125 0.125 0.19444444444444445 0.1111111111111111 0.5555555555555556 0.027777777777777776 0.027777777777777776 0.027777777777777776 0.027777777777777776 0.027777777777777776 0.17647058823529413 0.0392156862745098 0.6862745098039216 0.0196078431372549 0.0196078431372549 0.0196078431372549 0.0196078431372549 0.0196078431372549 0.03225806451612903 0.06451612903225806 0.7096774193548387 0.06451612903225806 0.03225806451612903 0.03225806451612903 0.03225806451612903 0.03225806451612903 0.009009009009009009 0.018018018018018018 0.23423423423423423 0.009009009009009009 0.009009009009009009 0.009009009009009009 0.018018018018018018 0.6936936936936937 0.125 0.125 0.125 0.125 0.125 0.125 0.125 0.125 0.1724137931034483 0.13793103448275862 0.5172413793103449 0.034482758620689655 0.034482758620689655 0.034482758620689655 0.034482758620689655 0.034482758620689655 0.2222222222222222 0.1111111111111111 0.5740740740740741 0.018518518518518517 0.018518518518518517 0.018518518518518517 0.018518518518518517 0.018518518518518517 0.043478260869565216 0.08695652173913043 0.5652173913043478 0.13043478260869565 0.043478260869565216 0.043478260869565216 0.043478260869565216 0.043478260869565216 0.010101010101010102 0.010101010101010102 0.21212121212121213 0.010101010101010102 0.010101010101010102 0.010101010101010102 0.010101010101010102 0.7272727272727273 0.125 0.125 0.125 0.125 0.125 0.125 0.125 0.125 0.20930232558139536 0.11627906976744186 0.5581395348837209 0.023255813953488372 0.023255813953488372 0.023255813953488372 0.023255813953488372 0.023255813953488372 0.24 0.08 0.58 0.02 0.02 0.02 0.02 0.02 0.125 0.1875 0.375 0.0625 0.0625 0.0625 0.0625 0.0625 0.01020408163265306 0.01020408163265306 0.2857142857142857 0.01020408163265306 0.01020408163265306 0.01020408163265306 0.01020408163265306 0.6530612244897959 0.125 0.125 0.125 0.125 0.125 0.125 0.125 0.125 0.16666666666666666 0.14285714285714285 0.5714285714285714 0.023809523809523808 0.023809523809523808 0.023809523809523808 0.023809523809523808 0.023809523809523808 0.20454545454545456 0.045454545454545456 0.6363636363636364 0.022727272727272728 0.022727272727272728 0.022727272727272728 0.022727272727272728 0.022727272727272728 0.05555555555555555 0.05555555555555555 0.4444444444444444 0.16666666666666666 0.1111111111111111 0.05555555555555555 0.05555555555555555 0.05555555555555555 0.012658227848101266 0.012658227848101266 0.21518987341772153 0.012658227848101266 0.012658227848101266 0.012658227848101266 0.012658227848101266 0.7088607594936709 0.125 0.125 0.125 0.125 0.125 0.125 0.125 0.125 0.1111111111111111 0.08333333333333333 0.6666666666666666 0.027777777777777776 0.027777777777777776 0.027777777777777776 0.027777777777777776 0.027777777777777776 0.16 0.08 0.66 0.02 0.02 0.02 0.02 0.02 0.045454545454545456 0.045454545454545456 0.6363636363636364 0.045454545454545456 0.09090909090909091 0.045454545454545456 0.045454545454545456 0.045454545454545456 0.02631578947368421 0.008771929824561403 0.14035087719298245 0.017543859649122806 0.008771929824561403 0.017543859649122806 0.008771929824561403 0.7719298245614035 0.125 0.125 0.125 0.125 0.125 0.125 0.125 0.125 0.125 0.08333333333333333 0.5833333333333334 0.041666666666666664 0.041666666666666664 0.041666666666666664 0.041666666666666664 0.041666666666666664 0.17391304347826086 0.06521739130434782 0.6521739130434783 0.021739130434782608 0.021739130434782608 0.021739130434782608 0.021739130434782608 0.021739130434782608 0.21428571428571427 0.023809523809523808 0.6428571428571429 0.023809523809523808 0.023809523809523808 0.023809523809523808 0.023809523809523808 0.023809523809523808 0.011111111111111112 0.011111111111111112 0.18888888888888888 0.011111111111111112 0.022222222222222223 0.011111111111111112 0.011111111111111112 0.7333333333333333 0.125 0.125 0.125 0.125 0.125 0.125 0.125 0.125 0.2777777777777778 0.05555555555555555 0.3888888888888889 0.05555555555555555 0.05555555555555555 0.05555555555555555 0.05555555555555555 0.05555555555555555 0.20930232558139536 0.023255813953488372 0.6511627906976745 0.023255813953488372 0.023255813953488372 0.023255813953488372 0.023255813953488372 0.023255813953488372 0.05555555555555555 0.027777777777777776 0.7777777777777778 0.027777777777777776 0.027777777777777776 0.027777777777777776 0.027777777777777776 0.027777777777777776 0.011494252873563218 0.011494252873563218 0.21839080459770116 0.011494252873563218 0.011494252873563218 0.011494252873563218 0.011494252873563218 0.7126436781609196 0.125 0.125 0.125 0.125 0.125 0.125 0.125 0.125 0.2608695652173913 0.043478260869565216 0.4782608695652174 0.043478260869565216 0.043478260869565216 0.043478260869565216 0.043478260869565216 0.043478260869565216 0.17073170731707318 0.024390243902439025 0.6829268292682927 0.024390243902439025 0.024390243902439025 0.024390243902439025 0.024390243902439025 0.024390243902439025 0.1 0.025 0.75 0.025 0.025 0.025 0.025 0.025 0.021505376344086023 0.010752688172043012 0.1935483870967742 0.010752688172043012 0.010752688172043012 0.010752688172043012 0.010752688172043012 0.7311827956989247 0.125 0.125 0.125 0.125 0.125 0.125 0.125 0.125 0.21428571428571427 0.14285714285714285 0.2857142857142857 0.07142857142857142 0.07142857142857142 0.07142857142857142 0.07142857142857142 0.07142857142857142 0.06521739130434782 0.06521739130434782 0.7608695652173914 0.021739130434782608 0.021739130434782608 0.021739130434782608 0.021739130434782608 0.021739130434782608 0.15151515151515152 0.030303030303030304 0.6666666666666666 0.030303030303030304 0.030303030303030304 0.030303030303030304 0.030303030303030304 0.030303030303030304 0.03333333333333333 0.008333333333333333 0.2 0.008333333333333333 0.025 0.008333333333333333 0.008333333333333333 0.7083333333333334 0.125 0.125 0.125 0.125 0.125 0.125 0.125 0.125 0.0625 0.0625 0.5625 0.0625 0.0625 0.0625 0.0625 0.0625 0.09302325581395349 0.023255813953488372 0.7441860465116279 0.046511627906976744 0.023255813953488372 0.023255813953488372 0.023255813953488372 0.023255813953488372 0.1 0.06666666666666667 0.6666666666666666 0.03333333333333333 0.03333333333333333 0.03333333333333333 0.03333333333333333 0.03333333333333333 0.02702702702702703 0.009009009009009009 0.23423423423423423 0.009009009009009009 0.018018018018018018 0.009009009009009009 0.018018018018018018 0.6756756756756757 0.125 0.125 0.125 0.125 0.125 0.125 0.125 0.125 0.15789473684210525 0.10526315789473684 0.47368421052631576 0.05263157894736842 0.05263157894736842 0.05263157894736842 0.05263157894736842 0.05263157894736842 0.1791044776119403 0.014925373134328358 0.7164179104477612 0.014925373134328358 0.029850746268656716 0.014925373134328358 0.014925373134328358 0.014925373134328358 0.045454545454545456 0.045454545454545456 0.6818181818181818 0.045454545454545456 0.045454545454545456 0.045454545454545456 0.045454545454545456 0.045454545454545456 0.00980392156862745 0.00980392156862745 0.17647058823529413 0.00980392156862745 0.00980392156862745 0.00980392156862745 0.00980392156862745 0.7647058823529411 0.125 0.125 0.125 0.125 0.125 0.125 0.125 0.125 0.07692307692307693 0.15384615384615385 0.38461538461538464 0.07692307692307693 0.07692307692307693 0.07692307692307693 0.07692307692307693 0.07692307692307693 0.1568627450980392 0.058823529411764705 0.6666666666666666 0.0392156862745098 0.0196078431372549 0.0196078431372549 0.0196078431372549 0.0196078431372549 0.030303030303030304 0.030303030303030304 0.7878787878787878 0.030303030303030304 0.030303030303030304 0.030303030303030304 0.030303030303030304 0.030303030303030304 0.016666666666666666 0.008333333333333333 0.18333333333333332 0.008333333333333333 0.016666666666666666 0.008333333333333333 0.008333333333333333 0.75 0.125 0.125 0.125 0.125 0.125 0.125 0.125 0.125 0.05 0.25 0.45 0.05 0.05 0.05 0.05 0.05 0.2857142857142857 0.10204081632653061 0.46938775510204084 0.061224489795918366 0.02040816326530612 0.02040816326530612 0.02040816326530612 0.02040816326530612 0.045454545454545456 0.045454545454545456 0.6363636363636364 0.09090909090909091 0.045454545454545456 0.045454545454545456 0.045454545454545456 0.045454545454545456 0.02 0.01 0.21 0.01 0.01 0.01 0.01 0.72 0.125 0.125 0.125 0.125 0.125 0.125 0.125 0.125 0.3157894736842105 0.21052631578947367 0.21052631578947367 0.05263157894736842 0.05263157894736842 0.05263157894736842 0.05263157894736842 0.05263157894736842 0.10909090909090909 0.10909090909090909 0.6909090909090909 0.01818181818181818 0.01818181818181818 0.01818181818181818 0.01818181818181818 0.01818181818181818 0.08333333333333333 0.08333333333333333 0.625 0.041666666666666664 0.041666666666666664 0.041666666666666664 0.041666666666666664 0.041666666666666664 0.008264462809917356 0.008264462809917356 0.1487603305785124 0.008264462809917356 0.01652892561983471 0.008264462809917356 0.008264462809917356 0.7933884297520661 0.125 0.125 0.125 0.125 0.125 0.125 0.125 0.125 0.25 0.041666666666666664 0.5 0.041666666666666664 0.041666666666666664 0.041666666666666664 0.041666666666666664 0.041666666666666664 0.25 0.027777777777777776 0.5277777777777778 0.08333333333333333 0.027777777777777776 0.027777777777777776 0.027777777777777776 0.027777777777777776 0.16129032258064516 0.03225806451612903 0.5806451612903226 0.03225806451612903 0.0967741935483871 0.03225806451612903 0.03225806451612903 0.03225806451612903 0.012345679012345678 0.012345679012345678 0.19753086419753085 0.012345679012345678 0.024691358024691357 0.012345679012345678 0.012345679012345678 0.7160493827160493 0.125 0.125 0.125 0.125 0.125 0.125 0.125 0.125 0.2222222222222222 0.05555555555555555 0.4444444444444444 0.05555555555555555 0.05555555555555555 0.05555555555555555 0.05555555555555555 0.05555555555555555 0.16129032258064516 0.03225806451612903 0.5806451612903226 0.06451612903225806 0.03225806451612903 0.03225806451612903 0.06451612903225806 0.03225806451612903 0.13953488372093023 0.023255813953488372 0.7209302325581395 0.023255813953488372 0.023255813953488372 0.023255813953488372 0.023255813953488372 0.023255813953488372 0.010416666666666666 0.010416666666666666 0.20833333333333334 0.020833333333333332 0.010416666666666666 0.010416666666666666 0.020833333333333332 0.7083333333333334 0.125 0.125 0.125 0.125 0.125 0.125 0.125 0.125 0.23809523809523808 0.09523809523809523 0.42857142857142855 0.047619047619047616 0.047619047619047616 0.047619047619047616 0.047619047619047616 0.047619047619047616 0.21428571428571427 0.03571428571428571 0.5714285714285714 0.03571428571428571 0.03571428571428571 0.03571428571428571 0.03571428571428571 0.03571428571428571 0.14285714285714285 0.02040816326530612 0.7142857142857143 0.04081632653061224 0.02040816326530612 0.02040816326530612 0.02040816326530612 0.02040816326530612 0.010101010101010102 0.010101010101010102 0.1919191919191919 0.010101010101010102 0.010101010101010102 0.010101010101010102 0.010101010101010102 0.7474747474747475 0.125 0.125 0.125 0.125 0.125 0.125 0.125 0.125 0.18181818181818182 0.09090909090909091 0.2727272727272727 0.09090909090909091 0.09090909090909091 0.09090909090909091 0.09090909090909091 0.09090909090909091 0.23076923076923078 0.10256410256410256 0.5384615384615384 0.02564102564102564 0.02564102564102564 0.02564102564102564 0.02564102564102564 0.02564102564102564 0.13513513513513514 0.10810810810810811 0.5945945945945946 0.05405405405405406 0.02702702702702703 0.02702702702702703 0.02702702702702703 0.02702702702702703 0.009615384615384616 0.009615384615384616 0.18269230769230768 0.009615384615384616 0.009615384615384616 0.009615384615384616 0.009615384615384616 0.7596153846153846 0.125 0.125 0.125 0.125 0.125 0.125 0.125 0.125 0.16666666666666666 0.16666666666666666 0.25 0.08333333333333333 0.08333333333333333 0.08333333333333333 0.08333333333333333 0.08333333333333333 0.30952380952380953 0.047619047619047616 0.5238095238095238 0.023809523809523808 0.023809523809523808 0.023809523809523808 0.023809523809523808 0.023809523809523808 0.10344827586206896 0.10344827586206896 0.6206896551724138 0.034482758620689655 0.034482758620689655 0.034482758620689655 0.034482758620689655 0.034482758620689655 0.008849557522123894 0.008849557522123894 0.25663716814159293 0.008849557522123894 0.008849557522123894 0.008849557522123894 0.017699115044247787 0.6814159292035398 0.125 0.125 0.125 0.125 0.125 0.125 0.125 0.125 0.15384615384615385 0.15384615384615385 0.3076923076923077 0.07692307692307693 0.07692307692307693 0.07692307692307693 0.07692307692307693 0.07692307692307693 0.21052631578947367 0.05263157894736842 0.5789473684210527 0.02631578947368421 0.05263157894736842 0.02631578947368421 0.02631578947368421 0.02631578947368421 0.038461538461538464 0.038461538461538464 0.7307692307692307 0.038461538461538464 0.038461538461538464 0.038461538461538464 0.038461538461538464 0.038461538461538464 0.007936507936507936 0.007936507936507936 0.18253968253968253 0.015873015873015872 0.007936507936507936 0.007936507936507936 0.007936507936507936 0.7619047619047619 0.125 0.125 0.125 0.125 0.125 0.125 0.125 0.125 0.13333333333333333 0.13333333333333333 0.4 0.06666666666666667 0.06666666666666667 0.06666666666666667 0.06666666666666667 0.06666666666666667 0.3404255319148936 0.0851063829787234 0.46808510638297873 0.02127659574468085 0.02127659574468085 0.02127659574468085 0.02127659574468085 0.02127659574468085 0.05 0.025 0.8 0.025 0.025 0.025 0.025 0.025 0.009174311926605505 0.009174311926605505 0.11926605504587157 0.009174311926605505 0.009174311926605505 0.009174311926605505 0.027522935779816515 0.8073394495412844 0.125 0.125 0.125 0.125 0.125 0.125 0.125 0.125 0.25 0.0625 0.375 0.0625 0.0625 0.0625 0.0625 0.0625 0.2558139534883721 0.046511627906976744 0.5813953488372093 0.023255813953488372 0.023255813953488372 0.023255813953488372 0.023255813953488372 0.023255813953488372 0.12903225806451613 0.06451612903225806 0.6451612903225806 0.03225806451612903 0.03225806451612903 0.03225806451612903 0.03225806451612903 0.03225806451612903 0.007751937984496124 0.007751937984496124 0.18604651162790697 0.007751937984496124 0.007751937984496124 0.007751937984496124 0.007751937984496124 0.7674418604651163 0.125 0.125 0.125 0.125 0.125 0.125 0.125 0.125 0.23076923076923078 0.15384615384615385 0.23076923076923078 0.07692307692307693 0.07692307692307693 0.07692307692307693 0.07692307692307693 0.07692307692307693 0.20454545454545456 0.11363636363636363 0.5227272727272727 0.06818181818181818 0.022727272727272728 0.022727272727272728 0.022727272727272728 0.022727272727272728 0.0625 0.0625 0.625 0.125 0.03125 0.03125 0.03125 0.03125 0.010309278350515464 0.010309278350515464 0.18556701030927836 0.010309278350515464 0.020618556701030927 0.010309278350515464 0.010309278350515464 0.7422680412371134 0.125 0.125 0.125 0.125 0.125 0.125 0.125 0.125 0.15789473684210525 0.05263157894736842 0.5263157894736842 0.05263157894736842 0.05263157894736842 0.05263157894736842 0.05263157894736842 0.05263157894736842 0.17391304347826086 0.08695652173913043 0.43478260869565216 0.08695652173913043 0.043478260869565216 0.08695652173913043 0.043478260869565216 0.043478260869565216 0.13636363636363635 0.022727272727272728 0.7272727272727273 0.022727272727272728 0.022727272727272728 0.022727272727272728 0.022727272727272728 0.022727272727272728 0.017391304347826087 0.008695652173913044 0.17391304347826086 0.008695652173913044 0.017391304347826087 0.017391304347826087 0.008695652173913044 0.7478260869565218 0.125 0.125 0.125 0.125 0.125 0.125 0.125 0.125 0.10526315789473684 0.10526315789473684 0.5263157894736842 0.05263157894736842 0.05263157894736842 0.05263157894736842 0.05263157894736842 0.05263157894736842 0.09523809523809523 0.047619047619047616 0.5714285714285714 0.09523809523809523 0.047619047619047616 0.047619047619047616 0.047619047619047616 0.047619047619047616 0.1111111111111111 0.022222222222222223 0.7333333333333333 0.022222222222222223 0.044444444444444446 0.022222222222222223 0.022222222222222223 0.022222222222222223 0.00819672131147541 0.00819672131147541 0.20491803278688525 0.00819672131147541 0.01639344262295082 0.00819672131147541 0.00819672131147541 0.7377049180327869 0.125 0.125 0.125 0.125 0.125 0.125 0.125 0.125 0.1 0.2 0.2 0.1 0.1 0.1 0.1 0.1 0.17391304347826086 0.043478260869565216 0.5652173913043478 0.043478260869565216 0.043478260869565216 0.043478260869565216 0.043478260869565216 0.043478260869565216 0.14893617021276595 0.02127659574468085 0.7021276595744681 0.0425531914893617 0.02127659574468085 0.02127659574468085 0.02127659574468085 0.02127659574468085 0.008403361344537815 0.008403361344537815 0.21008403361344538 0.008403361344537815 0.01680672268907563 0.01680672268907563 0.008403361344537815 0.7226890756302521 0.125 0.125 0.125 0.125 0.125 0.125 0.125 0.125 0.18181818181818182 0.09090909090909091 0.2727272727272727 0.09090909090909091 0.09090909090909091 0.09090909090909091 0.09090909090909091 0.09090909090909091 0.08695652173913043 0.043478260869565216 0.6521739130434783 0.043478260869565216 0.043478260869565216 0.043478260869565216 0.043478260869565216 0.043478260869565216 0.11627906976744186 0.023255813953488372 0.7209302325581395 0.046511627906976744 0.023255813953488372 0.023255813953488372 0.023255813953488372 0.023255813953488372 0.016666666666666666 0.008333333333333333 0.13333333333333333 0.008333333333333333 0.016666666666666666 0.008333333333333333 0.008333333333333333 0.8 0.125 0.125 0.125 0.125 0.125 0.125 0.125 0.125 0.125 0.125 0.125 0.125 0.125 0.125 0.125 0.125 0.2916666666666667 0.08333333333333333 0.4166666666666667 0.041666666666666664 0.041666666666666664 0.041666666666666664 0.041666666666666664 0.041666666666666664 0.06451612903225806 0.03225806451612903 0.7096774193548387 0.06451612903225806 0.03225806451612903 0.03225806451612903 0.03225806451612903 0.03225806451612903 0.014705882352941176 0.007352941176470588 0.13970588235294118 0.014705882352941176 0.022058823529411766 0.007352941176470588 0.007352941176470588 0.7867647058823529 0.125 0.125 0.125 0.125 0.125 0.125 0.125 0.125 0.09090909090909091 0.09090909090909091 0.36363636363636365 0.09090909090909091 0.09090909090909091 0.09090909090909091 0.09090909090909091 0.09090909090909091 0.14285714285714285 0.17857142857142858 0.5 0.03571428571428571 0.03571428571428571 0.03571428571428571 0.03571428571428571 0.03571428571428571 0.06666666666666667 0.03333333333333333 0.7333333333333333 0.03333333333333333 0.03333333333333333 0.03333333333333333 0.03333333333333333 0.03333333333333333 0.01652892561983471 0.008264462809917356 0.15702479338842976 0.008264462809917356 0.01652892561983471 0.008264462809917356 0.008264462809917356 0.7768595041322314 0.125 0.125 0.125 0.125 0.125 0.125 0.125 0.125 0.09090909090909091 0.18181818181818182 0.2727272727272727 0.09090909090909091 0.09090909090909091 0.09090909090909091 0.09090909090909091 0.09090909090909091 0.14285714285714285 0.10714285714285714 0.5357142857142857 0.07142857142857142 0.03571428571428571 0.03571428571428571 0.03571428571428571 0.03571428571428571 0.0967741935483871 0.03225806451612903 0.6774193548387096 0.06451612903225806 0.03225806451612903 0.03225806451612903 0.03225806451612903 0.03225806451612903 0.017543859649122806 0.008771929824561403 0.08771929824561403 0.02631578947368421 0.008771929824561403 0.008771929824561403 0.008771929824561403 0.8333333333333334 0.125 0.125 0.125 0.125 0.125 0.125 0.125 0.125 0.21428571428571427 0.2857142857142857 0.14285714285714285 0.07142857142857142 0.07142857142857142 0.07142857142857142 0.07142857142857142 0.07142857142857142 0.15384615384615385 0.10256410256410256 0.5897435897435898 0.05128205128205128 0.02564102564102564 0.02564102564102564 0.02564102564102564 0.02564102564102564 0.08333333333333333 0.041666666666666664 0.5416666666666666 0.125 0.08333333333333333 0.041666666666666664 0.041666666666666664 0.041666666666666664 0.027522935779816515 0.009174311926605505 0.1651376146788991 0.009174311926605505 0.01834862385321101 0.009174311926605505 0.009174311926605505 0.7522935779816514 0.125 0.125 0.125 0.125 0.125 0.125 0.125 0.125 0.08333333333333333 0.3333333333333333 0.16666666666666666 0.08333333333333333 0.08333333333333333 0.08333333333333333 0.08333333333333333 0.08333333333333333 0.2222222222222222 0.08888888888888889 0.5777777777777777 0.022222222222222223 0.022222222222222223 0.022222222222222223 0.022222222222222223 0.022222222222222223 0.05714285714285714 0.05714285714285714 0.6857142857142857 0.05714285714285714 0.05714285714285714 0.02857142857142857 0.02857142857142857 0.02857142857142857 0.0078125 0.0078125 0.125 0.0078125 0.0078125 0.015625 0.0078125 0.8203125 0.125 0.125 0.125 0.125 0.125 0.125 0.125 0.125 0.2222222222222222 0.16666666666666666 0.3333333333333333 0.05555555555555555 0.05555555555555555 0.05555555555555555 0.05555555555555555 0.05555555555555555 0.28 0.04 0.48 0.04 0.04 0.04 0.04 0.04 0.2 0.02857142857142857 0.6285714285714286 0.02857142857142857 0.02857142857142857 0.02857142857142857 0.02857142857142857 0.02857142857142857 0.029197080291970802 0.0072992700729927005 0.1897810218978102 0.0072992700729927005 0.0072992700729927005 0.014598540145985401 0.0072992700729927005 0.7372262773722628 0.125 0.125 0.125 0.125 0.125 0.125 0.125 0.125 0.125 0.125 0.125 0.125 0.125 0.125 0.125 0.125 0.13636363636363635 0.045454545454545456 0.5909090909090909 0.045454545454545456 0.045454545454545456 0.045454545454545456 0.045454545454545456 0.045454545454545456 0.07894736842105263 0.02631578947368421 0.7631578947368421 0.02631578947368421 0.02631578947368421 0.02631578947368421 0.02631578947368421 0.02631578947368421 0.008695652173913044 0.008695652173913044 0.24347826086956523 0.017391304347826087 0.008695652173913044 0.008695652173913044 0.008695652173913044 0.6956521739130435 0.125 0.125 0.125 0.125 0.125 0.125 0.125 0.125 0.1 0.1 0.3 0.1 0.1 0.1 0.1 0.1 0.21052631578947367 0.10526315789473684 0.42105263157894735 0.05263157894736842 0.05263157894736842 0.05263157894736842 0.05263157894736842 0.05263157894736842 0.2 0.02857142857142857 0.6285714285714286 0.02857142857142857 0.02857142857142857 0.02857142857142857 0.02857142857142857 0.02857142857142857 0.01639344262295082 0.00819672131147541 0.23770491803278687 0.01639344262295082 0.01639344262295082 0.00819672131147541 0.00819672131147541 0.6885245901639344 0.125 0.125 0.125 0.125 0.125 0.125 0.125 0.125 0.18181818181818182 0.09090909090909091 0.2727272727272727 0.09090909090909091 0.09090909090909091 0.09090909090909091 0.09090909090909091 0.09090909090909091 0.2222222222222222 0.16666666666666666 0.3333333333333333 0.05555555555555555 0.05555555555555555 0.05555555555555555 0.05555555555555555 0.05555555555555555 0.15151515151515152 0.030303030303030304 0.6666666666666666 0.030303030303030304 0.030303030303030304 0.030303030303030304 0.030303030303030304 0.030303030303030304 0.006896551724137931 0.006896551724137931 0.15172413793103448 0.013793103448275862 0.006896551724137931 0.006896551724137931 