<?xml version="1.0" encoding="ISO-8859-1"?>
<smile version="1.0" id="Network2" numsamples="1234">
<nodes>
<cpt id="h_1">
<state id="s3"/>
<state id="s4"/>
<state id="s5"/>
<state id="s10"/>
<state id="s11"/>
<state id="s12"/>
<state id="s15"/>
<state id="s16"/>
<state id="s17"/>
<parents></parents>
<probabilities>0.1103030303030303 0.10666666666666667 0.10707070707070707 0.11252525252525253 0.1206060606060606 0.11191919191919192 0.10707070707070707 0.11414141414141414 0.1096969696969697</probabilities>
</cpt>
<cpt id="increm_cost_z">
<state id="s0"/>
<state id="s10"/>
<state id="s20"/>
<state id="s30"/>
<state id="s40"/>
<state id="s50"/>
<state id="s60"/>
<state id="s70"/>
<state id="s80"/>
<state id="s90"/>
<parents>h_1 </parents>
<probabilities>0.09172661870503597 0.08273381294964029 0.1223021582733813 0.11151079136690648 0.11870503597122302 0.10611510791366907 0.08273381294964029 0.08812949640287769 0.09712230215827339 0.09892086330935251 0.10223048327137546 0.08178438661710037 0.09851301115241635 0.13011152416356878 0.10408921933085502 0.08550185873605948 0.10223048327137546 0.08736059479553904 0.09851301115241635 0.10966542750929369 0.09444444444444444 0.08518518518518518 0.10185185185185185 0.11851851851851852 0.0962962962962963 0.0962962962962963 0.11481481481481481 0.09444444444444444 0.1111111111111111 0.08703703703703704 0.09876543209876543 0.09523809523809523 0.09171075837742504 0.09876543209876543 0.10405643738977072 0.09523809523809523 0.10758377425044091 0.08994708994708994 0.1146384479717813 0.10405643738977072 0.09719934102141681 0.09225700164744646 0.11202635914332784 0.09390444810543658 0.09060955518945635 0.08237232289950576 0.12191103789126853 0.12685337726523888 0.09390444810543658 0.08896210873146623 0.10815602836879433 0.12234042553191489 0.09042553191489362 0.10815602836879433 0.0975177304964539 0.11347517730496454 0.07446808510638298 0.09042553191489362 0.09574468085106383 0.09929078014184398 0.12962962962962962 0.07222222222222222 0.11296296296296296 0.07962962962962963 0.10740740740740741 0.09259259259259259 0.0962962962962963 0.1037037037037037 0.09259259259259259 0.11296296296296296 0.08869565217391304 0.08347826086956522 0.12347826086956522 0.10608695652173913 0.0782608695652174 0.10434782608695652 0.09043478260869565 0.10260869565217391 0.10086956521739131 0.12173913043478261 0.10669077757685352 0.081374321880651 0.10669077757685352 0.09945750452079566 0.12839059674502712 0.09945750452079566 0.10307414104882459 0.08499095840867993 0.09403254972875226 0.09584086799276673</probabilities>
</cpt>
<cpt id="c_z_ratio_quantiled">
<state id="s0_2"/>
<state id="s0_3"/>
<state id="s0_5"/>
<state id="s1_0"/>
<parents>increm_cost_z h_1 </parents>
<probabilities>0.12962962962962962 0.018518518518518517 0.018518518518518517 0.8333333333333334 0.08620689655172414 0.017241379310344827 0.017241379310344827 0.8793103448275862 0.14814814814814814 0.018518518518518517 0.018518518518518517 0.8148148148148148 0.1016949152542373 0.01694915254237288 0.01694915254237288 0.864406779661017 0.0967741935483871 0.016129032258064516 0.016129032258064516 0.8709677419354839 0.078125 0.015625 0.015625 0.890625 0.0958904109589041 0.0136986301369863 0.0136986301369863 0.8767123287671232 0.05555555555555555 0.018518518518518517 0.018518518518518517 0.9074074074074074 0.0967741935483871 0.016129032258064516 0.016129032258064516 0.8709677419354839 0.10204081632653061 0.061224489795918366 0.061224489795918366 0.7755102040816326 0.0851063829787234 0.14893617021276595 0.1276595744680851 0.6382978723404256 0.08163265306122448 0.14285714285714285 0.1836734693877551 0.5918367346938775 0.14035087719298245 0.07017543859649122 0.15789473684210525 0.631578947368421 0.15254237288135594 0.11864406779661017 0.05084745762711865 0.6779661016949152 0.08333333333333333 0.125 0.1388888888888889 0.6527777777777778 0.16666666666666666 0.09523809523809523 0.047619047619047616 0.6904761904761905 0.11764705882352941 0.13725490196078433 0.0392156862745098 0.7058823529411765 0.125 0.14583333333333334 0.14583333333333334 0.5833333333333334 0.07042253521126761 0.19718309859154928 0.29577464788732394 0.43661971830985913 0.08928571428571429 0.17857142857142858 0.26785714285714285 0.4642857142857143 0.08620689655172414 0.1896551724137931 0.2413793103448276 0.4827586206896552 0.03636363636363636 0.18181818181818182 0.2909090909090909 0.4909090909090909 0.14084507042253522 0.2535211267605634 0.18309859154929578 0.4225352112676056 0.07407407407407407 0.24074074074074073 0.2037037037037037 0.48148148148148145 0.140625 0.203125 0.21875 0.4375 0.10810810810810811 0.24324324324324326 0.25675675675675674 0.3918918918918919 0.0967741935483871 0.1935483870967742 0.25806451612903225 0.45161290322580644 0.12307692307692308 0.15384615384615385 0.38461538461538464 0.3384615384615385 0.2054794520547945 0.2602739726027397 0.2876712328767123 0.2465753424657534 0.22388059701492538 0.2537313432835821 0.23880597014925373 0.2835820895522388 0.22033898305084745 0.23728813559322035 0.3050847457627119 0.23728813559322035 0.26666666666666666 0.21666666666666667 0.3 0.21666666666666667 0.15625 0.25 0.265625 0.328125 0.2608695652173913 0.13043478260869565 0.391304347826087 0.21739130434782608 0.15625 0.234375 0.421875 0.1875 0.1724137931034483 0.1724137931034483 0.3275862068965517 0.3275862068965517 0.14492753623188406 0.30434782608695654 0.5362318840579711 0.014492753623188406 0.11864406779661017 0.3559322033898305 0.5084745762711864 0.01694915254237288 0.23636363636363636 0.3090909090909091 0.43636363636363634 0.01818181818181818 0.1935483870967742 0.27419354838709675 0.5161290322580645 0.016129032258064516 0.27586206896551724 0.29310344827586204 0.41379310344827586 0.017241379310344827 0.22413793103448276 0.25862068965517243 0.5 0.017241379310344827 0.26229508196721313 0.29508196721311475 0.4262295081967213 0.01639344262295082 0.10416666666666667 0.2916666666666667 0.5833333333333334 0.020833333333333332 0.1891891891891892 0.32432432432432434 0.47297297297297297 0.013513513513513514 0.27419354838709675 0.3387096774193548 0.3709677419354839 0.016129032258064516 0.2653061224489796 0.2857142857142857 0.42857142857142855 0.02040816326530612 0.2 0.23636363636363636 0.5454545454545454 0.01818181818181818 0.3684210526315789 0.24561403508771928 0.3684210526315789 0.017543859649122806 0.2641509433962264 0.3584905660377358 0.3584905660377358 0.018867924528301886 0.3582089552238806 0.2537313432835821 0.373134328358209 0.014925373134328358 0.37735849056603776 0.2641509433962264 0.33962264150943394 0.018867924528301886 0.23809523809523808 0.3492063492063492 0.3968253968253968 0.015873015873015872 0.3620689655172414 0.25862068965517243 0.3620689655172414 0.017241379310344827 0.32653061224489793 0.2857142857142857 0.3673469387755102 0.02040816326530612 0.25862068965517243 0.3793103448275862 0.3448275862068966 0.017241379310344827 0.24615384615384617 0.49230769230769234 0.24615384615384617 0.015384615384615385 0.21875 0.40625 0.359375 0.015625 0.2857142857142857 0.37662337662337664 0.3246753246753247 0.012987012987012988 0.17777777777777778 0.4444444444444444 0.35555555555555557 0.022222222222222223 0.2727272727272727 0.36363636363636365 0.34545454545454546 0.01818181818181818 0.36363636363636365 0.3090909090909091 0.3090909090909091 0.01818181818181818 0.36666666666666664 0.31666666666666665 0.3 0.016666666666666666 0.4230769230769231 0.3269230769230769 0.23076923076923078 0.019230769230769232 0.4 0.4 0.18 0.02 0.3888888888888889 0.3888888888888889 0.2037037037037037 0.018518518518518517 0.42592592592592593 0.3148148148148148 0.24074074074074073 0.018518518518518517 0.3875 0.4375 0.1625 0.0125 0.46296296296296297 0.4074074074074074 0.1111111111111111 0.018518518518518517 0.4915254237288136 0.3050847457627119 0.1864406779661017 0.01694915254237288 0.45161290322580644 0.3709677419354839 0.16129032258064516 0.016129032258064516 0.4 0.42 0.16 0.02 0.2982456140350877 0.6140350877192983 0.07017543859649122 0.017543859649122806 0.35714285714285715 0.5178571428571429 0.10714285714285714 0.017857142857142856 0.38095238095238093 0.47619047619047616 0.12698412698412698 0.015873015873015872 0.39705882352941174 0.5294117647058824 0.058823529411764705 0.014705882352941176 0.31666666666666665 0.5333333333333333 0.13333333333333333 0.016666666666666666 0.40350877192982454 0.45614035087719296 0.12280701754385964 0.017543859649122806 0.4528301886792453 0.4528301886792453 0.07547169811320754 0.018867924528301886 0.4262295081967213 0.36065573770491804 0.19672131147540983 0.01639344262295082 0.36363636363636365 0.5454545454545454 0.07272727272727272 0.01818181818181818 0.4482758620689655 0.5172413793103449 0.017241379310344827 0.017241379310344827 0.45161290322580644 0.5161290322580645 0.016129032258064516 0.016129032258064516 0.36 0.6 0.02 0.02 0.2903225806451613 0.6774193548387096 0.016129032258064516 0.016129032258064516 0.43859649122807015 0.5263157894736842 0.017543859649122806 0.017543859649122806 0.3220338983050847 0.6440677966101694 0.01694915254237288 0.01694915254237288 0.46875 0.5 0.015625 0.015625 0.3698630136986301 0.6027397260273972 0.0136986301369863 0.0136986301369863 0.4642857142857143 0.5 0.017857142857142856 0.017857142857142856</probabilities>
</cpt>
<cpt id="ship_cost_c">
<state id="s0"/>
<state id="s5"/>
<state id="s10"/>
<state id="s15"/>
<state id="s20"/>
<state id="s25"/>
<state id="s30"/>
<state id="s35"/>
<state id="s40"/>
<state id="s45"/>
<parents>c_z_ratio_quantiled increm_cost_z h_1 </parents>
<probabilities>0.4375 0.0625 0.0625 0.0625 0.0625 0.0625 0.0625 0.0625 0.0625 0.0625 0.35714285714285715 0.07142857142857142 0.07142857142857142 0.07142857142857142 0.07142857142857142 0.07142857142857142 0.07142857142857142 0.07142857142857142 0.07142857142857142 0.07142857142857142 0.47058823529411764 0.058823529411764705 0.058823529411764705 0.058823529411764705 0.058823529411764705 0.058823529411764705 0.058823529411764705 0.058823529411764705 0.058823529411764705 0.058823529411764705 0.4 0.06666666666666667 0.06666666666666667 0.06666666666666667 0.06666666666666667 0.06666666666666667 0.06666666666666667 0.06666666666666667 0.06666666666666667 0.06666666666666667 0.4 0.06666666666666667 0.06666666666666667 0.06666666666666667 0.06666666666666667 0.06666666666666667 0.06666666666666667 0.06666666666666667 0.06666666666666667 0.06666666666666667 0.35714285714285715 0.07142857142857142 0.07142857142857142 0.07142857142857142 0.07142857142857142 0.07142857142857142 0.07142857142857142 0.07142857142857142 0.07142857142857142 0.07142857142857142 0.4375 0.0625 0.0625 0.0625 0.0625 0.0625 0.0625 0.0625 0.0625 0.0625 0.25 0.08333333333333333 0.08333333333333333 0.08333333333333333 0.08333333333333333 0.08333333333333333 0.08333333333333333 0.08333333333333333 0.08333333333333333 0.08333333333333333 0.4 0.06666666666666667 0.06666666666666667 0.06666666666666667 0.06666666666666667 0.06666666666666667 0.06666666666666667 0.06666666666666667 0.06666666666666667 0.06666666666666667 0.35714285714285715 0.07142857142857142 0.07142857142857142 0.07142857142857142 0.07142857142857142 0.07142857142857142 0.07142857142857142 0.07142857142857142 0.07142857142857142 0.07142857142857142 0.3076923076923077 0.07692307692307693 0.07692307692307693 0.07692307692307693 0.07692307692307693 0.07692307692307693 0.07692307692307693 0.07692307692307693 0.07692307692307693 0.07692307692307693 0.3076923076923077 0.07692307692307693 0.07692307692307693 0.07692307692307693 0.07692307692307693 0.07692307692307693 0.07692307692307693 0.07692307692307693 0.07692307692307693 0.07692307692307693 0.47058823529411764 0.058823529411764705 0.058823529411764705 0.058823529411764705 0.058823529411764705 0.058823529411764705 0.058823529411764705 0.058823529411764705 0.058823529411764705 0.058823529411764705 0.5 0.05555555555555555 0.05555555555555555 0.05555555555555555 0.05555555555555555 0.05555555555555555 0.05555555555555555 0.05555555555555555 0.05555555555555555 0.05555555555555555 0.4 0.06666666666666667 0.06666666666666667 0.06666666666666667 0.06666666666666667 0.06666666666666667 0.06666666666666667 0.06666666666666667 0.06666666666666667 0.06666666666666667 0.4375 0.0625 0.0625 0.0625 0.0625 0.0625 0.0625 0.0625 0.0625 0.0625 0.4 0.06666666666666667 0.06666666666666667 0.06666666666666667 0.06666666666666667 0.06666666666666667 0.06666666666666667 0.06666666666666667 0.06666666666666667 0.06666666666666667 0.4 0.06666666666666667 0.06666666666666667 0.06666666666666667 0.06666666666666667 0.06666666666666667 0.06666666666666667 0.06666666666666667 0.06666666666666667 0.06666666666666667 0.35714285714285715 0.07142857142857142 0.07142857142857142 0.07142857142857142 0.07142857142857142 0.07142857142857142 0.07142857142857142 0.07142857142857142 0.07142857142857142 0.07142857142857142 0.35714285714285715 0.07142857142857142 0.07142857142857142 0.07142857142857142 0.07142857142857142 0.07142857142857142 0.07142857142857142 0.07142857142857142 0.07142857142857142 0.07142857142857142 0.35714285714285715 0.07142857142857142 0.07142857142857142 0.07142857142857142 0.07142857142857142 0.07142857142857142 0.07142857142857142 0.07142857142857142 0.07142857142857142 0.07142857142857142 0.18181818181818182 0.09090909090909091 0.09090909090909091 0.09090909090909091 0.09090909090909091 0.09090909090909091 0.09090909090909091 0.09090909090909091 0.09090909090909091 0.09090909090909091 0.5263157894736842 0.05263157894736842 0.05263157894736842 0.05263157894736842 0.05263157894736842 0.05263157894736842 0.05263157894736842 0.05263157894736842 0.05263157894736842 0.05263157894736842 0.3076923076923077 0.07692307692307693 0.07692307692307693 0.07692307692307693 0.07692307692307693 0.07692307692307693 0.07692307692307693 0.07692307692307693 0.07692307692307693 0.07692307692307693 0.5 0.05555555555555555 0.05555555555555555 0.05555555555555555 0.05555555555555555 0.05555555555555555 0.05555555555555555 0.05555555555555555 0.05555555555555555 0.05555555555555555 0.47058823529411764 0.058823529411764705 0.058823529411764705 0.058823529411764705 0.058823529411764705 0.058823529411764705 0.058823529411764705 0.058823529411764705 0.058823529411764705 0.058823529411764705 0.4 0.06666666666666667 0.06666666666666667 0.06666666666666667 0.06666666666666667 0.06666666666666667 0.06666666666666667 0.06666666666666667 0.06666666666666667 0.06666666666666667 0.29411764705882354 0.23529411764705882 0.058823529411764705 0.058823529411764705 0.058823529411764705 0.058823529411764705 0.058823529411764705 0.058823529411764705 0.058823529411764705 0.058823529411764705 0.3333333333333333 0.3333333333333333 0.041666666666666664 0.041666666666666664 0.041666666666666664 0.041666666666666664 0.041666666666666664 0.041666666666666664 0.041666666666666664 0.041666666666666664 0.3333333333333333 0.3333333333333333 0.041666666666666664 0.041666666666666664 0.041666666666666664 0.041666666666666664 0.041666666666666664 0.041666666666666664 0.041666666666666664 0.041666666666666664 0.2727272727272727 0.36363636363636365 0.045454545454545456 0.045454545454545456 0.045454545454545456 0.045454545454545456 0.045454545454545456 0.045454545454545456 0.045454545454545456 0.045454545454545456 0.2 0.48 0.04 0.04 0.04 0.04 0.04 0.04 0.04 0.04 0.2631578947368421 0.3157894736842105 0.05263157894736842 0.05263157894736842 0.05263157894736842 0.05263157894736842 0.05263157894736842 0.05263157894736842 0.05263157894736842 0.05263157894736842 0.47619047619047616 0.14285714285714285 0.047619047619047616 0.047619047619047616 0.047619047619047616 0.047619047619047616 0.047619047619047616 0.047619047619047616 0.047619047619047616 0.047619047619047616 0.3684210526315789 0.21052631578947367 0.05263157894736842 0.05263157894736842 0.05263157894736842 0.05263157894736842 0.05263157894736842 0.05263157894736842 0.05263157894736842 0.05263157894736842 0.3684210526315789 0.21052631578947367 0.05263157894736842 0.05263157894736842 0.05263157894736842 0.05263157894736842 0.05263157894736842 0.05263157894736842 0.05263157894736842 0.05263157894736842 0.21052631578947367 0.3684210526315789 0.05263157894736842 0.05263157894736842 0.05263157894736842 0.05263157894736842 0.05263157894736842 0.05263157894736842 0.05263157894736842 0.05263157894736842 0.1875 0.3125 0.0625 0.0625 0.0625 0.0625 0.0625 0.0625 0.0625 0.0625 0.3181818181818182 0.3181818181818182 0.045454545454545456 0.045454545454545456 0.045454545454545456 0.045454545454545456 0.045454545454545456 0.045454545454545456 0.045454545454545456 0.045454545454545456 0.3333333333333333 0.2857142857142857 0.047619047619047616 0.047619047619047616 0.047619047619047616 0.047619047619047616 0.047619047619047616 0.047619047619047616 0.047619047619047616 0.047619047619047616 0.28 0.4 0.04 0.04 0.04 0.04 0.04 0.04 0.04 0.04 0.5454545454545454 0.09090909090909091 0.045454545454545456 0.045454545454545456 0.045454545454545456 0.045454545454545456 0.045454545454545456 0.045454545454545456 0.045454545454545456 0.045454545454545456 0.32 0.36 0.04 0.04 0.04 0.04 0.04 0.04 0.04 0.04 0.2857142857142857 0.14285714285714285 0.07142857142857142 0.07142857142857142 0.07142857142857142 0.07142857142857142 0.07142857142857142 0.07142857142857142 0.07142857142857142 0.07142857142857142 0.34782608695652173 0.30434782608695654 0.043478260869565216 0.043478260869565216 0.043478260869565216 0.043478260869565216 0.043478260869565216 0.043478260869565216 0.043478260869565216 0.043478260869565216 0.15384615384615385 0.2692307692307692 0.3076923076923077 0.038461538461538464 0.038461538461538464 0.038461538461538464 0.038461538461538464 0.038461538461538464 0.038461538461538464 0.038461538461538464 0.3181818181818182 0.18181818181818182 0.18181818181818182 0.045454545454545456 0.045454545454545456 0.045454545454545456 0.045454545454545456 0.045454545454545456 0.045454545454545456 0.045454545454545456 0.25 0.2 0.2 0.05 0.05 0.05 0.05 0.05 0.05 0.05 0.3333333333333333 0.2 0.23333333333333334 0.03333333333333333 0.03333333333333333 0.03333333333333333 0.03333333333333333 0.03333333333333333 0.03333333333333333 0.03333333333333333 0.21739130434782608 0.13043478260869565 0.34782608695652173 0.043478260869565216 0.043478260869565216 0.043478260869565216 0.043478260869565216 0.043478260869565216 0.043478260869565216 0.043478260869565216 0.3939393939393939 0.21212121212121213 0.18181818181818182 0.030303030303030304 0.030303030303030304 0.030303030303030304 0.030303030303030304 0.030303030303030304 0.030303030303030304 0.030303030303030304 0.27586206896551724 0.20689655172413793 0.27586206896551724 0.034482758620689655 0.034482758620689655 0.034482758620689655 0.034482758620689655 0.034482758620689655 0.034482758620689655 0.034482758620689655 0.20833333333333334 0.20833333333333334 0.2916666666666667 0.041666666666666664 0.041666666666666664 0.041666666666666664 0.041666666666666664 0.041666666666666664 0.041666666666666664 0.041666666666666664 0.26666666666666666 0.36666666666666664 0.13333333333333333 0.03333333333333333 0.03333333333333333 0.03333333333333333 0.03333333333333333 0.03333333333333333 0.03333333333333333 0.03333333333333333 0.4 0.2 0.12 0.04 0.04 0.04 0.04 0.04 0.04 0.04 0.20833333333333334 0.25 0.25 0.041666666666666664 0.041666666666666664 0.041666666666666664 0.041666666666666664 0.041666666666666664 0.041666666666666664 0.041666666666666664 0.36 0.16 0.2 0.04 0.04 0.04 0.04 0.04 0.04 0.04 0.17391304347826086 0.2608695652173913 0.2608695652173913 0.043478260869565216 0.043478260869565216 0.043478260869565216 0.043478260869565216 0.043478260869565216 0.043478260869565216 0.043478260869565216 0.25806451612903225 0.3225806451612903 0.1935483870967742 0.03225806451612903 0.03225806451612903 0.03225806451612903 0.03225806451612903 0.03225806451612903 0.03225806451612903 0.03225806451612903 0.23529411764705882 0.23529411764705882 0.11764705882352941 0.058823529411764705 0.058823529411764705 0.058823529411764705 0.058823529411764705 0.058823529411764705 0.058823529411764705 0.058823529411764705 0.20833333333333334 0.2916666666666667 0.20833333333333334 0.041666666666666664 0.041666666666666664 0.041666666666666664 0.041666666666666664 0.041666666666666664 0.041666666666666664 0.041666666666666664 0.3103448275862069 0.3448275862068966 0.10344827586206896 0.034482758620689655 0.034482758620689655 0.034482758620689655 0.034482758620689655 0.034482758620689655 0.034482758620689655 0.034482758620689655 0.22580645161290322 0.25806451612903225 0.2903225806451613 0.03225806451612903 0.03225806451612903 0.03225806451612903 0.03225806451612903 0.03225806451612903 0.03225806451612903 0.03225806451612903 0.22580645161290322 0.12903225806451613 0.1935483870967742 0.25806451612903225 0.03225806451612903 0.03225806451612903 0.03225806451612903 0.03225806451612903 0.03225806451612903 0.03225806451612903 0.3793103448275862 0.13793103448275862 0.10344827586206896 0.1724137931034483 0.034482758620689655 0.034482758620689655 0.034482758620689655 0.034482758620689655 0.034482758620689655 0.034482758620689655 0.2 0.13333333333333333 0.2 0.26666666666666666 0.03333333333333333 0.03333333333333333 0.03333333333333333 0.03333333333333333 0.03333333333333333 0.03333333333333333 0.25 0.1875 0.25 0.125 0.03125 0.03125 0.03125 0.03125 0.03125 0.03125 0.35 0.15 0.225 0.125 0.025 0.025 0.025 0.025 0.025 0.025 0.23529411764705882 0.14705882352941177 0.17647058823529413 0.2647058823529412 0.029411764705882353 0.029411764705882353 0.029411764705882353 0.029411764705882353 0.029411764705882353 0.029411764705882353 0.15789473684210525 0.3157894736842105 0.21052631578947367 0.15789473684210525 0.02631578947368421 0.02631578947368421 0.02631578947368421 0.02631578947368421 0.02631578947368421 0.02631578947368421 0.2972972972972973 0.16216216216216217 0.13513513513513514 0.24324324324324326 0.02702702702702703 0.02702702702702703 0.02702702702702703 0.02702702702702703 0.02702702702702703 0.02702702702702703 0.10344827586206896 0.13793103448275862 0.1724137931034483 0.3793103448275862 0.034482758620689655 0.034482758620689655 0.034482758620689655 0.034482758620689655 0.034482758620689655 0.034482758620689655 0.19230769230769232 0.23076923076923078 0.07692307692307693 0.2692307692307692 0.038461538461538464 0.038461538461538464 0.038461538461538464 0.038461538461538464 0.038461538461538464 0.038461538461538464 0.27586206896551724 0.2413793103448276 0.10344827586206896 0.1724137931034483 0.034482758620689655 0.034482758620689655 0.034482758620689655 0.034482758620689655 0.034482758620689655 0.034482758620689655 0.06060606060606061 0.21212121212121213 0.24242424242424243 0.30303030303030304 0.030303030303030304 0.030303030303030304 0.030303030303030304 0.030303030303030304 0.030303030303030304 0.030303030303030304 0.25 0.2222222222222222 0.16666666666666666 0.19444444444444445 0.027777777777777776 0.027777777777777776 0.027777777777777776 0.027777777777777776 0.027777777777777776 0.027777777777777776 0.14285714285714285 0.21428571428571427 0.21428571428571427 0.21428571428571427 0.03571428571428571 0.03571428571428571 0.03571428571428571 0.03571428571428571 0.03571428571428571 0.03571428571428571 0.21875 0.21875 0.1875 0.1875 0.03125 0.03125 0.03125 0.03125 0.03125 0.03125 0.15151515151515152 0.21212121212121213 0.21212121212121213 0.24242424242424243 0.030303030303030304 0.030303030303030304 0.030303030303030304 0.030303030303030304 0.030303030303030304 0.030303030303030304 0.17142857142857143 0.11428571428571428 0.37142857142857144 0.17142857142857143 0.02857142857142857 0.02857142857142857 0.02857142857142857 0.02857142857142857 0.02857142857142857 0.02857142857142857 0.20689655172413793 0.10344827586206896 0.27586206896551724 0.20689655172413793 0.034482758620689655 0.034482758620689655 0.034482758620689655 0.034482758620689655 0.034482758620689655 0.034482758620689655 0.22857142857142856 0.11428571428571428 0.2571428571428571 0.22857142857142856 0.02857142857142857 0.02857142857142857 0.02857142857142857 0.02857142857142857 0.02857142857142857 0.02857142857142857 0.16216216216216217 0.2972972972972973 0.10810810810810811 0.2702702702702703 0.02702702702702703 0.02702702702702703 0.02702702702702703 0.02702702702702703 0.02702702702702703 0.02702702702702703 0.14814814814814814 0.18518518518518517 0.2222222222222222 0.2222222222222222 0.037037037037037035 0.037037037037037035 0.037037037037037035 0.037037037037037035 0.037037037037037035 0.037037037037037035 0.14814814814814814 0.07407407407407407 0.2962962962962963 0.25925925925925924 0.037037037037037035 0.037037037037037035 0.037037037037037035 0.037037037037037035 0.037037037037037035 0.037037037037037035 0.11764705882352941 0.23529411764705882 0.23529411764705882 0.23529411764705882 0.029411764705882353 0.029411764705882353 0.029411764705882353 0.029411764705882353 0.029411764705882353 0.029411764705882353 0.10714285714285714 0.21428571428571427 0.14285714285714285 0.32142857142857145 0.03571428571428571 0.03571428571428571 0.03571428571428571 0.03571428571428571 0.03571428571428571 0.03571428571428571 0.20512820512820512 0.2564102564102564 0.15384615384615385 0.23076923076923078 0.02564102564102564 0.02564102564102564 0.02564102564102564 0.02564102564102564 0.02564102564102564 0.02564102564102564 0.2222222222222222 0.25 0.16666666666666666 0.19444444444444445 0.027777777777777776 0.027777777777777776 0.027777777777777776 0.027777777777777776 0.027777777777777776 0.027777777777777776 0.11428571428571428 0.2571428571428571 0.17142857142857143 0.2857142857142857 0.02857142857142857 0.02857142857142857 0.02857142857142857 0.02857142857142857 0.02857142857142857 0.02857142857142857 0.1 0.1 0.1 0.1 0.1 0.1 0.1 0.1 0.1 0.1 0.1 0.1 0.1 0.1 0.1 0.1 0.1 0.1 0.1 0.1 0.1 0.1 0.1 0.1 0.1 0.1 0.1 0.1 0.1 0.1 0.1 0.1 0.1 0.1 0.1 0.1 0.1 0.1 0.1 0.1 0.1 0.1 0.1 0.1 0.1 0.1 0.1 0.1 0.1 0.1 0.1 0.1 0.1 0.1 0.1 0.1 0.1 0.1 0.1 0.1 0.1 0.1 0.1 0.1 0.1 0.1 0.1 0.1 0.1 0.1 0.1 0.1 0.1 0.1 0.1 0.1 0.1 0.1 0.1 0.1 0.1 0.1 0.1 0.1 0.1 0.1 0.1 0.1 0.1 0.1 0.08333333333333333 0.25 0.08333333333333333 0.08333333333333333 0.08333333333333333 0.08333333333333333 0.08333333333333333 0.08333333333333333 0.08333333333333333 0.08333333333333333 0.0625 0.4375 0.0625 0.0625 0.0625 0.0625 0.0625 0.0625 0.0625 0.0625 0.0625 0.4375 0.0625 0.0625 0.0625 0.0625 0.0625 0.0625 0.0625 0.0625 0.07692307692307693 0.3076923076923077 0.07692307692307693 0.07692307692307693 0.07692307692307693 0.07692307692307693 0.07692307692307693 0.07692307692307693 0.07692307692307693 0.07692307692307693 0.0625 0.4375 0.0625 0.0625 0.0625 0.0625 0.0625 0.0625 0.0625 0.0625 0.05555555555555555 0.5 0.05555555555555555 0.05555555555555555 0.05555555555555555 0.05555555555555555 0.05555555555555555 0.05555555555555555 0.05555555555555555 0.05555555555555555 0.07692307692307693 0.3076923076923077 0.07692307692307693 0.07692307692307693 0.07692307692307693 0.07692307692307693 0.07692307692307693 0.07692307692307693 0.07692307692307693 0.07692307692307693 0.0625 0.4375 0.0625 0.0625 0.0625 0.0625 0.0625 0.0625 0.0625 0.0625 0.0625 0.4375 0.0625 0.0625 0.0625 0.0625 0.0625 0.0625 0.0625 0.0625 0.043478260869565216 0.30434782608695654 0.34782608695652173 0.043478260869565216 0.043478260869565216 0.043478260869565216 0.043478260869565216 0.043478260869565216 0.043478260869565216 0.043478260869565216 0.05263157894736842 0.3157894736842105 0.2631578947368421 0.05263157894736842 0.05263157894736842 0.05263157894736842 0.05263157894736842 0.05263157894736842 0.05263157894736842 0.05263157894736842 0.05 0.15 0.45 0.05 0.05 0.05 0.05 0.05 0.05 0.05 0.05263157894736842 0.3157894736842105 0.2631578947368421 0.05263157894736842 0.05263157894736842 0.05263157894736842 0.05263157894736842 0.05263157894736842 0.05263157894736842 0.05263157894736842 0.037037037037037035 0.37037037037037035 0.3333333333333333 0.037037037037037035 0.037037037037037035 0.037037037037037035 0.037037037037037035 0.037037037037037035 0.037037037037037035 0.037037037037037035 0.045454545454545456 0.3181818181818182 0.3181818181818182 0.045454545454545456 0.045454545454545456 0.045454545454545456 0.045454545454545456 0.045454545454545456 0.045454545454545456 0.045454545454545456 0.045454545454545456 0.2727272727272727 0.36363636363636365 0.045454545454545456 0.045454545454545456 0.045454545454545456 0.045454545454545456 0.045454545454545456 0.045454545454545456 0.045454545454545456 0.037037037037037035 0.4074074074074074 0.2962962962962963 0.037037037037037035 0.037037037037037035 0.037037037037037035 0.037037037037037035 0.037037037037037035 0.037037037037037035 0.037037037037037035 0.047619047619047616 0.2857142857142857 0.3333333333333333 0.047619047619047616 0.047619047619047616 0.047619047619047616 0.047619047619047616 0.047619047619047616 0.047619047619047616 0.047619047619047616 0.05263157894736842 0.05263157894736842 0.2631578947368421 0.3157894736842105 0.05263157894736842 0.05263157894736842 0.05263157894736842 0.05263157894736842 0.05263157894736842 0.05263157894736842 0.03571428571428571 0.03571428571428571 0.32142857142857145 0.39285714285714285 0.03571428571428571 0.03571428571428571 0.03571428571428571 0.03571428571428571 0.03571428571428571 0.03571428571428571 0.038461538461538464 0.038461538461538464 0.34615384615384615 0.34615384615384615 0.038461538461538464 0.038461538461538464 0.038461538461538464 0.038461538461538464 0.038461538461538464 0.038461538461538464 0.043478260869565216 0.043478260869565216 0.30434782608695654 0.34782608695652173 0.043478260869565216 0.043478260869565216 0.043478260869565216 0.043478260869565216 0.043478260869565216 0.043478260869565216 0.045454545454545456 0.045454545454545456 0.45454545454545453 0.18181818181818182 0.045454545454545456 0.045454545454545456 0.045454545454545456 0.045454545454545456 0.045454545454545456 0.045454545454545456 0.04 0.04 0.36 0.32 0.04 0.04 0.04 0.04 0.04 0.04 0.06666666666666667 0.06666666666666667 0.2 0.26666666666666666 0.06666666666666667 0.06666666666666667 0.06666666666666667 0.06666666666666667 0.06666666666666667 0.06666666666666667 0.041666666666666664 0.041666666666666664 0.25 0.4166666666666667 0.041666666666666664 0.041666666666666664 0.041666666666666664 0.041666666666666664 0.041666666666666664 0.041666666666666664 0.05263157894736842 0.05263157894736842 0.10526315789473684 0.47368421052631576 0.05263157894736842 0.05263157894736842 0.05263157894736842 0.05263157894736842 0.05263157894736842 0.05263157894736842 0.03333333333333333 0.03333333333333333 0.2 0.23333333333333334 0.3333333333333333 0.03333333333333333 0.03333333333333333 0.03333333333333333 0.03333333333333333 0.03333333333333333 0.03333333333333333 0.03333333333333333 0.26666666666666666 0.16666666666666666 0.3333333333333333 0.03333333333333333 0.03333333333333333 0.03333333333333333 0.03333333333333333 0.03333333333333333 0.038461538461538464 0.038461538461538464 0.2692307692307692 0.23076923076923078 0.23076923076923078 0.038461538461538464 0.038461538461538464 0.038461538461538464 0.038461538461538464 0.038461538461538464 0.038461538461538464 0.038461538461538464 0.2692307692307692 0.38461538461538464 0.07692307692307693 0.038461538461538464 0.038461538461538464 0.038461538461538464 0.038461538461538464 0.038461538461538464 0.038461538461538464 0.038461538461538464 0.038461538461538464 0.4230769230769231 0.2692307692307692 0.038461538461538464 0.038461538461538464 0.038461538461538464 0.038461538461538464 0.038461538461538464 0.041666666666666664 0.041666666666666664 0.125 0.2916666666666667 0.2916666666666667 0.041666666666666664 0.041666666666666664 0.041666666666666664 0.041666666666666664 0.041666666666666664 0.037037037037037035 0.037037037037037035 0.25925925925925924 0.2222222222222222 0.25925925925925924 0.037037037037037035 0.037037037037037035 0.037037037037037035 0.037037037037037035 0.037037037037037035 0.043478260869565216 0.043478260869565216 0.21739130434782608 0.2608695652173913 0.21739130434782608 0.043478260869565216 0.043478260869565216 0.043478260869565216 0.043478260869565216 0.043478260869565216 0.030303030303030304 0.030303030303030304 0.2727272727272727 0.36363636363636365 0.15151515151515152 0.030303030303030304 0.030303030303030304 0.030303030303030304 0.030303030303030304 0.030303030303030304 0.03333333333333333 0.03333333333333333 0.03333333333333333 0.3333333333333333 0.26666666666666666 0.16666666666666666 0.03333333333333333 0.03333333333333333 0.03333333333333333 0.03333333333333333 0.043478260869565216 0.043478260869565216 0.043478260869565216 0.21739130434782608 0.30434782608695654 0.17391304347826086 0.043478260869565216 0.043478260869565216 0.043478260869565216 0.043478260869565216 0.045454545454545456 0.045454545454545456 0.045454545454545456 0.3181818181818182 0.18181818181818182 0.18181818181818182 0.045454545454545456 0.045454545454545456 0.045454545454545456 0.045454545454545456 0.043478260869565216 0.043478260869565216 0.043478260869565216 0.21739130434782608 0.17391304347826086 0.30434782608695654 0.043478260869565216 0.043478260869565216 0.043478260869565216 0.043478260869565216 0.03571428571428571 0.03571428571428571 0.03571428571428571 0.25 0.21428571428571427 0.2857142857142857 0.03571428571428571 0.03571428571428571 0.03571428571428571 0.03571428571428571 0.038461538461538464 0.038461538461538464 0.038461538461538464 0.2692307692307692 0.23076923076923078 0.23076923076923078 0.038461538461538464 0.038461538461538464 0.038461538461538464 0.038461538461538464 0.043478260869565216 0.043478260869565216 0.043478260869565216 0.17391304347826086 0.2608695652173913 0.2608695652173913 0.043478260869565216 0.043478260869565216 0.043478260869565216 0.043478260869565216 0.03225806451612903 0.03225806451612903 0.03225806451612903 0.25806451612903225 0.25806451612903225 0.25806451612903225 0.03225806451612903 0.03225806451612903 0.03225806451612903 0.03225806451612903 0.041666666666666664 0.041666666666666664 0.041666666666666664 0.25 0.20833333333333334 0.25 0.041666666666666664 0.041666666666666664 0.041666666666666664 0.041666666666666664 0.043478260869565216 0.043478260869565216 0.043478260869565216 0.13043478260869565 0.21739130434782608 0.08695652173913043 0.30434782608695654 0.043478260869565216 0.043478260869565216 0.043478260869565216 0.03225806451612903 0.03225806451612903 0.03225806451612903 0.16129032258064516 0.1935483870967742 0.16129032258064516 0.2903225806451613 0.03225806451612903 0.03225806451612903 0.03225806451612903 0.024390243902439025 0.024390243902439025 0.024390243902439025 0.2682926829268293 0.1951219512195122 0.21951219512195122 0.17073170731707318 0.024390243902439025 0.024390243902439025 0.024390243902439025 0.02857142857142857 0.02857142857142857 0.02857142857142857 0.2 0.22857142857142856 0.14285714285714285 0.2571428571428571 0.02857142857142857 0.02857142857142857 0.02857142857142857 0.02631578947368421 0.02631578947368421 0.02631578947368421 0.21052631578947367 0.21052631578947367 0.23684210526315788 0.18421052631578946 0.02631578947368421 0.02631578947368421 0.02631578947368421 0.034482758620689655 0.034482758620689655 0.034482758620689655 0.1724137931034483 0.27586206896551724 0.10344827586206896 0.2413793103448276 0.034482758620689655 0.034482758620689655 0.034482758620689655 0.034482758620689655 0.034482758620689655 0.034482758620689655 0.20689655172413793 0.10344827586206896 0.3103448275862069 0.1724137931034483 0.034482758620689655 0.034482758620689655 0.034482758620689655 0.038461538461538464 0.038461538461538464 0.038461538461538464 0.23076923076923078 0.07692307692307693 0.3076923076923077 0.15384615384615385 0.038461538461538464 0.038461538461538464 0.038461538461538464 0.03571428571428571 0.03571428571428571 0.03571428571428571 0.21428571428571427 0.21428571428571427 0.10714285714285714 0.25 0.03571428571428571 0.03571428571428571 0.03571428571428571 0.038461538461538464 0.038461538461538464 0.038461538461538464 0.038461538461538464 0.2692307692307692 0.19230769230769232 0.19230769230769232 0.11538461538461539 0.038461538461538464 0.038461538461538464 0.034482758620689655 0.034482758620689655 0.034482758620689655 0.034482758620689655 0.3793103448275862 0.20689655172413793 0.06896551724137931 0.13793103448275862 0.034482758620689655 0.034482758620689655 0.03333333333333333 0.03333333333333333 0.03333333333333333 0.03333333333333333 0.13333333333333333 0.16666666666666666 0.2 0.3 0.03333333333333333 0.03333333333333333 0.038461538461538464 0.038461538461538464 0.038461538461538464 0.038461538461538464 0.11538461538461539 0.2692307692307692 0.23076923076923078 0.15384615384615385 0.038461538461538464 0.038461538461538464 0.022727272727272728 0.022727272727272728 0.022727272727272728 0.022727272727272728 0.25 0.20454545454545456 0.18181818181818182 0.22727272727272727 0.022727272727272728 0.022727272727272728 0.03225806451612903 0.03225806451612903 0.03225806451612903 0.03225806451612903 0.25806451612903225 0.12903225806451613 0.22580645161290322 0.1935483870967742 0.03225806451612903 0.03225806451612903 0.037037037037037035 0.037037037037037035 0.037037037037037035 0.037037037037037035 0.1111111111111111 0.2222222222222222 0.14814814814814814 0.2962962962962963 0.037037037037037035 0.037037037037037035 0.03125 0.03125 0.03125 0.03125 0.15625 0.21875 0.21875 0.21875 0.03125 0.03125 0.03333333333333333 0.03333333333333333 0.03333333333333333 0.03333333333333333 0.1 0.36666666666666664 0.16666666666666666 0.16666666666666666 0.03333333333333333 0.03333333333333333 0.022727272727272728 0.022727272727272728 0.022727272727272728 0.022727272727272728 0.25 0.18181818181818182 0.13636363636363635 0.09090909090909091 0.22727272727272727 0.022727272727272728 0.02631578947368421 0.02631578947368421 0.02631578947368421 0.02631578947368421 0.15789473684210525 0.15789473684210525 0.2631578947368421 0.15789473684210525 0.13157894736842105 0.02631578947368421 0.02564102564102564 0.02564102564102564 0.02564102564102564 0.02564102564102564 0.1794871794871795 0.1282051282051282 0.23076923076923078 0.1794871794871795 0.15384615384615385 0.02564102564102564 0.022222222222222223 0.022222222222222223 0.022222222222222223 0.022222222222222223 0.26666666666666666 0.17777777777777778 0.15555555555555556 0.06666666666666667 0.2222222222222222 0.022222222222222223 0.024390243902439025 0.024390243902439025 0.024390243902439025 0.024390243902439025 0.14634146341463414 0.07317073170731707 0.24390243902439024 0.17073170731707318 0.24390243902439024 0.024390243902439025 0.02857142857142857 0.02857142857142857 0.02857142857142857 0.02857142857142857 0.2 0.17142857142857143 0.14285714285714285 0.2 0.14285714285714285 0.02857142857142857 0.030303030303030304 0.030303030303030304 0.030303030303030304 0.030303030303030304 0.15151515151515152 0.09090909090909091 0.24242424242424243 0.21212121212121213 0.15151515151515152 0.030303030303030304 0.03225806451612903 0.03225806451612903 0.03225806451612903 0.03225806451612903 0.1935483870967742 0.22580645161290322 0.12903225806451613 0.0967741935483871 0.1935483870967742 0.03225806451612903 0.02564102564102564 0.02564102564102564 0.02564102564102564 0.02564102564102564 0.2564102564102564 0.20512820512820512 0.15384615384615385 0.15384615384615385 0.10256410256410256 0.02564102564102564 0.02564102564102564 0.02564102564102564 0.02564102564102564 0.02564102564102564 0.1794871794871795 0.1282051282051282 0.1282051282051282 0.1282051282051282 0.1282051282051282 0.20512820512820512 0.024390243902439025 0.024390243902439025 0.024390243902439025 0.024390243902439025 0.14634146341463414 0.12195121951219512 0.14634146341463414 0.12195121951219512 0.17073170731707318 0.1951219512195122 0.02564102564102564 0.02564102564102564 0.02564102564102564 0.02564102564102564 0.20512820512820512 0.10256410256410256 0.23076923076923078 0.07692307692307693 0.20512820512820512 0.07692307692307693 0.0196078431372549 0.0196078431372549 0.0196078431372549 0.0196078431372549 0.1568627450980392 0.19607843137254902 0.0784313725490196 0.13725490196078433 0.13725490196078433 0.21568627450980393 0.02564102564102564 0.02564102564102564 0.02564102564102564 0.02564102564102564 0.20512820512820512 0.15384615384615385 0.15384615384615385 0.02564102564102564 0.2564102564102564 0.10256410256410256 0.02127659574468085 0.02127659574468085 0.02127659574468085 0.02127659574468085 0.1702127659574468 0.14893617021276595 0.2127659574468085 0.1276595744680851 0.1276595744680851 0.1276595744680851 0.024390243902439025 0.024390243902439025 0.024390243902439025 0.024390243902439025 0.17073170731707318 0.17073170731707318 0.0975609756097561 0.0975609756097561 0.14634146341463414 0.21951219512195122 0.018867924528301886 0.018867924528301886 0.018867924528301886 0.018867924528301886 0.1320754716981132 0.1320754716981132 0.09433962264150944 0.11320754716981132 0.20754716981132076 0.24528301886792453 0.02702702702702703 0.02702702702702703 0.02702702702702703 0.02702702702702703 0.13513513513513514 0.10810810810810811 0.10810810810810811 0.21621621621621623 0.1891891891891892 0.13513513513513514 0.1 0.1 0.1 0.1 0.1 0.1 0.1 0.1 0.1 0.1 0.1 0.1 0.1 0.1 0.1 0.1 0.1 0.1 0.1 0.1 0.1 0.1 0.1 0.1 0.1 0.1 0.1 0.1 0.1 0.1 0.1 0.1 0.1 0.1 0.1 0.1 0.1 0.1 0.1 0.1 0.1 0.1 0.1 0.1 0.1 0.1 0.1 0.1 0.1 0.1 0.1 0.1 0.1 0.1 0.1 0.1 0.1 0.1 0.1 0.1 0.1 0.1 0.1 0.1 0.1 0.1 0.1 0.1 0.1 0.1 0.1 0.1 0.1 0.1 0.1 0.1 0.1 0.1 0.1 0.1 0.1 0.1 0.1 0.1 0.1 0.1 0.1 0.1 0.1 0.1 0.08333333333333333 0.08333333333333333 0.25 0.08333333333333333 0.08333333333333333 0.08333333333333333 0.08333333333333333 0.08333333333333333 0.08333333333333333 0.08333333333333333 0.06666666666666667 0.06666666666666667 0.4 0.06666666666666667 0.06666666666666667 0.06666666666666667 0.06666666666666667 0.06666666666666667 0.06666666666666667 0.06666666666666667 0.05555555555555555 0.05555555555555555 0.5 0.05555555555555555 0.05555555555555555 0.05555555555555555 0.05555555555555555 0.05555555555555555 0.05555555555555555 0.05555555555555555 0.05555555555555555 0.05555555555555555 0.5 0.05555555555555555 0.05555555555555555 0.05555555555555555 0.05555555555555555 0.05555555555555555 0.05555555555555555 0.05555555555555555 0.08333333333333333 0.08333333333333333 0.25 0.08333333333333333 0.08333333333333333 0.08333333333333333 0.08333333333333333 0.08333333333333333 0.08333333333333333 0.08333333333333333 0.05263157894736842 0.05263157894736842 0.5263157894736842 0.05263157894736842 0.05263157894736842 0.05263157894736842 0.05263157894736842 0.05263157894736842 0.05263157894736842 0.05263157894736842 0.09090909090909091 0.09090909090909091 0.18181818181818182 0.09090909090909091 0.09090909090909091 0.09090909090909091 0.09090909090909091 0.09090909090909091 0.09090909090909091 0.09090909090909091 0.09090909090909091 0.09090909090909091 0.18181818181818182 0.09090909090909091 0.09090909090909091 0.09090909090909091 0.09090909090909091 0.09090909090909091 0.09090909090909091 0.09090909090909091 0.0625 0.0625 0.4375 0.0625 0.0625 0.0625 0.0625 0.0625 0.0625 0.0625 0.03333333333333333 0.03333333333333333 0.03333333333333333 0.3 0.43333333333333335 0.03333333333333333 0.03333333333333333 0.03333333333333333 0.03333333333333333 0.03333333333333333 0.041666666666666664 0.041666666666666664 0.041666666666666664 0.5416666666666666 0.125 0.041666666666666664 0.041666666666666664 0.041666666666666664 0.041666666666666664 0.041666666666666664 0.043478260869565216 0.043478260869565216 0.043478260869565216 0.34782608695652173 0.30434782608695654 0.043478260869565216 0.043478260869565216 0.043478260869565216 0.043478260869565216 0.043478260869565216 0.04 0.04 0.04 0.4 0.28 0.04 0.04 0.04 0.04 0.04 0.045454545454545456 0.045454545454545456 0.045454545454545456 0.4090909090909091 0.22727272727272727 0.045454545454545456 0.045454545454545456 0.045454545454545456 0.045454545454545456 0.045454545454545456 0.05 0.05 0.05 0.3 0.3 0.05 0.05 0.05 0.05 0.05 0.043478260869565216 0.043478260869565216 0.043478260869565216 0.391304347826087 0.2608695652173913 0.043478260869565216 0.043478260869565216 0.043478260869565216 0.043478260869565216 0.043478260869565216 0.03571428571428571 0.03571428571428571 0.03571428571428571 0.5 0.21428571428571427 0.03571428571428571 0.03571428571428571 0.03571428571428571 0.03571428571428571 0.03571428571428571 0.04 0.04 0.04 0.36 0.32 0.04 0.04 0.04 0.04 0.04 0.029411764705882353 0.029411764705882353 0.029411764705882353 0.029411764705882353 0.23529411764705882 0.23529411764705882 0.3235294117647059 0.029411764705882353 0.029411764705882353 0.029411764705882353 0.03333333333333333 0.03333333333333333 0.03333333333333333 0.03333333333333333 0.36666666666666664 0.2 0.2 0.03333333333333333 0.03333333333333333 0.03333333333333333 0.04 0.04 0.04 0.04 0.28 0.32 0.12 0.04 0.04 0.04 0.037037037037037035 0.037037037037037035 0.037037037037037035 0.037037037037037035 0.2222222222222222 0.2222222222222222 0.2962962962962963 0.037037037037037035 0.037037037037037035 0.037037037037037035 0.037037037037037035 0.037037037037037035 0.037037037037037035 0.037037037037037035 0.25925925925925924 0.18518518518518517 0.2962962962962963 0.037037037037037035 0.037037037037037035 0.037037037037037035 0.038461538461538464 0.038461538461538464 0.038461538461538464 0.038461538461538464 0.15384615384615385 0.19230769230769232 0.38461538461538464 0.038461538461538464 0.038461538461538464 0.038461538461538464 0.037037037037037035 0.037037037037037035 0.037037037037037035 0.037037037037037035 0.18518518518518517 0.37037037037037035 0.18518518518518517 0.037037037037037035 0.037037037037037035 0.037037037037037035 0.027777777777777776 0.027777777777777776 0.027777777777777776 0.027777777777777776 0.2777777777777778 0.3611111111111111 0.16666666666666666 0.027777777777777776 0.027777777777777776 0.027777777777777776 0.03571428571428571 0.03571428571428571 0.03571428571428571 0.03571428571428571 0.2857142857142857 0.21428571428571427 0.25 0.03571428571428571 0.03571428571428571 0.03571428571428571 0.021739130434782608 0.021739130434782608 0.021739130434782608 0.021739130434782608 0.021739130434782608 0.17391304347826086 0.21739130434782608 0.17391304347826086 0.15217391304347827 0.17391304347826086 0.02564102564102564 0.02564102564102564 0.02564102564102564 0.02564102564102564 0.02564102564102564 0.20512820512820512 0.10256410256410256 0.23076923076923078 0.10256410256410256 0.23076923076923078 0.030303030303030304 0.030303030303030304 0.030303030303030304 0.030303030303030304 0.030303030303030304 0.15151515151515152 0.18181818181818182 0.12121212121212122 0.21212121212121213 0.18181818181818182 0.024390243902439025 0.024390243902439025 0.024390243902439025 0.024390243902439025 0.024390243902439025 0.2682926829268293 0.12195121951219512 0.17073170731707318 0.07317073170731707 0.24390243902439024 0.030303030303030304 0.030303030303030304 0.030303030303030304 0.030303030303030304 0.030303030303030304 0.18181818181818182 0.21212121212121213 0.15151515151515152 0.09090909090909091 0.21212121212121213 0.02631578947368421 0.02631578947368421 0.02631578947368421 0.02631578947368421 0.02631578947368421 0.23684210526315788 0.18421052631578946 0.07894736842105263 0.13157894736842105 0.23684210526315788 0.02857142857142857 0.02857142857142857 0.02857142857142857 0.02857142857142857 0.02857142857142857 0.17142857142857143 0.17142857142857143 0.14285714285714285 0.14285714285714285 0.22857142857142856 0.02702702702702703 0.02702702702702703 0.02702702702702703 0.02702702702702703 0.02702702702702703 0.10810810810810811 0.24324324324324326 0.10810810810810811 0.21621621621621623 0.1891891891891892 0.022727272727272728 0.022727272727272728 0.022727272727272728 0.022727272727272728 0.022727272727272728 0.11363636363636363 0.29545454545454547 0.25 0.11363636363636363 0.11363636363636363 0.03125 0.03125 0.03125 0.03125 0.03125 0.03125 0.125 0.375 0.0625 0.25 0.03333333333333333 0.03333333333333333 0.03333333333333333 0.03333333333333333 0.03333333333333333 0.03333333333333333 0.16666666666666666 0.13333333333333333 0.23333333333333334 0.26666666666666666 0.02564102564102564 0.02564102564102564 0.02564102564102564 0.02564102564102564 0.02564102564102564 0.02564102564102564 0.20512820512820512 0.1794871794871795 0.23076923076923078 0.23076923076923078 0.03333333333333333 0.03333333333333333 0.03333333333333333 0.03333333333333333 0.03333333333333333 0.03333333333333333 0.3 0.16666666666666666 0.2 0.13333333333333333 0.03571428571428571 0.03571428571428571 0.03571428571428571 0.03571428571428571 0.03571428571428571 0.03571428571428571 0.14285714285714285 0.21428571428571427 0.32142857142857145 0.10714285714285714 0.029411764705882353 0.029411764705882353 0.029411764705882353 0.029411764705882353 0.029411764705882353 0.029411764705882353 0.17647058823529413 0.23529411764705882 0.20588235294117646 0.20588235294117646 0.037037037037037035 0.037037037037037035 0.037037037037037035 0.037037037037037035 0.037037037037037035 0.037037037037037035 0.14814814814814814 0.14814814814814814 0.2222222222222222 0.25925925925925924 0.029411764705882353 0.029411764705882353 0.029411764705882353 0.029411764705882353 0.029411764705882353 0.029411764705882353 0.11764705882352941 0.17647058823529413 0.29411764705882354 0.23529411764705882 0.03333333333333333 0.03333333333333333 0.03333333333333333 0.03333333333333333 0.03333333333333333 0.03333333333333333 0.13333333333333333 0.2 0.13333333333333333 0.3333333333333333 0.037037037037037035 0.037037037037037035 0.037037037037037035 0.037037037037037035 0.037037037037037035 0.037037037037037035 0.037037037037037035 0.07407407407407407 0.25925925925925924 0.4074074074074074 0.034482758620689655 0.034482758620689655 0.034482758620689655 0.034482758620689655 0.034482758620689655 0.034482758620689655 0.034482758620689655 0.2413793103448276 0.20689655172413793 0.3103448275862069 0.04 0.04 0.04 0.04 0.04 0.04 0.04 0.2 0.12 0.4 0.03125 0.03125 0.03125 0.03125 0.03125 0.03125 0.03125 0.21875 0.28125 0.28125 0.029411764705882353 0.029411764705882353 0.029411764705882353 0.029411764705882353 0.029411764705882353 0.029411764705882353 0.029411764705882353 0.35294117647058826 0.2647058823529412 0.17647058823529413 0.04 0.04 0.04 0.04 0.04 0.04 0.04 0.28 0.24 0.2 0.03571428571428571 0.03571428571428571 0.03571428571428571 0.03571428571428571 0.03571428571428571 0.03571428571428571 0.03571428571428571 0.32142857142857145 0.17857142857142858 0.25 0.038461538461538464 0.038461538461538464 0.038461538461538464 0.038461538461538464 0.038461538461538464 0.038461538461538464 0.038461538461538464 0.3076923076923077 0.19230769230769232 0.23076923076923078 0.037037037037037035 0.037037037037037035 0.037037037037037035 0.037037037037037035 0.037037037037037035 0.037037037037037035 0.037037037037037035 0.3333333333333333 0.25925925925925924 0.14814814814814814 0.047619047619047616 0.047619047619047616 0.047619047619047616 0.047619047619047616 0.047619047619047616 0.047619047619047616 0.047619047619047616 0.047619047619047616 0.42857142857142855 0.19047619047619047 0.05555555555555555 0.05555555555555555 0.05555555555555555 0.05555555555555555 0.05555555555555555 0.05555555555555555 0.05555555555555555 0.05555555555555555 0.3888888888888889 0.16666666666666666 0.05 0.05 0.05 0.05 0.05 0.05 0.05 0.05 0.2 0.4 0.045454545454545456 0.045454545454545456 0.045454545454545456 0.045454545454545456 0.045454545454545456 0.045454545454545456 0.045454545454545456 0.045454545454545456 0.3181818181818182 0.3181818181818182 0.045454545454545456 0.045454545454545456 0.045454545454545456 0.045454545454545456 0.045454545454545456 0.045454545454545456 0.045454545454545456 0.045454545454545456 0.2727272727272727 0.36363636363636365 0.06666666666666667 0.06666666666666667 0.06666666666666667 0.06666666666666667 0.06666666666666667 0.06666666666666667 0.06666666666666667 0.06666666666666667 0.26666666666666666 0.2 0.05 0.05 0.05 0.05 0.05 0.05 0.05 0.05 0.2 0.4 0.05263157894736842 0.05263157894736842 0.05263157894736842 0.05263157894736842 0.05263157894736842 0.05263157894736842 0.05263157894736842 0.05263157894736842 0.2631578947368421 0.3157894736842105 0.058823529411764705 0.058823529411764705 0.058823529411764705 0.058823529411764705 0.058823529411764705 0.058823529411764705 0.058823529411764705 0.058823529411764705 0.23529411764705882 0.29411764705882354 0.07692307692307693 0.07692307692307693 0.07692307692307693 0.07692307692307693 0.07692307692307693 0.07692307692307693 0.07692307692307693 0.07692307692307693 0.07692307692307693 0.3076923076923077 0.06666666666666667 0.06666666666666667 0.06666666666666667 0.06666666666666667 0.06666666666666667 0.06666666666666667 0.06666666666666667 0.06666666666666667 0.06666666666666667 0.4 0.058823529411764705 0.058823529411764705 0.058823529411764705 0.058823529411764705 0.058823529411764705 0.058823529411764705 0.058823529411764705 0.058823529411764705 0.058823529411764705 0.47058823529411764 0.07692307692307693 0.07692307692307693 0.07692307692307693 0.07692307692307693 0.07692307692307693 0.07692307692307693 0.07692307692307693 0.07692307692307693 0.07692307692307693 0.3076923076923077 0.058823529411764705 0.058823529411764705 0.058823529411764705 0.058823529411764705 0.058823529411764705 0.058823529411764705 0.058823529411764705 0.058823529411764705 0.058823529411764705 0.47058823529411764 0.0625 0.0625 0.0625 0.0625 0.0625 0.0625 0.0625 0.0625 0.0625 0.4375 0.07692307692307693 0.07692307692307693 0.07692307692307693 0.07692307692307693 0.07692307692307693 0.07692307692307693 0.07692307692307693 0.07692307692307693 0.07692307692307693 0.3076923076923077 0.047619047619047616 0.047619047619047616 0.047619047619047616 0.047619047619047616 0.047619047619047616 0.047619047619047616 0.047619047619047616 0.047619047619047616 0.047619047619047616 0.5714285714285714 0.07692307692307693 0.07692307692307693 0.07692307692307693 0.07692307692307693 0.07692307692307693 0.07692307692307693 0.07692307692307693 0.07692307692307693 0.07692307692307693 0.3076923076923077 0.1 0.1 0.1 0.1 0.1 0.1 0.1 0.1 0.1 0.1 0.1 0.1 0.1 0.1 0.1 0.1 0.1 0.1 0.1 0.1 0.1 0.1 0.1 0.1 0.1 0.1 0.1 0.1 0.1 0.1 0.1 0.1 0.1 0.1 0.1 0.1 0.1 0.1 0.1 0.1 0.1 0.1 0.1 0.1 0.1 0.1 0.1 0.1 0.1 0.1 0.1 0.1 0.1 0.1 0.1 0.1 0.1 0.1 0.1 0.1 0.1 0.1 0.1 0.1 0.1 0.1 0.1 0.1 0.1 0.1 0.1 0.1 0.1 0.1 0.1 0.1 0.1 0.1 0.1 0.1 0.1 0.1 0.1 0.1 0.1 0.1 0.1 0.1 0.1 0.1 0.018518518518518517 0.1111111111111111 0.07407407407407407 0.16666666666666666 0.07407407407407407 0.09259259259259259 0.12962962962962962 0.1111111111111111 0.09259259259259259 0.12962962962962962 0.016666666666666666 0.1 0.11666666666666667 0.08333333333333333 0.1 0.06666666666666667 0.13333333333333333 0.11666666666666667 0.1 0.16666666666666666 0.018867924528301886 0.07547169811320754 0.09433962264150944 0.16981132075471697 0.1320754716981132 0.03773584905660377 0.09433962264150944 0.1509433962264151 0.07547169811320754 0.1509433962264151 0.016666666666666666 0.15 0.11666666666666667 0.06666666666666667 0.1 0.11666666666666667 0.1 0.06666666666666667 0.16666666666666666 0.1 0.015873015873015872 0.14285714285714285 0.09523809523809523 0.07936507936507936 0.09523809523809523 0.06349206349206349 0.07936507936507936 0.06349206349206349 0.23809523809523808 0.12698412698412698 0.015151515151515152 0.10606060606060606 0.10606060606060606 0.13636363636363635 0.10606060606060606 0.12121212121212122 0.12121212121212122 0.06060606060606061 0.09090909090909091 0.13636363636363635 0.0136986301369863 0.1232876712328767 0.1095890410958904 0.0821917808219178 0.1232876712328767 0.0684931506849315 0.0958904109589041 0.0958904109589041 0.1095890410958904 0.1780821917808219 0.017241379310344827 0.10344827586206896 0.05172413793103448 0.1206896551724138 0.10344827586206896 0.1206896551724138 0.10344827586206896 0.22413793103448276 0.05172413793103448 0.10344827586206896 0.015873015873015872 0.1111111111111111 0.12698412698412698 0.09523809523809523 0.07936507936507936 0.09523809523809523 0.14285714285714285 0.12698412698412698 0.1111111111111111 0.09523809523809523 0.02127659574468085 0.02127659574468085 0.02127659574468085 0.10638297872340426 0.1276595744680851 0.0851063829787234 0.1702127659574468 0.1702127659574468 0.14893617021276595 0.1276595744680851 0.02564102564102564 0.02564102564102564 0.02564102564102564 0.15384615384615385 0.10256410256410256 0.15384615384615385 0.1794871794871795 0.15384615384615385 0.02564102564102564 0.15384615384615385 0.02631578947368421 0.02631578947368421 0.02631578947368421 0.15789473684210525 0.18421052631578946 0.10526315789473684 0.07894736842105263 0.18421052631578946 0.13157894736842105 0.07894736842105263 0.022222222222222223 0.022222222222222223 0.022222222222222223 0.08888888888888889 0.1111111111111111 0.15555555555555556 0.2 0.15555555555555556 0.13333333333333333 0.08888888888888889 0.02040816326530612 0.02040816326530612 0.02040816326530612 0.10204081632653061 0.12244897959183673 0.20408163265306123 0.12244897959183673 0.10204081632653061 0.14285714285714285 0.14285714285714285 0.017857142857142856 0.017857142857142856 0.017857142857142856 0.16071428571428573 0.03571428571428571 0.125 0.125 0.125 0.19642857142857142 0.17857142857142858 0.02631578947368421 0.02631578947368421 0.02631578947368421 0.10526315789473684 0.07894736842105263 0.07894736842105263 0.21052631578947367 0.13157894736842105 0.13157894736842105 0.18421052631578946 0.022222222222222223 0.022222222222222223 0.022222222222222223 0.1111111111111111 0.1111111111111111 0.1111111111111111 0.06666666666666667 0.17777777777777778 0.17777777777777778 0.17777777777777778 0.02702702702702703 0.02702702702702703 0.02702702702702703 0.10810810810810811 0.10810810810810811 0.10810810810810811 0.16216216216216217 0.13513513513513514 0.16216216216216217 0.13513513513513514 0.025 0.025 0.025 0.025 0.025 0.25 0.125 0.075 0.25 0.175 0.02857142857142857 0.02857142857142857 0.02857142857142857 0.02857142857142857 0.02857142857142857 0.14285714285714285 0.22857142857142856 0.17142857142857143 0.14285714285714285 0.17142857142857143 0.02702702702702703 0.02702702702702703 0.02702702702702703 0.02702702702702703 0.02702702702702703 0.10810810810810811 0.2972972972972973 0.13513513513513514 0.13513513513513514 0.1891891891891892 0.027777777777777776 0.027777777777777776 0.027777777777777776 0.027777777777777776 0.027777777777777776 0.25 0.08333333333333333 0.25 0.16666666666666666 0.1111111111111111 0.02564102564102564 0.02564102564102564 0.02564102564102564 0.02564102564102564 0.02564102564102564 0.1282051282051282 0.15384615384615385 0.15384615384615385 0.3076923076923077 0.1282051282051282 0.02857142857142857 0.02857142857142857 0.02857142857142857 0.02857142857142857 0.02857142857142857 0.17142857142857143 0.14285714285714285 0.17142857142857143 0.17142857142857143 0.2 0.02702702702702703 0.02702702702702703 0.02702702702702703 0.02702702702702703 0.02702702702702703 0.13513513513513514 0.13513513513513514 0.1891891891891892 0.1891891891891892 0.21621621621621623 0.02631578947368421 0.02631578947368421 0.02631578947368421 0.02631578947368421 0.02631578947368421 0.23684210526315788 0.07894736842105263 0.10526315789473684 0.2894736842105263 0.15789473684210525 0.02702702702702703 0.02702702702702703 0.02702702702702703 0.02702702702702703 0.02702702702702703 0.13513513513513514 0.16216216216216217 0.16216216216216217 0.13513513513513514 0.2702702702702703 0.03225806451612903 0.03225806451612903 0.03225806451612903 0.03225806451612903 0.03225806451612903 0.03225806451612903 0.03225806451612903 0.25806451612903225 0.25806451612903225 0.25806451612903225 0.037037037037037035 0.037037037037037035 0.037037037037037035 0.037037037037037035 0.037037037037037035 0.037037037037037035 0.037037037037037035 0.14814814814814814 0.18518518518518517 0.4074074074074074 0.03571428571428571 0.03571428571428571 0.03571428571428571 0.03571428571428571 0.03571428571428571 0.03571428571428571 0.03571428571428571 0.21428571428571427 0.14285714285714285 0.39285714285714285 0.043478260869565216 0.043478260869565216 0.043478260869565216 0.043478260869565216 0.043478260869565216 0.043478260869565216 0.043478260869565216 0.17391304347826086 0.2608695652173913 0.2608695652173913 0.045454545454545456 0.045454545454545456 0.045454545454545456 0.045454545454545456 0.045454545454545456 0.045454545454545456 0.045454545454545456 0.18181818181818182 0.22727272727272727 0.2727272727272727 0.03333333333333333 0.03333333333333333 0.03333333333333333 0.03333333333333333 0.03333333333333333 0.03333333333333333 0.03333333333333333 0.2 0.43333333333333335 0.13333333333333333 0.05263157894736842 0.05263157894736842 0.05263157894736842 0.05263157894736842 0.05263157894736842 0.05263157894736842 0.05263157894736842 0.2631578947368421 0.10526315789473684 0.2631578947368421 0.047619047619047616 0.047619047619047616 0.047619047619047616 0.047619047619047616 0.047619047619047616 0.047619047619047616 0.047619047619047616 0.3333333333333333 0.19047619047619047 0.14285714285714285 0.03571428571428571 0.03571428571428571 0.03571428571428571 0.03571428571428571 0.03571428571428571 0.03571428571428571 0.03571428571428571 0.32142857142857145 0.25 0.17857142857142858 0.1 0.1 0.1 0.1 0.1 0.1 0.1 0.1 0.1 0.1 0.1 0.1 0.1 0.1 0.1 0.1 0.1 0.1 0.1 0.1 0.1 0.1 0.1 0.1 0.1 0.1 0.1 0.1 0.1 0.1 0.1 0.1 0.1 0.1 0.1 0.1 0.1 0.1 0.1 0.1 0.1 0.1 0.1 0.1 0.1 0.1 0.1 0.1 0.1 0.1 0.1 0.1 0.1 0.1 0.1 0.1 0.1 0.1 0.1 0.1 0.1 0.1 0.1 0.1 0.1 0.1 0.1 0.1 0.1 0.1 0.1 0.1 0.1 0.1 0.1 0.1 0.1 0.1 0.1 0.1 0.1 0.1 0.1 0.1 0.1 0.1 0.1 0.1 0.1 0.1 0.1 0.1 0.1 0.1 0.1 0.1 0.1 0.1 0.1 0.1 0.1 0.1 0.1 0.1 0.1 0.1 0.1 0.1 0.1 0.1 0.1 0.1 0.1 0.1 0.1 0.1 0.1 0.1 0.1 0.1 0.1 0.1 0.1 0.1 0.1 0.1 0.1 0.1 0.1 0.1 0.1 0.1 0.1 0.1 0.1 0.1 0.1 0.1 0.1 0.1 0.1 0.1 0.1 0.1 0.1 0.1 0.1 0.1 0.1 0.1 0.1 0.1 0.1 0.1 0.1 0.1 0.1 0.1 0.1 0.1 0.1 0.1 0.1 0.1 0.1 0.1 0.1 0.1 0.1 0.1 0.1 0.1 0.1 0.1 0.1 0.1 0.1 0.1 0.1 0.1 0.1 0.1 0.1 0.1 0.1 0.1 0.1 0.1 0.1 0.1 0.1 0.1 0.1 0.1 0.1 0.1 0.1 0.1 0.1 0.1 0.1 0.1 0.1 0.1 0.1 0.1 0.1 0.1 0.1 0.1 0.1 0.1 0.1 0.1 0.1 0.1 0.1 0.1 0.1 0.1 0.1 0.1 0.1 0.1 0.1 0.1 0.1 0.1 0.1 0.1 0.1 0.1 0.1 0.1 0.1 0.1 0.1 0.1 0.1 0.1 0.1 0.1 0.1 0.1 0.1 0.1 0.1 0.1 0.1 0.1 0.1 0.1 0.1 0.1 0.1 0.1 0.1 0.1 0.1 0.1 0.1 0.1 0.1 0.1 0.1 0.1 0.1 0.1 0.1 0.1 0.1 0.1 0.1 0.1 0.1 0.1 0.1 0.1 0.1 0.1 0.1 0.1 0.1 0.1 0.1 0.1 0.1 0.1 0.1 0.1 0.1 0.1 0.1 0.1 0.1 0.1 0.1 0.1 0.1 0.1 0.1 0.1 0.1 0.1 0.1 0.1 0.1 0.1 0.1 0.1 0.1 0.1 0.1 0.1 0.1 0.1 0.1 0.1 0.1 0.1 0.1 0.1 0.1 0.1 0.1 0.1 0.1 0.1 0.1 0.1 0.1 0.1 0.1 0.1 0.1 0.1 0.1 0.1 0.1 0.1 0.1 0.1 0.1 0.1 0.1 0.1 0.1 0.1 0.1 0.1 0.1 0.1 0.1 0.1 0.1 0.1 0.1 0.1 0.1 0.1 0.1 0.1 0.1 0.1 0.1 0.1 0.1 0.1 0.1 0.1 0.1 0.1 0.1 0.1 0.1 0.1 0.1 0.1 0.1 0.1 0.1 0.1 0.1 0.1 0.1 0.1 0.1 0.1 0.1 0.1 0.1 0.1 0.1 0.1 0.1 0.1 0.1 0.1 0.1 0.1 0.1 0.1 0.1 0.1 0.1 0.1 0.1 0.1 0.1 0.1 0.1 0.1 0.1 0.1 0.1 0.1 0.1 0.1 0.1 0.1 0.1 0.1 0.1 0.1 0.1 0.1 0.1 0.1 0.1 0.1 0.1 0.1 0.1 0.1 0.1 0.1 0.1 0.1 0.1 0.1 0.1 0.1 0.1 0.1 0.1 0.1 0.1 0.1 0.1 0.1 0.1 0.1 0.1 0.1 0.1 0.1 0.1 0.1 0.1 0.1 0.1 0.1 0.1 0.1 0.1 0.1 0.1 0.1 0.1 0.1 0.1 0.1 0.1 0.1 0.1 0.1 0.1 0.1 0.1 0.1 0.1 0.1 0.1 0.1 0.1 0.1 0.1 0.1 0.1 0.1 0.1 0.1 0.1 0.1 0.1 0.1 0.1 0.1 0.1 0.1 0.1 0.1 0.1 0.1 0.1 0.1 0.1 0.1 0.1 0.1 0.1 0.1 0.1 0.1 0.1 0.1 0.1 0.1 0.1 0.1 0.1 0.1 0.1 0.1 0.1 0.1 0.1 0.1 0.1 0.1 0.1 0.1 0.1 0.1 0.1 0.1 0.1 0.1 0.1 0.1</probabilities>
</cpt>
<cpt id="pai_2">
<state id="s5"/>
<state id="s10"/>
<state id="s15"/>
<state id="s20"/>
<state id="s25"/>
<state id="s30"/>
<state id="s35"/>
<state id="s40"/>
<state id="s45"/>
<parents></parents>
<probabilities>0.10868686868686869 0.11535353535353535 0.10666666666666667 0.11737373737373738 0.11050505050505051 0.10868686868686869 0.1103030303030303 0.1111111111111111 0.11131313131313131</probabilities>
</cpt>
<cpt id="pai_h_ratio_fsl_2_quantiled">
<state id="s0_2"/>
<state id="s0_3"/>
<state id="s0_4"/>
<state id="s0_8"/>
<parents>pai_2 </parents>
<probabilities>0.0018450184501845018 0.0018450184501845018 0.12177121771217712 0.8745387453874539 0.0017391304347826088 0.21391304347826087 0.12 0.6643478260869565 0.13721804511278196 0.2161654135338346 0.20112781954887218 0.44548872180451127 0.335042735042735 0.0017094017094017094 0.4307692307692308 0.23247863247863249 0.35753176043557167 0.11796733212341198 0.5226860254083484 0.0018148820326678765 0.32656826568265684 0.32287822878228783 0.34870848708487084 0.0018450184501845018 0.3181818181818182 0.3290909090909091 0.3509090909090909 0.0018181818181818182 0.43862815884476536 0.4332129963898917 0.1263537906137184 0.0018050541516245488 0.5441441441441441 0.45225225225225224 0.0018018018018018018 0.0018018018018018018</probabilities>
</cpt>
<cpt id="h_2">
<state id="s3"/>
<state id="s4"/>
<state id="s5"/>
<state id="s10"/>
<state id="s11"/>
<state id="s12"/>
<state id="s15"/>
<state id="s16"/>
<state id="s17"/>
<parents>ship_cost_c pai_h_ratio_fsl_2_quantiled pai_2 </parents>
<probabilities>0.1111111111111111 0.1111111111111111 0.1111111111111111 0.1111111111111111 0.1111111111111111 0.1111111111111111 0.1111111111111111 0.1111111111111111 0.1111111111111111 0.1111111111111111 0.1111111111111111 0.1111111111111111 0.1111111111111111 0.1111111111111111 0.1111111111111111 0.1111111111111111 0.1111111111111111 0.1111111111111111 0.42857142857142855 0.07142857142857142 0.07142857142857142 0.07142857142857142 0.07142857142857142 0.07142857142857142 0.07142857142857142 0.07142857142857142 0.07142857142857142 0.2702702702702703 0.24324324324324326 0.32432432432432434 0.02702702702702703 0.02702702702702703 0.02702702702702703 0.02702702702702703 0.02702702702702703 0.02702702702702703 0.3076923076923077 0.23076923076923078 0.3076923076923077 0.02564102564102564 0.02564102564102564 0.02564102564102564 0.02564102564102564 0.02564102564102564 0.02564102564102564 0.3333333333333333 0.16666666666666666 0.25 0.041666666666666664 0.041666666666666664 0.041666666666666664 0.041666666666666664 0.041666666666666664 0.041666666666666664 0.19047619047619047 0.2857142857142857 0.23809523809523808 0.047619047619047616 0.047619047619047616 0.047619047619047616 0.047619047619047616 0.047619047619047616 0.047619047619047616 0.225 0.25 0.2 0.2 0.025 0.025 0.025 0.025 0.025 0.23529411764705882 0.14705882352941177 0.11764705882352941 0.29411764705882354 0.08823529411764706 0.029411764705882353 0.029411764705882353 0.029411764705882353 0.029411764705882353 0.1111111111111111 0.1111111111111111 0.1111111111111111 0.1111111111111111 0.1111111111111111 0.1111111111111111 0.1111111111111111 0.1111111111111111 0.1111111111111111 0.3 0.35 0.05 0.05 0.05 0.05 0.05 0.05 0.05 0.047619047619047616 0.3333333333333333 0.3333333333333333 0.047619047619047616 0.047619047619047616 0.047619047619047616 0.047619047619047616 0.047619047619047616 0.047619047619047616 0.1111111111111111 0.1111111111111111 0.1111111111111111 0.1111111111111111 0.1111111111111111 0.1111111111111111 0.1111111111111111 0.1111111111111111 0.1111111111111111 0.08333333333333333 0.08333333333333333 0.08333333333333333 0.3333333333333333 0.08333333333333333 0.08333333333333333 0.08333333333333333 0.08333333333333333 0.08333333333333333 0.03333333333333333 0.03333333333333333 0.03333333333333333 0.3 0.23333333333333334 0.26666666666666666 0.03333333333333333 0.03333333333333333 0.03333333333333333 0.05555555555555555 0.05555555555555555 0.05555555555555555 0.16666666666666666 0.2222222222222222 0.2777777777777778 0.05555555555555555 0.05555555555555555 0.05555555555555555 0.03225806451612903 0.03225806451612903 0.03225806451612903 0.03225806451612903 0.22580645161290322 0.22580645161290322 0.25806451612903225 0.12903225806451613 0.03225806451612903 0.029411764705882353 0.029411764705882353 0.029411764705882353 0.029411764705882353 0.029411764705882353 0.11764705882352941 0.14705882352941177 0.17647058823529413 0.4117647058823529 0.4666666666666667 0.06666666666666667 0.06666666666666667 0.06666666666666667 0.06666666666666667 0.06666666666666667 0.06666666666666667 0.06666666666666667 0.06666666666666667 0.07142857142857142 0.07142857142857142 0.42857142857142855 0.07142857142857142 0.07142857142857142 0.07142857142857142 0.07142857142857142 0.07142857142857142 0.07142857142857142 0.047619047619047616 0.047619047619047616 0.047619047619047616 0.42857142857142855 0.23809523809523808 0.047619047619047616 0.047619047619047616 0.047619047619047616 0.047619047619047616 0.023255813953488372 0.023255813953488372 0.023255813953488372 0.18604651162790697 0.20930232558139536 0.27906976744186046 0.20930232558139536 0.023255813953488372 0.023255813953488372 0.022222222222222223 0.022222222222222223 0.022222222222222223 0.022222222222222223 0.08888888888888889 0.2 0.24444444444444444 0.17777777777777778 0.2 0.03571428571428571 0.03571428571428571 0.03571428571428571 0.03571428571428571 0.03571428571428571 0.03571428571428571 0.25 0.32142857142857145 0.21428571428571427 0.034482758620689655 0.034482758620689655 0.034482758620689655 0.034482758620689655 0.034482758620689655 0.034482758620689655 0.20689655172413793 0.3448275862068966 0.2413793103448276 0.07142857142857142 0.07142857142857142 0.07142857142857142 0.07142857142857142 0.07142857142857142 0.07142857142857142 0.07142857142857142 0.07142857142857142 0.42857142857142855 0.1111111111111111 0.1111111111111111 0.1111111111111111 0.1111111111111111 0.1111111111111111 0.1111111111111111 0.1111111111111111 0.1111111111111111 0.1111111111111111 0.017543859649122806 0.10526315789473684 0.14035087719298245 0.17543859649122806 0.12280701754385964 0.05263157894736842 0.15789473684210525 0.10526315789473684 0.12280701754385964 0.027777777777777776 0.027777777777777776 0.027777777777777776 0.1111111111111111 0.08333333333333333 0.16666666666666666 0.16666666666666666 0.1388888888888889 0.25 0.03571428571428571 0.03571428571428571 0.03571428571428571 0.03571428571428571 0.03571428571428571 0.17857142857142858 0.17857142857142858 0.14285714285714285 0.32142857142857145 0.043478260869565216 0.043478260869565216 0.043478260869565216 0.043478260869565216 0.043478260869565216 0.043478260869565216 0.043478260869565216 0.391304347826087 0.30434782608695654 0.1111111111111111 0.1111111111111111 0.1111111111111111 0.1111111111111111 0.1111111111111111 0.1111111111111111 0.1111111111111111 0.1111111111111111 0.1111111111111111 0.1111111111111111 0.1111111111111111 0.1111111111111111 0.1111111111111111 0.1111111111111111 0.1111111111111111 0.1111111111111111 0.1111111111111111 0.1111111111111111 0.1111111111111111 0.1111111111111111 0.1111111111111111 0.1111111111111111 0.1111111111111111 0.1111111111111111 0.1111111111111111 0.1111111111111111 0.1111111111111111 0.1111111111111111 0.1111111111111111 0.1111111111111111 0.1111111111111111 0.1111111111111111 0.1111111111111111 0.1111111111111111 0.1111111111111111 0.1111111111111111 0.1111111111111111 0.1111111111111111 0.1111111111111111 0.1111111111111111 0.1111111111111111 0.1111111111111111 0.1111111111111111 0.1111111111111111 0.1111111111111111 0.1111111111111111 0.1111111111111111 0.1111111111111111 0.1111111111111111 0.1111111111111111 0.1111111111111111 0.1111111111111111 0.1111111111111111 0.1111111111111111 0.1111111111111111 0.1111111111111111 0.1111111111111111 0.1111111111111111 0.1111111111111111 0.1111111111111111 0.1111111111111111 0.1111111111111111 0.1111111111111111 0.4666666666666667 0.06666666666666667 0.06666666666666667 0.06666666666666667 0.06666666666666667 0.06666666666666667 0.06666666666666667 0.06666666666666667 0.06666666666666667 0.36 0.2 0.2 0.04 0.04 0.04 0.04 0.04 0.04 0.17391304347826086 0.391304347826087 0.17391304347826086 0.043478260869565216 0.043478260869565216 0.043478260869565216 0.043478260869565216 0.043478260869565216 0.043478260869565216 0.18181818181818182 0.3181818181818182 0.22727272727272727 0.045454545454545456 0.045454545454545456 0.045454545454545456 0.045454545454545456 0.045454545454545456 0.045454545454545456 0.2857142857142857 0.2857142857142857 0.21428571428571427 0.03571428571428571 0.03571428571428571 0.03571428571428571 0.03571428571428571 0.03571428571428571 0.03571428571428571 0.225 0.225 0.15 0.275 0.025 0.025 0.025 0.025 0.025 0.1794871794871795 0.23076923076923078 0.1282051282051282 0.20512820512820512 0.15384615384615385 0.02564102564102564 0.02564102564102564 0.02564102564102564 0.02564102564102564 0.1111111111111111 0.1111111111111111 0.1111111111111111 0.1111111111111111 0.1111111111111111 0.1111111111111111 0.1111111111111111 0.1111111111111111 0.1111111111111111 0.3333333333333333 0.2777777777777778 0.05555555555555555 0.05555555555555555 0.05555555555555555 0.05555555555555555 0.05555555555555555 0.05555555555555555 0.05555555555555555 0.047619047619047616 0.23809523809523808 0.42857142857142855 0.047619047619047616 0.047619047619047616 0.047619047619047616 0.047619047619047616 0.047619047619047616 0.047619047619047616 0.1111111111111111 0.1111111111111111 0.1111111111111111 0.1111111111111111 0.1111111111111111 0.1111111111111111 0.1111111111111111 0.1111111111111111 0.1111111111111111 0.07142857142857142 0.07142857142857142 0.07142857142857142 0.42857142857142855 0.07142857142857142 0.07142857142857142 0.07142857142857142 0.07142857142857142 0.07142857142857142 0.043478260869565216 0.043478260869565216 0.043478260869565216 0.17391304347826086 0.2608695652173913 0.30434782608695654 0.043478260869565216 0.043478260869565216 0.043478260869565216 0.05263157894736842 0.05263157894736842 0.05263157894736842 0.3157894736842105 0.21052631578947367 0.15789473684210525 0.05263157894736842 0.05263157894736842 0.05263157894736842 0.027777777777777776 0.027777777777777776 0.027777777777777776 0.027777777777777776 0.2777777777777778 0.1388888888888889 0.19444444444444445 0.25 0.027777777777777776 0.02631578947368421 0.02631578947368421 0.02631578947368421 0.02631578947368421 0.02631578947368421 0.13157894736842105 0.15789473684210525 0.2631578947368421 0.3157894736842105 0.38461538461538464 0.07692307692307693 0.07692307692307693 0.07692307692307693 0.07692307692307693 0.07692307692307693 0.07692307692307693 0.07692307692307693 0.07692307692307693 0.07692307692307693 0.07692307692307693 0.38461538461538464 0.07692307692307693 0.07692307692307693 0.07692307692307693 0.07692307692307693 0.07692307692307693 0.07692307692307693 0.05555555555555555 0.05555555555555555 0.05555555555555555 0.2222222222222222 0.3888888888888889 0.05555555555555555 0.05555555555555555 0.05555555555555555 0.05555555555555555 0.030303030303030304 0.030303030303030304 0.030303030303030304 0.3333333333333333 0.18181818181818182 0.15151515151515152 0.18181818181818182 0.030303030303030304 0.030303030303030304 0.027777777777777776 0.027777777777777776 0.027777777777777776 0.027777777777777776 0.3333333333333333 0.16666666666666666 0.19444444444444445 0.1388888888888889 0.05555555555555555 0.038461538461538464 0.038461538461538464 0.038461538461538464 0.038461538461538464 0.038461538461538464 0.038461538461538464 0.2692307692307692 0.15384615384615385 0.34615384615384615 0.037037037037037035 0.037037037037037035 0.037037037037037035 0.037037037037037035 0.037037037037037035 0.037037037037037035 0.25925925925925924 0.2962962962962963 0.2222222222222222 0.05263157894736842 0.05263157894736842 0.05263157894736842 0.05263157894736842 0.05263157894736842 0.05263157894736842 0.05263157894736842 0.05263157894736842 0.5789473684210527 0.1111111111111111 0.1111111111111111 0.1111111111111111 0.1111111111111111 0.1111111111111111 0.1111111111111111 0.1111111111111111 0.1111111111111111 0.1111111111111111 0.014285714285714285 0.1 0.12857142857142856 0.12857142857142856 0.1 0.17142857142857143 0.1 0.1 0.15714285714285714 0.018518518518518517 0.018518518518518517 0.018518518518518517 0.09259259259259259 0.1111111111111111 0.18518518518518517 0.14814814814814814 0.24074074074074073 0.16666666666666666 0.041666666666666664 0.041666666666666664 0.041666666666666664 0.041666666666666664 0.041666666666666664 0.08333333333333333 0.20833333333333334 0.2916666666666667 0.20833333333333334 0.04 0.04 0.04 0.04 0.04 0.04 0.04 0.48 0.24 0.1111111111111111 0.1111111111111111 0.1111111111111111 0.1111111111111111 0.1111111111111111 0.1111111111111111 0.1111111111111111 0.1111111111111111 0.1111111111111111 0.1111111111111111 0.1111111111111111 0.1111111111111111 0.1111111111111111 0.1111111111111111 0.1111111111111111 0.1111111111111111 0.1111111111111111 0.1111111111111111 0.1111111111111111 0.1111111111111111 0.1111111111111111 0.1111111111111111 0.1111111111111111 0.1111111111111111 0.1111111111111111 0.1111111111111111 0.1111111111111111 0.1111111111111111 0.1111111111111111 0.1111111111111111 0.1111111111111111 0.1111111111111111 0.1111111111111111 0.1111111111111111 0.1111111111111111 0.1111111111111111 0.1111111111111111 0.1111111111111111 0.1111111111111111 0.1111111111111111 0.1111111111111111 0.1111111111111111 0.1111111111111111 0.1111111111111111 0.1111111111111111 0.1111111111111111 0.1111111111111111 0.1111111111111111 0.1111111111111111 0.1111111111111111 0.1111111111111111 0.1111111111111111 0.1111111111111111 0.1111111111111111 0.1111111111111111 0.1111111111111111 0.1111111111111111 0.1111111111111111 0.1111111111111111 0.1111111111111111 0.1111111111111111 0.1111111111111111 0.1111111111111111 0.5789473684210527 0.05263157894736842 0.05263157894736842 0.05263157894736842 0.05263157894736842 0.05263157894736842 0.05263157894736842 0.05263157894736842 0.05263157894736842 0.18518518518518517 0.2962962962962963 0.2962962962962963 0.037037037037037035 0.037037037037037035 0.037037037037037035 0.037037037037037035 0.037037037037037035 0.037037037037037035 0.2857142857142857 0.3142857142857143 0.22857142857142856 0.02857142857142857 0.02857142857142857 0.02857142857142857 0.02857142857142857 0.02857142857142857 0.02857142857142857 0.20588235294117646 0.35294117647058826 0.2647058823529412 0.029411764705882353 0.029411764705882353 0.029411764705882353 0.029411764705882353 0.029411764705882353 0.029411764705882353 0.3157894736842105 0.10526315789473684 0.2631578947368421 0.05263157894736842 0.05263157894736842 0.05263157894736842 0.05263157894736842 0.05263157894736842 0.05263157894736842 0.2413793103448276 0.20689655172413793 0.2413793103448276 0.13793103448275862 0.034482758620689655 0.034482758620689655 0.034482758620689655 0.034482758620689655 0.034482758620689655 0.17142857142857143 0.2 0.11428571428571428 0.2 0.2 0.02857142857142857 0.02857142857142857 0.02857142857142857 0.02857142857142857 0.1111111111111111 0.1111111111111111 0.1111111111111111 0.1111111111111111 0.1111111111111111 0.1111111111111111 0.1111111111111111 0.1111111111111111 0.1111111111111111 0.3125 0.25 0.0625 0.0625 0.0625 0.0625 0.0625 0.0625 0.0625 0.047619047619047616 0.2857142857142857 0.38095238095238093 0.047619047619047616 0.047619047619047616 0.047619047619047616 0.047619047619047616 0.047619047619047616 0.047619047619047616 0.1111111111111111 0.1111111111111111 0.1111111111111111 0.1111111111111111 0.1111111111111111 0.1111111111111111 0.1111111111111111 0.1111111111111111 0.1111111111111111 0.1 0.1 0.1 0.2 0.1 0.1 0.1 0.1 0.1 0.047619047619047616 0.047619047619047616 0.047619047619047616 0.2857142857142857 0.23809523809523808 0.19047619047619047 0.047619047619047616 0.047619047619047616 0.047619047619047616 0.03333333333333333 0.03333333333333333 0.03333333333333333 0.23333333333333334 0.2 0.36666666666666664 0.03333333333333333 0.03333333333333333 0.03333333333333333 0.03225806451612903 0.03225806451612903 0.03225806451612903 0.03225806451612903 0.25806451612903225 0.0967741935483871 0.1935483870967742 0.2903225806451613 0.03225806451612903 0.029411764705882353 0.029411764705882353 0.029411764705882353 0.029411764705882353 0.029411764705882353 0.20588235294117646 0.23529411764705882 0.23529411764705882 0.17647058823529413 0.6 0.05 0.05 0.05 0.05 0.05 0.05 0.05 0.05 0.05555555555555555 0.05555555555555555 0.5555555555555556 0.05555555555555555 0.05555555555555555 0.05555555555555555 0.05555555555555555 0.05555555555555555 0.05555555555555555 0.0625 0.0625 0.0625 0.375 0.1875 0.0625 0.0625 0.0625 0.0625 0.034482758620689655 0.034482758620689655 0.034482758620689655 0.27586206896551724 0.10344827586206896 0.27586206896551724 0.1724137931034483 0.034482758620689655 0.034482758620689655 0.02702702702702703 0.02702702702702703 0.02702702702702703 0.02702702702702703 0.16216216216216217 0.21621621621621623 0.13513513513513514 0.24324324324324326 0.13513513513513514 0.043478260869565216 0.043478260869565216 0.043478260869565216 0.043478260869565216 0.043478260869565216 0.043478260869565216 0.21739130434782608 0.2608695652173913 0.2608695652173913 0.038461538461538464 0.038461538461538464 0.038461538461538464 0.038461538461538464 0.038461538461538464 0.038461538461538464 0.34615384615384615 0.23076923076923078 0.19230769230769232 0.07692307692307693 0.07692307692307693 0.07692307692307693 0.07692307692307693 0.07692307692307693 0.07692307692307693 0.07692307692307693 0.07692307692307693 0.38461538461538464 0.1111111111111111 0.1111111111111111 0.1111111111111111 0.1111111111111111 0.1111111111111111 0.1111111111111111 0.1111111111111111 0.1111111111111111 0.1111111111111111 0.01818181818181818 0.10909090909090909 0.12727272727272726 0.09090909090909091 0.07272727272727272 0.10909090909090909 0.12727272727272726 0.2 0.14545454545454545 0.020833333333333332 0.020833333333333332 0.020833333333333332 0.1875 0.125 0.22916666666666666 0.14583333333333334 0.125 0.125 0.03225806451612903 0.03225806451612903 0.03225806451612903 0.03225806451612903 0.03225806451612903 0.22580645161290322 0.22580645161290322 0.16129032258064516 0.22580645161290322 0.04 0.04 0.04 0.04 0.04 0.04 0.04 0.28 0.44 0.1111111111111111 0.1111111111111111 0.1111111111111111 0.1111111111111111 0.1111111111111111 0.1111111111111111 0.1111111111111111 0.1111111111111111 0.1111111111111111 0.1111111111111111 0.1111111111111111 0.1111111111111111 0.1111111111111111 0.1111111111111111 0.1111111111111111 0.1111111111111111 0.1111111111111111 0.1111111111111111 0.1111111111111111 0.1111111111111111 0.1111111111111111 0.1111111111111111 0.1111111111111111 0.1111111111111111 0.1111111111111111 0.1111111111111111 0.1111111111111111 0.1111111111111111 0.1111111111111111 0.1111111111111111 0.1111111111111111 0.1111111111111111 0.1111111111111111 0.1111111111111111 0.1111111111111111 0.1111111111111111 0.1111111111111111 0.1111111111111111 0.1111111111111111 0.1111111111111111 0.1111111111111111 0.1111111111111111 0.1111111111111111 0.1111111111111111 0.1111111111111111 0.1111111111111111 0.1111111111111111 0.1111111111111111 0.1111111111111111 0.1111111111111111 0.1111111111111111 0.1111111111111111 0.1111111111111111 0.1111111111111111 0.1111111111111111 0.1111111111111111 0.1111111111111111 0.1111111111111111 0.1111111111111111 0.1111111111111111 0.1111111111111111 0.1111111111111111 0.1111111111111111 0.5 0.0625 0.0625 0.0625 0.0625 0.0625 0.0625 0.0625 0.0625 0.35714285714285715 0.21428571428571427 0.21428571428571427 0.03571428571428571 0.03571428571428571 0.03571428571428571 0.03571428571428571 0.03571428571428571 0.03571428571428571 0.2647058823529412 0.29411764705882354 0.2647058823529412 0.029411764705882353 0.029411764705882353 0.029411764705882353 0.029411764705882353 0.029411764705882353 0.029411764705882353 0.2 0.32 0.24 0.04 0.04 0.04 0.04 0.04 0.04 0.09375 0.3125 0.40625 0.03125 0.03125 0.03125 0.03125 0.03125 0.03125 0.35294117647058826 0.14705882352941177 0.14705882352941177 0.20588235294117646 0.029411764705882353 0.029411764705882353 0.029411764705882353 0.029411764705882353 0.029411764705882353 0.06818181818181818 0.22727272727272727 0.18181818181818182 0.25 0.18181818181818182 0.022727272727272728 0.022727272727272728 0.022727272727272728 0.022727272727272728 0.1111111111111111 0.1111111111111111 0.1111111111111111 0.1111111111111111 0.1111111111111111 0.1111111111111111 0.1111111111111111 0.1111111111111111 0.1111111111111111 0.3870967741935484 0.3870967741935484 0.03225806451612903 0.03225806451612903 0.03225806451612903 0.03225806451612903 0.03225806451612903 0.03225806451612903 0.03225806451612903 0.05263157894736842 0.3157894736842105 0.3157894736842105 0.05263157894736842 0.05263157894736842 0.05263157894736842 0.05263157894736842 0.05263157894736842 0.05263157894736842 0.1111111111111111 0.1111111111111111 0.1111111111111111 0.1111111111111111 0.1111111111111111 0.1111111111111111 0.1111111111111111 0.1111111111111111 0.1111111111111111 0.06666666666666667 0.06666666666666667 0.06666666666666667 0.4666666666666667 0.06666666666666667 0.06666666666666667 0.06666666666666667 0.06666666666666667 0.06666666666666667 0.03571428571428571 0.03571428571428571 0.03571428571428571 0.39285714285714285 0.25 0.14285714285714285 0.03571428571428571 0.03571428571428571 0.03571428571428571 0.034482758620689655 0.034482758620689655 0.034482758620689655 0.3103448275862069 0.3103448275862069 0.1724137931034483 0.034482758620689655 0.034482758620689655 0.034482758620689655 0.02702702702702703 0.02702702702702703 0.02702702702702703 0.02702702702702703 0.21621621621621623 0.1891891891891892 0.2972972972972973 0.16216216216216217 0.02702702702702703 0.02857142857142857 0.02857142857142857 0.02857142857142857 0.02857142857142857 0.02857142857142857 0.2 0.2857142857142857 0.14285714285714285 0.22857142857142856 0.42857142857142855 0.07142857142857142 0.07142857142857142 0.07142857142857142 0.07142857142857142 0.07142857142857142 0.07142857142857142 0.07142857142857142 0.07142857142857142 0.05263157894736842 0.05263157894736842 0.5789473684210527 0.05263157894736842 0.05263157894736842 0.05263157894736842 0.05263157894736842 0.05263157894736842 0.05263157894736842 0.05 0.05 0.05 0.3 0.35 0.05 0.05 0.05 0.05 0.025 0.025 0.025 0.15 0.225 0.275 0.225 0.025 0.025 0.02127659574468085 0.02127659574468085 0.02127659574468085 0.02127659574468085 0.19148936170212766 0.19148936170212766 0.2765957446808511 0.14893617021276595 0.10638297872340426 0.030303030303030304 0.030303030303030304 0.030303030303030304 0.030303030303030304 0.030303030303030304 0.030303030303030304 0.30303030303030304 0.21212121212121213 0.30303030303030304 0.02857142857142857 0.02857142857142857 0.02857142857142857 0.02857142857142857 0.02857142857142857 0.02857142857142857 0.17142857142857143 0.2857142857142857 0.37142857142857144 0.05555555555555555 0.05555555555555555 0.05555555555555555 0.05555555555555555 0.05555555555555555 0.05555555555555555 0.05555555555555555 0.05555555555555555 0.5555555555555556 0.1111111111111111 0.1111111111111111 0.1111111111111111 0.1111111111111111 0.1111111111111111 0.1111111111111111 0.1111111111111111 0.1111111111111111 0.1111111111111111 0.016129032258064516 0.0967741935483871 0.04838709677419355 0.1935483870967742 0.12903225806451613 0.16129032258064516 0.11290322580645161 0.12903225806451613 0.11290322580645161 0.025 0.025 0.025 0.15 0.125 0.05 0.15 0.25 0.2 0.030303030303030304 0.030303030303030304 0.030303030303030304 0.030303030303030304 0.030303030303030304 0.21212121212121213 0.21212121212121213 0.18181818181818182 0.24242424242424243 0.038461538461538464 0.038461538461538464 0.038461538461538464 0.038461538461538464 0.038461538461538464 0.038461538461538464 0.038461538461538464 0.4230769230769231 0.3076923076923077 0.1111111111111111 0.1111111111111111 0.1111111111111111 0.1111111111111111 0.1111111111111111 0.1111111111111111 0.1111111111111111 0.1111111111111111 0.1111111111111111 0.1111111111111111 0.1111111111111111 0.1111111111111111 0.1111111111111111 0.1111111111111111 0.1111111111111111 0.1111111111111111 0.1111111111111111 0.1111111111111111 0.1111111111111111 0.1111111111111111 0.1111111111111111 0.1111111111111111 0.1111111111111111 0.1111111111111111 0.1111111111111111 0.1111111111111111 0.1111111111111111 0.1111111111111111 0.1111111111111111 0.1111111111111111 0.1111111111111111 0.1111111111111111 0.1111111111111111 0.1111111111111111 0.1111111111111111 0.1111111111111111 0.1111111111111111 0.1111111111111111 0.1111111111111111 0.1111111111111111 0.1111111111111111 0.1111111111111111 0.1111111111111111 0.1111111111111111 0.1111111111111111 0.1111111111111111 0.1111111111111111 0.1111111111111111 0.1111111111111111 0.1111111111111111 0.1111111111111111 0.1111111111111111 0.1111111111111111 0.1111111111111111 0.1111111111111111 0.1111111111111111 0.1111111111111111 0.1111111111111111 0.1111111111111111 0.1111111111111111 0.1111111111111111 0.1111111111111111 0.1111111111111111 0.5789473684210527 0.05263157894736842 0.05263157894736842 0.05263157894736842 0.05263157894736842 0.05263157894736842 0.05263157894736842 0.05263157894736842 0.05263157894736842 0.21875 0.28125 0.3125 0.03125 0.03125 0.03125 0.03125 0.03125 0.03125 0.2 0.28 0.28 0.04 0.04 0.04 0.04 0.04 0.04 0.41379310344827586 0.1724137931034483 0.20689655172413793 0.034482758620689655 0.034482758620689655 0.034482758620689655 0.034482758620689655 0.034482758620689655 0.034482758620689655 0.34615384615384615 0.23076923076923078 0.19230769230769232 0.038461538461538464 0.038461538461538464 0.038461538461538464 0.038461538461538464 0.038461538461538464 0.038461538461538464 0.24242424242424243 0.2727272727272727 0.15151515151515152 0.18181818181818182 0.030303030303030304 0.030303030303030304 0.030303030303030304 0.030303030303030304 0.030303030303030304 0.2631578947368421 0.15789473684210525 0.13157894736842105 0.18421052631578946 0.15789473684210525 0.02631578947368421 0.02631578947368421 0.02631578947368421 0.02631578947368421 0.1111111111111111 0.1111111111111111 0.1111111111111111 0.1111111111111111 0.1111111111111111 0.1111111111111111 0.1111111111111111 0.1111111111111111 0.1111111111111111 0.42105263157894735 0.21052631578947367 0.05263157894736842 0.05263157894736842 0.05263157894736842 0.05263157894736842 0.05263157894736842 0.05263157894736842 0.05263157894736842 0.07142857142857142 0.14285714285714285 0.35714285714285715 0.07142857142857142 0.07142857142857142 0.07142857142857142 0.07142857142857142 0.07142857142857142 0.07142857142857142 0.1111111111111111 0.1111111111111111 0.1111111111111111 0.1111111111111111 0.1111111111111111 0.1111111111111111 0.1111111111111111 0.1111111111111111 0.1111111111111111 0.0625 0.0625 0.0625 0.5 0.0625 0.0625 0.0625 0.0625 0.0625 0.038461538461538464 0.038461538461538464 0.038461538461538464 0.4230769230769231 0.15384615384615385 0.19230769230769232 0.038461538461538464 0.038461538461538464 0.038461538461538464 0.03571428571428571 0.03571428571428571 0.03571428571428571 0.17857142857142858 0.17857142857142858 0.42857142857142855 0.03571428571428571 0.03571428571428571 0.03571428571428571 0.02702702702702703 0.02702702702702703 0.02702702702702703 0.02702702702702703 0.24324324324324326 0.24324324324324326 0.1891891891891892 0.1891891891891892 0.02702702702702703 0.023809523809523808 0.023809523809523808 0.023809523809523808 0.023809523809523808 0.023809523809523808 0.21428571428571427 0.2619047619047619 0.14285714285714285 0.2619047619047619 0.6666666666666666 0.041666666666666664 0.041666666666666664 0.041666666666666664 0.041666666666666664 0.041666666666666664 0.041666666666666664 0.041666666666666664 0.041666666666666664 0.058823529411764705 0.058823529411764705 0.5294117647058824 0.058823529411764705 0.058823529411764705 0.058823529411764705 0.058823529411764705 0.058823529411764705 0.058823529411764705 0.05263157894736842 0.05263157894736842 0.05263157894736842 0.3157894736842105 0.3157894736842105 0.05263157894736842 0.05263157894736842 0.05263157894736842 0.05263157894736842 0.027777777777777776 0.027777777777777776 0.027777777777777776 0.3055555555555556 0.2222222222222222 0.25 0.08333333333333333 0.027777777777777776 0.027777777777777776 0.03333333333333333 0.03333333333333333 0.03333333333333333 0.03333333333333333 0.3 0.1 0.16666666666666666 0.13333333333333333 0.16666666666666666 0.047619047619047616 0.047619047619047616 0.047619047619047616 0.047619047619047616 0.047619047619047616 0.047619047619047616 0.14285714285714285 0.19047619047619047 0.38095238095238093 0.03225806451612903 0.03225806451612903 0.03225806451612903 0.03225806451612903 0.03225806451612903 0.03225806451612903 0.3225806451612903 0.25806451612903225 0.22580645161290322 0.0625 0.0625 0.0625 0.0625 0.0625 0.0625 0.0625 0.0625 0.5 0.1111111111111111 0.1111111111111111 0.1111111111111111 0.1111111111111111 0.1111111111111111 0.1111111111111111 0.1111111111111111 0.1111111111111111 0.1111111111111111 0.02127659574468085 0.10638297872340426 0.1702127659574468 0.1276595744680851 0.10638297872340426 0.14893617021276595 0.10638297872340426 0.10638297872340426 0.10638297872340426 0.020833333333333332 0.020833333333333332 0.020833333333333332 0.2708333333333333 0.08333333333333333 0.16666666666666666 0.125 0.10416666666666667 0.1875 0.041666666666666664 0.041666666666666664 0.041666666666666664 0.041666666666666664 0.041666666666666664 0.125 0.20833333333333334 0.2916666666666667 0.16666666666666666 0.03571428571428571 0.03571428571428571 0.03571428571428571 0.03571428571428571 0.03571428571428571 0.03571428571428571 0.03571428571428571 0.21428571428571427 0.5357142857142857 0.1111111111111111 0.1111111111111111 0.1111111111111111 0.1111111111111111 0.1111111111111111 0.1111111111111111 0.1111111111111111 0.1111111111111111 0.1111111111111111 0.1111111111111111 0.1111111111111111 0.1111111111111111 0.1111111111111111 0.1111111111111111 0.1111111111111111 0.1111111111111111 0.1111111111111111 0.1111111111111111 0.1111111111111111 0.1111111111111111 0.1111111111111111 0.1111111111111111 0.1111111111111111 0.1111111111111111 0.1111111111111111 0.1111111111111111 0.1111111111111111 0.1111111111111111 0.1111111111111111 0.1111111111111111 0.1111111111111111 0.1111111111111111 0.1111111111111111 0.1111111111111111 0.1111111111111111 0.1111111111111111 0.1111111111111111 0.1111111111111111 0.1111111111111111 0.1111111111111111 0.1111111111111111 0.1111111111111111 0.1111111111111111 0.1111111111111111 0.1111111111111111 0.1111111111111111 0.1111111111111111 0.1111111111111111 0.1111111111111111 0.1111111111111111 0.1111111111111111 0.1111111111111111 0.1111111111111111 0.1111111111111111 0.1111111111111111 0.1111111111111111 0.1111111111111111 0.1111111111111111 0.1111111111111111 0.1111111111111111 0.1111111111111111 0.1111111111111111 0.1111111111111111 0.42857142857142855 0.07142857142857142 0.07142857142857142 0.07142857142857142 0.07142857142857142 0.07142857142857142 0.07142857142857142 0.07142857142857142 0.07142857142857142 0.23076923076923078 0.2692307692307692 0.2692307692307692 0.038461538461538464 0.038461538461538464 0.038461538461538464 0.038461538461538464 0.038461538461538464 0.038461538461538464 0.23809523809523808 0.14285714285714285 0.3333333333333333 0.047619047619047616 0.047619047619047616 0.047619047619047616 0.047619047619047616 0.047619047619047616 0.047619047619047616 0.17647058823529413 0.3235294117647059 0.3235294117647059 0.029411764705882353 0.029411764705882353 0.029411764705882353 0.029411764705882353 0.029411764705882353 0.029411764705882353 0.3103448275862069 0.2413793103448276 0.2413793103448276 0.034482758620689655 0.034482758620689655 0.034482758620689655 0.034482758620689655 0.034482758620689655 0.034482758620689655 0.17142857142857143 0.17142857142857143 0.3142857142857143 0.2 0.02857142857142857 0.02857142857142857 0.02857142857142857 0.02857142857142857 0.02857142857142857 0.21951219512195122 0.14634146341463414 0.2682926829268293 0.14634146341463414 0.12195121951219512 0.024390243902439025 0.024390243902439025 0.024390243902439025 0.024390243902439025 0.1111111111111111 0.1111111111111111 0.1111111111111111 0.1111111111111111 0.1111111111111111 0.1111111111111111 0.1111111111111111 0.1111111111111111 0.1111111111111111 0.2727272727272727 0.4090909090909091 0.045454545454545456 0.045454545454545456 0.045454545454545456 0.045454545454545456 0.045454545454545456 0.045454545454545456 0.045454545454545456 0.05555555555555555 0.2777777777777778 0.3333333333333333 0.05555555555555555 0.05555555555555555 0.05555555555555555 0.05555555555555555 0.05555555555555555 0.05555555555555555 0.1111111111111111 0.1111111111111111 0.1111111111111111 0.1111111111111111 0.1111111111111111 0.1111111111111111 0.1111111111111111 0.1111111111111111 0.1111111111111111 0.0625 0.0625 0.0625 0.5 0.0625 0.0625 0.0625 0.0625 0.0625 0.04 0.04 0.04 0.28 0.24 0.24 0.04 0.04 0.04 0.037037037037037035 0.037037037037037035 0.037037037037037035 0.14814814814814814 0.25925925925925924 0.37037037037037035 0.037037037037037035 0.037037037037037035 0.037037037037037035 0.03225806451612903 0.03225806451612903 0.03225806451612903 0.03225806451612903 0.22580645161290322 0.1935483870967742 0.22580645161290322 0.1935483870967742 0.03225806451612903 0.04 0.04 0.04 0.04 0.04 0.24 0.16 0.2 0.2 0.2 0.1 0.1 0.1 0.1 0.1 0.1 0.1 0.1 0.0625 0.0625 0.5 0.0625 0.0625 0.0625 0.0625 0.0625 0.0625 0.05 0.05 0.05 0.25 0.4 0.05 0.05 0.05 0.05 0.034482758620689655 0.034482758620689655 0.034482758620689655 0.20689655172413793 0.20689655172413793 0.1724137931034483 0.2413793103448276 0.034482758620689655 0.034482758620689655 0.02857142857142857 0.02857142857142857 0.02857142857142857 0.02857142857142857 0.2571428571428571 0.14285714285714285 0.11428571428571428 0.14285714285714285 0.22857142857142856 0.038461538461538464 0.038461538461538464 0.038461538461538464 0.038461538461538464 0.038461538461538464 0.038461538461538464 0.3076923076923077 0.2692307692307692 0.19230769230769232 0.034482758620689655 0.034482758620689655 0.034482758620689655 0.034482758620689655 0.034482758620689655 0.034482758620689655 0.4827586206896552 0.13793103448275862 0.1724137931034483 0.05555555555555555 0.05555555555555555 0.05555555555555555 0.05555555555555555 0.05555555555555555 0.05555555555555555 0.05555555555555555 0.05555555555555555 0.5555555555555556 0.1111111111111111 0.1111111111111111 0.1111111111111111 0.1111111111111111 0.1111111111111111 0.1111111111111111 0.1111111111111111 0.1111111111111111 0.1111111111111111 0.018518518518518517 0.16666666666666666 0.2222222222222222 0.12962962962962962 0.1111111111111111 0.14814814814814814 0.07407407407407407 0.05555555555555555 0.07407407407407407 0.022727272727272728 0.022727272727272728 0.022727272727272728 0.20454545454545456 0.18181818181818182 0.09090909090909091 0.25 0.13636363636363635 0.06818181818181818 0.02564102564102564 0.02564102564102564 0.02564102564102564 0.02564102564102564 0.02564102564102564 0.1282051282051282 0.41025641025641024 0.23076923076923078 0.10256410256410256 0.047619047619047616 0.047619047619047616 0.047619047619047616 0.047619047619047616 0.047619047619047616 0.047619047619047616 0.047619047619047616 0.23809523809523808 0.42857142857142855 0.1111111111111111 0.1111111111111111 0.1111111111111111 0.1111111111111111 0.1111111111111111 0.1111111111111111 0.1111111111111111 0.1111111111111111 0.1111111111111111 0.1111111111111111 0.1111111111111111 0.1111111111111111 0.1111111111111111 0.1111111111111111 0.1111111111111111 0.1111111111111111 0.1111111111111111 0.1111111111111111 0.1111111111111111 0.1111111111111111 0.1111111111111111 0.1111111111111111 0.1111111111111111 0.1111111111111111 0.1111111111111111 0.1111111111111111 0.1111111111111111 0.1111111111111111 0.1111111111111111 0.1111111111111111 0.1111111111111111 0.1111111111111111 0.1111111111111111 0.1111111111111111 0.1111111111111111 0.1111111111111111 0.1111111111111111 0.1111111111111111 0.1111111111111111 0.1111111111111111 0.1111111111111111 0.1111111111111111 0.1111111111111111 0.1111111111111111 0.1111111111111111 0.1111111111111111 0.1111111111111111 0.1111111111111111 0.1111111111111111 0.1111111111111111 0.1111111111111111 0.1111111111111111 0.1111111111111111 0.1111111111111111 0.1111111111111111 0.1111111111111111 0.1111111111111111 0.1111111111111111 0.1111111111111111 0.1111111111111111 0.1111111111111111 0.1111111111111111 0.1111111111111111 0.5555555555555556 0.05555555555555555 